-5.035595960741562349e-01 2.452208355645745796e-01 5.970617130732338573e-01 -2.402632705087920595e+00 1.101151088096332942e-01 7.954527120351377878e-01 -2.109653591298314090e+00 -5.111240610851733202e+00 -9.910865399863312275e-01 -1.258133599864156571e-01 -9.149221247702485904e-01 -7.981025862263685378e-01 1.256503158389781979e-02 -2.372162381617643478e-01 1.486744215167079330e+00 -6.727888676594285799e-01 4.889662564505416892e-02 -3.360002626537863524e-01 -5.714069913989235916e-01 5.832403367551447504e-01 -3.394824966684779621e-01 -3.418968725472293912e-01 4.210644322249899874e-02 9.228755317802289637e-01 -5.203965415342042267e-01 -2.204243691479583767e+00 -1.277852765820773007e+00 -1.457491313708637382e+00 -1.317612722899406341e+00 -1.785122513786477905e-01 -9.994291302373971009e-01 -9.806923149555971109e-02 -1.702229706729078584e+00 -9.861849618738723067e-02 2.825539623816872847e-01 -1.262943632006950700e+00 7.324303359402216662e-01 2.728953447402895915e-02 -2.621867328515695150e-01 -9.834529457091485682e-02 -6.921729515025755175e-01 -1.713819974133679591e-01 -8.013887160607052751e-01 -1.540091391148051159e+00 -6.893158160279794222e-01 -6.278011708506358035e-01 6.892321857637837001e-02 -7.994728595321369813e-01 1.132864427796025086e-01 -1.958843384366414642e-01 -2.196925478375041596e+00 -1.103716108340648816e+00 1.687376040390905052e+00 -1.913482849960984888e-01 4.556551766115720659e-01 -1.061156761111738817e-01 -4.353233679129577260e-01 3.471963468589231994e-01 2.229436024860196319e-01 -7.309991449389650064e-01 -1.509632154702077900e+00 -1.720552748235345264e-01 3.213785391254416202e-01 -2.079525339202519252e+00 -2.256642124184179976e-01 -8.305875575548442302e-02 -1.286507922985489438e+00 4.803573701171045401e-02 -2.578635412861918774e-01 -5.399881367264758314e-01 -2.025515440106805953e-01 -9.889128629580550278e-01 -7.111673283255053324e-01 -1.924683445087470357e+00 6.387430553099282537e-01 -7.396397025206289388e-01 -4.265474972996052827e-02 -8.043906560659928873e-02 8.130655942988198603e-01 -1.104155292894857948e-01 3.987009758076975330e-01 8.250064476294086679e-01 2.793515949037391533e+00 -1.422815337836629723e+00 -9.308218556594466397e-01 -1.951446715986033364e+00 -1.088987258214955567e+00 -1.660515981177814515e+00 5.411280833684727759e-02 -1.663254711096336380e-01 -1.391122281637619806e-01 -1.502231259705904820e-01 2.012356043948667850e+00 5.454984004423788641e-02 -2.831471549710373736e-01 6.431202393022121544e-02 -2.007258961080009119e+00 -4.491042635151035745e-01 2.397442167163730542e-01 -2.063750531225485574e+00 -7.728601709199700576e-01
-3.067945406997475977e-01 4.653229350499420991e-01 3.048636147070761471e+00 -2.139086228737019368e+00 1.449697911772827585e-01 2.323877114732770810e-01 -3.512481748970723294e-01 1.501605866944838164e-01 -7.099011660865668649e-02 3.611238773304476513e-01 -1.813301194810494898e+00 -7.594211651834277266e-01 3.539429646331037072e-01 -3.027755056848698834e-01 1.047680249961403076e+00 -3.112816737819311674e-01 1.537802949048582835e-01 -7.302751556221325213e-01 -1.862864127370369438e-01 1.465665328499055065e-01 -4.420873444407141112e-02 -2.111629999482545372e+00 -3.397284039330861760e-01 -2.193258367232434614e-01 -3.932986288204136371e-02 -1.842035627054393165e+00 -1.030022768777750786e+00 -1.644967364053336434e+00 5.298991918161106263e+00 -7.992703643534064539e-02 -8.969115188232821279e-01 -4.592760568894136419e-01 -2.071500912567263875e+00 1.298491503143275050e-01 5.197152709236607659e-01 -1.117977752873873021e+00 -4.563101049951360788e-01 -3.826299422458674937e-01 -2.059984240962430546e-01 -5.125306103783676681e-01 -8.173892113048194519e-01 -1.229654473642927265e-01 -1.166472690489952502e+00 -8.445560666854197429e-02 -6.170846626472652474e-01 -5.417110197981622743e-01 2.089185465711671519e-01 9.309947845400650124e-01 -1.526195882348832189e+00 -1.616732492423073042e+00 -1.815091299371130340e+00 -1.273325638168050222e+00 1.129089869361486143e+00 5.861941988510275259e-01 2.587105994436247891e-01 -1.214980229642997234e+00 -5.761368005069950060e-01 1.427458017061735140e-01 3.826019778877677857e-01 -1.518175294197074310e+00 -1.717385887813543732e+00 -1.716603362549645073e+00 -1.641617868730935459e-01 -1.613061344928433227e+00 -3.204309651860132169e-01 -2.719387473655832665e-01 -1.464785259069776968e+00 1.170814618748068914e-01 -1.123831894398661158e+00 -3.841401488582036339e-01 -6.351996653977418639e-01 -9.493358325024796596e-01 -7.133892711751809168e-01 -1.182938070711483602e+00 1.313130898980690020e-01 -3.312844412705480135e-01 -1.557824898059091412e-01 -3.777710218625897620e-01 -9.380652591623371839e-01 -9.822025710335082760e-01 -3.845016752470468702e-01 3.701990364814133350e-01 -8.640279393208154524e-01 -1.269286465644656081e+00 -9.187258289108639620e-01 -1.957330954732135586e+00 -1.104833085790351666e+00 -1.612533148608878086e+00 -1.791741782298946206e-01 -3.704697569738547580e-01 -7.969318977347129573e-01 -1.162579878136783762e+00 -1.743077340984479917e-01 -8.861592611028560329e-01 -6.766454888299701098e-01 5.202400493675935628e-02 -1.452595687961644177e+00 -4.460889398044815546e-01 1.310665364637017549e-01 -1.329218348451170595e+00 -3.400427806811402442e-01
-5.384653484015328173e-01 7.207186739002684472e-01 5.587490149784426485e-01 -2.198588458452773953e+00 2.665948312915470964e-01 5.783535081411389500e-01 -1.407382035500593487e+00 6.266041322115893930e-01 -4.643807487177610827e-01 -5.911381966946168687e-01 -1.225446455382880995e+00 -5.759698464480359492e-01 -4.546067075024917137e-01 -2.461324771310543016e-02 1.026574101794078153e+00 -4.080430217076445598e-01 1.265240233546527371e-01 1.024824073243998518e-01 -1.209812038739191686e-01 5.727023140651881228e-01 -2.294057707933277457e-01 -1.692621152343857682e+00 -3.093700997399406183e-01 8.544958529494409150e-02 -2.536747376301866086e-01 -1.862367062253376560e+00 -1.011159754307868752e+00 -1.373919990341673447e+00 -1.941103727337916363e+00 -1.761869574296559271e-01 -6.762485030313399870e-01 -9.974753833276902570e-01 -7.128103506702682113e-01 -8.325583076383585857e-02 2.837021536489920392e-01 -6.335837536248635216e-01 -2.515376311297515821e-01 4.664235573169109861e-01 -5.796870488920298214e-01 -1.167621528912122342e+00 -5.552370982563834545e-01 1.256402801201561004e-01 -5.316739985047215233e-01 3.106191796005872141e-01 -4.789656525622192351e-01 -6.548062252585626908e-01 2.283931671651792117e-01 -1.938955418478854054e-01 -1.342971225447267214e+00 -7.714330424005874098e-01 -2.146839809224736495e+00 -1.574188344978011633e+00 1.417711407501713428e+00 1.206528215178174768e-01 -3.017278944728409296e-01 -4.953503469754655386e-01 -4.757105449424501864e-01 1.687443260928436772e-01 -3.486098198321896935e-01 4.736826039393640997e+00 -1.487542392599467522e+00 -9.397772467957148379e-01 -3.231624569897982635e+00 -1.074601683801461594e+00 3.770378458734927052e-02 -6.666425947149284825e-01 -1.023040093163555486e+00 -4.065148029691207504e-02 -5.262553503357070284e-02 -5.874784335678994163e-01 8.506245127350859914e-01 -7.175101778276612441e-01 -2.186547751671782613e+00 -1.650634649573730739e+00 -8.613206012269131184e-02 1.356738779116210269e-01 2.288365538798737553e-01 7.372798901646578917e-01 5.397526807580783625e-01 -2.099749597050652172e-01 4.194788452366332576e-01 3.363680278361216303e-01 -5.709170957176822325e-01 -1.852601477181598844e+00 -7.988977684153892866e-01 -1.796407313889378576e+00 -1.029153822111022576e+00 -1.605878182290420675e+00 9.728918448688839149e-02 -1.815547183109924786e-02 -3.767481621593336549e-01 -2.928927794185090527e-01 -4.788287390681356670e-01 3.320384328504362159e-01 6.257154260717644467e-01 1.051757952979393840e-01 -1.661891311271161964e+00 -5.841144235234889681e-01 -1.422382053026328697e-01 -1.425895124740873099e+00 -4.334729347018888568e-01
-1.900173252688123482e-01 4.081779503474260440e-01 6.822961632140090993e-01 -2.792501354349361087e+00 1.809821378011130799e-01 -5.003230918795773086e+00 -1.943516735940029161e+00 7.463713364253167226e-01 2.523176664464262808e-01 -1.621247629899007503e-01 -6.877939570259041790e-01 -8.502201752951186187e-01 -4.533110663272575391e-01 -6.711440787897363612e-03 1.317338961972123412e+00 -8.508290580064610253e-01 -1.682181752764097538e-02 -8.655655035205092052e-01 -4.005864755750573880e-01 -2.781686880250273108e-01 -4.120417255729464934e-01 -4.620229268179873450e-01 -4.097966196994076715e-01 5.629696948708209220e-02 -4.113006334972167388e-01 -2.500860818369355698e+00 -1.085965336650145385e+00 -1.509385784886957182e+00 -9.320191568143658678e-01 -1.699556178753599059e-02 -9.400217667468642180e-01 -2.045877568435759963e-01 -2.001636686973117918e+00 -2.827735234803052111e-01 2.949052402774163251e-01 -1.567775240795499014e+00 -6.727347660166865806e-01 4.266547315984950406e-01 -5.100720728483090216e-01 -3.432005407486896087e-02 -7.443566751732525466e-01 -2.835222106961254318e-01 -7.663535016582709858e-01 -1.432295319445900716e+00 -6.771399766762726813e-01 -6.591190180759152195e-01 2.382098893304709641e-01 -5.794108812183412782e-01 -1.699549140836551731e+00 -1.939085597919902870e-01 -2.264970982829930257e+00 -1.191268947705448333e+00 1.498476100544305689e+00 -9.379489885198939725e-02 -1.230535125736434698e-01 5.280556456691003486e-01 -3.915933773951367769e-01 2.829813423466106537e-01 3.445836040592204497e-01 -7.733448918861501875e-01 -1.498435664499243591e+00 -1.245109837608474324e-01 3.893003393077088536e-01 1.505091479688392964e-01 -3.703565197241101004e-01 -1.945694022092258058e-01 -1.114144295316815914e+00 -8.002053897226093504e-01 -5.457706036093326052e-01 -4.450503602393403590e-01 -7.286153273168199940e-02 -4.842655346430131402e-01 -1.009753598440256583e+00 -1.999131664556487609e+00 -7.607827058037133217e-01 -7.229622044088211963e-01 -1.486447122961589984e-01 -4.317018834723846954e-01 2.444548766958074548e-01 -5.088198457669249608e-01 4.026149399693963460e-01 4.459768186687912972e-01 2.934372416576832343e+00 -1.409692983785321818e+00 -1.166113000715532921e+00 -1.888805649781120088e+00 -1.065753511513956697e+00 -1.726632997505347378e+00 2.163530819960529997e-02 -2.589769730957650617e-01 -2.607774809928825599e-01 -1.319762474487163217e+00 1.744455401283612206e+00 -1.885948564459803967e-01 2.859136769225805175e-01 8.621665867221842139e-02 -1.980914804172040355e+00 9.043018219796125079e-01 7.814854808942667264e-02 -1.990621859607833111e+00 -6.950324379608419090e-01
-1.056219651416942629e+00 4.848216390942919340e-01 9.864020459729971879e-01 -2.315085582909438333e+00 5.908039497770569554e-02 -2.073597637882921063e+00 -1.579537864323784513e+00 -2.266915499890370445e+00 -4.559657371970026185e-01 -1.534476051429772836e-01 -1.794284568702892546e+00 -8.786063223226386887e-01 2.091588219142006544e-01 -6.180091032843024745e-01 1.136074588502686833e+00 2.011147205443197805e+00 1.390152410891916934e-01 -1.627740908018015797e-01 7.684323592922336355e-01 -1.031166873495201086e+00 1.424340606845498458e+00 5.222999353909568931e+00 -5.226402300270844847e-01 5.190784539191908159e-02 -2.006286753495394037e-01 -2.234700753661170936e+00 -1.185858100906448831e+00 -1.636992359445307521e+00 4.009034299668379382e-03 -8.224007885661865913e-01 -9.912348999952972362e-01 -4.435895183769462680e-01 -2.176506547655453261e+00 7.382278909363197521e-03 4.045374487501194327e-01 -1.469204929003547599e+00 5.581605591776461761e-01 -3.936248263095046274e-01 6.462758563858497229e-01 -3.195240092879130800e-01 -1.012996776719961467e+00 -3.238638743338145831e-01 -9.856731147124698778e-01 -9.902666567090956384e-01 -5.040322894068983706e-01 -4.600830100930930477e-01 1.133249062309519134e-01 6.239687385862269231e-01 -1.188110155938433277e+00 -2.726839506601497765e-01 -1.938241449946098705e+00 -1.437190675709559384e+00 1.622287777640495809e+00 3.236704098824397940e-02 -1.946219277439908968e-01 -9.567291578925037898e-01 -7.820969794870658021e-01 2.254726126326341284e-01 8.765436866555160675e-03 -1.812809961700338812e+00 -1.340159774296705519e+00 -1.240916941561747006e-01 -1.935128285945020635e-02 -1.154214876537488443e+00 -3.370041416617926000e-01 -5.850084537925513001e-02 -1.163813051946281041e+00 6.471427434049452643e-01 7.937198670586987914e-01 -6.097913096438758451e-01 1.521670896435954323e-01 -1.068799634931355547e+00 -1.695501573389646799e+00 -1.241667426193156398e+00 2.940271619046467277e-01 -1.434262124184168263e-01 -7.296736556031764576e-02 -4.144251470923420166e-01 -3.675079415515183356e-01 -1.126430132726149669e+00 -2.065529279117585826e-01 9.866177463939160286e-02 -2.624554172295286758e+00 -5.413091241368181983e-01 -9.362782685038572028e-01 -1.954171664303117062e+00 -1.179691463661093120e+00 -1.566947089588589748e+00 -1.391512538773788110e-01 1.579938254223957617e-01 1.632970507829222040e+00 1.948139273156631601e-01 -2.115241602615661964e+00 1.103197362346992755e-01 -6.888947430693537211e-01 1.843866341179357382e-01 -1.279159337753610792e+00 4.011636528311278704e-01 8.774359102952143663e-02 -8.166235353138860675e-02 -8.083405295004563174e-01
-9.473001789224480551e-02 2.015376141587162384e-01 2.629114690666536358e+00 -2.657270754052345918e+00 2.803325161573888558e-01 4.476089551688098300e-01 -1.373912269744332004e+00 6.389392974468302011e-01 7.904717956447093741e-01 3.129151416124946739e-01 -8.129559300864037663e-01 -9.453033123726496401e-01 -1.129463354560863220e+00 -1.074764017403628813e-01 1.421219918356492862e+00 -5.286286813582308231e-01 9.050910210708322523e-02 5.413844025906292545e-01 -1.411767884136614581e+00 -6.713895845177955679e-02 -6.177930054243010449e-01 -1.994969330160155208e+00 -1.239209885544478640e+00 2.291033862090149364e-01 -3.562946904057572306e-01 -2.611154021755371701e+00 -1.080621549461605602e+00 -1.504654607112280607e+00 -3.351707134146852951e-02 -2.537647366285237793e-01 -7.997611201202819986e-01 -5.917087942286035629e-01 -2.270454951703102076e+00 -3.007886292640257198e-01 1.777788322653295616e-01 -1.428451444413386451e+00 -5.119775205355731051e-01 -9.474934997245639812e-01 -1.386175247095597030e+00 -4.002552332629845111e-01 -8.000973329010326873e-01 8.492884292662371548e-01 -1.230224198531661317e+00 -2.982387803698636652e+00 -5.095729629961313067e-01 -6.781302500943966471e-01 8.660220749743123558e-02 1.192255197399683331e+00 -1.502721468036850361e+00 -1.140447403450652430e+00 5.213522271281942011e+00 -1.542229007527881723e+00 1.315653292474712188e+00 -5.008125656409885273e-01 -1.009262725652072812e-01 -4.612078497695916157e-01 -8.172771317334557306e-01 1.305632123627387398e-01 4.753560591191640337e-03 -1.195582629756263060e+00 -1.834232015637915714e+00 -1.397489580368085127e+00 -8.913334410168224919e-02 -1.922047769106119963e+00 -3.593222387760681702e-01 5.618363785017543854e-01 -1.367644513440793075e+00 -1.065859371442483994e+00 9.061264851941787379e-03 -5.841239090300263115e-01 -5.832787285496039420e-01 -9.452765537155884967e-01 -2.897559356539121111e+00 -6.099462873450385292e-01 4.678123350042131534e-01 -7.172656869243886346e-01 -3.094026643343919525e-01 -4.436726352169443888e-01 1.079318895137096473e-01 -4.983849685382679695e-03 -3.095290405132497535e-01 3.263567472589276042e-01 -1.013055671227414134e+00 -1.516087965855304143e+00 -4.076815135766967968e-01 -2.077988216903484897e+00 -1.224601064708321863e+00 -2.219928487728684452e+00 -1.269004247224352622e-01 1.606295042923890914e-01 -1.504602011244594584e-01 -7.349018571467279548e-01 4.363751383468217337e-02 6.234988436647065368e-01 -1.450360901411870795e+00 6.992065963668582518e-02 -2.013615879583764201e+00 -6.468682586448841754e-01 -1.670169524634718128e-01 -1.634597833011242951e+00 -1.588219206649535975e+00
-6.897274450001583679e-02 3.070899331609164284e-01 9.455095979561508601e-01 -2.227126972445979902e+00 1.994117756321357460e-01 2.896305312633055684e-01 -1.455279829682994075e+00 2.129766103601056781e-01 8.194959366350236252e-01 2.190685622443771796e-01 -1.365143136916409761e+00 -7.370925588020431629e-01 -1.576929746433399226e-01 -1.727115415611262528e-01 1.142055357922063585e+00 -4.433000626988269910e-01 -8.804952686579553545e-02 4.695205130484292333e-01 4.253267167870039556e-01 7.481896819427856782e-01 -3.300743448686831449e-01 -1.940866522641892633e+00 -1.478060891990719550e-01 5.641250573850099537e-01 -4.365466254762240261e-01 -2.066669557521358946e+00 -9.959129858602161489e-01 -1.543695606478861171e+00 -1.440861538075109305e+00 -1.276863532588785599e-01 -1.116913697676480410e+00 -1.946562372508112704e-01 -1.084496124823776109e+00 -2.773758427121209014e-01 4.334097080190269513e-01 -8.849220545645081204e-01 1.436405401991138475e-01 2.169637406540258495e-01 2.164088367751709208e-01 2.989068923880767170e-01 -5.323171116721483465e-01 -1.209683022860769119e-01 -6.193940549950341934e-01 -1.378623423603262177e+00 -6.591297657859029879e-01 -4.962190804724619930e-01 1.417244225399706958e-01 -3.778064154009423969e-01 -1.081907237077794681e+00 -8.091191488923927810e-01 -1.520836743107313982e+00 -5.297010224106287746e-01 1.932173171233573461e+00 -7.903282607701368478e-01 -5.926890100315862497e-01 -8.286524585162755585e-01 -3.885675554372339247e-01 3.820951614124986073e-01 -7.221462738740944132e-02 -1.674853446012695812e+00 -1.813481294497090390e+00 -6.075278058107992374e-01 -3.287389599091859793e+00 -1.266032634614694841e+00 -1.991592860151206734e-01 3.120921861915682549e-01 -1.207153702780184634e+00 -8.552510603833904934e-01 3.922934670639832699e-02 -5.517849738113734803e-01 2.305882833451140090e+00 -5.478542125194383328e-01 3.070801049733788091e+00 -1.282318847341556767e+00 8.195659790831286706e-01 -8.633353605725058166e-01 -2.514339983874105400e-01 -7.703434163522213662e-01 -3.883832191003490641e-01 -7.278137173779644087e-01 6.087700818061325680e-01 -6.001197367827405121e-02 -3.543946974554949003e-01 -1.891540119502937156e-01 -9.450525093721873215e-01 -2.030443938398150738e+00 -1.077521642083455911e+00 -1.419863782951934716e+00 -2.595093207282149206e-01 -2.310177834687983656e-01 -3.217016941086132675e-01 -5.791344525319659375e-01 -6.681623039075095249e-01 -1.557414855025580358e-01 -6.645307889689167080e-01 5.138815674246620668e-01 -1.399084971665159438e+00 -9.148671604067462049e-01 -1.927894968565799574e-02 -1.746082152367069984e+00 -6.110096058795684293e-01
-8.885917944660042256e-01 1.019750386333121206e+00 1.313727216173899981e+00 -2.644344231358761732e+00 1.342088700307075555e-01 -2.238781432516321890e-01 7.266065674019832610e-01 -6.925506667374274894e-01 -7.946816422345471809e-01 1.123020931786088139e-01 -1.581387239336804695e+00 -1.001244451988860140e+00 -7.913367366286948590e-01 6.414890691453486449e-01 1.274088131782081357e+00 -1.012233650574692279e+00 3.538813020890711758e-02 -2.445233560023412911e-01 -2.415330563904037053e-01 6.866589163593225242e-01 -2.114414108701347494e+00 -1.315025727554449686e+00 -7.888079433524353146e-01 6.630940008226489102e-01 -3.441820014505277969e-01 -2.326393686106785985e+00 -1.155599184527054124e+00 -1.783423646176667043e+00 -1.262005081502374670e+00 2.393086326878922920e-01 -9.206319210868537661e-01 -7.453835880966761529e-01 -2.163804601331059896e+00 -1.606998103840649728e-01 4.967225353611947614e-01 -1.070149563940261839e+00 8.055241378553785747e-01 -4.569370893449032911e-01 -1.385809680511113084e-01 -2.977198611987417753e-01 -8.825326635750604387e-01 -2.366374080177382211e-01 -6.260159773522034898e-01 -1.198123862374824045e+00 -1.000490412205345070e+00 -5.458919733098495097e-01 1.022834531314415762e-01 -8.000023182257032239e-01 2.376538132429578121e-01 4.601109074603583871e+00 -2.505277904668307354e+00 -1.562889390479083040e+00 1.650962811743658776e+00 -1.599452567937562908e-01 -6.227404077753859735e-01 -3.639483871741223675e-01 -4.855837608996418919e-01 2.528647190654975674e-01 -6.101747310501043353e-01 -1.129043282986526453e+00 -1.210335626535052000e+00 -4.042151942234966100e-01 3.166264930807998201e-01 -6.330207241413652319e-01 -6.911481655143445479e-01 3.917241280252729135e-03 -1.149306841696060122e+00 -7.894209031124753695e-01 4.496024244385002366e-01 -3.710208665512392257e-01 -6.412477363704038869e-01 -8.283575191712847507e-01 -4.984089073359965205e-01 -9.654683820108960202e-01 -1.131340486028532127e-01 3.454881226412727102e-01 8.596758919793950904e-02 -1.005117248315047673e+00 6.026329568287411842e-01 -1.518697669013807372e-01 7.090715671651840468e-01 3.200211328012089185e-01 -2.894684300439216429e+00 -9.853338309999140066e-01 -6.862817188945394831e-01 -2.386015838644925058e+00 -1.064522475204566998e+00 -1.916348279725742731e+00 -2.921143758098085352e-02 7.495781307664185766e-02 -2.550577973161606282e-01 4.270974805898269722e+00 -9.860742279436400803e-01 -3.227814352340214743e-01 -3.814414154900096499e-01 2.286518389456299039e-01 -2.026047003968655336e+00 6.091561778585251608e-01 -1.199709570743143355e-01 -2.440984949950421257e+00 -1.387122562195357789e+00
-5.323336055091765218e-01 -5.814082002915825775e-01 -4.618422393903772516e+00 -2.528680284468851180e+00 -1.150540149101128978e-01 7.313535673202442577e-01 -1.041301715406025563e+00 4.519115738184980580e-01 5.032114600398324145e-01 -5.356435484952870585e-01 -2.426711317895308806e+00 -1.082187806231970306e+00 -5.640267602747321973e-01 1.583841764252633399e-01 1.742646311643644141e+00 -3.624043995698340015e-01 4.780838594765157018e-02 7.190286063387472115e-01 -4.477162393736446033e-02 -1.727435984172526473e-01 -7.743072891408426806e-01 -1.316362295076280775e+00 6.220749018185979251e-01 1.165471712857542863e-01 -8.498690692823629433e-01 -2.348759959355971816e+00 -1.196632263980218269e+00 -1.490239932491984887e-01 -1.199853780084853438e+00 -1.296536794609865761e-01 1.668735511489216172e+00 -3.731118597301133488e-01 -2.315718970435429291e+00 -1.586868905361325799e-01 5.096573227892658986e-01 -1.708372806924420395e+00 3.101491369693581412e-01 2.258898057623894839e-01 3.307832586408370190e-01 5.599127095981525359e-01 -8.958745623496164878e-01 5.659822099805484896e-01 5.220867176602626003e-01 -1.395947549493828932e+00 1.978715342575101399e+00 -8.170209136464093858e-01 9.077537951496006396e-02 -2.724308633658781287e-01 -6.008621498795059246e-01 -1.999678950912443298e+00 -2.031575266286723025e+00 -1.273343966291226259e+00 1.795044882335245839e+00 -5.658036260333960676e-01 5.993235469330525644e-01 -5.435988037791741334e-01 -3.173572014706422806e-01 2.757175549609581777e-01 -6.960953242936694652e-02 -2.033107428050683119e+00 -1.708146132954642571e+00 -8.857740828875657613e-01 2.358021278315387270e-01 -3.525221275276296112e-02 -8.085097954947441101e-01 7.842473521273699011e-02 -1.141707784950474647e+00 3.309654882056428105e-01 4.642083340614715503e-01 -5.232219826386544925e-01 4.804144186831334207e-02 -8.986632464832586820e-01 -1.596028429158203643e+00 2.876783082042770334e-01 1.187474631061725960e-01 8.452548752919620823e-01 5.631742769905393907e-04 -3.220796132675863843e-01 -9.925615024873725156e-01 -1.403247384317287239e+00 -1.867167706032359487e+00 -7.045121943400201037e-01 -8.091076010873882174e-01 -1.086231494550841115e+00 -2.695012622203364350e-01 -2.213798982114112857e+00 2.637129657030408580e+00 -1.864665478364841755e+00 7.072670748933793106e-02 1.001516579201251617e-01 -3.131606487161738284e-01 -1.101586546076180007e+00 -5.011065866559759607e-01 -1.135654077026300168e-01 -5.853948231964902771e-01 -3.056731306779025825e-03 -2.206023195428870931e+00 -6.953685507181002305e-03 -4.754415231966690331e-02 -1.185648994595169370e+00 -4.690340259373471654e-01
-6.389368897577405448e-01 -8.225518664953078707e-01 7.026950677235048737e-01 -2.118767765044915041e+00 -3.641145657455805568e-02 3.998455686432422773e-01 -1.038074884011056742e+00 3.547237131890935702e-01 -2.620105682252817925e-01 3.064704865668724798e-01 -1.495528421848166589e+00 -1.925348359681878785e+00 -4.250362571249524102e-01 5.589517236443036774e-02 1.411545171996132053e+00 -4.745785309406262420e-01 1.110030610705578236e-01 -6.357003507458651725e-01 -1.332287932420312959e+00 3.186089365861581313e-01 -6.527575179077509115e-02 -2.339298341671300907e+00 -1.172888928262334707e+00 -4.946603273775716514e-01 1.078995343610772428e+00 -2.277182935879279224e+00 2.170685968817623345e-04 -1.931009291461384336e+00 -1.550261699688400663e+00 -1.064382907786162180e-01 -7.740026372903039409e-01 -5.552251161279090352e-01 5.520005893456924717e+00 -7.523611355879024354e-02 -1.916247393474470873e-01 -1.384286631339395557e+00 -8.971116468215717399e-01 6.795386626195746294e-01 3.472451435421692323e-01 1.623439919634142026e-01 -1.717282794969445581e+00 3.801841101377962384e-01 -8.669567883729091262e-01 -1.523872950096893941e+00 -6.235944569181348651e-01 -2.737412924644692769e+00 2.907330864144367921e-01 -7.551818260029941055e-01 -1.175915550902865592e+00 -1.052923034190462737e+00 -2.246710850390739367e+00 -2.140361390650793449e+00 2.075177556874351126e+00 2.772432263133821351e-02 2.291092391780820241e-03 -1.754236383460597293e-01 -2.478259152021602685e-01 -8.053362676208617454e-01 7.367024100209742521e-01 1.738706708935927048e-01 -1.317609060743007987e+00 -4.586881579247938379e-01 -1.378428373284704966e-01 -1.605499872878124457e+00 3.015462113332628480e+00 2.953828815461584378e-02 -1.116100007845476083e-01 -7.961075987119780040e-01 2.542541515466488211e-01 2.266406637767508503e+00 -2.228800628502199468e-02 -5.401290573667431039e-01 -1.654289460170966564e+00 -1.372904994002076995e+00 4.395689555688738759e-01 -7.381343768874144562e-01 1.792167415472187830e-01 -4.430631850076565681e-01 -7.252427192044527127e-01 -4.418022202618163141e-02 3.229829113849594924e-01 2.502115303379667116e-02 -7.134359882934195873e-01 -3.583211433922020572e-01 -4.312803641572902080e-01 -2.237246668213670908e+00 -1.469263699713774907e+00 -1.758237382967211770e+00 9.771939754093696140e-02 1.488319056104184246e-01 -4.858586624355711314e-01 -1.023164641488681692e+00 -3.278180650400723817e-01 -2.054596311720128798e-01 -1.387888146560025904e+00 1.995327244422597568e+00 -2.170880874260022964e+00 4.052302049089580999e-02 -3.981020422132359182e-01 -1.878187508284063334e+00 -5.739413491986522509e-01
1.416071435061673489e-01 -5.799680820452278729e-01 1.169185085862004536e+00 -2.244255407719822681e+00 2.794853081614960821e-01 5.690568812691200185e-01 -1.270475361091672140e+00 6.399051457777595875e-01 -6.750581289277741703e-01 8.576879492904616875e-02 -1.632336392223295185e+00 -8.398234543070254299e-01 -7.260842815676288309e-01 1.724503124347056326e+00 1.081709046784906425e+00 -7.281841083712451423e-01 -2.054691085334610534e+00 3.359193407137733844e-02 -1.320736713914018257e+00 -5.474828551951721467e-01 1.817692521586792426e-02 -1.595937098631004192e+00 -1.246119226232616839e+00 4.952471032851811228e-01 -3.913975365637807902e-01 -1.269388827366769723e+00 -1.250275531291996645e+00 -1.439602504928311211e+00 -4.994977947192620338e-01 1.320549076356488660e+00 -1.077105916018940457e+00 -2.912979519728883457e-02 -1.417797548142781361e+00 -1.073464289457447818e-01 2.455018521883736982e-01 -1.120721449430786221e+00 7.618087460431632874e-01 6.362273874910684412e-02 4.158907155058493843e-01 -3.194399046815916271e-02 -9.548939692567359749e-01 7.802193485372427295e-01 -1.175058090102550690e+00 -1.243411004288367927e+00 -3.584257381559430300e-01 -5.303114571518384723e-01 1.261820327747918691e-01 -6.241551830426250724e-01 -5.070456139329269085e-01 -1.585668920196379172e+00 -1.979688396684490037e+00 -1.142986134189743819e+00 1.460807586628950494e+00 3.786759748440344242e-01 8.138460435565604278e-01 -5.655590533257718322e-01 -3.519212261958062360e-01 3.167618811985168370e-01 -9.394283644582492876e-01 -8.931880136490595312e-01 -1.058241661821469837e+00 -1.132860222877902084e-01 5.163592873917893095e-02 -8.748316158108163654e-01 -2.050684186897913097e-01 -6.583215247847873375e-01 -1.226241260752131357e+00 -9.430058900556860246e-01 6.065652123270420804e-02 -2.261795320208429549e-01 -3.602238298892755375e-01 -4.309002121897718141e-01 -4.523909314967337614e-01 -1.256462700810106137e+00 1.644831688710014393e-03 2.871704418743573073e-01 -8.640473196578672688e-02 6.080943815837099864e-01 5.019770881452305655e-01 1.804219470919517787e-01 1.986232058552530322e-01 -3.072816345721825493e-01 -5.757709491260720042e-02 -5.337120404489114067e-01 -1.059993156733008979e+00 -2.239371733173261436e+00 -9.218757697073970414e-01 -1.625878173636395196e+00 -9.013236029024505880e-02 -4.035489128388585617e-02 -1.279567909387156366e+00 -1.819059021769255102e-01 -8.323785694327715534e-01 2.718184257400828585e-01 -5.316215466321368988e-01 2.674047198154608784e-01 -2.220644106635709658e+00 5.097676344636999923e-01 3.551621077533365090e-02 4.020700635868890593e+00 -7.480411719641186785e-01
-9.924560200550982536e-01 -3.644243602485581213e-01 -1.746014957764470410e-01 -1.688398142623196208e+00 1.000797895368603363e-01 3.102151106561391036e-01 -1.217269718587847382e+00 5.457987031659273791e-01 2.304036625469065291e-01 -6.556936705621461137e-01 1.066988109947396124e+00 -8.901630486984897228e-01 7.332834821303693129e-01 -2.495057160297581955e+00 1.693720110525181788e+00 -5.967240259201206376e-01 -8.538813150227192450e-01 9.348126621037318174e-01 -3.699062313909919908e-01 -5.872802656440256897e-01 -2.125664985211761060e+00 -1.937986256971333310e+00 -9.272027696507736394e-01 -6.916915744923491927e-01 -2.222461494493329082e-01 -2.065327247686349121e+00 -1.042146701228320316e+00 4.299722453142472922e+00 -1.601576539068706451e+00 -1.991289782517972062e+00 4.691336533496824224e+00 -8.460005793891369752e-01 -2.092361661225971226e+00 -1.194737866571014273e-01 2.021503222291320956e-01 -1.315845583382428741e+00 9.882416967802947205e-01 2.255301259465586627e-01 3.106984635114847793e-01 -4.791636570291066821e-01 -6.247050851811293271e-01 -4.349822995035209083e-01 -1.949271805421661563e+00 -6.318121529642684031e-01 -4.549842748101685652e-01 -9.960119828480906712e-01 9.201839365281115624e-02 -2.167784980871186318e-01 -2.244755683484361164e+00 -2.212615297025008143e+00 -2.684308552974612905e+00 -1.142169512036763646e+00 1.372795778434042768e+00 8.455293668738412816e-01 5.227239912397989574e-01 -3.916818248285356407e-01 -2.827868871154985975e-01 3.051402500709182730e-01 -6.212184753743286159e-01 -9.527543965926794645e-01 -1.630266423116405461e+00 -7.739169904845271120e-01 3.480802502066893123e-01 -1.779916101284734875e+00 -7.620323945732375703e-01 7.183506075486026932e-01 -1.398162972294088924e+00 4.969526721072296122e-02 -8.995880758407082123e-02 -7.760779600302781800e-01 -2.536485982476281431e-01 -9.953254078332922639e-01 -1.013036018599397403e+00 -1.375659683031626113e+00 6.013811792316590132e-01 -1.078515319826031327e+00 6.059164149215008344e-01 -1.344717235936363775e-01 -1.022412746591589011e-01 -2.567970475304280908e-01 6.770318554026139024e-02 -7.661522629062796907e-01 -7.746660200335140356e-01 -3.088178282022810972e-01 -7.605557896142516316e-01 -2.310642662809535341e+00 3.767700663857306842e-01 -1.865848579297343601e+00 1.218103138662960661e-01 -2.167395040014654661e-01 6.936342415922461813e-01 -1.909244750398613188e-01 -1.304837545983945912e-01 -1.641185062542478423e-01 -1.507192270540047119e+00 -6.796211935906307233e-02 -2.795934249813163408e+00 7.563218087909883147e-01 -8.432177595161616246e-02 -2.693430269057584425e+00 -2.322136930421907053e+00
-1.104917279620852177e+00 -3.440545518387261303e-01 7.861098111734453331e-02 -2.259506527376566432e+00 3.104453219776025508e-01 5.875294748700707892e-01 -3.019755018213987618e-01 7.293715490880067209e-01 3.383845442299404094e-01 3.575016235401354825e-01 -1.563312715486703253e+00 -7.134102730988056695e-01 -3.067364708328568224e-01 -1.100831347263921955e-01 1.415897195776101958e+00 -3.363226733077116504e-01 5.447428252812326344e-01 8.702932795613517181e-01 -4.878985183663817060e-01 -3.557352941181553541e-01 -6.087653792305731670e-01 -2.247842286935168410e+00 -9.500725318651862539e-01 -7.719275034181332096e-01 2.389622696990175155e-01 -2.339558728339225624e+00 -5.737558828480506801e-01 4.852296503747793643e+00 -1.106412280017879501e+00 -2.591631806010671335e-01 -1.137598158495366052e+00 2.785751955860583107e-01 -1.567934599933207052e+00 -2.086523974570609619e-01 3.528640056965060001e-01 -1.227410429947296322e+00 8.446771692513779239e-01 1.913164480175046644e-01 3.683470763448074003e-01 -5.583994644670884355e-01 -9.237039383481652211e-01 -2.764886194008061571e-01 -8.297647783930072185e-01 -1.145145144657188974e+00 -7.236822469878378961e-01 5.743956780184594768e-02 1.951665053638197179e-03 1.268818019575381484e-01 -1.131163280779227565e+00 -2.060993268046458660e+00 -2.822088109279909052e+00 7.243048540124122914e-01 2.362572121267504599e+00 8.490084494769867263e-01 2.101934579364035938e-01 -4.302749763628931912e-01 -3.749957427198073456e-01 -1.031910084342676281e+00 -6.500731403848336587e-01 -8.441478245157925109e-01 -6.094597196249592619e-01 -5.454013188305179005e-01 -6.913673088563659919e-02 -1.602040958830583950e+00 -1.583137113595165291e+00 7.403178501810518675e-02 -9.847520036083836636e-01 -2.184611821967157377e-02 7.167341112693029204e-02 -1.197164628797891400e-01 -2.036875263614915665e-01 -1.465846932173089145e+00 -2.008428656227532194e+00 -1.391943125528602998e+00 7.533556482088654693e-01 -1.082990442454506264e+00 -1.688852429971461622e-01 -1.674738866149891037e-01 -1.184647129230401025e-01 -6.082630108476447806e-01 1.664099757703141058e-01 -1.775069267032219622e-01 -7.070293386120007906e-01 -6.922772484865088449e-01 -4.932605917928903350e-01 -1.679418735608875890e+00 5.540165131274475740e+00 -1.922788645360944182e+00 -2.434492261482177830e-02 -3.716132567249469387e-01 -3.032275264786717384e-01 -1.494872045609458855e+00 -2.754826916107293577e-01 2.227779938353896261e-01 -2.000886510748325353e+00 -4.293221029280903878e+00 -1.711778422424526047e+00 7.165365609455948137e-01 2.671244371235502180e-01 -1.568047862200289577e+00 -6.941843032953165515e-01
-3.391846118780411645e-01 -2.008473218079069589e-01 5.711027856030859162e-01 -2.257481210823596651e+00 3.857426675539977201e-01 6.318833980835233399e-01 -1.031242451824732509e+00 3.859578624602374441e-01 7.692898945708850356e-01 -1.336772174481412057e-01 -1.266874680372852113e+00 -8.978530635292044648e-01 -6.256397158367181799e-01 3.374932090324678918e-02 1.112131440166854279e+00 -3.767795827613491522e-01 -2.353047836474684695e-03 2.859928124524003801e-01 -1.413914433806307658e+00 5.510878399299227182e-01 -5.118532987846716731e-01 -1.452513599791636079e+00 -1.106980728475688958e+00 5.803134787020054475e-01 1.558546341039707572e+00 -2.135908153436590684e+00 -9.143629942165960589e-01 -1.408712533705388070e+00 -9.410340312634496440e-01 2.206443458508814542e-02 -7.621456605817968910e-01 -1.402034879385634758e+00 -1.267766844931018433e+00 -8.762207472955353682e-02 1.169395906306816280e-01 -1.414282990026259457e+00 7.650707403514555027e-01 3.838135861699659701e-02 8.815064084491591734e-02 -1.852516229009237569e-01 -9.100778544937667691e-01 -9.610310433390960583e-01 -7.054817856263925213e-01 -6.607817962419211266e-01 -4.353353591362859598e-01 1.604846311927285107e+00 -9.277050676356126679e-01 -2.236084893325704925e-01 -1.320723068721986193e+00 -1.106449978011721624e+00 -2.221602569361551982e+00 -1.985200406519415983e+00 1.756981837943354829e+00 7.919188709625096800e-01 8.400342601269640275e-01 -2.811189965492178269e-02 -5.854817702014292191e-01 2.458234118782992306e-01 6.758858344760924064e-01 -8.298761939607520732e-01 3.209454495223231785e+00 -1.845780341907120037e-01 1.717173663064680278e-01 -1.648177894433929369e+00 -1.288678386764501749e+00 -4.201104943617882115e-01 -1.270074612338794040e+00 -1.315285375042017257e+00 -2.126934429333829368e-01 2.556339973878939964e-01 -1.172633717935503278e-01 -7.594755061694838938e-01 -1.499175168921528023e+00 -1.763693779763384928e+00 4.180281768809286369e-01 1.789484894771811441e-01 -1.060506559287143213e-01 7.358660050717434897e-01 -7.413798592031440871e-01 -7.369850584413920602e-01 3.394662273771541505e-01 -2.708619871775303500e-01 -7.083018422813016635e-01 -6.558955868826968905e-01 -1.032975307610629390e+00 -1.808102594744512182e+00 -9.145749700229391932e-01 -1.677227642804278496e+00 -1.526761236037227909e-01 2.623183395230280768e-01 -3.146929825307159811e-01 -5.374336962641463877e-01 -1.637874176366825585e-01 -1.799008645702665776e-01 -1.307774748177501722e+00 2.970786014720448343e+00 -1.614562995194617878e+00 -4.141015779856463963e-01 -3.816112511679370378e-01 -1.401495263869531716e+00 -5.616325311285347982e-02
-3.425389522620177485e-01 2.023364631027028959e-02 6.252177880216186479e-01 -6.296693046034147478e-01 2.197783732152236436e-01 5.660581402722503208e-01 -1.555301532687117128e+00 7.000723039928752334e-01 -6.138046526935624359e-01 3.817079669423732030e-02 -2.146512720330375767e+00 -7.014456420256335312e-01 -3.050947901630491899e-01 5.490290162947566131e-03 1.738467699177565828e+00 -5.280115486151806259e-01 8.596294014424329943e-02 3.153612588971848596e-01 -1.240243868712254338e+00 1.869100347716478594e-01 -1.700261563276739551e-01 -2.020179044839462534e+00 -2.678039668012339308e-02 6.221229937589681791e-01 -4.141463613320242598e-01 5.281722454561414537e+00 -1.143375216955343943e+00 -1.740815423661700612e+00 -6.825933690595491488e-01 3.684179147273342281e+00 -1.065964192523102483e+00 -3.483720790671878120e-01 -1.825815511135229885e+00 3.092910900267713606e-03 3.277553228801156626e-01 -1.587983862412621239e+00 3.630711345666595702e-01 2.211523838443372192e-01 2.922841996690354049e-01 -1.803802260164866222e-01 -9.965101573829941994e-01 4.024343194809677504e-01 -6.828733104919536556e-01 -1.376891862751779883e+00 -7.774670220357917660e-01 -9.387236527086618709e-01 6.976928331429624319e-02 -1.119198396326929856e+00 -1.621926319483850243e+00 -2.357488944906117379e+00 -2.357680547872199828e+00 -1.664878086079415231e+00 1.127867862423320489e+00 8.986070870033759928e-01 8.129902753822124684e-01 -1.694474473857856989e+00 -7.499039481003998420e-01 3.369849453145236096e-01 1.143873988250026542e-02 -1.132038801438960629e+00 -1.203609446360428770e+00 -6.030238142055005524e-01 4.341185014480912763e-01 -1.629841448688350791e+00 -3.800836704552810197e-01 1.408284276141274494e-01 -1.176858495576021513e+00 -1.098891340805885131e+00 1.626588996432887513e-01 -6.805386048349970629e-01 -3.471206644974699773e-01 -9.489336694139313133e-01 -1.219309891617160302e+00 -8.382132352135118758e-01 1.664324024773557176e-01 -6.410486532877964772e-01 -2.515129336792946285e-02 -1.791545783437515915e-01 -6.818475267277277485e-01 3.346585538640436952e-02 5.122354120303816982e-01 5.901196432278904558e-01 -2.326582979281381636e-01 -5.119730111267934980e-01 -1.037766078600733000e+00 -2.279051589691306334e-01 -1.141893929045674883e+00 -1.397882820437922557e+00 -9.351133450545631720e-02 1.212986218576641573e-01 -9.904271574882826945e-01 -5.302713490056131240e-01 -8.163946309544741764e-01 6.805570470449380516e-02 -1.210313239586996437e+00 6.015030457483080961e-02 5.182007261110680219e+00 6.331334198276681313e-01 -5.152747338575636854e-02 -2.277335370347466803e+00 -4.841148230221515858e-01
-1.606290137306386256e+00 1.403706480637808840e-01 5.343287532077822810e-01 -2.037237659650276811e+00 2.686843811748508837e-01 3.452373289886579988e-01 -1.466330530501344986e+00 2.980271097378692780e-01 -1.014102224763663518e+00 3.048770056401555739e-01 -1.564899356433464561e+00 -2.062930183592577016e-01 -6.097900213306521877e-01 5.106472775015674821e-03 1.537903104183598879e+00 -3.495553656320452007e-01 9.343986583652572064e-02 -6.046894593678000529e-01 -1.507603554403844859e+00 5.625033368467343697e-01 -1.891146976052901843e-02 -1.795748805504638668e+00 -8.700780122229546665e-01 8.746108618680143998e-01 -3.439370938652917542e-01 -2.425281422432175926e+00 -9.595406167932799546e-01 4.845276820244060367e+00 -1.366501001161132489e+00 7.970764303122514910e-03 -8.681682020713022974e-01 -2.378214494308598381e-01 -2.203080667481088994e+00 3.049371506067117821e-01 1.700196774294576996e-01 -2.560020497228558956e+00 7.407486813901107414e-01 -8.829134984085088358e-04 9.434910099080853763e-02 -7.166693460484702127e-01 -7.666409335655774426e-02 -1.953817035066373331e-01 -5.940604904717332602e-01 -4.206428970160862035e-01 5.705580740800479944e+00 -9.435728685626740830e-01 -5.578833261819748229e-02 -8.906456101826980554e-01 -1.646443391584900384e+00 -1.147260650210947475e+00 -2.270066200404278867e+00 -1.931269772492613335e+00 7.175693288094489031e-01 -1.929348373457557275e-01 4.495837887140956557e-01 -7.860625690861465786e-01 5.695187501521352225e+00 5.469223438171608720e-01 2.028993425450934251e-01 -1.535504464394676249e+00 -1.681026658889237080e+00 -8.444675324438930542e-01 1.681752181237983756e-01 -1.668750656949264943e+00 -2.671041399752828727e-01 -2.114213849108652343e-01 -1.114271046522945730e+00 -1.003183641576986362e+00 1.074930288046724303e-01 -9.976485915117472292e-01 -2.542534650280716679e-01 -1.065195412476569237e+00 -6.954738399497627510e-01 2.988645422487484216e-01 2.674112651739097291e-01 -8.369668796602404148e-01 -6.026676438820368839e-03 1.339744984081047974e-01 7.663836908562016159e-01 -9.174135633326894190e-01 1.119693010274813716e-01 6.091353576935357728e-01 -3.292918800404304180e-01 -8.003238924616851158e-01 -7.535962159156547324e-01 -1.999282706878123150e+00 -8.445035314811335514e-01 -2.350442871342661277e+00 -6.682625199717283360e-02 7.776291069221785701e-02 -2.019929567288540340e-01 -9.846128673566659772e-01 -3.371227537729856727e-01 -1.456868023585751737e-01 -1.404365828755180567e+00 -1.524372787166847210e-01 -2.491920200606331015e+00 -5.290881079213188842e-01 -3.067374211316308830e-01 -2.224705495565320046e+00 -2.042605301177573995e+00
2.648555774617106784e-01 3.123280714710394146e-01 3.107940792853690071e-01 -1.884735777548906199e+00 1.084335221137280592e-01 5.419113711793291932e-01 -1.549974611547188408e+00 5.788479062053039081e-01 -2.158892770407192241e-01 -2.147034651230832203e-01 -1.918541818416842570e+00 1.893226709793344620e+00 -5.962959013244474582e-02 -9.925783764979308199e-02 1.080123074382556947e+00 -2.626347662820732731e-01 1.156641874923440561e-01 -1.249701658487174620e-02 -1.367333135355999429e+00 7.964720486513373610e-01 -6.175002863885296067e-01 -1.603850177285113254e+00 -1.265163455042255469e+00 -4.191225418748595888e-01 -5.812528193893212736e-01 -2.332586245710426276e+00 -2.705432430928456089e+00 -1.644644498056028858e+00 -6.527218687658505880e-01 -1.404655030912664582e-01 -8.731173883572358463e-01 5.084925282637189348e-01 -1.810600302048791299e+00 -2.191678440104099235e-01 -3.428993498574881116e+00 -1.502956797849705151e+00 3.988070480278761432e-01 -8.364678930630293774e-01 2.351953660713288208e-01 -6.067223861902910631e-01 1.753984593943082260e+00 8.964241977307206843e-01 -6.909187236590540460e-01 -1.181376382289915261e+00 -5.711616800272072414e-01 4.273988126594772119e+00 -1.340945220832500784e+00 -8.847279052985907999e-01 -1.373951480056442076e+00 -1.173541210149903202e+00 -2.440124343703638843e+00 -1.677329568710086427e+00 1.280759644342227777e+00 8.192398745944203808e-01 8.720614572297081812e-01 -8.724641321771253732e-01 -1.395519760481291005e+00 -1.956273276471905298e+00 -7.380929783261597210e-01 -8.847503740028584973e-01 -2.437396878558308888e-01 -7.152322193322578903e-01 1.719968529310219874e-01 -1.525765592745185417e+00 -2.470313666067909253e-01 2.786027913630189645e-01 -6.039546884339855870e-01 -9.382364342699757165e-01 2.244376739290164235e-01 4.553881035251971632e+00 -1.114987605134976523e+00 -8.855093367322226516e-01 -3.452120612511493380e-01 -1.728466674640655176e+00 7.901833298468391442e-01 -6.492174506244654530e-01 1.164571445933680199e-01 1.483961391619755266e-01 -4.728854775709126490e-01 3.434811091799175320e-01 4.892257405640200729e-01 5.977531403937716981e-01 -7.413143532378094758e-01 -8.879821512836489905e-01 -1.233470955649106360e+00 -2.032491757825689582e+00 -1.384396655142515531e+00 -1.616522816161664489e+00 -2.214351324085133965e-01 -2.462635653145849313e-01 -4.090669389262954758e-01 -1.357056997773078699e-01 -1.737752780149142140e-01 -1.002414691570902988e-01 -1.323166925736778188e+00 6.342200646736974035e-01 -1.917557946257911761e+00 1.361724535713611239e-01 2.835498379796137502e-01 -9.436229340309777447e-01 4.050602008159551529e-03
-1.533421654608995433e-01 -3.599311673231915254e-01 3.745215072000574463e-01 -2.209276070429545324e+00 -3.104188210880335586e+00 5.536690060170590399e-01 -1.222110409845403867e+00 3.747385064915439434e-01 3.882758726360307361e-02 -9.858079553069010181e-02 -1.857882304781907079e+00 -9.196921644973931054e-01 -4.437554478483721754e-01 1.327147939228210394e-01 1.853304141635185864e+00 -3.720247673358197948e-01 2.171294070784724473e-01 -7.805105884671872385e-01 4.791837611063800018e-01 1.791298222890694847e-01 -3.892825323229804346e-01 -1.776551110897525598e+00 -7.111221242112400476e-02 6.910633926874520938e-01 -2.490760867124615641e-01 -2.601015482981985927e-01 -1.065296072562327501e+00 -1.412420309051000800e+00 -5.131264505404774523e-01 -9.432977087954155793e-02 -7.957139206529953990e-01 -2.866277350028514914e-01 -1.678649778326137598e+00 -1.365479417933481709e-01 4.396201448869609951e-01 -7.152468128786837465e-01 -4.605448991508825363e-01 -6.077140674584567970e-01 -3.288446811808366094e-02 -4.831409918093501066e-01 -1.101328513659267649e+00 1.429617888347296528e-01 -9.104102814031725943e-01 -1.490810330420250684e+00 -4.932136876675712878e-01 -5.471821288881418832e-01 1.815761071223702672e-01 -1.142916785447369632e+00 -1.446964347058002254e+00 -1.172360271762249218e+00 -1.931348143145849239e+00 -1.301475411260857973e+00 1.149766724424418296e+00 2.249104969915399488e-01 -3.040617621844075025e-01 -4.697479673005885981e-01 -2.028888945880079064e-01 3.135767940082532235e-01 7.701992575289536846e-01 -3.284379376227403169e-01 -1.401694626861430093e+00 -7.884800535927501963e-01 2.163152166674386923e-01 -1.752276823611732537e+00 -3.942941884509644779e-01 6.681075096830650650e-02 -1.197726609001021458e+00 -7.475006458134442200e-01 2.975713067389821886e-01 -2.822705952091685289e-01 9.460456574699403764e-02 -6.198469977500121741e-01 -9.914800672254667768e-01 -1.387416477796255876e+00 5.950333188472299861e-01 1.866487758106422645e-01 -1.018946218695784944e+00 -5.402205267371283925e-01 7.420926805817680272e-01 1.247196552575218637e-01 5.795152513297299190e-01 2.270992070690199538e-01 -5.767016282385083459e-01 -9.712789289551773120e-01 -1.310008250961226528e+00 -1.440232497255916400e+00 -9.142596535518435763e-01 4.679144071327665522e+00 7.174556666698539420e-01 8.610557930172003938e-02 -4.023354247829085129e-01 -8.259841298407724075e-01 -5.010282648380953718e-01 -1.904856103471352369e-01 -4.391462767708187442e-01 2.890116057535490057e-01 -1.143125291734994553e+00 -8.967839045711002433e-01 -4.085777134851704961e-02 -1.267408152298172830e+00 -4.318228279729624530e-01
-1.466036944399933928e+00 -1.224509834498548888e-01 8.673289996344651920e-01 -1.470131254341916938e+00 -3.032380094541391458e-01 4.477983557253720215e-01 -5.105994988606155083e-01 4.659524112026587339e-01 -1.022917804168388178e+00 4.097188915062424663e-01 -1.530555048382413186e-01 -9.448706749525334070e-01 -9.286183456078459519e-01 -2.221178687776832195e-01 8.682144382192690246e-01 -3.336085718481516804e-01 9.644387856550204474e-02 9.424795492178250633e-02 -9.713248197082328117e-01 -4.488035446923049343e-01 -3.513943055736918897e-01 -1.646477866326565342e+00 -8.200960650278213970e-01 6.537799956661558554e-01 -3.419679820535359016e-01 -2.513035956208583332e+00 -1.329531664030289884e+00 -1.418775234059080681e+00 -8.152730617930510348e-01 -2.465150432222424914e-01 -9.024466396898201959e-01 -3.764947691971270438e-01 -1.884565082047526818e+00 2.110842695013212644e+00 6.150133826300386852e-01 -1.967447337127598228e+00 3.202985481469590168e-01 -6.715100622054139823e-01 2.869416737703980175e-02 1.522579698996317232e-01 -1.095758483926354776e+00 -8.445641691815521934e-01 -6.143638484940501243e-01 -1.253585789702096553e+00 -7.003372966321854687e-01 -7.098097597991742669e-01 2.673057424432295770e-01 -1.297272353450180882e+00 -1.386972190481932765e+00 -1.933022512244230384e+00 -2.447309240598280589e+00 -1.780219666993920091e+00 1.483250364876781857e+00 -1.612711451920589567e-01 9.783167064025666271e-02 -5.413739031688533654e-01 -3.384097815848599478e+00 3.079946632650274463e-01 -8.382252499171166660e-01 -1.357453861718710852e+00 -1.583194202664567563e+00 -1.838047136618919664e-01 1.310879074800285204e-01 -1.413008900376954369e+00 -7.881534163186846298e-01 -5.997966909622255427e-01 -8.355460942861975271e-01 -4.477879310341679187e-01 3.149245919428360629e-01 -4.289741195188268574e-01 -5.917242550022443898e-02 -9.155997665236746963e-01 -7.912158995121424399e-01 4.423646030553913255e-01 -1.045610617678823573e+00 2.557748385478109121e-01 3.003765936120408875e-01 2.405751217692704280e-01 5.444834088854048071e-01 -9.508752086376791590e-01 4.268089704026853948e-01 -2.182989712353698708e-01 -4.825449380249032250e-01 -1.012041829032999107e+00 -6.752823999588212223e-01 5.267634159675630201e+00 -7.904388974520710764e-01 -2.566229184240400585e+00 3.328860253309706141e-01 1.369805240088665943e-01 -1.034118422076984123e+00 -1.391082877387852967e+00 -3.965872129750850905e-01 2.286043490918339416e-01 -9.925425047654248267e-01 3.538022548628098063e-01 -1.501496856079105546e+00 3.728823136527203985e-01 1.929895618845864913e-01 -1.528879818895923393e+00 4.251828406947126382e+00
9.567378316323843501e-01 -1.603486329134777219e-02 6.358664925354745590e-01 -2.708486277952604659e+00 4.315541585206580932e-01 4.002385312935105022e-01 -1.100834889214119316e+00 3.031153938484079102e-01 -3.830440628923375557e-01 -1.578379184318173256e-01 -1.377984736834682478e+00 -2.560705633565882877e+00 -3.078665121809256999e-01 3.865805770403825739e-03 -5.320591628178457988e+00 -4.151123483796857472e-01 -1.022110746043424639e-02 -2.975010771537928700e-01 -8.217228669305730593e-01 7.873735867224058715e-01 -2.341765976015139916e-01 -1.809813282388104350e+00 6.378528165090419089e-01 7.849398022078762915e-01 -9.306826789072952799e-02 -2.741306646543061110e+00 2.665558945947055225e+00 -1.634857059972601778e+00 -8.657384259372934432e-01 -3.374180867014514029e-01 -1.028692519328040733e+00 -3.303548353560781803e-01 -1.795651746384731462e+00 -7.950188578649598770e-02 -4.564852105811047223e-02 -1.065974968966838299e+00 3.171142076239158447e-02 2.044674348844051359e-01 9.095556003777947873e-02 -2.290477172893628788e-01 2.673760069638639436e+00 2.997062478704427546e-01 -5.256021717768024626e-01 -1.414456441621058991e+00 -5.279531664910486199e-01 -7.518290410626098375e-01 -1.347574215685402477e+00 -1.101769289985351064e+00 -1.611538656463487929e+00 -1.054152424843800784e+00 -2.160577630395331017e+00 -2.111962276173356301e+00 2.486691340099085323e+00 -5.298373263672759848e-01 -2.635583359739184992e-02 -5.290395640096963170e-01 -2.789032049018903336e+00 -2.486537180970286864e-01 6.594702375412889728e-01 -1.102623357924594982e+00 -1.147030226610013637e+00 -3.137158614871044526e-01 1.963761749362961662e-01 -1.724393876234473266e+00 -3.674629608307659612e-01 -6.904398148277510194e-02 -1.397393607968782092e+00 -8.113354613319380126e-01 1.790724919087165190e-01 -9.191439538890844307e-01 -2.019809866971507550e-01 2.406948537924690434e+00 -1.277832315046108835e+00 4.216500068564524306e-01 -9.304691498187193099e-01 2.146636862294494796e-01 -1.363006607581156437e-01 -1.207508761590098678e-01 -2.783712214280134045e-01 3.597732601817903442e-01 4.521936506910083087e-01 4.304524486556288859e-02 -5.890679693420832752e-01 -5.548327192397065621e-01 -7.725231137674737347e-01 -2.094334195124719411e+00 -1.216417241143024741e+00 -1.218691128367021870e+00 -2.339729090232676723e-01 1.412383494517422955e-01 -3.131293922633671678e-01 -1.231547924065473865e+00 -2.218188504072728384e-01 -1.548458344243698881e-01 -1.914826094010122215e-01 5.620517632678978526e-01 -2.061115715326431008e+00 -1.767151891766143290e-01 6.755452874405856178e-01 -1.322515629401151749e+00 -2.408225714129293427e-01
-1.323832170952367049e-01 9.635242281325565039e-02 3.981334775101328383e-01 -2.317050535718390147e+00 2.225615969347889966e-01 5.063953147382630471e-01 -1.300684622717247052e+00 5.437090595476629096e-01 -5.545042245816488302e-01 8.881709831338155392e-02 -1.429079524331091200e+00 3.655512661647758677e+00 -6.091726076087215086e-02 -1.150722611861497990e-01 -9.458267771223309861e-01 -4.316919275407968826e-01 2.798181960709352767e-01 7.437078520413769045e-01 -9.981504903703548592e-01 2.383019572389912244e-01 -3.809918377485991825e-01 -1.501464414130669445e+00 3.004512448514917167e-01 7.915197344217027586e-01 -7.200953385172735866e-01 -2.206527388002036627e+00 2.619548899508740369e+00 -1.542913653784075967e+00 -6.160805149777970335e-01 -1.095740904873779703e-01 -7.892730148528205314e-01 -2.453031473760393932e-01 -1.976105499874631688e+00 1.414902922740635671e-01 1.666520193125872185e-01 -1.314722549958155629e+00 4.171656658923013072e-01 2.293422603871844989e-01 5.077180296117861369e-01 -1.542955729375249663e-01 -1.547558573682753513e+00 3.361616356869102096e-01 -6.465989577500813601e-01 -1.510378267110753514e+00 -7.831382248150345893e-01 -1.521020635355083028e+00 9.270282865861421140e-01 -8.996573066234929694e-01 -1.162574163678196104e+00 -1.257608547423474388e+00 -2.179799175374066422e+00 -8.495312032922173184e-01 2.071151017637295144e+00 8.590641913312849764e-01 8.698707941829996182e-01 -1.169698960277679500e+00 -1.358788978057399843e+00 9.798981644352842135e-01 1.178429619976487513e-01 -8.412285202111827731e-01 -7.555455112768273696e-02 -1.546303591299691971e-01 2.192685673678734237e-01 -1.479473688004432130e+00 -1.668702463873322772e-01 1.902712138236250794e-01 -2.732908879908511057e-01 -8.531753640047397003e-01 1.003254528187045580e-01 -1.567993323345149292e+00 -2.575784513685370203e-01 -1.620303882201243439e+00 -9.298344354167097370e-01 -2.010614732730583221e+00 1.235206516164659429e-01 -6.949668583276948919e-01 -7.022009219215411512e-03 -4.789487551862173786e-01 -6.647542696586455913e-01 7.343061602927636322e-02 4.876107897623722653e-01 5.912266480239002364e-01 -9.368809648175017157e-01 -6.527929161816505843e-01 -1.260661698300070688e+00 -2.012494011756827295e+00 -8.955934158308576087e-01 -1.851489646909288300e+00 -1.846401341969614307e-01 -9.198143374139000628e-01 -7.212934652072962027e-01 -9.146116030614391823e-01 1.213584186924079877e-01 2.338740777111907865e-01 -9.918262528538775991e-01 4.492422559070904931e-01 -1.663973864989779505e+00 6.628048577404352937e-01 -1.281839322128908831e+00 -1.253030162830399696e+00 -1.977194624442530635e-01
-8.454844109595608392e-01 -6.214760415838582741e-01 5.125290662317265600e-01 4.787777498312220104e+00 -3.881361420274311858e+00 3.777794420117915331e-01 -1.097984935138824669e+00 6.089856249151497369e-01 5.566455366063901566e-01 1.477572782871010570e-01 -1.646356963265765527e+00 -8.326441624336714531e-01 -5.690018912058818490e-01 2.216431064625975778e-01 1.768470423582954476e+00 -2.688453928415305838e-01 2.921189784847783577e-01 -6.870422139443581599e-01 -4.668809006221139590e-01 6.757965597987188877e-01 -8.469552228123881921e-02 -1.518215085414851950e+00 3.451430825067872132e-01 -4.265989429142448830e-01 -4.125610350687627381e-01 1.906778688458183463e-02 -9.131071772982675139e-01 -1.408452293049534898e+00 -2.988893061608411950e-01 -3.342564207972499313e-01 -9.054734208417817287e-01 -2.163184183500442559e-01 -1.838980182844267786e+00 -3.225488757017647701e-01 2.922587821596320246e-01 -1.415261866790648471e+00 9.245790587190988452e-01 7.885014501590611458e-01 1.282724933435090142e-01 1.852571096465252878e-02 -9.556369383704198528e-01 4.523885824643622544e-01 -8.436786724468910981e-01 -1.656153691237853831e+00 -4.266063890022751548e-01 -5.635054565498780477e-01 5.413393602386521591e-02 -1.186334110613524784e+00 -1.145916869311753183e+00 -1.395896180474591963e+00 -2.297761757693950191e+00 -1.582656590986677214e+00 1.272909518769680171e+00 -8.602759851411658776e-01 -3.751897507291647726e-01 -2.739968893373548667e-02 -4.588101050351932608e-01 3.070744550328583511e-01 2.941653924480049365e-01 -5.683675173145076309e-01 -1.690226582516028309e+00 -3.082353693913451043e-01 2.324710451342847928e-01 -1.340794659201043793e+00 -4.817693385261243577e-01 2.991850165370671041e-02 -1.050139451373190536e+00 3.231370352195673812e-01 8.107657571185016010e-02 -4.620778493749094218e-01 1.670642017992249317e-01 -1.018765278135141950e+00 -1.026567635742811069e+00 -1.616801301450064177e+00 -6.013029971345600355e-01 -4.531904367731153238e-01 7.274374949001508051e-02 -4.639045453452912415e-01 -4.629210228459457177e-01 -5.339105041007562447e-01 3.704072730287463755e-01 -4.736214344003520510e-02 -4.008815770705396186e-01 -6.663941956082540807e-01 -7.800671060921429145e-01 -8.802211651116428337e-01 -1.031679329277235269e+00 -2.013625005953210145e+00 -3.018230790449420997e+00 8.911469342239235203e-02 -4.100423549814871116e-01 -7.143066681483057900e-01 -5.528858148383622995e-01 5.368233442770944941e-02 2.780125182173509568e-02 1.629141345785939665e-01 -1.209693537742892566e+00 -7.499586541004682472e-01 9.957259554242807453e-02 -1.476393147834039965e+00 -1.172593372966877490e-01
-9.050406785169876622e-01 -1.124831806662557471e-01 3.908371135078179681e-01 -1.757171645669900695e+00 2.458277529976850839e-01 3.623666971025889527e-01 -1.043383951342298888e+00 3.798201931048154623e-01 3.297487393079515661e-01 -4.418508489127247474e-01 -1.496068749743345139e+00 -8.184582539453667538e-01 -5.125941375914124798e-01 -5.450615721705948102e-02 7.679542522033006025e-01 -8.038100324400082597e-02 1.330146013164293650e-01 1.035933681057844558e+00 -3.601979085956240056e-01 -1.046750691922272020e-01 -3.138833009159914811e-01 -1.362455777532698198e+00 4.559083971159368365e-01 -5.995703373535673508e-01 -3.328927214684131441e-01 -2.279382210933638575e+00 -1.297544628866652339e+00 -1.539883824896689068e+00 -5.029751714308644539e-01 -2.339948125411380198e-01 -8.019001210698272208e-01 -2.165867589729205678e-01 -1.368153046841199094e+00 2.197264492691745730e+00 5.950984489113427811e-01 5.252644482810528537e+00 -4.044396176363574957e-01 -7.029873425933274023e-01 -2.525840075695616749e-01 -3.010687829432532325e-01 -7.694859746491906627e-01 6.567680458592385362e-01 -6.755988322292616477e-01 -1.058637240549153979e+00 -6.711425478345415252e-01 -8.485986099840547858e-01 -3.697338244020441644e-01 -1.252253751443411556e+00 -1.573028287597294517e+00 -6.186763312854240970e-01 -1.941202956261451673e+00 -1.554778624057725045e+00 1.386641889779862913e+00 4.819181225175996341e-01 7.984595975453891992e-01 9.582453053061612547e-02 -4.405833759835326546e+00 5.036837883213100137e-02 -7.741685287784033642e-01 -1.064591461439849285e+00 -1.460261005555091751e+00 -7.719895752790639776e-01 3.504547857723395721e-01 -1.470885721642382071e+00 5.214026736999684275e-02 -1.103143890412577460e-01 -1.300229324556257948e+00 -4.457953700339466474e-01 4.995596457430178661e-01 -4.773780810441368150e-01 -1.590947218980091060e-01 -6.820710155231218819e-02 -5.886464333153215156e-01 -8.358969786174159644e-01 4.789294960682125013e-01 -2.902662335661710946e-01 -5.203848606494918538e-01 -4.561829039827280941e-01 2.799952318698885612e-01 -4.500561395251535535e-01 2.981916474417596885e-01 3.719357559844361782e-01 -5.536985041260571450e-01 -8.870960659702193940e-01 -2.913590532665599198e-01 -9.495324606108365151e-01 -8.199839697713331432e-01 -1.638270142256204265e+00 -3.734635488590297148e-01 -4.405206008690928376e-01 -7.629112603736469822e-01 -6.187796719471024831e-01 -2.790582767422972732e-01 -1.412397678844378168e-01 -7.725480816502634518e-01 9.122883476206274100e-02 -1.952535280383836058e+00 -4.856831291208264512e-01 -4.209932513356746675e-01 -1.372726868853993309e+00 -3.152440814505931832e-01
8.306135513961360184e-01 1.872364610486770831e-01 4.325965651889220887e-01 -2.112222087184703945e+00 1.650644778004333457e-01 4.987055451314278964e-01 -1.328066188855125729e+00 5.427494340310039522e-01 -1.342058979683731328e-02 2.151604380400064798e-01 -1.507368520750931529e+00 -1.276313264251377699e+00 -2.401553079134629842e-01 -1.066759075498436571e-01 -4.592246546247137629e-02 -4.198466261531619281e-01 7.819350181585586756e-02 1.255447500172991449e-01 -1.087942107972417610e-01 5.872212559470039173e-01 -3.293506707794924826e-01 -1.571436625775416207e+00 -1.339995255227292500e-02 9.312066402591182568e-01 -3.659406552094897624e-01 -2.021163900535087876e+00 -1.508753131148572457e+00 -1.471583800976511647e+00 -7.486116756042627829e-01 -1.614244474901667392e-01 -9.356407766681020810e-01 8.669709545564718844e-02 -1.592734771145776884e+00 -6.787128700764494087e-03 3.779902374441195256e+00 -1.445234476210631724e+00 1.484647098374649310e-01 4.987098519424879028e-01 1.549076481198826682e-01 -6.327511205296446062e-02 -1.180155988249931509e+00 2.475758184342903567e-01 -6.004675971420939673e-01 -9.563334229117923524e-01 -7.247734288024484384e-01 -8.633869972363588108e-01 -2.514606089735457406e+00 -8.537811056748558780e-01 -1.382895730672015544e+00 -7.112105728460733634e-01 -1.973954016785497201e+00 -3.844708964487525416e-01 -4.303384982304113926e+00 -3.613808991309708785e-01 3.052126467415696709e-01 1.126870269348756309e-01 -9.919563034037592875e-01 -6.009729320582544165e-01 4.084474999720207333e-01 -8.971756080522582666e-01 -3.747494083883957661e-01 -1.390567600266613135e-01 6.333192218083243119e-02 -1.529938019384525338e+00 -5.139634313407531740e-01 -1.742297201583706961e-02 -9.893286082667618331e-01 7.970322588251809171e-01 -1.253621113493937900e-01 -7.727804363362189566e-01 -8.552093075065687888e-02 -1.543580465264622559e+00 -1.413011131332305714e+00 -1.895682351188057169e+00 4.996953523632664540e-01 5.249127861097316883e-01 6.576491181307156375e-02 4.270856073823886545e-01 -3.330604628766596909e-01 2.190196400755743955e-01 3.309950450484212547e-01 4.476483857043224157e-01 -5.335106489198825352e-01 -7.450313024291069786e-01 -7.053369947593348677e-01 -1.895788710503032659e+00 -8.710627535301311841e-01 -1.925244540480385069e+00 -5.061414287070833962e-02 -5.853917447759266618e-02 -7.839034989113394802e-01 -5.942544283325110754e-01 -1.919580032986611118e-01 2.635584857199064768e-01 4.450557429909833274e-01 6.636975026190244931e-01 -1.823098734317018410e+00 8.425946163444698600e-01 -5.318204151048601114e-01 -1.166889464520075359e+00 -1.888376947881088841e-01
