-5.534178416929222966e-01 4.632668280135221472e-02 1.014029131623621627e-01 -9.087960997343873526e-01 -2.785423293044546611e-01 -5.538381166174224379e-01 3.774523236427129724e-01 -6.725371499982015777e-01 -8.593502663889993620e-01 8.820217204916720455e-01 1.273627604696505600e-01 -8.440153212200258714e-01 4.452810222496796921e-01 -6.830956529536671429e-01 -4.994373865119532407e-01 -4.130254877956049953e-01 3.932214284171897667e-01 -7.147182391969653104e-02 -5.698757125713209692e-01 -1.063474758406848242e-01 -7.582424969220862288e-01 8.353740154894500058e-01 1.328926574383910708e-01 -5.596136851614552654e-02 -3.708671507055769645e-01 -9.135685405267477410e-01 5.048898339199461294e-01 8.653808774263604953e-02 5.343808514294012824e-01 5.808975324315737154e-01 -8.555572412507397306e-01 3.194316688156950690e-01 -8.934013233115059016e-01 3.700489054454014770e-01 -1.132980759734703025e-01 -6.400770524007781681e-02 3.221186695299189662e-01 3.799332638532237905e-01 -4.733410311088723788e-01 -9.770421324796503271e-01 5.425888932495304129e-01 6.322846525776988358e-01 -7.207167925034083655e-01 1.560134911496822152e-01 -3.186514559116013778e-01 -5.355690250618669879e-01 -6.027124928297906692e-01 -4.570184534226386930e-01 9.537055280213859731e-01 -5.691420434372769233e-01 -2.871851658758075576e-01
9.340596780273533462e-01 9.446449835144465901e-02 9.453687199297686750e-01 4.296319873487293162e-01 3.954576491945416272e-01 -5.678210088392472432e-01 9.525489095524835026e-01 -9.875394895908202741e-01 -4.940352752331120811e-01 -1.304169351911084185e-01 5.587658435875049179e-01 -6.046298507994938287e-01 7.259864711984445051e-01 9.668013543506255303e-01 -6.723155171906025629e-01 1.946678878657184253e-01 -9.820278046648900361e-01 -2.268574347127412238e-01 -9.116798841370008510e-01 9.133059354284718268e-01 -1.277067062404046993e-01 8.979546135631255588e-01 5.726119718701219163e-01 7.325785971633969051e-01 -6.536691570081036851e-01 -8.501028259737859472e-01 2.014854427555385907e-01 -6.640556325631923329e-01 4.667603350211397828e-01 -1.831122796959705479e-01 5.581764683584067299e-02 8.751431679018839560e-01 4.339224488991599848e-02 -7.836132342255386352e-01 -6.835531856304011278e-01 9.040530340642560780e-02 4.880816013694677657e-02 2.752204882519873053e-01 -1.970091128194542129e-01 2.996102180386845948e-01 -2.061999941965346750e-01 2.478322270964461449e-01 5.348099341802476925e-01 -6.420521799177383304e-01 -2.488484628249152397e-01 5.066118653868745270e-03 3.733341598326915811e-01 -4.926407026772336994e-01 1.094817258851170649e-01 2.498616881281954250e-01 7.910023321122920947e-01
-1.485571789622084360e-01 6.291674809891052433e-01 4.707945803993591749e-01 7.360063997594714635e-01 -2.332384542547596418e-01 9.589132642890412228e-01 7.863886934302706244e-01 -5.805696604912491399e-01 4.836552948254815298e-01 3.262866382594857839e-01 7.736029229838741195e-01 7.160254242710923922e-01 4.985244274870377357e-01 7.402894401105093447e-01 -6.264883130571738956e-01 -3.488665660115020106e-01 -2.541251300910714050e-01 5.874260501673529422e-01 -6.978794609038212471e-01 -6.601146019243804286e-01 -8.376618141003087104e-01 -3.896493166604126923e-01 5.665796036377483968e-01 -6.741876360421066305e-01 -8.587174082293471677e-01 4.021423457830759496e-01 -6.380402417992621089e-01 1.978345007575170733e-01 -1.694727016092096861e-01 2.714449812653629834e-02 -5.586876541076755132e-01 4.511460152702586601e-01 6.988698966190458606e-01 8.577856560272281161e-01 4.718800791314257115e-01 -4.682551851936023191e-02 -1.421405348084636699e-02 1.890405435363737841e-01 -8.479260692566177315e-01 -7.650461613089456492e-01 9.329313320481367189e-01 1.666445808660754757e-01 -8.151561722444033986e-01 -9.727409967379934130e-01 6.738602169357692517e-01 8.295757987906391406e-01 4.091725214072556849e-01 -2.259868046116588758e-01 4.113878099456140802e-01 8.466223130851153744e-01 -4.236942109037569182e-01
2.407476291065120400e-01 1.790613729081402816e-02 -4.035103164825426525e-01 3.075974247851915866e-01 -4.529869312954668548e-01 4.625215670006843638e-02 -2.535005158014465021e-01 -2.614428128535268847e-01 4.693872028190080314e-01 2.972777512905986352e-01 8.515934683576427133e-01 -5.457037129901978201e-01 -1.888944925858750956e-01 7.673614808015318811e-01 -5.821977688896173841e-01 -5.724254746850776510e-01 -4.331192972446289424e-01 -9.374232197028220526e-02 -3.248572262983662196e-01 -9.765254703944146186e-01 -2.061062542860829794e-01 3.782846203057150802e-01 6.704066117691962479e-01 -3.684230288015142296e-01 4.383782212919771215e-01 9.979712700938447867e-03 -2.650156007855375417e-01 -6.340782990391404805e-01 7.331832162462337266e-02 -9.367800354832842569e-01 1.971842843131621503e-01 5.521898782440719522e-01 -5.525509409874147515e-01 2.525457818170888658e-01 -1.753597878474248972e-01 2.421451454483678489e-01 -5.208405170864038869e-01 -3.854854758437951112e-01 -4.834146711647719918e-01 -8.124693561133495834e-01 4.829894627245501226e-02 7.335039222230059774e-01 -1.607351948966844191e-01 -5.602318546814686329e-01 9.791729405283036147e-01 -7.992618048537534214e-01 -9.967202377142769798e-01 2.074614883784178243e-01 9.563221066142002513e-01 3.414642937728467054e-01 2.468836433872481084e-01
7.275199711401658664e-01 -4.301880695447464209e-01 -8.534872238325279525e-01 5.264744086605699369e-01 -9.456188480117733164e-02 8.459374801754893092e-02 4.532715656550145855e-01 6.978102152296441485e-01 5.363999556179643857e-01 4.662874466400348528e-01 -5.160271505922298108e-01 4.406173851094774552e-01 -8.832453883765576386e-01 -1.806621476844314511e-01 2.213445477153201946e-01 -4.881702508762233439e-01 -4.286561449073362784e-01 3.689274936202355804e-01 6.818394707771180396e-01 6.183068402016427267e-01 -9.998730084907441196e-01 8.472201894439046477e-01 6.139303262913040626e-01 9.120248019084662428e-01 -3.054202018120233397e-02 3.251480071450432163e-01 4.676133151800250243e-01 -6.777574603190550384e-02 6.108963972402099429e-01 -1.240249422686681147e-01 -7.419204593796464575e-01 2.843011444859104841e-01 -4.271259389632264813e-02 3.162415440919841281e-01 -8.332941374261713108e-01 3.274462765907861783e-01 -1.811982984736926205e-02 5.106290830485735732e-01 -1.442539988897104664e-01 -3.403787962580149262e-01 -4.459996407465105506e-02 8.390737459691035571e-01 -3.849251225414249689e-01 9.698385970981351356e-01 -7.725175931407739505e-01 9.410303702633415757e-01 7.467233239650739041e-01 8.945240759349066817e-01 -5.268606404353430861e-01 7.150720308956193261e-01 6.070619687199056980e-01
-5.029797451245401341e-01 -1.000491578984090690e-01 -1.781183940069184235e-01 -4.794006182262002813e-01 7.407913766938989397e-01 -6.299201456761900353e-01 -9.606771491399119789e-01 9.065040630074241434e-01 3.609016094620784987e-01 -2.682374689894428954e-02 9.300536397319081328e-01 -2.132025217567332653e-01 -8.408848574262115516e-01 -2.971851511724075134e-01 -6.727296747898094953e-01 9.663336420677952621e-01 7.612563684304827216e-01 -1.187306377687313841e-02 -1.980815177630430579e-01 -9.741707398247356764e-02 4.417536970077924341e-01 -5.044634311265874249e-01 2.455599048083019209e-01 -7.151023682691424188e-01 -5.976474350561704618e-01 -8.375645411026173548e-01 9.069445896182517508e-01 -8.885234607156591302e-01 1.990729669108699529e-01 4.459952609869648477e-01 9.405794387296440018e-01 6.431389148243382703e-01 5.510213487872217542e-02 -3.370465409126648382e-01 -2.920356088184021814e-01 -8.419393974842555028e-01 1.118287608507722020e-01 -6.684110742205224831e-01 -4.095243379182176291e-01 6.812169703172781254e-01 -2.748759811726555480e-01 -3.183720449546565412e-01 4.208034884330633663e-01 -9.365844969425025646e-01 -5.522426791135703894e-02 4.631532452110960207e-01 5.464315485273703032e-01 -5.175104156589622750e-01 -3.876059089791434875e-01 -7.267007233049136428e-01 1.914714394536611852e-01
6.462206814195838867e-01 -9.477640368602653353e-01 -5.784587201374120635e-01 2.368435386992204794e-01 -8.034310693262016745e-01 2.402626197537176544e-01 -8.922195608031124880e-01 9.213081156084770296e-01 9.608587484301469583e-01 4.225530054244774902e-02 2.731066896710956371e-01 5.295138965384997842e-01 5.299105892336384294e-01 -1.646288408805545167e-01 5.376106126474853308e-01 -1.535964991759366516e-01 8.522071430536630743e-01 3.638529697447967504e-01 -2.630888173506231720e-01 7.178197107056401016e-01 -2.390086400332203098e-01 -8.100914722327845485e-01 -3.502185727263535941e-01 -1.697756277150175297e-01 4.845478977007604549e-01 3.158177351732514015e-01 -5.973663373144064703e-01 6.169758264866920250e-01 5.728048768195355134e-01 -2.101207241917741886e-01 2.123246997811678582e-02 5.923190830040490074e-01 -1.092450082179450277e-01 4.861338210204302346e-01 -8.425018533564481160e-01 -2.470948396664085500e-02 -1.312227102540404200e-01 -5.078841086541674432e-01 7.232814365463413608e-01 -9.599548817640297660e-01 -9.834658033709997582e-02 -9.051542513094836817e-01 -4.545007644300991245e-03 7.175480082560090622e-01 -3.303686871696307481e-01 8.031800623008731321e-01 -7.542248920594412098e-01 -6.851325061334736510e-01 5.747705832735856557e-01 3.298781156581891416e-01 4.404083447968807352e-01
8.549610772379174772e-01 7.448525888184311938e-01 1.692625451911062839e-01 8.103403474475938673e-01 -3.663348576185210259e-01 -7.039837981404326595e-01 7.190682044864138422e-01 -1.325980664976926793e-01 -1.295840550911098177e-02 -9.487260550548692883e-02 -2.736906504251528371e-01 -4.754306654295459289e-01 1.826567431017547261e-01 -3.799780434903181625e-01 -9.125907067820580032e-01 4.162605503451457523e-01 -6.297812235884394649e-01 -6.185696022937552385e-01 4.698981258048242626e-01 -7.481076023327564162e-01 -3.858706766704000923e-01 8.683020191756440909e-01 9.714492287064184772e-01 9.559425707993334242e-01 -7.375454599548567636e-01 -9.902131244574374769e-01 5.759828453489528322e-01 3.494242855965372652e-01 -3.113891235490615639e-01 -3.173132001112444200e-01 -2.330878337115627197e-02 5.817212847847774704e-02 9.843960585554947240e-01 8.960459938223601650e-01 6.016194125922287306e-01 -6.259172500896232894e-01 -6.897718127501606400e-01 -9.350819413953159742e-01 -4.663410131180745211e-01 -2.679002832714334481e-01 9.369438812581447618e-01 -2.683839514719517094e-01 -3.222387152789130127e-02 -6.036052165672962655e-01 8.298729978750987168e-01 -5.728301673068301181e-01 6.883844348509784439e-01 -8.956363493943335641e-01 -5.357329695602757180e-01 5.979079421494590818e-01 -5.589328579102024186e-01
7.275199711401658664e-01 -4.301880695447464209e-01 -8.534872238325279525e-01 5.264744086605699369e-01 -9.456188480117733164e-02 8.459374801754893092e-02 4.532715656550145855e-01 6.978102152296441485e-01 5.363999556179643857e-01 4.662874466400348528e-01 -5.160271505922298108e-01 4.406173851094774552e-01 -8.832453883765576386e-01 -1.806621476844314511e-01 2.213445477153201946e-01 -4.881702508762233439e-01 -4.286561449073362784e-01 3.689274936202355804e-01 6.818394707771180396e-01 6.183068402016427267e-01 -9.998730084907441196e-01 8.472201894439046477e-01 6.139303262913040626e-01 9.120248019084662428e-01 -3.054202018120233397e-02 3.251480071450432163e-01 4.676133151800250243e-01 -6.777574603190550384e-02 6.108963972402099429e-01 -1.240249422686681147e-01 -7.419204593796464575e-01 2.843011444859104841e-01 -4.271259389632264813e-02 3.162415440919841281e-01 -8.332941374261713108e-01 3.274462765907861783e-01 -1.811982984736926205e-02 5.106290830485735732e-01 -1.442539988897104664e-01 -3.403787962580149262e-01 -4.459996407465105506e-02 8.390737459691035571e-01 -3.849251225414249689e-01 9.698385970981351356e-01 -7.725175931407739505e-01 9.410303702633415757e-01 7.467233239650739041e-01 8.945240759349066817e-01 -5.268606404353430861e-01 7.150720308956193261e-01 6.070619687199056980e-01
4.580274845782381643e-01 1.224792046552822811e-01 -7.500658159815181136e-01 -2.048152625997656795e-01 5.626164125469521604e-01 2.198596330622626382e-02 -6.346132831683499731e-01 7.070257504977055518e-01 9.107437852696185221e-01 9.684269365035578225e-01 -6.145980523452634348e-01 9.415902027404343677e-01 -5.303832907971142152e-01 -9.472923029802586825e-01 8.921206861939112720e-01 8.434497040418935665e-01 -4.120484643760389254e-01 -6.674525956019514705e-01 -2.091543203351475810e-01 2.133946951025889049e-02 -3.839255430185408713e-01 -1.408623328161247024e-01 6.601388113021851023e-01 1.247871429455649217e-01 6.617766204257227169e-01 9.938585821692647038e-01 -3.348423896125367616e-01 -8.179837472259710029e-01 5.476631171777064377e-01 -7.012325389992473124e-01 4.507101192958413716e-01 9.102928686351736687e-01 -8.538084504680798492e-01 -1.056744981422954588e-01 6.822361355549333428e-01 -7.089206646947969759e-01 5.305430720297112934e-01 5.635698361289944724e-01 3.501570905568396341e-01 -7.365956280290517633e-01 -9.213936356615475276e-01 3.120461539809213924e-01 -4.976347721486333864e-01 9.768367680632465966e-01 6.676608919365656369e-02 -8.816495129023509403e-01 3.975106281635940597e-01 2.543495329451876952e-01 7.915570775074278753e-01 -6.761506583002241388e-01 2.207631568119803323e-01
-2.304537609665124887e-01 7.194156931812381028e-01 8.883992716148401136e-01 4.056497872214588352e-01 2.672681943428136808e-01 2.119225639811961326e-01 -5.997463142801910951e-01 -2.252242246665976388e-01 -4.820336724971368003e-01 -8.507854371604641752e-01 -4.380860506444184121e-01 -1.231316977079004449e-01 -3.350191282107362056e-02 7.369789725747895037e-01 5.925876800856921811e-02 1.245262884695117478e-01 -5.788931200961844326e-02 3.776840139936437080e-01 9.657210752758382810e-03 6.463515095314251724e-01 9.207343079731720170e-01 7.162884774302527013e-01 -3.816471511036712005e-01 9.944212495809812147e-02 3.093567632705247483e-01 9.017174553626672306e-01 9.495392951714050067e-01 -1.029306839352066572e-01 5.985458575267794679e-01 4.567072741024333915e-01 -8.237088891301806992e-01 5.860692183094979857e-01 8.463285911086733115e-01 2.298124774876859622e-01 -5.784281481478150688e-01 -5.167176238396811172e-01 -1.736419747770086008e-01 4.583787458584980268e-01 -9.698192979204773856e-01 -6.314426051620956049e-01 -1.139332801952468444e-01 1.967987403626525467e-01 -7.456140346470290226e-01 6.236900926832902314e-01 -5.642425551884615587e-01 -8.191480530753936229e-01 -7.576643248104628636e-01 9.839969785696351945e-01 -3.520162480396455962e-01 -1.965179263750578276e-01 -4.252477146218835991e-02
4.387715724879168722e-01 2.144423512439790347e-01 3.797232291575274310e-01 -1.531340421989300093e-01 -9.846777881947277322e-02 -2.150560600206170569e-01 2.381429626257913768e-02 -7.744960820104234145e-01 9.485940257218987703e-01 -1.037445932821978722e-02 9.072295707505249052e-01 -3.860682135421023009e-01 5.468468576685521221e-01 -3.737104028169506709e-01 -3.952428810898365175e-01 5.461253837156574420e-01 -3.111665186772232250e-01 9.500003911567354020e-01 -9.437917636213244421e-01 4.946986182169799129e-02 4.005045116959371487e-01 -4.018208497411519531e-01 -8.780736328302916061e-01 2.555938337481673539e-01 3.331094170181314595e-02 -9.659337132281173854e-01 -7.127156535223944100e-01 2.744637558351632478e-01 6.890809618976330153e-01 -1.844094783696699213e-01 4.611515040943046095e-01 -5.866379384242650374e-01 -9.519510658426841854e-01 -7.129129716628401781e-01 -4.264747855784878361e-02 -5.954867767655847022e-01 -4.602477930106405601e-01 -9.658460431368254273e-01 -5.211273126653603871e-01 7.532573489906222441e-01 -4.653712855979990071e-01 8.541507298359551914e-01 8.162408414207644736e-01 -3.990007106469468656e-01 -1.164653717557315726e-01 3.740266607338820215e-01 9.291743069563951352e-02 8.095453303822601754e-01 2.446423820708107932e-01 8.593633762595020986e-01 8.893726902788428035e-01
5.554048211476403374e-01 -5.249175599301754147e-01 6.485570653227370475e-01 9.314983960859994916e-01 9.452022278097866881e-01 -9.310150516537563092e-02 2.180849255225558725e-01 5.510530292096933458e-01 2.832266895181383415e-01 4.440364590338943263e-01 -9.299269517971253673e-01 -4.031010582216412175e-01 -8.829750162358505072e-01 7.141218851743977858e-01 -2.542919442503850380e-01 3.596959031561939302e-01 -4.874401013467397625e-01 -3.048375696950160751e-01 -9.811744598380611748e-01 -2.833324345900605223e-01 8.981883633564207159e-01 -5.642019817366221712e-01 -3.612172672392708339e-01 8.355447720011748292e-01 -9.361926671202105421e-01 -8.698309259149710204e-01 2.596579982156459465e-01 7.476268865590773860e-01 -9.825685353924302756e-01 4.931544739878750416e-01 6.256823420052468609e-01 -8.485651076554665551e-01 3.129106691939156359e-01 1.852440016703638115e-02 -4.023321700723370142e-02 9.111482898621325877e-01 -9.999759328610298148e-01 -5.060425980161673554e-01 4.244653558231670232e-01 -3.508359004265737546e-01 -4.460072872323810333e-01 3.908909051069491269e-01 8.371034962918975086e-01 -5.110485956040193845e-01 -8.382836544647265242e-02 -4.940146343569871146e-01 -2.413334170338676810e-01 2.090776572634220898e-01 5.447575193611160493e-01 -8.641650064111709995e-01 3.721701583746268582e-01
7.468588055836324902e-01 9.370813256418639714e-01 7.383890804278399056e-01 6.171138311119794828e-02 -5.345433440454185892e-01 -9.772023914451402060e-01 -1.390623634150189858e-01 -1.952972799252703506e-01 4.534934270513923948e-02 -4.321640839519513833e-02 1.107129476446608862e-01 8.677203508508068985e-02 5.217911512058579504e-01 4.247491481641825217e-01 2.393641922068792116e-01 -1.478164590476156448e-01 -4.218499439638245807e-01 9.477104824008923956e-01 -3.324519089786592829e-01 -5.623978783603440501e-01 -8.683832244255771382e-01 9.657410931068675097e-01 -7.442885741499363217e-01 -3.557384135916412671e-01 -8.581143104996025173e-01 -5.504601220639091519e-01 -2.127301701127901623e-01 7.922900097612703973e-01 -3.090767760042658630e-01 9.694988745705426236e-01 -9.425359020734092041e-01 -2.966305274597598185e-01 -2.380822215922939744e-01 5.283202627319201206e-01 8.776078266215434631e-01 -3.606204070659446703e-01 -1.350481344191682975e-01 -4.597085168170693681e-01 6.021117726527889236e-01 2.764776122462426766e-01 -8.626197330836855581e-01 2.072889527382224539e-01 5.911491168579532385e-01 -9.359836871484064069e-01 -8.910435578813391544e-02 5.803450826765712556e-01 9.771930362274585669e-01 1.679290870019334303e-01 -9.221754047153563061e-01 -1.071541849641948208e-01 -6.236549694133715072e-01
7.468588055836324902e-01 9.370813256418639714e-01 7.383890804278399056e-01 6.171138311119794828e-02 -5.345433440454185892e-01 -9.772023914451402060e-01 -1.390623634150189858e-01 -1.952972799252703506e-01 4.534934270513923948e-02 -4.321640839519513833e-02 1.107129476446608862e-01 8.677203508508068985e-02 5.217911512058579504e-01 4.247491481641825217e-01 2.393641922068792116e-01 -1.478164590476156448e-01 -4.218499439638245807e-01 9.477104824008923956e-01 -3.324519089786592829e-01 -5.623978783603440501e-01 -8.683832244255771382e-01 9.657410931068675097e-01 -7.442885741499363217e-01 -3.557384135916412671e-01 -8.581143104996025173e-01 -5.504601220639091519e-01 -2.127301701127901623e-01 7.922900097612703973e-01 -3.090767760042658630e-01 9.694988745705426236e-01 -9.425359020734092041e-01 -2.966305274597598185e-01 -2.380822215922939744e-01 5.283202627319201206e-01 8.776078266215434631e-01 -3.606204070659446703e-01 -1.350481344191682975e-01 -4.597085168170693681e-01 6.021117726527889236e-01 2.764776122462426766e-01 -8.626197330836855581e-01 2.072889527382224539e-01 5.911491168579532385e-01 -9.359836871484064069e-01 -8.910435578813391544e-02 5.803450826765712556e-01 9.771930362274585669e-01 1.679290870019334303e-01 -9.221754047153563061e-01 -1.071541849641948208e-01 -6.236549694133715072e-01
2.407476291065120400e-01 1.790613729081402816e-02 -4.035103164825426525e-01 3.075974247851915866e-01 -4.529869312954668548e-01 4.625215670006843638e-02 -2.535005158014465021e-01 -2.614428128535268847e-01 4.693872028190080314e-01 2.972777512905986352e-01 8.515934683576427133e-01 -5.457037129901978201e-01 -1.888944925858750956e-01 7.673614808015318811e-01 -5.821977688896173841e-01 -5.724254746850776510e-01 -4.331192972446289424e-01 -9.374232197028220526e-02 -3.248572262983662196e-01 -9.765254703944146186e-01 -2.061062542860829794e-01 3.782846203057150802e-01 6.704066117691962479e-01 -3.684230288015142296e-01 4.383782212919771215e-01 9.979712700938447867e-03 -2.650156007855375417e-01 -6.340782990391404805e-01 7.331832162462337266e-02 -9.367800354832842569e-01 1.971842843131621503e-01 5.521898782440719522e-01 -5.525509409874147515e-01 2.525457818170888658e-01 -1.753597878474248972e-01 2.421451454483678489e-01 -5.208405170864038869e-01 -3.854854758437951112e-01 -4.834146711647719918e-01 -8.124693561133495834e-01 4.829894627245501226e-02 7.335039222230059774e-01 -1.607351948966844191e-01 -5.602318546814686329e-01 9.791729405283036147e-01 -7.992618048537534214e-01 -9.967202377142769798e-01 2.074614883784178243e-01 9.563221066142002513e-01 3.414642937728467054e-01 2.468836433872481084e-01
1.762616021545484468e-01 7.954274558188358935e-01 7.830614589494160338e-01 6.316749546153679340e-01 -9.282208287662934154e-01 3.835151635177678209e-01 -2.426381159891837225e-01 3.702189089616125806e-02 3.159029311176260180e-01 -6.122995642341033662e-01 -4.553671958668321640e-01 4.372118672023315167e-01 5.660072189180209712e-01 7.006552795499907393e-01 5.504897879887253875e-01 -9.266713871578284856e-01 -7.666125297342096800e-01 5.025613989754018629e-01 -5.215635676007810417e-01 -4.903879721157065052e-01 7.152510623395249567e-01 8.995580522286055203e-01 1.233737160223158380e-01 -6.424389603000468796e-01 5.405038662768004709e-01 -1.523792077090102559e-02 2.625061311270906472e-01 6.789958458274119035e-01 -7.792120741513852700e-02 -4.119853385389671274e-03 3.588222351065015747e-01 3.015718282466601785e-01 -4.624095225112918595e-01 -8.653506661219645402e-01 5.428902767171255306e-01 -3.803173540070825531e-02 -3.415871845327065337e-01 2.128211235030352810e-02 -4.727423426798864625e-01 -3.789768999074052402e-01 2.537068754327000963e-01 1.148996211445649784e-01 -3.628408808403960073e-01 -2.103135582831452410e-01 -4.840508282696296405e-01 1.644822465704312009e-01 -6.767425791124253021e-01 1.962676395300395615e-01 6.516471545120203768e-01 -6.872165629781055163e-01 4.686010386341061817e-01
-5.627098997055879348e-01 -9.371945609948388878e-01 -4.257494453205932228e-01 -6.547106888895870558e-01 -3.932472382431793090e-01 -6.740995549858233016e-01 3.986275064555331316e-01 5.430216633363864620e-01 2.910489525653381371e-02 -5.283862237648737636e-01 -5.399207468024516121e-01 1.143033272411697610e-02 -7.316300740253016688e-01 1.229245259699269788e-01 -3.599959378992023673e-02 3.593375112912873259e-01 4.774145838606502767e-01 -6.697186886574919562e-01 -7.986125854699190896e-01 8.551751472228583673e-01 -5.594569380533072067e-01 -7.995838569999322853e-01 5.861125843659806822e-01 -7.851471466327935023e-01 -8.851818871557459723e-02 -7.857677411140826518e-01 6.514515697348111090e-02 -1.078503776769819122e-01 -6.405595654809410622e-01 9.700810543383715512e-01 3.264529855317495066e-01 2.602567698524071993e-01 1.005412916128820555e-01 -9.401252690370007770e-01 -7.884176529178399395e-01 -3.003826353887621980e-01 -8.991918905229148162e-01 1.033090300503112235e-01 6.137442280485436719e-01 -2.467294026276658503e-01 8.626106287046730881e-01 -3.920749674070089785e-01 -1.784188914322766273e-01 -5.765626984756928586e-01 -1.786871452703187035e-01 -8.142791828664235343e-01 7.411765272395942628e-01 -3.364297268559097720e-01 8.711698271912522440e-01 2.811421635385598083e-01 -8.749665726047968217e-01
7.275199711401658664e-01 -4.301880695447464209e-01 -8.534872238325279525e-01 5.264744086605699369e-01 -9.456188480117733164e-02 8.459374801754893092e-02 4.532715656550145855e-01 6.978102152296441485e-01 5.363999556179643857e-01 4.662874466400348528e-01 -5.160271505922298108e-01 4.406173851094774552e-01 -8.832453883765576386e-01 -1.806621476844314511e-01 2.213445477153201946e-01 -4.881702508762233439e-01 -4.286561449073362784e-01 3.689274936202355804e-01 6.818394707771180396e-01 6.183068402016427267e-01 -9.998730084907441196e-01 8.472201894439046477e-01 6.139303262913040626e-01 9.120248019084662428e-01 -3.054202018120233397e-02 3.251480071450432163e-01 4.676133151800250243e-01 -6.777574603190550384e-02 6.108963972402099429e-01 -1.240249422686681147e-01 -7.419204593796464575e-01 2.843011444859104841e-01 -4.271259389632264813e-02 3.162415440919841281e-01 -8.332941374261713108e-01 3.274462765907861783e-01 -1.811982984736926205e-02 5.106290830485735732e-01 -1.442539988897104664e-01 -3.403787962580149262e-01 -4.459996407465105506e-02 8.390737459691035571e-01 -3.849251225414249689e-01 9.698385970981351356e-01 -7.725175931407739505e-01 9.410303702633415757e-01 7.467233239650739041e-01 8.945240759349066817e-01 -5.268606404353430861e-01 7.150720308956193261e-01 6.070619687199056980e-01
-1.485571789622084360e-01 6.291674809891052433e-01 4.707945803993591749e-01 7.360063997594714635e-01 -2.332384542547596418e-01 9.589132642890412228e-01 7.863886934302706244e-01 -5.805696604912491399e-01 4.836552948254815298e-01 3.262866382594857839e-01 7.736029229838741195e-01 7.160254242710923922e-01 4.985244274870377357e-01 7.402894401105093447e-01 -6.264883130571738956e-01 -3.488665660115020106e-01 -2.541251300910714050e-01 5.874260501673529422e-01 -6.978794609038212471e-01 -6.601146019243804286e-01 -8.376618141003087104e-01 -3.896493166604126923e-01 5.665796036377483968e-01 -6.741876360421066305e-01 -8.587174082293471677e-01 4.021423457830759496e-01 -6.380402417992621089e-01 1.978345007575170733e-01 -1.694727016092096861e-01 2.714449812653629834e-02 -5.586876541076755132e-01 4.511460152702586601e-01 6.988698966190458606e-01 8.577856560272281161e-01 4.718800791314257115e-01 -4.682551851936023191e-02 -1.421405348084636699e-02 1.890405435363737841e-01 -8.479260692566177315e-01 -7.650461613089456492e-01 9.329313320481367189e-01 1.666445808660754757e-01 -8.151561722444033986e-01 -9.727409967379934130e-01 6.738602169357692517e-01 8.295757987906391406e-01 4.091725214072556849e-01 -2.259868046116588758e-01 4.113878099456140802e-01 8.466223130851153744e-01 -4.236942109037569182e-01
9.377831229070943131e-02 5.957980425652105172e-01 6.408037597967626287e-01 -7.559002663395977262e-01 2.040040135828760093e-01 5.102916672916735230e-02 -7.218318837986315017e-02 -5.710851115096837738e-02 2.654256857546628545e-01 8.513277609453271388e-01 6.310058315008837404e-01 8.888835047666752143e-01 8.391702841190795681e-01 -1.703384072979579056e-01 6.516239246063006973e-01 8.925202376788339276e-01 2.560921064707721850e-01 -4.954604152741863832e-01 1.847018056500842054e-01 7.208076221458095123e-01 -9.030951367359592030e-01 7.095970946236387356e-01 4.404280350629781182e-01 -4.080531262859363739e-01 -2.918705564106160999e-02 6.885509960155731246e-01 2.049822880296707783e-01 -6.857083606902456552e-01 5.220449458375497898e-02 -6.248055202368596461e-01 3.408940092658370169e-01 9.749834590852146654e-02 -6.871481919008142203e-01 8.649924772574237863e-01 8.590650852871739573e-02 3.051144591764900493e-01 3.426950526040519751e-01 6.378904482886653682e-01 -9.728825348072913659e-01 6.956895622253005396e-01 -1.298562339936666366e-01 -4.508607350622195753e-02 4.305279626866376219e-01 6.803827006091744956e-01 -7.734940215497789762e-01 2.247244012715736705e-01 -5.572852604607396731e-01 -9.205537470464060235e-01 -4.386862290907469486e-01 -4.126941497362266453e-01 -7.330189280340995150e-01
-8.473834212520856557e-01 5.598375844802292445e-01 -1.231815371182130026e-01 4.469303556618824391e-01 9.559790239932053346e-01 7.699174082086734927e-02 2.240927319875796186e-03 -8.558977332804769134e-01 -4.631220397962576563e-01 -2.349983488800777565e-04 3.584599922418809648e-01 6.074780722087509410e-01 -2.381177337029232177e-01 -8.681273061881897846e-01 -4.237088013840129008e-01 8.191870554392273185e-01 -5.732292928401689913e-01 -9.575207636463378691e-02 8.624120393780434490e-01 -9.502015448993039737e-01 2.010978349282450672e-01 9.002590008272912669e-01 -5.393942419580703973e-01 9.697983847206081975e-02 8.182567497734625217e-01 -7.336611084814996797e-01 4.682516134753167414e-02 5.008197182040696749e-01 3.380264817678275691e-01 -6.449428051003858187e-02 -5.903018194044098443e-01 -1.846822181785912065e-02 -2.552306212298820487e-01 -4.519769029682318973e-02 -2.682192284388140724e-01 6.758359886185212329e-01 5.372950130390186096e-01 -3.720106455746756691e-01 1.452506652879079763e-01 -4.479019033386097970e-01 -9.431413490719919857e-02 -2.940432681112106206e-01 3.147989255595164959e-01 -2.592978340239295854e-01 -8.181404421713711628e-02 4.386482450180830828e-01 -1.740163417723308292e-01 8.128465383286773704e-01 -6.390967615946367975e-01 4.822377458265285632e-01 -1.552519127137192978e-01
6.462206814195838867e-01 -9.477640368602653353e-01 -5.784587201374120635e-01 2.368435386992204794e-01 -8.034310693262016745e-01 2.402626197537176544e-01 -8.922195608031124880e-01 9.213081156084770296e-01 9.608587484301469583e-01 4.225530054244774902e-02 2.731066896710956371e-01 5.295138965384997842e-01 5.299105892336384294e-01 -1.646288408805545167e-01 5.376106126474853308e-01 -1.535964991759366516e-01 8.522071430536630743e-01 3.638529697447967504e-01 -2.630888173506231720e-01 7.178197107056401016e-01 -2.390086400332203098e-01 -8.100914722327845485e-01 -3.502185727263535941e-01 -1.697756277150175297e-01 4.845478977007604549e-01 3.158177351732514015e-01 -5.973663373144064703e-01 6.169758264866920250e-01 5.728048768195355134e-01 -2.101207241917741886e-01 2.123246997811678582e-02 5.923190830040490074e-01 -1.092450082179450277e-01 4.861338210204302346e-01 -8.425018533564481160e-01 -2.470948396664085500e-02 -1.312227102540404200e-01 -5.078841086541674432e-01 7.232814365463413608e-01 -9.599548817640297660e-01 -9.834658033709997582e-02 -9.051542513094836817e-01 -4.545007644300991245e-03 7.175480082560090622e-01 -3.303686871696307481e-01 8.031800623008731321e-01 -7.542248920594412098e-01 -6.851325061334736510e-01 5.747705832735856557e-01 3.298781156581891416e-01 4.404083447968807352e-01
-5.560136578205210345e-01 7.414646123547528056e-01 -5.865616893211471616e-01 8.372218158758431006e-01 -2.317762241034171389e-02 2.234877258052914151e-01 5.318157129606311262e-01 3.683597574588648449e-02 -4.063989968475560932e-01 -6.245575426774967465e-01 -8.385174624702502744e-01 4.768805923979400063e-01 -1.173815542080938190e-01 -6.833802645746975823e-01 7.598740624025577262e-01 -4.518270760155507215e-01 -1.715299618378973712e-01 -4.078401345327040683e-01 2.575758177589666520e-01 1.596756203790901107e-01 1.998583932499751192e-01 -4.683617649289855134e-01 -4.306282387172724047e-01 -4.928235884524250210e-01 -3.448721046225318165e-01 -7.116713986931590963e-01 -6.687742775974647724e-01 9.278610581358837095e-01 9.204534305713876208e-01 -6.231706888081296469e-01 -9.513868767410260663e-01 -5.908889072400986819e-01 3.996872282531149789e-01 5.590291711110595418e-01 -9.541338151218370367e-01 1.553257162595120811e-01 -9.967156545679094481e-01 3.094522381078701478e-02 2.795903522617142478e-01 9.712488056083776744e-01 -4.818048071777885077e-01 6.049937705257404374e-01 7.409661740029662713e-01 8.454992278913397996e-01 -9.955715749351128352e-01 -6.102325648484541176e-02 9.629374752120209990e-01 -2.021103921942990489e-01 6.274649551738362696e-01 9.291299594495550096e-02 5.417081742804490396e-01
