-8.650964358063197857e-01 -5.091702037354869370e-01 -5.198810535532408794e-01 -1.189469541243162842e+00 -3.395124723611313011e-01 4.498874583979255992e-01 7.322683812137407156e-01 -9.441685023030881307e-01 2.504738073529371611e+00 -3.197419702577888323e-01 -1.306705681500681671e+00 2.297797395148174215e-01 1.054255060065818067e-02 6.612317601100268227e-01 -1.150977355738917796e+00 1.025968392086797631e-01 -1.617709887275321723e+00 -6.385752292150354004e-01 -1.551664327897823270e+00 -4.275800829893340316e-01 -7.796219311063248281e-01 -2.134307932555985221e-01 -3.904678053206588340e-01 -1.270475109724436669e+00 -4.320870734577990646e-01 1.369034060694867883e+00 2.663421858565868661e-01 1.107438400375702292e+00 -4.371335027420285013e-01 4.498749908438550715e-01 -6.094585804427444797e-01 -1.271271275461789196e+00 -1.183758595840071148e+00 7.414672175985171920e-01 3.354588878404329289e-01 8.587368951644016590e-01 5.430877911345923792e-01 -2.699782346297419644e-01 -4.352306449671473065e-01 -1.546252968519335358e+00 -1.275506813716002497e-01 7.610194096169580202e-01 -4.302238931395035992e-01 -4.764748953396034659e-01 -4.878649152399214817e-01 2.047127928523801543e+00 -2.413708126252779584e-01 -1.018037770327697399e-02 1.571580568561922409e+00 -1.237437603243677353e+00 -1.476474671408595674e+00 3.223109246408245032e-01 -1.190200299795814320e+00 -3.762389915857256573e-01 -1.525966890884347560e+00 -7.166850629195911093e-01 -1.021200773130650274e+00 -1.666589515958333489e+00 -1.668392464456328050e-01 -6.192433423777765622e-01 2.729605514561146418e+00 -2.118919950739686364e-01 -5.492836454979757033e-01 -4.868360754869109908e-01 1.899433477952053861e-01 -3.981614302181695764e-01 -1.673439345412096602e+00 -5.019199280689391474e-01 -3.842086465905468762e-01 -2.959404390669194695e-01 -3.507064406574416648e-01 -3.532592711084983961e+00 1.952223542928501476e-01 7.880686217330805654e-01 -1.740619619717101552e+00 -1.508468842558026712e-01 -1.338345068118153902e+00 1.502519948268004994e-02 -1.055686572688051550e+00 -5.823189761500967565e-01 -1.050225170184722945e+00 2.001080411826334782e-01 8.822782538542134345e-01 -6.195464227083399139e-02 4.616780891984414437e-01 -1.381100403278752387e+00 -1.099554525189869736e-01 -2.285803084200622504e+00 -5.535565099182272464e-01 -3.847473086056156233e-01 -4.692673437433784144e-03 -4.147078326725746056e-01 -3.484631139884074025e-01 7.254507320280824123e-01 -5.826620179754783690e-02 -1.345189210392563339e+00 8.020621407929461322e-01 -1.352107832014857847e+00 -1.004414147565344528e+00 2.975735809368678098e-01 -2.223273118745549837e-01
5.637801785473008920e-01 -5.205331857593518130e-01 -6.540377154603147503e-01 -1.507558603773296202e+00 3.414771420684355463e-01 9.729478799628238361e-02 -5.874067608495535664e-01 6.886610914348472168e-01 1.805926253414647409e+00 8.425937392912040691e-01 -1.197229627899609739e+00 8.441451031119728832e-01 -5.378288932751326135e-01 -3.093884603349794205e+00 6.567412046745811915e-01 8.126599468662577541e-01 5.114542477450469832e-02 -4.505945760300533731e-01 -5.641845625001037923e-02 1.298702083735779611e-01 -2.290820038861747232e+00 -1.229414230823863696e-01 -1.727119610067749111e-01 -9.779775427040496849e-01 -1.147466570523402618e+00 1.436712344988844148e+00 -1.622069061762327902e+00 1.276661259825725647e+00 4.928196437460499180e-01 -7.183070048467664614e-01 -6.220953625650946783e-01 -5.554389642164814234e-01 -2.172454430857741148e+00 -3.781605057375088674e-01 -3.401955446421782159e-01 -6.470310574693390882e-01 1.858822271728513831e-01 -3.206566171070254767e-01 -1.277682345443829637e-01 -1.607598375148779901e+00 -3.683967700255616484e-01 4.073751104586249561e-01 -7.185252581688005291e-01 -1.752634633433805822e-01 -6.545398734185058354e-01 -7.982925110530861845e-01 -2.310083712394012112e-01 1.113953847933185776e-01 -3.370048045859207475e-01 -1.005058430926169200e+00 -1.884893414309481763e+00 -2.174491925910135293e-01 -1.605946993102262521e+00 -5.683221562201431487e-01 1.684164684783995281e+00 1.436176199784824636e-01 -1.839208455912276330e+00 -1.169209829340078999e+00 -5.099190265864861349e-01 -5.097883521654512640e-01 -1.588378098356542756e+00 5.978366295804206088e-01 -2.873312770768210456e-01 -4.669480877767005489e-01 1.253988849938427075e+00 -3.740847154856828949e-01 -6.736592555233372748e-01 -6.219314828413887719e-01 -3.433371163057662989e-01 -2.634109836700234908e+00 -7.590518742479216430e-01 -1.149734577596936314e+00 2.256899289389373287e-01 2.733875996016604248e-01 -3.563302637733646971e+00 -3.190453176732915841e-01 -2.476514076883964854e+00 1.140973084951108496e-01 -1.480359307818380488e-01 3.715919651430332205e-01 -1.682688991721365657e+00 -1.318209783304273630e+00 -4.356622115606083590e-01 4.989525291630724224e-01 5.307865995339365872e-01 -1.314080235577850697e+00 -2.020903704847121576e-02 9.197733254949205239e-01 2.697179413531449188e-01 6.286881860369369912e-01 -1.304288601803504574e-02 -5.980574766040303025e-02 7.030745066038680824e-02 2.027106573986519333e-01 -6.642820816604538825e-01 -4.663079680487149381e-01 -9.328567356534094301e-01 -1.264601395796689509e+00 -2.162350945891179099e-01 5.974713491252429121e-01 -2.293014447114699039e-01
7.958201756761899490e-03 -4.147971314302247303e-01 -8.149051881012498999e-01 -1.452597363814227993e+00 -4.905214113738804449e-01 -7.524745571048643833e-02 -1.818448227814215001e-01 -4.960136787166904981e-02 1.684710741716639149e+00 8.857824149386532842e-01 -1.195008358557853478e+00 6.223948458534483974e-01 2.356855785181496965e-01 1.720310426960837802e+00 -2.573094723289737762e-01 -4.593319076731396944e-01 1.309499868203690964e-01 -3.801868697375575534e-01 -1.497621779442396550e-01 -7.538846194786321675e-01 -1.236272034523706376e+00 2.696967293885729200e-01 -4.642499878186204243e-01 -3.699943462186024157e-02 1.801767678668984463e+00 1.084284407508065762e+00 1.591612423962604841e-02 7.495027525392433665e-01 -3.640293742855472692e-01 -6.708870253886609625e-01 -4.823801488011205674e-01 -9.579757631575276378e-01 -8.315192155874604474e-01 -2.687909025673222430e-01 2.745807628154384172e-01 1.037260069196818402e-01 5.879209776789461328e-01 -5.034709751847172426e-02 -6.505073397465150897e-01 -1.022280221373969678e+00 6.695424426284833919e-01 -8.206185224294074709e-01 -1.544747051263938541e-02 -5.973621291599171546e-01 -3.696799818273841520e-01 -6.355610349944669502e-02 -5.243106929483346557e-01 1.884158479728468005e-01 -6.880931568100768780e-01 -1.258372940339233859e+00 -1.306072929582454689e+00 -2.263214365264502592e-01 -9.839054211729310051e-01 -6.598679362395566406e-01 1.284515524425462907e+00 -1.255168251301249649e+00 -7.741461625943920621e-01 -1.307111323990397977e+00 -4.682733667977576619e-01 -4.578431352603229421e-01 -9.361998162273732493e-01 1.293684549303004971e-01 -4.810025242197938367e-01 -7.283063197194792338e-01 -9.068073558589564431e-01 -3.150937650280693503e-01 -8.579903210393597934e-01 -9.085961836575194850e-01 -3.714220554052901635e-01 -8.301749469705557161e-01 -1.256278906708803600e+00 -1.035151647942822883e+00 6.307093314455878286e-01 -9.550107259538141991e-01 -5.599973741774649794e-01 -2.356825190472967013e-01 -1.157289826436466829e+00 -4.421131647087379601e-01 -5.231238591117138848e-01 -9.327348467804514875e-01 -2.775406911138439403e-01 2.677179641027057078e-01 9.645657730020336107e-01 -2.049622054245590352e-01 7.206043004022649745e-01 -1.926507350859850032e+00 -4.974137011133603625e-01 1.134568618972951359e+00 -3.816363582809075616e+00 1.655698556787404963e-01 -3.944836253117249281e-01 -2.527714219771259319e-01 2.468409095326948410e+00 7.966331053384041738e-02 -2.703416163186104448e+00 -6.215899722003297434e-01 -9.438425044467596559e-01 -1.341707680976155226e+00 9.661228400114565407e-01 1.175448427388038786e+00 6.922652289432833506e-01
4.614357494099446955e-01 -1.331394401059614874e-01 -1.631691141401810374e-01 -3.024866868035027134e-01 -4.278008427685953685e-01 -1.070034708459853601e+00 6.792848045181155703e-01 -1.387132977561277847e-01 2.130726054676499448e+00 -8.173960906106443602e-02 -1.123304637331818956e+00 -5.110920254316991818e-01 -3.773097538385626892e-01 -3.649294838632505811e-01 -9.711109062148705062e-01 6.631200737534418410e-01 -1.312909779155463363e+00 -1.064073605151065971e+00 -1.225012678156316426e+00 -6.255719461253517188e-01 -7.253290477662300839e-01 4.027078735136973009e-01 -4.901674141502381232e-01 9.525456419888054249e-01 -7.918455599999172367e-01 1.259300227741926070e+00 6.173468295024565622e-01 1.169878443512119004e+00 -3.337875109956116026e-01 -2.938434382227630426e-01 -8.010882531730508793e-01 -9.598762001592375803e-01 -1.463016514679105651e+00 9.066197372060154080e-01 3.939623061171832474e-01 -5.677779275073420173e-01 -7.707372063418236330e-01 -7.260287822665849600e-01 -3.974300084396167332e-01 -1.473714373609446016e+00 3.366345378762677920e-01 -6.785725708908725284e-01 -2.682713403241055450e-01 -5.089902042236902346e-01 -5.791693785538822858e-01 4.138718169642872924e-02 -5.213465228578600952e-01 -7.137169356136346954e-02 5.558519633969991602e-01 -9.402272738524695139e-01 -1.169418414259238981e+00 4.446377226444728908e-02 -1.188362566799131548e+00 -4.431356161354602641e-01 -9.484307440707436809e-01 -1.020528859934825450e+00 -1.345604793541393729e+00 -1.515270801996774219e+00 7.438972507973051762e-01 -5.344094067219642419e-01 -1.083194720221045820e-01 -4.332145903504173168e-01 -4.451599470258064684e-01 -1.033103032323055281e-01 1.414986512737351487e-01 -4.394101667529616284e-01 7.551427816846044694e-01 -8.962240393847086262e-01 -5.677751025084019076e-01 -1.120435142362950387e+00 -8.163441045095077842e-01 3.954984530053523795e+00 1.485766009211669569e+00 7.531323854315107313e-01 -1.038984907121778933e+00 -6.599036366610158688e-02 -1.602213515371548436e+00 -2.354529886468105515e-01 -1.299988467454550989e+00 -8.410377418719122700e-01 -9.512365421522305242e-01 9.382017004428465645e-01 7.570839598743659415e-01 -5.512618264368147614e-01 1.469773191298741732e+00 -1.119633495654102084e+00 -3.392294140205376340e-01 2.366820963217698193e+00 -2.324823683028105770e-01 -5.464306751500614956e-01 -3.281825890360747233e-01 -4.004843156095484469e-01 -5.405300846736912357e-01 9.242353976471735788e-02 -2.029517129842904333e-01 -6.613533083643260424e-01 -8.995133305589861905e-01 -2.618931599949469557e+00 -7.576860390013552271e-01 -1.116710275278975928e+00 5.429050187663009286e-01
-1.393931090351671731e+00 1.317018768025334241e+00 5.404464983514959547e-02 -1.165143475820627161e+00 -2.688186076923906875e-01 -4.071291979557591922e-01 1.127506413635805463e-02 -5.485373154264516771e-01 1.377470043811080957e+00 7.688458851771426961e-01 -1.004524385720838131e+00 -9.885955945385290766e-01 -8.998241009244406508e-01 1.993411351740243864e+00 2.203455207824507600e-01 -1.710577284310638713e-01 -1.442030533890621857e+00 7.107831082288398328e-01 -1.240448347472986379e+00 -6.155324867481902773e-01 3.756136670029056601e-01 5.016006336936692511e-01 -2.540830150118448261e-01 -9.717644588919395199e-01 -8.995832172902211710e-01 1.394234870630260525e+00 -1.015562159214930871e+00 1.300309240288739510e+00 -2.780827547648693221e-01 -4.295670275357366119e-01 -9.529150740516161289e-01 -1.314971584797795412e+00 -1.590104799412846992e+00 -7.248588244668208169e-01 3.751691533604299966e-01 -7.054712497331939725e-01 -5.893429018240652351e-01 -5.246429882016427904e-01 -3.582558720747414660e-01 -1.927903283909997656e+00 -1.872655938269958409e-01 -1.088610322827161303e+00 -7.052098441013102681e-01 -4.303608610622160491e-01 -1.394176838064468960e-01 -2.619875973144630166e+00 -5.881862526834219507e-01 5.850906529477476470e-01 8.620263446306122290e-01 -1.105204250723083925e+00 -1.321586358088761237e+00 -2.305017772158343692e-01 -1.771847182660919451e+00 -2.466058387044987033e-01 1.503913938692481578e+00 2.581745301417287530e-01 -1.522601327481163613e+00 -2.098436364723915037e+00 5.786460356626884627e-01 -6.055751171046842574e-01 -2.654101138028277518e+00 -6.768532257273807140e-01 -7.065088003109214476e-01 -4.059539151484781727e-01 -8.658801695592525105e-01 -4.091283385909075809e-01 8.824277356791054849e-01 -5.907561698132961503e-01 -5.497184759005110388e-01 -4.760149328355071097e-01 -8.015500160907953475e-01 -2.398795636531550368e+00 -8.722055598073881477e-02 -5.084555840733955279e-01 3.761636911846273801e+00 1.759196583596552566e-01 -1.188231064500973932e+00 2.171427250900805767e-02 -7.328043702241608670e-02 2.532529369223043059e+00 -1.218922982829175217e+00 5.305999589426606544e-01 3.966064470164731293e-01 -5.443914671913865910e-02 5.876389399026242799e-01 -1.327496266032189176e+00 -9.635176488112012771e-02 -2.006237209591852810e+00 1.264008164021361291e-01 7.549279673210012032e-01 -1.410659728101902599e-01 -2.667102554810769632e-01 -4.528583631193079939e-01 -8.642080717183442395e-01 -9.318805413148518735e-01 -4.986355403183856949e-01 6.382827643760103919e-01 -1.549175557509724799e+00 -6.436196102625776350e-01 -1.646708864058771038e+00 4.404016025442791249e-01
-1.473392836695952779e+00 -5.889841503423094426e-01 -1.181787254644588225e+00 -1.429904350553194314e+00 -2.997197547716755062e-01 -2.985301731346376997e-01 7.660253135402191882e-01 -9.417016501788334493e-01 1.958937610801430029e+00 -9.015813477749982097e-01 -1.518545239314117001e+00 2.208579005116624583e-01 4.625936316511222168e-01 1.387169173404700251e+00 -1.047469525221264686e+00 -4.213690820834159467e-02 2.498058500976295115e-01 7.308782064349950147e-01 4.241260214931092065e+00 -6.243685718898809300e-01 7.337444687356334261e-02 -5.043720128767175126e-01 -2.269493533682914455e-01 -7.734897087506603652e-01 -2.140240217192463934e-01 1.163555943463886466e+00 -7.939505799004333841e-01 1.239758524363732795e+00 -4.473019800751151798e-01 4.359118920092425187e-01 -7.748124613942815042e-01 -9.079912086173640429e-01 -2.116234016134638019e+00 -1.199466413163596951e-01 -1.993460249946452101e-01 9.282472828716838986e-01 3.814015135988234051e-01 -1.719648226985792117e-01 -6.974075149742854363e-01 -1.547187959255148959e+00 2.566721050396336690e-02 2.274284086252117421e-01 -1.269216939244721010e+00 -4.412709324635494812e-01 -4.988551139875995744e-01 -2.334357302001716095e-02 4.084875732994162900e-02 -1.463592922354752246e-01 -6.558400467948886092e-01 -1.982445891206902733e+00 -1.707790358314994261e+00 -1.740759679361134765e-03 -1.722410947659243519e+00 -4.070532268843831125e-01 -1.183390246817626723e+00 -1.275641224793470974e+00 -1.485299747885057586e+00 -1.402278848264182809e+00 -1.529137375297272561e-01 -4.886216496289909617e-01 -1.260070584968882024e+00 2.769006319168822561e+00 -4.738197002561704840e-01 -6.458477024655869814e-01 3.162035161307705233e-01 -5.710160104436253770e-01 -6.804619788664222346e-01 -7.083273910457086320e-01 -2.190401068469769175e-01 6.992144041286670886e-01 -5.986362010622701124e-01 -1.123688905515039416e+00 7.410197511603167086e-02 7.078794436895736730e-01 3.522033869367331871e+00 -3.583750918167972338e-02 -2.172504035924979426e+00 -9.623314337534025209e-02 -1.655456983690632988e+00 9.276060366982927796e-01 -1.763754776433418936e+00 4.204282412224456533e-01 8.747541206526336932e-01 -5.117708505963524113e-01 6.031522628559801147e-01 -1.708077643637076370e+00 -1.082242857859249952e-01 1.283946541504182637e+00 -1.571738345694501326e+00 -3.875216462498636272e-01 -1.895353213286516958e-01 -3.019896872272953559e-01 2.773745845424586687e-01 6.710646268603180919e-01 -1.138746325284023975e+00 -1.105564004048020799e+00 7.943477666014392424e-01 -1.594002193676948398e+00 -9.467148709480252000e-01 -9.555227863204802663e-01 -1.641187932177370634e-01
-8.682910321188986869e-01 3.914175807021560982e-01 -3.145528702938803212e-02 -1.103583151208989754e+00 -6.430290064621015933e-01 8.592707155387603601e-02 6.697149669731865540e-01 -5.809121079545436217e-01 1.548951204880255617e+00 1.449505205409707675e-01 -5.940581233375713532e-01 6.812301286208031215e-01 2.580184828094050919e-03 1.719398184283114084e+00 -8.289495545492497897e-01 -4.076357692100414654e-01 4.546044470555092309e-01 -3.000120684104958801e-01 -1.246797840983925099e+00 -7.383206120821901308e-01 -1.014514521020349447e+00 -1.125204661898695280e+00 7.634346139977209456e-01 -1.431827031475558565e+00 -6.660673679951476522e-01 1.444760340320444536e+00 -4.314037819440563748e-01 1.119303467697423837e+00 -2.389132975383775614e-01 -6.896179240599095012e-03 -6.774849002415107568e-01 -9.513457548341600623e-01 -9.113702676704653616e-01 -5.801034040648066492e-01 9.142454757534300425e-02 1.509874485781932847e-02 -1.512929317247570238e-01 2.490892283711075017e-01 -7.949972419193919171e-01 -9.130928721293707362e-01 1.127085569156907052e+00 -5.342485272311602307e-01 -1.414131474065891680e+00 -7.360241750551429485e-01 -3.204397229683424442e-01 5.411444772522624458e-01 -5.417575756642974832e-02 3.044084665402090328e-01 -4.502750828620983858e-01 -1.395814843437727326e+00 -1.386360426289291459e+00 1.308436634353334627e-01 -1.421111697247288363e+00 -4.932997571630673428e-01 1.337079284951798064e+00 -6.104136766342431741e-01 -5.604615156186731895e-01 -1.257172325243658850e+00 9.571321616275783040e-01 -4.368744449267599750e-01 -9.787346113722021901e-01 4.436333758825651286e-01 -1.210318965887338671e-01 -7.309658796500214661e-01 5.428955714812201405e-01 -6.052246880238660864e-01 7.388444623129584166e-01 -4.767809409493255490e-01 -3.202327809787336443e-01 8.224823895909085802e-01 3.157455120907223245e-01 -1.135361108859447521e+00 6.667754890330461759e-01 7.148238209586954550e-01 -1.119011191354226664e+00 -3.005324283989097012e-01 -1.443103985707334447e+00 -1.353805867041881217e-01 -1.318423896164557130e+00 -1.713238915826156283e+00 -1.178859581253707267e+00 5.729048600205141062e-01 -6.201987608707718591e-01 -1.205269630463261764e-02 5.375925459550272983e-02 -2.019072063156403640e+00 -8.541693926806562254e-02 1.111206331545987247e+00 -3.339939354647038616e+00 -2.625441118379175792e-02 -3.923887860697278240e-01 -2.880191024118776699e-01 -1.469633952346351413e-01 9.583616799896264027e-01 2.749785294844719896e+00 -1.493151185092442379e+00 6.452768118736104119e-01 -1.044787773437752865e+00 4.480891106520359934e-01 8.641846570684098561e-01 8.729959822280838333e-01
-8.244902346454396902e-01 -1.078687834937581025e+00 2.365088902454236253e-01 -2.020400767017133337e+00 -5.018999380735212484e-02 3.178215073769402599e-02 3.996069802955969918e-01 8.161028315302015779e-02 1.824064551560063974e+00 7.749369860977367575e-01 -1.263209765811159402e+00 6.939329502019572216e-01 -5.161843381066183456e-01 1.921571312017022137e+00 -6.081789772583713338e-01 9.029738068353014846e-01 -7.816698586360916190e-01 -4.237178843934848449e-01 -1.509452650783782213e+00 7.458848111596295960e-02 -6.156755414159165163e-01 -7.001471392436502406e-01 -1.811902178325069113e-01 -1.716633182030777638e+00 -3.093070450646790981e-01 2.224637772330646079e+00 -1.038128555992577029e+00 -1.671646176696681696e+00 -1.418326499351565961e-01 9.518113073357278298e-01 -2.185281267113602155e+00 -4.068637355352597296e-01 -2.181750725770680965e+00 -4.342622306917827135e-01 3.724201000002237971e-01 -9.286408388713205397e-01 -3.069229851236721096e-01 -6.365032836690923679e-01 -2.241242275761694547e-01 -1.942775471816462263e+00 -3.761971159313211993e-02 -7.324826529423014154e-01 -6.260822856605857689e-01 -3.987658583271644908e-01 -5.049584610902203147e-02 1.074930098397985478e+00 2.186488528249635188e-01 -1.501743108876350541e-01 -4.308383241443516920e-01 -1.518959975865231460e+00 -8.944149477448396501e-01 -5.705750666453093256e-01 -1.156712158912782673e+00 -4.433784891928769789e-01 -4.643534371067750688e-01 -1.183250749029449267e+00 -1.448278490076637004e+00 -2.138318569026660843e+00 9.850072649444604478e-01 -3.930029642664898959e-01 -1.649908113530173415e+00 -1.529878298469425635e-01 1.423215497743442540e-02 -7.347106082622135992e-02 -3.358800736159737732e-01 -1.267374649038374823e+00 -7.378726682845861973e-01 -5.257604744902742988e-01 -4.075287553895468595e-01 -6.943040452239390703e-01 -4.686223997143447173e-01 4.340592192585436493e+00 -5.525702965592357296e-01 -8.954724771027322561e-01 -1.564767120102236397e+00 9.304035120135270009e-01 -2.201257108099869519e+00 1.442531864556594545e+00 -8.788899636139488880e-01 -1.040103123102350757e+00 -1.906322659139356279e+00 -1.541969366574008106e-02 -7.987604599000955874e-01 -5.368472101355295512e-02 2.447992935230624417e-02 -1.245164669388211687e+00 -5.408708028464930262e-01 -4.486979772255531351e+00 -4.633933194283649248e-01 -6.447794447061163670e-01 1.433141299725763929e-01 -2.200451062743817576e-01 -4.797516119339473306e-01 7.898190677801749660e-01 -9.205083869376409211e-01 -1.318191984911147641e+00 8.037043353400248336e-01 4.449735507149171099e+00 -9.914756368976924694e-01 -2.502948439309899409e-01 6.479114518923347887e-01
-1.175865709692906824e+00 -1.801777865981770255e+00 -7.865508864310257753e-01 -1.354182106464603574e+00 -7.556767524083873866e-02 -9.928193579795814294e-01 -9.126458388090852303e-01 8.536265327662861946e-01 3.908751720640655236e-01 -7.949502231013456655e-01 -1.396315231108191668e+00 -3.237538163970056226e-01 -1.033014821343074541e+00 1.107730979341360555e+00 -5.195305560402755374e-01 8.282535813794504875e-01 4.883527665938373064e-01 -5.529974425199875310e-02 -9.402676829166428663e-01 -4.388459476833520001e-01 -1.482250803735876810e+00 6.735285305051003091e-01 -1.502755358323581425e-01 -8.905785230878670022e-01 -4.397821125870085557e-01 1.617521635845127870e+00 2.577350248219394402e-01 9.482221568409592294e-01 2.648345578508586873e-01 4.166176661833461692e-01 -5.309226747046957851e-01 -1.464478663685115256e+00 -1.905821354694830827e+00 -3.826781923894892468e-02 -1.339041588441437503e+00 -8.624170355431736157e-01 4.243128057037327122e-02 -1.146900882288534262e+00 -1.837196946708997136e-01 -2.287814336732550746e+00 -7.611464992327218182e-01 -9.907059218177844961e-01 -3.217591648188096176e-01 -1.930841550411165619e-01 -4.207563997046702142e-01 -1.714493480183723884e-01 9.622341562080946042e-01 -2.086301984541248711e+00 -6.043856964734497517e-01 -7.469835883219907435e-01 -1.503207156044998660e+00 -6.838056671837086098e-01 -1.452161594700891900e+00 -3.284721973515103977e-01 -1.393840573129737415e+00 -7.606308102291114981e-01 -8.666627630090329992e-01 -1.600550322963945504e+00 -1.451971545791027329e-01 -9.095476722875798226e-01 -1.338981037480541758e+00 -1.404606534408500140e+00 -1.025818008545951843e+00 -6.755350807391220513e-01 -9.380281623931771007e-01 -5.105932637189867229e-01 -7.594321312794877210e-01 -6.843444232525541793e-01 -6.428826906476182712e-01 9.584900763630439524e-01 -3.821855448535075861e-01 -1.267315776958776175e+00 2.456847535602854887e-03 9.996062047698219821e-01 3.535190407462037054e+00 -3.726082715764262310e-01 -1.082014762326027668e+00 -5.777618857301190097e-02 -7.732765333601305802e-01 2.373440994821403027e+00 -7.452235829496633990e-01 -1.921698112088124022e+00 -1.050140725603591341e-01 1.314930395177104361e-01 8.147590057512140715e-01 -1.407169764586714278e+00 -9.644212566052148272e-01 1.296748222925499849e+00 -1.612123952103643232e+00 -1.645088071819974032e-02 1.508639385364343444e-01 -2.041070110781696423e-01 -8.004044403723605816e-01 1.339944817010270128e-01 3.931799437790929330e-01 3.242251176620173148e+00 7.464483863750728254e-01 -1.561126730081001446e+00 -2.815714004612055454e-01 9.868676211490200467e-01 -2.292889159635213558e-01
-8.513621451265632745e-01 -3.788858103524093135e-01 -7.163389772996918703e-01 -1.645501828628019192e+00 -1.524915267848407086e-01 5.744098728995253866e-01 5.964693477628073559e-01 6.994514497271024922e-01 -9.815470148600684563e-01 4.343758065107076183e-01 -1.635043539875766117e+00 -6.480698311940985556e-01 -2.974877752637761219e-01 1.462039606424084148e+00 -7.382314751062352132e-02 7.239172338660666561e-01 -3.319636913884210228e-01 -1.480755251789281912e-01 -1.296475835635753970e+00 4.187709201515717461e-01 -3.688023965199914711e-01 1.041541505486829333e-01 -7.807235212084352449e-01 -7.391170690463003679e-01 -1.415519379121990884e+00 1.728935942234572476e+00 -8.452765333926655356e-02 1.682030583689381631e+00 6.385743406654260657e-01 -1.082698438478597314e-01 -7.043277533061198525e-01 -8.080956728004430323e-01 -6.445151560113440148e-01 -4.918900220359770925e-01 -1.039120986629253895e+00 6.405162886422520463e-02 2.107054225377759382e-01 -7.364443730539907973e-01 -1.582959915590126942e-01 5.054347294997524997e+00 -5.323869903703218887e-01 -3.426221389822913799e-01 -1.267553062519859441e+00 -2.714050843040687888e-01 -3.985811260734229977e-01 3.652289241900989469e-01 -9.553603058934236891e-01 7.763063115328054931e-01 -2.584852593105565477e-01 -1.002479730354411958e+00 -1.796558480266336799e+00 -2.026211035033675667e-01 -1.789234381659868811e+00 -9.919892495352995720e-02 -1.605949046690484883e+00 -5.904455452716210750e-01 -1.340102423391961617e+00 -1.178480907665516053e+00 9.205240061792833162e-01 -4.957814692801170708e-01 -1.359118162011933029e+00 -5.221196303113978532e-01 -3.813086436681247804e-01 -5.575935139802902230e-01 -3.231119024494472081e-01 -2.740197150205465060e-01 -6.812469306839643579e-01 -9.075135897464869927e-01 -9.089968098402732011e-01 -4.000670769261063242e-01 -1.047559331644011493e+00 -1.065725465445104048e+00 -1.403069939634190438e-02 -2.291130611682337948e-01 -1.939563347885166378e+00 7.821065138340749234e-02 -2.303112334833430808e+00 -4.035451551892978161e-02 2.641869705302262727e-01 -1.089483369436011095e+00 -1.893240245327992399e+00 2.384547861562628102e-01 -7.996964904802277285e-01 -4.014507340993956896e-01 4.032623010094590343e-01 4.720542895152139706e-02 -1.071146361583234508e-01 9.164041084409473292e-01 2.977675228911752736e+00 -6.651807471864497057e-01 1.806971935569606225e-01 -3.004560641107172914e-01 1.684745599938052951e+00 5.468745359678731655e-01 1.542023105579545028e+00 -1.139971382145954282e+00 -6.965988027833415197e-01 -1.596998340810362960e+00 -7.954238560271273961e-01 -1.458344214650534987e+00 4.852366112109876561e-01
-8.878442071354278875e-01 -3.353819014670227777e-02 3.678932853730580016e-02 4.881400463743175600e+00 8.236359778335745896e-02 -6.167335264012938634e-01 -3.367468927269952617e-01 4.410897731271674060e-01 1.550947921184413492e+00 -5.802751323880624978e-01 -1.110835926857429268e+00 -9.276839506250449396e-01 -5.367517178957663671e-01 1.535753990080738651e+00 -9.083549570857753219e-02 -8.038268507124838314e-01 -4.319603245420725601e-01 2.009999921105863341e-01 -1.500743347201806133e+00 1.608676433950986459e-02 -6.909752946604852397e-01 -7.476763738910882084e-01 -3.906366283830421393e-01 3.713940757285334460e-01 -3.059361825373360655e-01 1.564119752706727873e+00 -1.418137333916501985e+00 -1.920872371583271843e+00 4.290101732632354281e-01 -2.891812863406326151e-01 -2.334838598709525037e+00 -1.801759151442176576e-01 -1.315746114573706160e+00 -7.976305553295988116e-01 2.808949526660806661e-01 9.638922699853940124e-01 7.928082960502264021e-01 -1.080404960512522994e+00 -6.703540356009218826e-01 -1.587748895575514130e+00 -1.848298116721696499e-02 -1.799230100463191373e-01 -4.504587070772224644e-01 -1.703463026417888493e-01 -1.073315355335726196e+00 4.733442374032060806e-01 -4.405151056368825646e-01 2.105997469484603424e-01 -2.716427260398984744e-01 -8.773357936022260217e-01 -3.993426062798408616e-01 -4.303680679104678886e-01 -1.258809785601322284e+00 -2.817477388480859046e-01 -6.500615026839895449e-01 -4.949935845734205198e-01 -9.939935230082510564e-01 -1.675689769062509438e+00 -7.028038050448095486e-01 -4.466835705858150929e-01 -1.293930061437181811e+00 -6.717866455236118917e-01 4.180224460080149140e-01 -5.055066558002802024e-01 -1.523219207075042769e-01 -1.507625513783922955e+00 -6.156542029534716187e-01 -9.019104349600445270e-01 -5.890610336547789094e-01 -7.053327448641256714e-01 -5.095369059668463096e-01 -1.122299820170219231e+00 -6.619388817081982568e-01 6.653804961538205553e-01 -1.209799392837522136e+00 -1.851326330669184894e-01 -1.263957025537473022e+00 1.134132258084529887e+00 -1.290081482305593497e+00 -9.425997863606109251e-01 -1.155850314622588693e+00 -3.281742555939851647e-01 1.146724442695690321e-01 4.696350344836546231e-01 4.199027147342901944e-01 -1.695498888928419046e+00 -8.056453409694908085e-01 8.015392712308171408e-01 -1.005903216700772429e+00 1.518491528206416807e-01 8.872251096335243004e-02 -3.092078610964014151e-01 -1.526494461900114452e-01 -5.141581329691501390e-01 -4.511869003032910608e-01 -8.235233903242535902e-01 4.607654206766362281e-01 -4.321097164132383206e+00 1.920320305633182734e-01 -5.236607860251096813e-01 -1.044398831810664091e-01
5.288920648915618195e-01 -9.098021390336073766e-02 -4.114050595658553244e-01 -6.934187833543187240e-02 -4.782267120937063083e-03 -3.645514018942456191e-01 -9.517877873967607316e-01 -7.019691535626598755e-01 -7.826767063365068777e-01 8.575027569089285762e-02 -1.483250204576393561e+00 2.326397571879766368e-01 6.555785295310612160e-01 1.081736947971932095e+00 4.029833230390222204e-02 -4.207372406923102770e-01 3.204145975503258081e-01 2.327745954004934448e-01 -1.951435460362373586e+00 -2.288314970429852491e-01 7.839814907067285121e-01 4.545390049473645444e-01 -5.785567697248339414e-01 -1.061950666503524765e+00 -3.468820765604817558e-01 1.517153205956029982e+00 -6.444930179551232319e-02 9.371735222248417374e-02 8.114983205264177935e-01 -5.881214121011858476e-01 -1.104565524488690054e+00 -1.091994647917876149e+00 -5.559625938390371225e-01 1.455109682605512655e-02 2.117693823267949860e+00 -4.170526682497663340e-01 -5.906477637866344721e-02 -1.025256025642388602e+00 -6.092373766338371466e-01 -2.442202832404204216e+00 2.373675403726213939e-01 -7.635175383505482527e-01 3.339931517052319165e-01 -3.876399892229249744e-01 -7.191094557935435727e-01 1.605572177090312191e+00 9.994686183752089503e-01 -3.190863067583997292e+00 -3.744874241112318147e-01 -1.182279528611106301e+00 -2.073912236889338789e+00 -7.624479098332197502e-01 -1.622982266810453433e+00 -5.118644858737886327e-01 -6.199949688688102256e-01 -9.817481326723304091e-01 -6.136586925733956699e-01 3.931083803030257506e+00 -3.627872215930934563e-01 -5.294816837156688383e-01 -1.737711260109390254e+00 -8.211531019480631244e-01 -1.135942502107664537e-01 -2.985539042166403534e-01 -3.136421513073788803e-01 -3.681112224202894856e-01 -3.426640681358786855e-01 -9.186909680661968780e-01 -5.883765797253759366e-01 -3.920971553815202904e-01 -8.747096657502857475e-01 -8.196918769276290151e-01 7.689232990745658025e-01 -5.634022519705291776e-01 -1.780224486696089903e+00 3.669776453035322183e-01 -2.354967502798826773e-01 5.610117492182676857e-01 -1.299670078104653959e+00 -1.594630919748617703e+00 -1.438578078325188248e+00 -1.899370641433074658e+00 6.127756939262368752e-01 -2.377890503711846126e-01 -1.257470519574228174e+00 -1.211933744378686922e-01 1.299209824106982047e+00 1.041974525577586297e+00 -1.336898856742963382e+00 7.481543579021502355e-01 2.076017357007770292e-01 -4.556086455190004325e-01 -1.575978178220265313e-01 5.100403898018783799e-01 -3.440468666667975683e-01 -4.670773219296915912e-01 6.747488257150346946e-01 -2.037274143099306045e-01 4.286471087289720483e-01 -4.221552320458196728e-01 -1.499764582362640535e-02
-8.949686679215311802e-01 -9.851058718943678238e-01 -4.383898745430767074e-01 -1.739370439134730661e+00 5.808702112458273836e-01 -7.487510306413466266e-01 3.002299077243925085e-01 5.784302431163633740e-01 5.253445130944616598e-02 2.989357672119221099e-01 -1.689664708056175746e+00 1.958130409286018003e-01 4.132475066951827453e-02 1.239297077179486894e+00 -7.058220546195295153e-01 -4.610492794479140351e-03 3.957736850859726596e-01 -1.798310314827867296e-01 -1.874263857378122067e+00 -1.291684815946436138e-01 -6.379029124134915074e-01 4.960455844332126163e-01 1.454317645784492630e+00 3.639591197015020207e-01 2.025820210298396803e-02 1.155199728925658809e+00 -1.344174459463142735e-01 1.268042142856661281e+00 -4.550450959371057369e-01 4.026197872097145858e-01 -7.364213215914976463e-01 -8.079696950374749553e-01 -2.742792530258629569e+00 -1.378357353954873521e-01 -2.997262812018232303e+00 -7.140907194013275117e-01 -6.079058474656979794e-01 -8.435132731112818805e-01 1.782484266427988018e-01 -8.730102757689133242e-01 -1.142065114227800660e+00 -9.512402064648981526e-01 -1.017002196348542498e+00 -8.416150997756478569e-01 -1.587176302306516906e-01 3.738320948095061880e-01 -1.737290985162315948e+00 1.976582565522345902e+00 -4.990140239317167326e-01 3.503928900224141163e+00 -1.474406986992097934e+00 3.104919403845712855e-01 -1.760217160263966241e+00 -9.158177909830079733e-01 -3.264831840212361613e-01 2.704575224705789704e-01 -6.478013811553521295e-01 -7.704614851653363017e-01 -1.889742516218905211e-01 -4.450837201212574645e-01 -1.294260644509486469e-01 -1.091518251557865193e+00 -3.608751100108638643e-01 -2.945625834961914657e-01 7.884125427676650366e-01 -6.173184969683882528e-01 -7.617921864681957977e-01 -6.683495646910572185e-01 -8.745711763345932477e-01 -7.270866018771733330e-01 -9.696050590176797934e-01 -1.108820902885460313e+00 -7.837806711545172167e-01 -6.752683458555194251e-01 -1.085514730082839163e+00 -5.028410071166001805e-01 -2.834915281469047033e-01 -2.810761575915639021e-01 8.138639757726553459e-01 -1.271812733839460474e+00 -6.942981377856208836e-01 2.059866927664151248e+00 -2.226291011098602279e-01 9.135798734612354810e-01 -2.192416846847332845e+00 -2.164498226304399697e+00 -1.943994059237807104e+00 9.603711674078792004e-01 -8.764760851275580356e-01 -3.217060097760890414e-01 -5.364193489386298586e-01 1.030449190705279516e+00 -6.356274385648341685e-02 -8.771678578963387762e-01 -6.485180990780776700e-01 -8.040935131423354587e-01 -4.263156942229974211e-01 -1.379592908051208378e+00 6.810379421652488219e-01 -6.225796428403312932e-01 6.037457696884619418e-01
-5.963598971964446660e-01 -6.578270278831169771e-01 -1.642876698292451976e-01 -1.423740810874331908e+00 -3.243468673712465722e-01 -5.929172472800949834e-01 -3.746551603029442123e-01 -4.348711115251493453e-01 -2.194827736323587686e-01 -1.793877546726196093e-01 -1.265811911079583796e+00 1.223947438794642933e-01 1.511068858312289709e-01 1.405507001066721440e+00 -1.077425683352682073e+00 -5.932501379747219250e-01 -1.867772275507667834e-01 -9.410157184032824640e-02 -1.751029686354765635e+00 -2.979852439960591348e-01 -4.047280216644438267e-01 -4.870656714336086268e-01 -2.028555634247322548e+00 -5.555934832308035976e-01 -6.522765397512378938e-01 8.315450204239080989e-01 7.154847198256375496e-02 9.796299238053152170e-01 1.868911458872639375e-01 -5.408393320095999934e-01 -5.640101053478171478e-01 -1.239523167723995511e+00 4.345833798791703728e+00 -1.951629623521185797e-01 -7.065032391878380835e-01 -9.600017000702096848e-01 8.783518065079777559e-02 -7.822316651287075651e-01 -5.288162766657769076e-01 -1.037464308458043494e+00 -1.831943837564599109e-01 -1.796979301204415236e-01 5.301099582711297359e-02 -5.241333608825264889e-01 -2.847598074240422772e-01 2.937765310447425504e-01 -5.084985112262478957e-01 6.915886907002076756e-01 -3.956465236185354728e-01 -1.617599432277063043e+00 -1.745149607504019151e+00 2.673053554491530148e-01 -1.721368842917821995e+00 -5.756891604818894503e-01 -7.189038379730982031e-01 -1.854938963848389577e-01 -1.471791082002199769e+00 -1.633110282731922824e+00 8.348076499967447273e-01 -8.279702273487370423e-01 -1.528592650548339593e+00 -8.084658024842530377e-01 -3.851330882890471874e-01 -4.457030285051217788e-01 -7.730663547801350233e-02 -2.034801120307949684e-01 -2.424879712909278062e-01 -6.397221689553911350e-01 -6.895774740310598450e-01 -2.507269819327290761e-01 -9.314789262856727481e-01 -1.016167117945432130e+00 -3.127123617547051815e-01 3.393096602874307588e-01 -1.672198089975012625e+00 -3.169007533654138453e-01 -1.768001601560404312e+00 -6.108470755341132152e-01 5.622774158687979806e-01 -1.253583075001545977e+00 -1.195203722108122868e+00 3.060521434152603804e-01 8.541318698642194063e-01 3.632168072681858650e-02 5.424519824838834881e-01 -1.409395567543486827e+00 -2.017278132181719950e-03 9.239848136710584470e-01 -1.480446560358038122e+00 -2.590440512576562271e-01 4.659627775428218377e-01 1.483359018441695376e+00 -1.786043293833879941e-01 9.898091463973938131e-01 -2.698380760017267121e-01 -1.149000278649377815e+00 7.255936131847492421e-01 -1.376791252503164253e+00 5.991236078206010340e-01 -3.044861393062707755e-01 1.987805583241873120e-01
-1.165499563142640138e+00 -9.652082803118843257e-01 3.058334337752162124e-01 3.608551735569054397e+00 -1.779412032146276412e-01 -7.613411507309009174e-02 3.378690025490835303e-01 -7.305502558207919994e-02 1.817690844612905865e+00 6.671660238925788411e-01 -1.198210051962488309e+00 6.259320991696759595e-01 -4.095152094136962906e-01 7.822362941940809167e-01 -3.760235265466857491e-01 8.879639486389215852e-01 -2.700048577233729596e-01 -7.596648899311382319e-01 -1.440409462329653500e+00 -5.383606975504670045e-01 -3.998699955748132862e-01 5.478049672917348900e-01 -1.051183476355026097e-01 -1.390874610419847945e+00 -3.494495370766382281e-01 1.091954237678678608e+00 -1.051007055395276391e+00 -3.242911517758069722e-03 -4.840970077914093228e-02 9.577110139672484479e-01 1.637065171885898396e+00 -1.502202435530714419e+00 -1.247569636136374394e+00 -2.600601307511359317e-01 -2.955800034096560114e-01 -9.010445514817680968e-01 3.462692517316177249e-02 -7.735041701241300860e-01 -4.456877505111861426e-01 -1.828600084206083443e+00 -2.552057700577072263e-01 -1.054262955084380060e+00 -8.770761348203481855e-01 -4.534631102175886719e-01 -3.712847796802858369e-01 4.388757379223348076e-01 -5.120442758972166830e-01 4.596596702991456174e-01 -1.787948661516807480e-01 -1.489100784143108980e+00 -1.640266917665723412e+00 -5.935416387161439600e-01 -1.955301271694786847e+00 -4.359734204802820368e-01 -7.079894348590294317e-01 -1.506526414000572078e+00 -1.544724474872973152e+00 -1.937200635375987190e+00 8.695363291771857073e-01 -4.223010233306775385e-01 -1.059798211492113618e+00 -1.203289727560449413e-01 2.823061550493089822e+00 -2.167430260628720740e-01 -9.921808194239990775e-02 9.073306217677659102e-01 -7.088684203695225783e-01 -7.251228759877563768e-01 -2.720648378310512872e-01 -3.849315925499516844e-01 1.257641643869298886e-01 -1.370957007992793519e+00 4.204705163234180865e-01 -8.832607896504834910e-01 -1.313722454135167306e+00 4.718009162980037474e-01 -1.785338164120541693e+00 -1.756809247610060076e+00 -1.188572536126729196e+00 -9.583888402591584921e-01 -1.227488122228790557e+00 5.053332722023856638e-01 -8.284037197757900817e-01 -1.653457420805632128e-01 6.120352823647369211e-01 -1.165465335720128337e+00 3.120154984174270951e-01 9.813158409919274794e-01 -5.355422522290793630e-01 -5.900999069573031885e-01 -5.522262966802846118e-02 -2.565919694645680815e-01 -6.153466415681487778e-01 7.311841561073413320e-01 -6.718532660724298999e-01 -8.881804089012163006e-01 8.261500189108715864e-01 4.136104833804232328e+00 -9.190178794289920461e-01 -4.956556730801984223e-01 6.463974501450437948e-01
8.430888153864704027e-01 -6.743518677881745749e-01 -5.175210716608397155e-01 -1.706126053554777977e+00 7.417863581091242720e-02 -6.814859925944999341e-02 -9.735667959764359169e-01 -7.427888110805581645e-01 -9.422512501323981882e-01 -2.527687554262608716e-01 -1.782203596410744773e+00 2.845471121593683983e-01 5.886298687091068293e-01 1.496839475160232524e+00 -7.869321150892473471e-02 -2.974339706675858674e-01 -1.455613582594774968e-01 -1.866863957149125508e-01 -1.957685484745013360e+00 -7.541407547580653015e-01 -6.459004377328554369e-01 -1.119198639089009628e-01 -1.605266377838614478e-01 -4.014503685689405632e-01 -1.714853276140752836e-01 6.574649384539400510e-01 -1.649289471865689541e-02 1.270579701008835549e+00 8.055340513433756344e-01 -4.706750677015041906e-01 -4.606066546264409589e-01 -1.209410305608801917e+00 -2.015087991407935153e+00 -3.584855639368717539e-01 -1.975554726006439887e+00 -4.757109804256652308e-01 -4.414172778961272248e-01 -9.837425139763178450e-01 -8.971758705719923288e-02 -2.243662419717120216e+00 -2.057975677225232225e-01 -4.658910122774530538e-01 4.329279933494074584e-01 -9.906305850082211539e-02 -5.577367691314001619e-02 3.896958358091337504e-01 -4.374401999269921237e-01 -2.193786373614285079e+00 -3.031942545545324164e-01 -1.211397101253109954e+00 -2.148876823545231129e+00 -3.249188069361044762e-01 -1.806459326949566790e+00 -4.119884121601750659e-01 -3.427530142607222441e-01 -4.855157661100340527e-01 4.884218435997123464e+00 -1.342277311371676163e+00 -5.598732355336784039e-01 4.280405036674757024e-01 -1.438826278178124918e+00 -1.063853653884644368e+00 -1.135823647341979381e+00 -4.906135758777033784e-01 9.485879298927346603e-02 -3.136685712240937507e-01 -6.338052739763335719e-01 -4.838915232583970716e-01 -2.919348637475837061e-01 -5.470378923956356054e-01 -2.116668904913077132e+00 -1.149027132166000165e+00 -4.657467815052804827e-01 -7.395498530374946533e-01 -1.425389232812736218e+00 -1.079151406176950961e-01 4.490996497927919329e+00 7.332236820970296221e-02 -9.336704690441312016e-01 -1.283267229437601964e+00 -1.935443209456532809e+00 2.880876279482980640e-01 5.293657996854683745e-01 -5.133563720909155303e-02 7.030602950846767119e-01 -1.555119773314565856e+00 4.914690434935845564e-01 1.068368284442738458e+00 -3.906595695006166435e-01 7.258497726449510967e-01 -2.223489920549730214e-01 -3.811165313135537747e-01 -5.014282612211481416e-01 4.268389332494271216e-01 -6.272013186134879348e-01 3.062176552319213485e-01 7.846449663416739106e-01 -1.543552470644017793e+00 4.385505305029639422e-01 -6.308864367623565617e-01 1.451994075527143491e-01
-2.385936658896323781e-01 -6.196809204724452735e-01 -7.804434124910146764e-01 -9.888779026664332727e-01 8.791431934394642322e-01 2.382094414529691007e-01 1.043724848534254290e+00 4.786100289549282127e-01 -4.733772773928581201e-01 3.755730316966466864e-01 -1.346340674416437233e+00 -2.140552763938705916e-01 5.204326776419900824e-01 1.334721076521165228e+00 -4.453613818814241565e-01 6.828378080142872841e-01 -2.813127581557379187e-01 -1.097311251646423624e+00 -1.417069443219370006e+00 2.200706879482017819e-01 -3.235015595409604927e-01 -2.722340414601364111e-01 8.466627142643353698e-01 -4.035330502984119105e-01 -8.748368909182246966e-01 9.640222117048241612e-01 1.135875434962457659e-01 7.355355882142664559e-01 8.116640875361399443e-01 6.834666993720522887e-01 -4.611524127598187195e-01 -1.243869933626054358e+00 -2.696770194557692513e+00 -4.367943122691049784e-01 8.745918064719849783e-01 -3.634324385639353672e-01 2.384519835483907002e-01 -1.656821302131464557e-01 -1.757703883868896588e-01 -3.273088681253289445e-01 -4.327341023502618289e-01 -5.372862550454761132e-01 -7.001129378912476220e-01 1.481763929366824106e+00 -3.826128459200862086e-01 5.812255927224411201e-01 -8.167240904323171957e-01 1.549974316910772143e-01 -3.575501647742505007e-01 -3.228604406349318445e+00 -1.783289385780465697e+00 -7.888253364416003555e-01 1.215479343997720507e+00 1.682425990229359014e+00 -6.764386828897457349e-01 -1.148157066175645280e+00 -1.781191914287903133e+00 -1.719583646011465516e+00 4.773903764446634224e-01 -7.546811232532839586e-01 -1.457370826887251170e+00 -6.752744251666370490e-01 -4.569985819269388183e-01 -8.907073777315036578e-01 -6.332656242945277070e-01 -2.066072968529717724e-01 -1.076762243075059189e+00 1.964250606682937939e+00 -1.056759479150902514e+00 -6.423494566206843226e-01 -1.193418356446990458e+00 -1.142022402079468479e+00 7.690316300848167863e-01 -7.991752937493845632e-02 -1.854061782068315622e+00 -3.505954926611369871e-01 -1.662456008534915597e+00 -4.883004115440267578e-02 -1.388479313518208969e+00 -1.489880728488914841e+00 -1.969907198655769465e+00 2.868662675582576704e-01 8.424835960942307356e-01 -8.270635472740494043e-01 9.300011523661416701e-01 -1.429230590555035763e+00 5.697468369721577774e-01 9.731207479306802632e-01 -1.369241947334251641e+00 3.613812227100506036e-02 -1.520050177379169032e+00 1.540511531925423894e+00 1.005701685259522415e-01 -4.781196377137325038e-01 -4.618509777738031286e-01 -2.747663220764982595e-01 -4.743532083115398756e-01 -1.075270586665386885e+00 2.010720044930214834e-01 -7.463629716827554494e-01 -5.326501904166276447e-01
-1.214254681231386801e+00 -7.298702692336328512e-01 -4.339382640214814457e-01 -1.925286835783117434e+00 1.669672130516216102e+00 -9.986920645934650731e-02 5.568800583251730663e-01 7.919638465796986493e-01 2.772835733108515832e+00 -4.804934089066914549e-01 -9.912300044089989992e-01 7.895215443848592196e-01 -2.644561540646074294e-01 1.143951641036336619e+00 -6.055651912825925631e-01 -2.379320088375634634e-01 -4.180287075442242206e-01 -1.164115823100965175e+00 -1.092208919156089086e+00 -4.747449778887004035e-01 -2.702931324672681601e-01 -3.065409816065179927e-01 -3.141601781493676970e-01 -1.905856674916422411e-01 -4.337771455746330385e-01 3.218401337551042851e-01 -1.329620335128993247e+00 2.507534675632685506e-01 -9.103762860600385087e-01 -9.767924274199690782e-01 -2.614844499237374276e+00 -1.256805528461108157e+00 -1.028296120046206852e+00 -2.570629393604287327e-01 1.435276396533596288e-01 3.141582044401912688e-01 4.291340186608615381e-01 -8.757999391932309585e-01 -4.486981988217139117e-01 -1.332346388228335732e+00 -1.215041226861506181e-03 -1.187300452122608263e-01 2.888034236572004643e-01 -6.194279456711629939e-01 -2.765721603941513271e-02 4.336475886896477561e-01 -6.134496900384830420e-01 5.129270976244600933e-01 -4.904230103774623317e-01 -1.147406310712761002e+00 2.529175020251052342e+00 -1.030432774911261146e-01 -1.246250082762323519e+00 -4.000881297916234480e-01 -7.618486391490179033e-01 -6.104527230422205353e-01 -8.941211345015220857e-01 -3.149723245722292342e-01 4.675239334459621587e-01 -7.117197301741161608e-01 -1.205856007880912184e+00 -6.262151920210683453e-01 -1.852432919679427137e+00 -3.387855663120773464e-01 -8.261516215961690890e-02 3.320302354851490279e+00 -6.224292375839080016e-01 -1.082946985248543381e+00 -7.212415592815812904e-01 -6.919227802910812297e-01 -7.839185312018591700e-01 -7.966022591372023953e-01 -7.023220896946016749e-03 2.647608079691590732e-01 -1.494354845733371517e+00 9.610427204762966857e-01 -1.450308556484829925e+00 1.235427320030478615e+00 -5.773312697289559869e-01 -7.667590370357354468e-01 -1.276895504525671132e+00 2.360676586476531114e-01 3.336370497697361825e-01 -3.390854951061348932e-01 3.834242443157639402e-01 -1.632609984966191252e+00 -7.006495080992756197e-01 8.292725926320245744e-01 -9.476936832716161829e-01 8.755024313170678418e-01 3.451585144911195058e-01 -2.276283829337070463e-01 -3.187784640054862617e-01 -4.145014166658080312e-01 -5.394398786286775938e-01 -6.573216096339874470e-01 7.417694929794268477e-01 -2.196907538928289938e+00 -5.914950485788919576e-02 -4.496219541172700729e-01 5.940711422203057701e-01
-3.736295646050611929e-01 -3.332216521224295458e-01 -1.231912095376198335e-01 -2.125429493911849654e+00 8.017692602762417353e-01 -2.045191712669613693e-01 -9.809454415871005084e-01 8.873656861000782659e-01 1.902935194618400105e+00 6.022185743559058807e-02 -1.244433714681566050e+00 -2.954060582107981281e-01 -1.999372042418677831e-01 1.834156046698351306e+00 -4.899454351783339989e-01 9.602763788461586847e-01 -1.924976407469369821e-01 -4.243546409770160288e-01 -1.819224737871820041e+00 -2.792285400352023661e-01 -2.907993675186943405e-01 -3.878890623947408578e-01 -2.166598492316872682e-01 -2.459428780705346651e-01 -3.711508419140468473e-01 -5.042157462714998317e+00 2.429711858753752160e-02 -1.444196626396641481e+00 3.202918151513695633e-01 4.176303290174992466e-01 4.375157397946676241e+00 9.355791769861865337e-01 -2.297576014958226054e+00 -2.221807753025644983e-01 -2.589341367985268927e-01 -8.593213693328846103e-01 1.289134308797624251e-01 -1.701880541830677052e+00 -4.106698205273205948e-01 -1.415232760749269403e+00 -1.758409781013773460e-02 -1.789035906581476765e-01 7.640401764990172317e-01 -5.190490697297435174e-01 -1.313545919043731039e-02 8.460621605524122346e-01 -3.938931778343897627e-01 3.623245347918693793e-01 -2.142096639757762044e-01 -1.788688971435996811e+00 -2.191935734569005589e+00 -9.678759408987841484e-02 -1.854960138813438686e+00 -4.662444767881084307e-01 -5.015645594187726486e-01 -8.052578922828122765e-02 -2.607140142516384707e+00 -2.019075352440730331e+00 -1.849927154441639576e-01 -9.844556713179795082e-01 -9.337753243697425320e-01 -5.457980128673312059e-01 -1.386910622457613318e+00 1.482983037860340636e-01 -1.819434630864003311e-01 -6.584065652841030181e-01 -2.507916961087751084e-01 -7.374772947368946063e-01 -2.042136161908942316e-01 -5.755239069063726731e-01 -1.603978952753148945e+00 -1.148650039511034393e+00 2.250384543590042419e-01 9.023719989286096421e-01 -1.486771386638435555e+00 8.356445563836824020e-01 -1.647501569864606941e+00 1.173413551727783277e+00 6.406183430248900412e-02 -8.964971020691878678e-01 -1.766432872361368478e+00 1.369945895620048870e-01 -9.222928390712746560e-02 8.321738830678917509e-01 1.535505418473447348e-01 -1.719199966890765596e+00 -3.684973634583935675e-01 9.598893561636596683e-01 -1.099342666810850133e+00 1.107387979341190876e-01 2.500345362736597910e-01 -7.472436150455886994e-02 -2.864069164797252709e-01 1.291454058716710873e-01 -5.927855666492036768e-01 -9.863456303234787725e-01 7.615991907336688849e-01 -2.316048086145538587e+00 -3.563788498861350518e-01 -5.131686469173113441e-01 -2.421519480845742978e-01
-1.011683374168636851e+00 -7.680709959446004043e-02 -1.026557994302395027e+00 -1.666712413248364610e+00 7.578837919043749372e-01 3.727509766492806964e-01 6.619381753498206900e-01 6.983275180152127559e-01 -5.844010844514887504e-01 1.484711451939575433e-01 -9.535170233452329169e-01 -7.416251874780901421e-01 4.603528011018442334e-01 1.158565207386060836e+00 9.964547757388528271e-02 7.482121526473932693e-01 3.024807111248964918e-03 2.728405816786624860e-01 -1.856133463841855180e+00 7.803745232163528112e-01 -3.117439536781175247e-01 2.109252051832953556e-01 -1.587854752631545630e-01 -3.543127509577723155e-01 -1.369514206332199391e-01 7.172304183693353208e-01 -6.277134799256933739e-01 1.872929639704395521e+00 7.384484647820758196e-01 -9.320056859785055825e-02 -1.052812523206358541e+00 -3.208851511964243008e-01 -1.576544318874685047e+00 -2.152261428397704568e-01 3.064402167962803625e-01 8.727421019621043469e-03 9.152815858846535813e-01 1.753628017237224279e+00 -1.044221634404569332e-01 -1.825948848907629873e+00 2.092024350864271631e-01 -4.694934181242542137e-01 -1.430693988908692704e+00 -8.666500993715440249e-01 -8.152897160155249401e-02 8.376923260995866594e-01 -8.419332435723941854e-01 3.769523637602471139e-02 -3.399980340521630562e-01 -2.503612934835975246e+00 8.721228430281699473e-02 -3.071424066834592681e-01 -1.950230072896051103e+00 -8.778470387631558403e-01 -3.996142860584498413e-01 -1.198687240619243255e+00 -2.575228653373466514e+00 -1.484470679298481643e+00 8.425478105438316545e-01 -1.443404486234571182e+00 -1.384083002425697595e+00 -7.594550461598202906e-01 -3.897070537772207577e-01 -3.631749912949426284e-01 8.960323758251334536e-02 -1.106162775385291619e+00 -6.520599571088251389e-01 9.625399234536143045e-02 2.510923232560487328e+00 -2.227045554651562731e-01 -2.632242030089897988e-01 -1.167885364980541629e+00 -7.127424358178551245e-01 -2.591141577772662630e-01 -1.795702067192772144e+00 -7.720685129938349711e-02 -1.444243351533767816e+00 -6.063436192459684682e-01 1.484125891910421935e-01 -1.466502528096190083e+00 -2.156839749815136820e+00 6.559805932667818473e-02 -7.846540318458348207e-01 -3.349729115556306369e-01 5.621396400923885928e-01 3.614519733440280103e+00 -5.421070461975299182e-01 9.140076409534891866e-01 -1.788473800001334935e+00 -6.164618605592597778e-01 -1.400706591829276038e+00 -2.870321567207800850e-01 -4.301319826966749638e-01 5.603184836115117085e-01 -6.833647601556768203e-01 -1.109288680765534885e+00 -6.984766530033776899e-01 -1.578771906731789798e+00 -7.356758190407807207e-01 -5.014283069740356202e-01 5.268539408009286218e-01
-1.276306920207592732e+00 -2.910991993116375798e-01 -1.007712758974131928e+00 -1.724345612413168860e+00 1.189663719100153040e-02 2.793328237028506744e-01 7.719861031700143705e-01 -8.290275469231913608e-01 2.121963096882517164e+00 -7.416050633680973947e-01 -4.414812167522397246e-01 3.243865321657726786e-01 -2.118200734537308838e-01 1.077242590618373796e+00 -6.539855491683663757e-01 -1.262710043025802309e-01 -1.971209834967222740e-01 -5.462609018218727019e-01 -1.419045297320934873e+00 -4.510465070039898494e-01 -8.944080980695199301e-01 2.622355976971076086e-02 -3.123461967825093555e-01 -8.314585717298644818e-01 -3.366639459600800355e-01 1.490670021225946495e+00 -1.246315143687834331e-01 1.274829833495344067e+00 -2.333898419425434467e-01 4.645108395153146330e-01 -4.848910301158066982e-01 -1.201019718093184530e+00 -1.996254112317496610e+00 -4.098207329561847634e-01 3.257296374773704373e-01 9.134515288443221248e-01 9.788900120420750139e-02 3.146785480255403500e-01 -3.268237630121771375e-01 -1.528644514589503567e+00 -2.461667407937052215e-02 4.023616411443586283e-01 -1.033695178799233227e+00 8.570700283715271262e-01 -2.584639286216098286e-01 6.558439248380935060e-01 -3.603529981411357497e-01 1.532792424790218877e-01 -1.821279829214731694e-01 -1.691742329816817048e+00 -1.672914310107495695e+00 2.891370695639189914e-01 -1.760027132300408415e+00 -4.898136594168802649e-01 -7.463339989303909849e-01 -1.046345240434193968e+00 -1.470201245672899004e+00 -1.261253164433520091e+00 -2.508917871431464164e-01 -6.626661415665947574e-01 -1.301782893281085096e+00 -4.758966662602108766e-01 -3.680073030953975310e-01 -5.262911591492221985e-01 3.342506881183806428e-02 -3.872341319087741485e-01 -6.999301947790315115e-02 -1.449763977979025287e-01 2.787574537829053067e+00 -3.658143665541061518e-01 -3.415136086422820294e-01 -1.033188301418328958e+00 -5.277747829718958394e-01 6.993777098831858163e-01 -1.475271858991654916e+00 1.084225236977673923e-01 -1.826991640485148505e+00 -2.552376426874773396e-01 -1.494931851008077794e+00 -1.233827164370641549e+00 4.135896519371875080e+00 3.271818945787866584e-01 8.609399840423908046e-01 -4.343446910480725509e-01 7.345443511068701359e-02 -1.860663927043927801e+00 -2.051039671522910945e-01 1.098171777828531148e+00 -7.530153761824504022e-01 -4.616818636807564213e-01 5.446532067537710464e-01 -5.295087171535149961e-01 -6.484141229379468685e-01 6.905749446554872994e-01 -6.373800435454649582e-01 -1.027553712629396543e+00 7.627771527756075365e-01 -1.322794907989576885e+00 -1.007328329249401522e+00 -3.321884794577510958e-01 -2.495807207602834810e-01
-9.308880553337061103e-01 -1.945475309776799888e-01 -5.769883328016411905e-01 -1.435144982718255857e+00 -3.611773789773458532e+00 -7.170395081443822205e-01 3.111731146217868726e-01 5.692915632126833714e-01 1.745690408521833215e+00 -2.663529132053606974e-01 -1.188556582771115755e+00 6.359258269188378110e-02 -2.563327215494305977e-01 1.093067793012200806e+00 -8.485844103812965056e-01 -5.096384700741638657e-02 2.294663614085778180e-01 -1.352681677789809300e-01 -1.006129706817398883e+00 -4.701143982605462263e-02 -5.263618780671279751e-01 1.256115615592469759e+00 6.709332982627437547e-02 5.808407755097295261e-03 -5.051225760991162606e-01 4.424738440965197417e-01 -1.015962507783714663e+00 1.766256733203824814e+00 -4.650839871985980589e-01 3.994406646632517877e-01 -1.014924638909963095e+00 -2.279225877656924082e-01 -8.928870904445145307e-01 -1.543919412770778932e-01 -5.965883516545243959e-01 -7.005926340368680005e-01 8.092918559889855645e-02 -8.748981256917000016e-01 -7.799806908810116846e-02 -1.207184425741779199e+00 4.282777523486885340e-01 -9.515686917663649380e-01 -9.075243530571964756e-01 7.620875724325447756e-03 -2.271295331129940809e-01 5.696817734807988476e-01 -5.844381060971031161e-01 2.711678979794417965e-01 -3.999319218351944372e-01 -9.672150737140209342e-01 -1.156870474776002577e+00 3.502264890861677138e-01 1.627698731165542867e+00 -5.141750829465945027e-02 -1.884647797091844879e-01 1.301855209761669518e-01 -7.651680839648826726e-01 -7.964384656651587457e-01 -1.032933305630135412e-01 -9.908488083900434118e-01 -1.504546318597855148e+00 -5.890223794557729597e-01 -9.487530218702805440e-01 -4.476408560530451552e-01 4.615093165220500171e-01 -3.784636008637169424e-01 -3.910760272716363728e-01 -1.020478603912531090e+00 -2.537409980487129180e-01 -3.459275154251834072e-01 -1.824249329998912872e+00 -1.083633270992660602e+00 -9.676085648485457380e-01 -6.489608530580279755e-01 -1.454721993472661623e+00 -4.056682808327203293e-01 -1.545741254764556594e+00 1.883380605136649510e+00 7.976306211639418997e-01 -1.490200776266761507e+00 -1.365392529136723043e+00 1.480701527703182641e-01 -2.157890036175691695e-01 5.371219350550883176e-01 4.502022500500685309e-01 -6.602945494478195121e-01 -1.148160171071683916e-01 9.522703895653675810e-01 -1.409498120549011801e+00 -3.935620698938961382e-01 5.045636179846939573e-01 -9.301027643279355384e-02 -3.481865064205733051e-01 -8.875891392816035452e-01 -4.676917874689767163e-01 -1.240783031504332223e+00 -4.523139342857651068e-01 -1.658625740952969885e+00 6.700490654242764466e-01 -3.789578485704885313e-01 6.679983618448134264e-01
-1.506987141397674590e-01 -9.563949105619843349e-01 -6.089850482512038088e-01 -1.496907487093472655e+00 3.958950098575447774e-01 7.137144216178437084e-02 -7.384191354585529776e-01 -3.085143951983529975e-01 1.393640722397534226e+00 -9.548583095535070897e-02 -1.797632261540450749e+00 -5.792056794518313234e-01 2.993293106250304869e-01 9.785565631927153341e-01 -4.048610185650753923e-01 -8.971166127274052826e-01 -4.715283722290576351e-01 -4.453956703490090097e-01 -1.120713766740813577e+00 -4.109402126985814974e-01 3.198026184230011726e-01 4.987914976664938327e-01 -3.206690953484786499e-01 -3.265595599207221089e-01 -7.843367973154695416e-02 5.902747318917999086e-01 -2.966078715236354912e-01 1.601732417380908657e+00 -3.940849587004259802e-01 -3.641627966067466082e-01 -3.899211472152930291e-01 -4.625489771967833952e-01 -7.929588398872683408e-01 -2.234870151114548842e-01 -2.717435865859944844e-02 7.085791642506369392e-01 -3.801965239846839539e-01 -1.183789413339531249e+00 -6.882012359248238509e-01 -1.693464697120928841e+00 -2.489019477189251262e-02 -2.414194782483012822e-02 -3.049529980272061222e-02 -8.793332943903132692e-01 2.675219366117631559e-01 4.244398882687428487e-01 -8.394695302103006851e-01 1.467904558819292271e+00 -1.854581861804215914e-01 -1.312025287531269901e+00 -1.821385557715586634e+00 -2.600709962171627310e-01 1.868536867800393853e-01 -4.644084122326253561e-01 -6.234993855253636585e-01 -7.802714123209288921e-01 -3.182781794016894761e+00 -1.639925652597252093e+00 -5.922566012322633133e-01 2.078281629717993351e+00 -1.019240660873995452e+00 -4.618933904295322579e-01 -1.058632641034110256e+00 -6.627920292310547357e-01 -2.420686976148380964e-01 -8.405338367462399374e-01 -5.840523291356198854e-01 -1.188039533633084677e+00 -2.712610844112225972e-01 7.787517488127708443e-02 2.902576259512163581e+00 -1.004869843282808706e+00 6.456124507329837892e-01 -2.342926485825557736e-01 -1.448161334088964969e+00 2.583143233456524634e-01 -2.262587707541348914e-01 4.710108346997884943e-01 -2.792831990638462991e-01 -1.186058370343799018e+00 -8.710703025922440501e-01 -1.281942117434812234e-01 -5.954101880234532462e-01 -1.398237943524056025e-02 2.543297378530106484e-02 -1.014028124016922883e+00 -7.348650516786403575e-01 9.740976034603069378e-01 -1.066156555810763518e+00 -7.699223439465846530e-01 3.284709513611064891e-01 -9.386911812431747437e-02 -2.946121403223342372e-01 -1.930684413175437486e-01 -6.787245600535560808e-01 -7.845636025470307251e-01 3.912182683413561457e-01 -1.380006362839938827e+00 -1.225050101640054734e-01 -3.326110996012049403e-01 5.637421129535243880e-01
-9.120724979894357931e-01 -6.688218057243731085e-01 -3.930946969557271298e-01 -1.589431377971755710e+00 -2.057085190168316535e-01 2.739460400652527494e-01 7.702399207631085432e-01 -6.308139671353103495e-01 2.268655250074847363e+00 -2.126430173925540901e-01 3.922587172509476527e+00 6.249789603671300764e-01 1.094778623745495671e-01 1.183349068676379456e+00 -7.068178162416491883e-01 -4.360177910925204237e-01 -2.720093069550933440e-01 2.987564612817098300e-02 -1.667654362255199585e+00 -7.177048299451161961e-01 -6.668369854940645602e-01 4.854395806693406756e-02 -4.909459476032442815e-01 -6.775702479368460596e-01 9.752849232067845042e-02 1.753333252761048788e+00 -4.947548399898529792e-01 1.065943595257019982e+00 -1.752140616084287561e-01 -1.260120794697631996e-02 -5.274790885701580168e-01 -1.246816072015904941e+00 -1.779674179464846961e+00 -2.471564188602371759e-01 3.071616387765226386e-01 9.021233182559906805e-02 1.026187379416487744e-01 -8.434422039871461441e-02 -4.772345310367822058e-01 -2.220662614096503784e+00 1.811659404523353611e-01 -6.141731501696084949e-01 -1.165248696042021193e+00 -1.590101909669923597e+00 -2.422009257554154082e-01 5.623614924750510724e-01 -3.494180788935557502e-01 2.686480788185421353e-01 -5.550887143883194152e-01 -4.675237432512910352e-01 -1.683051962549124925e+00 7.869355734442037842e-02 -1.841015705158765225e+00 1.440848785523916487e+00 -7.045171469398729958e-01 -9.489968396034503817e-01 -6.837964818922092070e-01 -1.228326069308186552e+00 8.490192795246190860e-01 -6.963899117603634670e-01 -1.084431082155469683e+00 -6.592610243655055990e-01 -9.073591723417770427e-02 -2.621238906224210297e-01 -1.235973019625499630e-01 -3.211178810723878119e-01 -4.295756772065744689e-01 -2.297274186007330632e-01 2.744243851991460481e+00 -4.677502425860122770e-01 -7.403930415081801941e-01 -1.236342909080794472e+00 -5.719648268713430073e-02 6.973733707584695019e-01 -1.394038221400585309e+00 -1.124616212404777188e-01 -1.729338464130842912e+00 -2.703019988236737281e-01 -1.326049168105120968e+00 -1.275715350051501051e+00 -1.208353073746204043e+00 4.757062163811717204e-01 -6.720419516317213127e-01 -8.349608307624802050e-02 1.477187976635740418e-01 -1.616521705611484228e+00 -2.302301125271946358e-01 1.027521263721708600e+00 -6.580559005582174992e-01 -8.520424815326477219e-02 1.114228667849901822e+00 -4.986301896125135968e-01 -5.807011079525687958e-01 9.410073600705093355e-01 -6.017671944548380614e-01 -1.093970298797996010e+00 6.076062866165831133e-01 -1.354639374895133752e+00 4.164446850108274312e-01 -3.590027908250931765e-01 8.570321961875375649e-01
