-7.091212593760295446e-01 -9.937501500242659214e-01 -3.119294146206277873e-01 -4.700634441040445477e-01 -1.246663218543862944e-01 -1.866710068322651461e-01 -1.392799542323393203e+00 3.415390236711225019e-02 -2.782710624723169768e-01 -1.444032744173846805e-01 1.292236143602804921e+00 5.937652332908455177e-02 1.586671930420603949e-01 1.995384002404021195e-01 -5.516831000953449360e-01 -3.563182462034936160e-02 5.057652835711118344e-01 4.211762787978904354e-01 1.865557865872884413e+00 1.935228864233473622e+00 -2.366803454086730873e+00 -4.967993422814712678e-01 -1.337262830652362622e+00 3.367965223196420776e-01 -1.755603840971687590e-01
-4.493831672222781681e-01 -4.634136766027471266e-01 -3.202257356911794028e-01 4.599165434683743364e-02 -2.096366489395089794e-01 -3.576637217143829178e-02 7.507716606374867929e-01 -7.791228778139010214e-02 4.736729483077482539e-01 -1.188892191042133090e-01 -1.018985928460073520e+00 4.582461163440426088e-01 -6.497525619313065937e-02 -1.433965652051031325e+00 -5.406123122896390187e-01 8.625710192719442393e-01 -6.967345327781711006e-01 7.763720019048536702e-01 2.303204975781802666e-01 1.467043584120354127e-01 -1.083167671951192457e+00 -9.416152751701326595e-01 -9.825026807834811304e-01 1.507362008070385617e-01 -8.429515520595328715e-01
-2.275428416454833958e+00 1.329081114141084763e+00 -1.314895051141480309e-01 -1.245320981737266575e+00 -2.020868160349583498e+00 6.398441030203910751e-01 3.548294936658343834e-01 4.525520710535015922e-01 1.694450391249964660e+00 -3.094503482913336101e-01 2.135227841066834886e-01 1.459397699009599814e+00 -1.919465236969038369e+00 -9.400699893210494318e-02 -1.907405676342404099e-01 1.673380864578579708e+00 -1.026241645876241115e+00 -1.318789039484291603e-01 1.161986142563318225e+00 -5.128731034503491992e-01 6.474494868452135288e-02 8.885271596955915396e-02 -2.567844807046715805e-01 1.982967979335690523e-01 -1.856984151331759203e-01
8.196185075878498205e-01 -1.186819504269820857e+00 -2.192844538907488872e+00 -9.135155283320818276e-01 8.856276289965894222e-01 1.275922254511066667e+00 -1.777407723141041451e+00 7.013142017050481014e-01 -6.843202705843702549e-02 1.893373867356360485e+00 -5.469690622586573792e-01 2.139788805056218324e-01 -9.269573793290498687e-01 -7.150836048066946948e-02 7.317686369626356102e-01 6.484109230760108922e-01 -5.134349594161992103e-01 -7.193625353990585891e-01 -4.697327289408482764e-01 -1.821105401145351743e-01 8.361515672524741372e-02 -2.129542359079849290e-01 3.863511041577711858e-01 1.687317516455325711e-02 7.337618393898919233e-01
1.771753050415883490e-01 2.697430540664222734e-02 -6.911803643211221759e-01 5.198837739821640103e-01 5.676677812101684761e-01 -6.110676463343577280e-01 -1.679711196223357517e+00 -9.369906711342294858e-02 -4.247048037480555815e-01 -2.256186472473776572e+00 8.213348091176904120e-01 -5.373879332616497972e-01 6.659165832964358822e-01 -2.633908529839720791e-01 5.995291534650568632e-01 -3.466713355551031550e-01 1.502179331078538960e+00 -8.005978740222546852e-01 2.865502027231263127e-01 -8.210508630957797926e-01 -2.189669331259339879e-01 -2.484460380826029602e-01 -6.148433304597404614e-02 2.163058317703193401e-01 2.926536336350389362e-03
2.651011379778050459e-01 9.941006022126301911e-01 -1.234391806324570268e-01 -5.961410968837135282e-01 -2.756368804965065311e-01 -1.296371947980237416e-01 -3.803948967141490001e-01 -1.071114080166731958e-01 1.425366101661942331e-01 1.990355045986341997e-01 -7.181552220323823565e-01 4.040804489317730841e-01 1.668463837302455455e-01 -4.810726334235993495e-01 -3.819367971519520288e-02 1.728947314148560288e+00 2.692416930816198262e-01 -7.636492581573256500e-01 2.644350058372760826e-01 6.042108762302753622e-01 -2.028811871736702965e+00 2.934201249353785568e-01 1.081482255162239170e+00 -1.424984355631934596e+00 3.011204822704452444e-01
-1.636924267468501171e+00 -1.392066583262205004e+00 -2.111855149478325089e+00 6.200638154157676052e-01 6.788353066170086381e-01 1.154448913671536570e+00 8.763925309440273592e-01 -5.379534587842590421e-01 5.183411946880016608e-01 2.547879343528081653e-01 -7.204927113544571382e-01 -2.094396929119599626e-01 -1.860207213953224137e-01 5.494181220803103782e-01 3.976851035353057284e-01 -6.890943634639998816e-01 5.152398968641453553e-02 -5.292470406825963147e-01 -7.087976109706485284e-01 1.011988456796860003e+00 -1.061572814696081668e+00 4.496299278856529802e-01 9.559491780621670598e-01 -2.552387996857209962e-01 -2.327247645387900687e-01
1.941022884752753308e-01 -5.283855659460746645e-01 -1.827064494381825388e-01 2.640143964915637187e-01 -4.902092602400668353e-01 -4.865098753588139036e-01 1.312611899642705193e+00 -3.419417573654351394e-01 9.520292951819893101e-01 -3.531018518246962778e-01 2.254930902784533675e+00 -2.925341858101565551e-01 7.591183043877249847e-01 -2.015816352228412711e+00 -2.546452954221063436e+00 5.473504330954352959e-01 -1.456797895641544216e-01 2.516072468571258103e+00 -3.722009441760025794e-01 -8.029306141767574845e-01 7.515298080077777998e-01 -4.944999838806776737e-01 1.978964185062009329e-01 2.581489769460995620e-01 -1.141295187264566996e-01
5.865946013149045957e-01 1.694271115572937580e-01 3.301602259148752050e-01 -6.179215563863878213e-02 4.107548922269953218e-02 -5.010124282131376283e-01 -2.089450407809354537e-01 -5.940747969055449884e-01 -2.804994152893837689e-01 2.104441667653499659e-01 2.737437362892377046e-01 4.753054728255698413e-01 2.832097978620979895e-01 4.105549186045782672e-01 -5.888374154276601047e-01 -1.037474095797004336e+00 -5.044129773057755006e-01 -3.803995385693968778e+00 -3.537872550058770993e-01 -1.765875244622834225e-02 2.394441876673192304e+00 -3.606231452176951180e+00 -6.031740951178332644e-02 2.234683330031982940e-01 4.129579464533144950e+00
2.696877758718117413e+00 -1.880608643212585140e-01 3.500814828065910989e-02 5.422631159067515805e-01 -6.307582645455477033e-02 4.543098149620857229e-01 4.151773558479697757e-01 -3.972856391633002304e-01 1.998470009244463497e-01 -1.623099764807474310e+00 -6.786765818384785653e-01 -6.342071100296121922e-02 -1.041519882514747364e+00 4.944319033189234602e+00 -1.764152249042339582e+00 1.983824425791213542e-01 -1.460609187583224111e+00 -8.524678173848881935e-01 5.558782643044409000e-02 -1.291272449538769795e-01 1.081261626505188422e+00 -1.395621382687895484e-01 -7.146305950199505208e-02 -5.383037269618307780e-02 -3.319129552199988620e-01
9.509424096505008084e-01 -4.162807364884359984e-01 8.034740692493890224e-01 -9.826109676686125560e-01 -1.289810432398800666e+00 -4.421980954933721897e-01 -4.631612249716668406e-01 -9.335930730418185233e-03 -6.078507282836104197e-01 4.545940517050168217e-01 -6.235180763660310710e-01 -5.599760957096927561e-02 3.606336212880940084e-01 1.417708840716959233e-02 -5.985175344329857205e-01 -9.315854942332085775e-01 3.370875845857475572e-01 -3.476998278307502632e-01 -1.075977498042854474e+00 6.530775594303213083e-01 1.305297698709471099e-01 -5.804524151979382207e-01 -8.444225471488704393e-01 -4.744156122192995095e-01 -7.455802293816240489e-01
9.469742956498585773e-01 -1.560990920340346588e-01 -3.001468568900375056e-01 7.886779661252063534e-02 -1.035350396017491875e-01 -2.637371746465322908e-01 -1.340892623440715359e-01 1.047743029439701379e-01 9.489012379757036375e-02 -5.119565312611892516e+00 -1.358178938578376294e-01 3.989003474187584330e-02 2.558688801945011360e+00 -3.786502971567298648e+00 5.170341317010975768e-01 1.823325917883714953e-01 3.396777037228404073e+00 -4.463889481257738434e-01 3.465764473982144711e-01 -2.407848736335176654e-01 1.176456549029221144e-01 2.569205172597036069e-01 -1.090749672283874150e-01 3.522957799034057702e-01 2.605060494469746413e-01
-3.355103838560680618e+00 2.288283816788834191e+00 -4.149575339756932935e-01 4.945595235513008947e-02 2.168442736104200907e+00 1.809323582734859714e+00 -2.432741994711186406e-01 -2.321947323621064985e-01 -4.148290573953739013e+00 -3.335189354681470930e-01 1.595900830683989191e-01 3.815085196669678602e-01 1.788104681646967287e-01 -5.981674802528162971e-01 -2.428181271161511945e-01 5.989077075252535742e-01 -2.790208880111000322e-01 -1.494488690415290144e-01 1.012694919566182739e-01 -7.229242000907587506e-01 3.153983741071677616e-05 -9.945219239144512113e-02 -1.183197115462492899e-01 7.247601022848908225e-02 -3.801463644757466787e-01
2.942916484809149358e-01 -5.950619324729559123e-01 6.535497780913680776e-02 5.627318435519895745e-01 8.455803741348203451e-01 -9.369579714714157959e-01 -4.999720034930189017e-01 -8.473355783810878616e-01 -8.926992306053976867e-01 -1.280469830932150943e+00 1.823497299082817713e-01 6.264933047819429834e-01 4.713679596294443330e-01 6.947572930305334626e-01 -8.355906631108013238e-01 -1.730905534748715890e+00 3.560655330173613797e-01 -4.092598011106047817e-01 2.364902041515678718e-02 6.725582691039193595e-01 -5.345387613446955788e-01 -2.573609495757281929e-01 2.677768595385935368e-01 4.146094260233679774e-01 -2.399009991957342380e-01
1.005601021850183324e-01 -2.435457435354995426e-01 1.414881596527129692e-01 -4.075056896725525596e-02 3.934698449376694551e-01 -2.234171368040578642e-01 3.971950866208833753e-01 -4.209324891299278115e-01 1.137427815071999498e-01 4.550872432133681172e-02 -1.581105245577291596e+00 -4.478751704076924800e-01 1.162350863361020642e-01 8.267165205853694854e-01 7.889873793029574811e-01 -1.836940142738507031e+00 -2.822187165344242077e-01 1.078866360262902502e+00 -1.320677376934818570e+00 9.098251371028288625e-01 1.221217097664683282e-01 -1.157406133402256732e+00 1.464040919888956127e+00 -1.037225667097007031e+00 9.623646182589819242e-02
-1.676970685709993525e+00 -6.142795779660348288e-01 2.630092506172445610e-01 -1.501968829566490582e+00 1.106510986786551021e+00 -2.103912118650115293e+00 1.147481767953425713e+00 3.387486300103999953e-02 1.256136336278259158e+00 1.442966945897837139e+00 1.923627693673792827e+00 2.394609209959590868e-01 -9.492043023910391453e-01 -1.187579336974049493e+00 9.383891416062690727e-01 -1.285272415714985739e+00 5.112996628527646248e-01 -1.643414976520794824e+00 -3.445469946532865868e-01 7.190320003582695296e-01 2.473306830196823902e-01 1.896784092481615114e-01 6.115286306541822814e-01 -1.932906333912339791e-01 -7.488340393512487037e-01
1.173004231004214359e+00 3.250875747032500596e-01 5.026261286469905359e-02 2.925441204832737382e-02 2.594672529088533075e-01 -6.302299412544856150e-01 -2.067033313728416477e+00 6.256321233157704498e-01 1.861946729361738107e-02 -1.516698619651990709e+00 5.856408681002291949e-01 1.079783270529187239e-01 -5.653324512449273698e-01 -3.737511621563648356e-01 4.734921611257929541e-01 -7.585956930337169890e-01 6.590042085928887738e-01 -1.458108238232872278e+00 -1.803651737757408779e-01 -3.659019147710413922e-01 -8.364757834103908607e-01 7.585601797109674527e-01 -6.652068688439485289e-01 -2.339154438322940954e-01 -2.787823597367200534e-01
-5.908189468845064241e-01 -6.762142543004630024e-01 -7.775038549468779037e-01 -6.399453442788308744e-01 8.965540448545003538e-02 8.620320973378531315e-01 2.322066217576678471e-01 1.695276901957815108e-01 1.359942391984624577e-01 1.308650987143255007e+00 5.738333143199247921e-01 -1.505550741101471024e+00 -6.803798706633504834e-01 -1.595059507626202633e+00 2.446787322113752605e-01 1.076671259504922151e+00 -1.364132963460317427e+00 -4.070956168014687182e-01 1.105271543203462381e-01 1.019200330946167687e+00 -4.234010943042552655e-01 -6.783724463844795216e-02 6.730926840977646819e-02 -2.244074847554288488e-01 2.907497373866502755e-01
6.856039114018226410e-01 -6.403723713402277307e-01 -2.137804072434210667e-01 -9.276191259819048796e-01 -7.355606247420091170e-01 -1.395770730575157104e-01 -6.093103307284073594e-02 -5.848917913453559603e-01 -6.686237910066010759e-01 -4.306500315848896254e-01 5.919278794819915479e-01 -5.812075643942314906e-01 1.904983236167709926e-01 5.649585588601683250e-01 1.036772755290530229e-01 -9.102902173901618044e-01 -1.298879508973649344e-02 -1.273728904088913483e+00 -1.902695871644600523e+00 -1.172933944334616507e+00 6.911432664992603891e-01 -1.068409820120672440e-02 1.509274179777497116e+00 1.128650631645279623e-02 2.861549107062879571e-01
7.550236718367985267e-01 -4.725376952208481390e-02 4.561092642257527086e-01 -7.966286770158792496e-01 -7.263882081103443245e-01 1.132727940712402459e+00 6.236522030607313249e-01 -7.662146469021744455e-01 -1.258774605525910362e+00 -6.414827637748055089e-01 -3.271925513991882362e-01 6.817680942575223002e-02 -4.117356084942874195e-01 -4.137897178712208329e-02 -1.615918677282421889e-01 -1.046178356273719023e+00 -1.296733710961051611e-01 -2.260850065253011409e-01 2.755485783156931268e-01 8.972870477581358362e-01 4.702853164211130421e-01 -7.443057295969811582e-01 -4.723189344664184830e-01 -3.037774418775536223e-01 7.796946130992014057e-01
-9.924688625496230765e-01 -1.223708822357656434e-01 -4.019526307830660339e-01 -3.281853264817914395e-01 1.797993758836726186e-01 1.038196987599620646e+00 5.140826062072663127e-01 -7.335043537498385502e-02 -4.597205601899919669e-01 3.195362241253486141e-02 6.362917406041998514e-02 7.324842559634001105e-02 4.017897750863513306e-01 2.543606570869528238e-01 -5.845896819996539984e-01 1.985562005727688484e-01 2.814144154198339187e+00 -6.063558268359561243e-01 -7.072559749875414331e-03 -3.437345471153653964e+00 3.545866702418956962e+00 7.056096768683823850e-01 -4.060099573804793471e-01 -2.073146552199999437e+00 -7.827859965332460979e-01
-6.790581564161278783e-01 -1.647658230547727753e-01 -3.863598023730490660e-01 4.089507565769784359e-01 9.464538288848799441e-01 5.989986083412357498e-01 -5.534669511738343761e-01 -7.153689672036022129e-01 -1.275574776375356434e+00 -1.838702250170666172e-02 7.450997694711015695e-01 -7.840985804170382822e-01 -1.342133027966893266e+00 7.941237708329298428e-01 3.972206655759464439e-02 -2.123656446752828053e+00 6.604742599885373711e-01 -8.463064703483369478e-01 1.158880504810741563e+00 -1.388636125973407687e+00 4.660501416444888245e-01 2.782699482264576196e-01 1.039287059723142059e+00 -6.009621164308802665e-01 -1.513815408398310469e-01
-2.790027834059593204e+00 -5.461748455540801350e-01 -3.223285981692294855e-01 2.149898963550448627e+00 -7.649354218236562586e-01 -3.791050915543789368e-01 2.157584634564941428e+00 -2.895237145656077704e+00 -3.033607247495828108e-01 2.494083999384035244e-01 1.778557057957635523e+00 3.259775681021368499e-01 -3.885549443142005122e-01 3.761021993226039695e-01 -1.451629020373896184e+00 -6.894245259217650634e-01 -2.893627337360646368e-01 4.117726957123072351e-01 -3.435075315930079254e-02 -1.848346856391800130e-01 -2.901818676856738333e-01 1.112742930112785023e-01 7.732511131306937791e-02 -9.661090955202353281e-02 -8.545647852288958957e-01
2.165223180533304870e+00 -3.920281698268922033e-01 -5.192630233659640826e-01 -5.455520705884664423e-01 9.474702580671643393e-01 1.302471617252971336e+00 -1.170319172111243811e-01 4.619907299447138516e-01 -4.473710679533384749e-01 -3.912597491093940061e+00 9.810437309881198109e-01 6.269999779531927331e-01 1.974919512406138278e+00 -4.377776462276075087e+00 -1.585246890118010343e+00 -7.936250248969066723e-01 2.410182880740964428e+00 6.440992707063822875e-01 -4.614239176675003495e-01 9.053393342484979955e-01 -3.100338973150046362e-01 1.539472410161242810e-01 2.961886014096516417e-01 -5.759140981731991106e-03 -1.431889863769498505e-01
-1.158375293940201001e+00 4.597798865731848039e-01 -2.097669670874631631e+00 1.091717592768696177e+00 4.896881836248010433e-01 1.259800661852344961e+00 1.223918725132641772e+00 -1.400912032067634705e+00 -4.522417806593653222e-01 7.945609275821233775e-01 8.812013565484676514e-01 -6.696812664151693406e-01 4.969433246018524764e-01 6.221503117630718949e-01 -4.914299073758136016e-01 5.713809299351014781e-01 -8.432594596874345427e-01 -5.514564672964781256e-01 -5.577956978067697413e-01 -4.292044142891424663e-01 -3.819433997181280460e-02 -9.741522319227581550e-02 6.009005801501352551e-01 -7.315905476064089585e-01 -6.691059064489697228e-01
-2.305675563241871728e+00 -5.765236175471133429e-01 6.794827003406459509e-01 -1.659797229392302453e+00 9.537045654232103459e-03 2.453116455269114538e-01 9.000381297862667385e-01 1.293778478919592745e+00 -2.996594308527654113e-02 -1.774760428554058356e+00 2.025592236418269909e+00 -2.825094339016094858e-01 -7.689356129746516277e-01 1.021116388801937280e-01 7.012537150275474085e-01 -4.893890181971372599e-01 -4.132832892842204786e-01 -2.097026968898274113e+00 -2.486134622698125962e-01 1.656348986448699101e-01 -3.691535893003195512e-01 1.812239819919895245e-01 -3.493033120780472123e-01 -8.717432328679196318e-02 3.540382486732442380e-01
-3.228908717716370447e+00 2.229787414184456029e+00 5.681493836498080485e-01 -2.962844833223588492e-01 -3.540228832446717266e+00 1.870864420214335633e+00 1.553707619270782159e-01 -4.296810078436320013e-01 2.104259911330495392e+00 -1.759020299236486951e+00 1.001816509351111627e-02 1.566155805902565701e-01 6.660721070951328704e-01 4.447746942585574237e-01 -7.514754736607488494e-01 -4.339941679849420031e-01 4.799449108861622570e-01 1.996823617886713254e-01 1.722227693363499457e-01 -5.041940827184936136e-02 1.134025628924538627e-02 -2.660893918255289314e-01 -6.486964849950143108e-01 -5.541314653864035655e-01 -4.517651694498399095e-01
-1.201547138125595993e+00 7.302316615184284432e-01 4.496323477596508855e-01 -2.796178278304471410e-01 -4.694385073709005374e-01 -5.973427299996967310e-01 -9.997918515333064082e-01 5.944583875730900108e-02 -9.615065048068048847e-01 -9.997499704195470516e-01 -6.530077869086081677e-01 6.530158063541868785e-01 2.510322767881840278e+00 -1.868742026881281104e+00 -4.276771080219454180e-01 -1.420262299173354337e-01 2.411305578950451611e+00 -9.032445727888360754e-01 -3.927814775639879574e-01 3.669427350629331785e-01 1.525284143483398858e-01 2.067182361818172553e-01 -2.674505647825149990e-01 -2.014050994616100598e-01 3.837413739151392389e-01
-1.509844300409658668e+00 -6.051418725278623345e-01 1.728269760133391841e-01 -1.112018337767843850e-04 -3.310330090552845994e-01 8.443200833823140128e-01 -5.837260939210850985e-01 3.291379480375377087e-01 -1.155196133744658959e-01 2.611775847255997651e-01 1.869090076894681651e+00 -1.122971784994283018e-01 2.448433550066643205e-01 2.660117680727529965e+00 2.811446848933078169e+00 2.205283848793679335e-01 1.211677298841342815e-01 -2.135631649874478288e+00 -2.473421348601253233e-01 -2.520126156984835997e-01 2.672335549059982052e-01 1.185699056929730016e-01 -4.563855615108575875e-02 3.170929658307642951e-01 -1.365744493013512639e-01
6.357349307615307588e-01 -1.219033720416436095e+00 9.283025363839512156e-01 7.791365221416056419e-02 1.337091406413991379e+00 -1.825291171158934800e+00 5.930334078170348411e-01 -1.050135658185616938e+00 -7.619411750898618108e-01 -1.515729922793635165e+00 3.677412543018911406e-01 -1.900513296512900796e+00 9.640494009652708085e-01 6.544322928243165860e-01 -2.159406851110491632e-01 1.760343369319870455e+00 -9.035495514038706100e-01 -2.694314468165482368e-01 -6.985499703162590945e-01 8.526107838958676965e-02 -4.135064739134985956e-01 9.780350936589734534e-01 9.598558728695996134e-01 5.141925954079991090e-01 -5.906515667404308445e-01
-1.427729918013930455e+00 -2.697798683200098302e-01 -3.503479361578155094e-01 -2.144564869239113492e+00 -1.058735032033108758e-01 4.449154254428687172e-01 3.628426731649280867e+00 -1.711095497247632213e+00 -1.200424133050320835e-01 2.079161691861284300e-01 2.114994344789248082e+00 -4.307846300476072532e-01 6.790818813505133944e-01 -9.258533691820512723e-02 1.182332380675941846e-01 2.276197185585134009e-01 6.481697443855536367e-01 -6.467875195829233537e-01 -9.996015532572680717e-01 1.013712977284233208e-01 -5.711247510635888425e-01 -2.671533571384520078e-01 8.589929648042602395e-01 -2.435192070425125088e-01 -4.966992073117568185e-01
-1.374377072766119978e+00 2.424622080152802006e+00 -5.214952735374888126e-01 -4.880702558292540627e-01 -9.827310757323409751e-01 2.222193041842366767e+00 1.457290450770671653e+00 5.724419958119991714e-01 -2.779269749699150083e+00 -4.415768352867360247e-01 -3.653641657780065111e-01 3.912763166727593611e-01 -2.872823956286853497e-01 -9.686716846515457113e-02 -2.408958854667529736e-01 -3.521140616017955915e-01 -6.267711945009846186e-01 6.811369672415852616e-02 4.808207862634890084e-01 8.004401603404823762e-01 5.021367930788556144e-01 6.341958954142956455e-03 -6.398370704615379267e-01 -6.876826625442822305e-01 -3.358109779542304274e-01
-9.484705753791178306e-01 -1.381947129729140522e-01 -4.295898015481144361e-01 -1.541941462702376420e-01 2.069229651041057660e-01 8.437762688933733712e-02 -3.354301200091246438e-01 -3.891645899100718009e-01 6.335572353168296422e-02 -8.619368676602744417e-01 2.340424724542149448e-01 3.300646089291328078e-01 3.182133873333326535e-01 1.166721135019250344e+00 -9.990713458457418650e-01 6.349630534711258045e-01 3.876881871886353470e-01 -2.072717705522808096e+00 -6.286976021983529950e-02 4.910374158637200170e-01 4.748065302466129567e-01 -1.815617387934257421e+00 2.164843337456651418e-01 4.259298107762809482e-01 -1.187096351058213539e+00
-3.390787440806521946e+00 -1.500114656529221158e-01 8.547733477604804175e-01 2.628423365911660703e+00 -5.876026478166095357e-01 -1.274374155529437891e+00 2.515765691645287294e+00 -3.146675341639247225e+00 -5.619747130862059459e-01 1.290402528948990657e-01 1.531986721759228454e+00 -2.219562248598789533e-01 1.408981707167646646e-01 -1.679315080800518611e-01 -9.126956190534887825e-02 -4.047098526612192826e-01 -4.876069889294235571e-01 -5.011084706604611583e-01 -3.473980265640764231e-01 4.465098096610999323e-01 -3.449649528482648386e-01 -1.478330037165045130e-01 -6.784765312393756242e-02 -2.852749976773949481e-01 -2.495005099825406414e-01
-8.530756336107284676e-01 9.907181188855096465e-02 9.197036209327087430e-01 -1.899123756509830674e-01 4.302375217391795487e-02 3.260013828425351035e-01 4.287522439072489755e-01 -3.020238933213384991e-01 1.153273296124734948e+00 1.180325648156340890e+00 -3.463938724697850913e-01 -6.359057093088660295e-01 -1.501267483015517490e+00 -1.791237939295053705e+00 -9.763683659536586124e-01 -8.488803502123213329e-01 -1.920247969555648915e+00 9.968546392966449732e-01 -4.494710921935856085e-01 -6.107549218550747394e-01 1.431672665440561376e+00 -3.001871223343315354e-01 4.631837920806730624e-02 -1.040975321778653040e+00 6.459068431181714809e-01
6.200756699788758652e-01 -1.040728842058781661e-01 2.826843923632880728e-01 -3.284740948626859725e-01 -1.343547452730274649e+00 4.196474271795198607e-01 -1.443427233212278282e-01 -8.759529538999483167e-01 9.190683956484603512e-02 2.184903374996104153e-01 -2.107633891167882967e-01 1.513199694835278275e-01 3.128663126317459131e-01 3.402978964066698531e-01 2.462258957431784356e-01 6.318933725124469269e-01 3.677790970147421512e-01 -7.902297537085615220e-01 9.880640530986566084e-02 -2.439368842977752694e-01 -1.988323334133911047e+00 -2.522065794480549128e-01 4.944363087144397761e-01 2.707477480434198336e-01 1.238646430846877117e-01
2.842227864744999444e-01 -1.170070479266162256e+00 2.968486306294296773e-01 -5.916443430763719258e-01 -1.169893610531145711e+00 -6.233069741908916495e-01 -8.076176430137910200e-01 -2.569938916803976570e-01 2.148184887777540020e-01 -5.492983323669422546e-01 -4.983884214540486024e-01 -1.284636259556128646e-01 -4.314206966985322800e-01 -5.936274199041929878e-01 3.287659952668420260e-01 -1.596580196939040741e+00 1.560399816913585480e-01 5.217360698473582081e-01 1.114718456932565216e+00 3.833635317484779259e-01 7.750103835504157379e-01 8.165991608899726417e-01 9.377155705451152290e-01 -2.072790847524341729e-01 -1.711983713077083635e+00
-2.757526259962390751e-03 7.964523077784109173e-01 1.143870650962435231e-01 2.767899676136719167e-01 5.345698589170009285e-01 1.565169686300136032e-01 -8.270861657492341035e-01 3.163215802572350577e-01 -1.977563097663491032e+00 2.463889630088861860e-01 4.283363334314577164e-01 -1.732409642590700738e+00 -8.462919305716435359e-01 1.217348157835316913e+00 -4.535090210796562382e-01 -1.334804736743080422e+00 5.334754750472041618e-01 8.916652352522723701e-01 -3.712208966611753591e-01 3.728874345719494499e-01 -1.347391155034359134e+00 -6.310650787446401289e-01 -5.139271551394111182e-01 7.736469713694448247e-01 -3.338455968433209353e-01
1.708050699335782907e+00 -2.961172130915156187e-01 -5.282800238527208814e-01 1.806613497804368251e-01 8.442601391097841190e-02 -1.737136921077815643e-01 -3.820652982141365395e-01 3.557368937971878142e-01 -5.498526776859053999e-01 9.956494807822374726e-01 -3.270011257465920140e-01 -2.502993652818741310e-01 -8.207962953843347259e-03 -7.624552222424631209e-02 1.330798449491847335e-01 -8.327989315408026449e-01 1.397223910862778196e+00 2.089564601390821785e+00 5.010856998519123140e-01 2.171872764984427384e+00 -3.121240438598966271e+00 -2.736595539711046854e+00 -1.086459769191105318e+00 -1.900264544345321882e+00 1.312284397871953834e+00
6.417714993914930277e-01 -4.875535898261628698e-01 2.527111065657429712e-01 4.493209803682373105e-01 -1.573691469754921191e-01 -2.880889217793762835e-01 1.500125851088999762e-01 2.126434600016208210e-01 -3.790319950261205051e-01 -3.904376972341147001e-01 -1.938031177952170142e-02 -4.744895829892707348e-03 -5.863232513879436114e-01 -9.892741189552095582e-02 -5.931536360187070756e-01 1.005827280810199564e+00 1.745281225654473189e+00 3.677157921023273962e-02 1.807539272256831753e-01 -1.787449615220360499e+00 -1.095245606964045937e+00 -3.352875080291787824e-01 -2.897224292777680899e-01 -1.263737988975836002e+00 -3.260490441169238696e-01
-1.456740145711423295e+00 -5.960716022947843973e-01 -4.296934362129753993e-01 -3.637682936421386404e-01 1.725052630873986567e-02 -7.752165389749265945e-01 -8.974322407479069508e-01 -1.799753631335419476e-02 -3.721264792602844707e-01 -3.106506890471947835e-01 9.759624764656025242e-01 -4.234971139019270622e-03 -8.315001755497696267e-01 -8.266469149978338260e-01 -3.293153232409579689e-01 9.904690920866170423e-01 1.155014529800716172e+00 -4.935011502577726361e-01 -9.129290749128495808e-01 1.049960961684776928e+00 7.375039661136778557e-01 -2.581464354488612889e-01 2.382925449430929321e-01 -1.864357035858423384e+00 -2.341038692341270433e-01
-1.561600346784472793e+00 8.515214031909977815e-05 -1.568198730900444426e-01 -6.017462028416175057e-01 -2.665262194023207964e-01 -7.387693762721995183e-01 -1.081531364245383875e+00 -1.017311025683623305e+00 -1.425631449023414821e-01 2.300537854341069000e-01 6.866238299147200408e-01 -3.495137059174727168e-01 -1.313726423452947767e+00 3.536477237060028922e-01 -3.526637654898940322e-01 -4.360284913266403439e-01 1.805197476125797840e+00 3.757827174408128745e-01 2.836074986932731745e-01 -2.390848915075461267e+00 1.396878809165747581e+00 -7.963150856077491069e-01 -9.009567872375178615e-04 1.801964691381799044e+00 6.191531890309444064e-01
-1.236882364299026094e+00 1.006007403364337138e+00 1.115293542680042327e+00 -4.221616871159462603e-01 -1.631307666039816917e+00 1.219872151561106177e+00 -1.241959122743020866e-01 -3.367282406814278706e-02 5.650109337932063269e-01 2.352249855923979893e-01 8.451098205592375012e-02 7.514000873430493055e-02 -1.664999359091238196e+00 -9.624641628314906106e-01 -4.127867960730592367e-01 1.885911223706038253e-01 -1.938052203710916022e+00 -3.668171433776609702e-01 3.705737338679806481e-01 -4.512493698446102819e-01 -1.694430104560632200e-01 -3.774949373412977982e-01 -9.589193247183791513e-01 1.267754033449356443e+00 6.020103290985805433e-01
9.941829314705520337e-01 -2.336158571211847945e-01 3.043625298325666750e-01 -3.407869973615180181e-01 4.447062706542196930e-01 -2.316072769731587488e-01 -1.164804879676649474e+00 2.000303717237990608e-01 -3.289694734965737943e-01 -2.116998146157341498e+00 -8.788473505675032937e-01 7.160861797121625960e-01 -2.176832635005261807e+00 -1.407334711725666487e+00 3.747600374829969383e-02 6.927768561951280768e-01 9.726584009634735573e-01 -8.170910548669482187e-01 3.274130008685878779e-01 -1.252643363784433639e-01 2.287615854535426652e-01 -5.616703708027521308e-02 6.664587852219931996e-01 -4.197673504617042972e-02 2.894870076334495335e-01
-1.167858871665238496e+00 -9.860004764175098746e-01 5.682971770471365591e-01 -4.845928165718018099e-01 -7.329137767514410928e-01 -1.690049468562417223e+00 -9.325796524370389973e-01 -1.991980281522079121e-01 3.400333644981625714e-01 -4.145923301671669559e-01 -2.880668539310338727e-01 1.331548993607224451e+00 -1.707296833813365611e+00 -3.275640836112516663e-01 -5.308996180818798677e-02 1.229877111189814132e+00 -2.804188950100269806e-01 4.844539719394893584e-01 2.253245231614423860e-01 -2.978375594376994062e-01 -1.090697163298151473e+00 1.119007647429790975e+00 -3.603486738444322546e-01 3.822184550608512810e-01 9.063720786223772308e-01
-1.499828248918606999e+00 -4.225544307584736536e-01 -2.429369604449005959e-01 -1.618549137412735039e-01 -3.483340971976717215e-01 6.928357153631527210e-02 -6.920725947610419926e-01 -6.720459798727488332e-01 3.168427849357531301e-01 3.309147339461548931e-01 3.436547088733343802e-01 -1.843790446449521114e-01 -6.279819281724178248e-01 4.067896502808919235e-01 -3.476829153162716013e-01 1.649310656017126224e-03 1.609948551316579879e+00 -1.188736331431410997e+00 -7.332922728551279912e-01 1.584009429403420155e+00 -1.780892780514168550e+00 -1.729661195765034076e+00 2.426513628251988353e-01 1.767070421662985336e+00 -1.399936509921550609e+00
-8.504764899778730625e-01 -2.560832744298744967e-01 -4.196477012850789445e-01 -4.692197320048346332e-01 -3.749790109924747705e-01 -1.791589895299618984e-01 -3.587856967451833468e-01 -1.238885286350933507e-01 -1.400853949923024144e+00 9.245501678982295246e-01 6.298091215906763685e-01 1.547194693621040951e-01 9.049924139401949175e-01 1.388004529121417585e+00 7.874619087980699872e-01 -4.777214011139488958e-01 -3.155771889963500332e+00 -2.212069884472223524e+00 -8.535478612186366831e-01 -2.148889831879981505e-01 7.257372694553881898e-01 -1.484754135244681361e-01 -2.222115316709350474e-01 6.349573751007318023e-01 9.982945882575501584e-02
-1.058778571164822768e+00 5.591388796064038491e-01 6.554974640398458785e-01 -2.003670811556343134e-01 5.547140716144896011e-01 -6.620705614536844807e-01 -1.736819263869127994e+00 -6.768683598258791179e-01 -1.337880595474244982e+00 5.370514729529312081e-01 -1.072135420943584272e+00 -1.519265677517830093e-01 -4.650032308041665563e-02 4.632734155000491350e-01 4.041466115775436130e-01 -4.701733865986453265e-01 -2.482913207278172774e+00 3.593277959593286219e-01 -4.929936665735774048e-01 8.465940647098140204e-01 1.382256826619376433e+00 -3.625211687163933105e-03 1.628754855252829148e-01 9.474893654548178779e-01 -3.690239575974608721e-01
-2.846992987135349207e+00 -1.011734675128322269e+00 -7.964895931059003120e-02 -2.836085867381444858e-01 -1.229309524551600363e+00 -1.267825570578410721e+00 -4.331954911990255064e-01 2.137849288201403852e-01 -2.691691587100658811e+00 -3.142171982617645853e-01 -2.687373215704608742e-01 2.280045111604859009e+00 2.340807096348652916e+00 -7.589208992656043366e-03 -1.618803624251759776e-01 1.365917159001118319e+00 5.773406110328335172e-01 -4.016599054269677227e-01 2.186742237018344526e-01 -4.169258791489761917e-02 -3.566192540048950810e-01 -4.187029726949484387e-02 2.702995914818390744e-01 -2.657693803563825341e-01 -1.256636814465560137e-01
9.148471050179143305e-01 1.326955908307370924e-01 -4.603761530849641015e-01 -1.226365218548775005e+00 1.462277482667095896e-01 -4.182571418217907455e-01 -1.571878059414302919e+00 -1.379931688046772686e+00 -5.907142434713728019e-01 1.490794557162414616e-02 1.033222626827930535e+00 8.326470853394420946e-01 1.138429565307435887e+00 -6.945903314333315426e-02 -1.504822265902458767e-01 -1.030023860089110288e+00 7.227756089843073717e-01 -3.173888347281970113e-01 -6.908302468271705354e-01 -3.193618504589126883e-01 -5.069705689479907518e-01 -1.700303042869025227e-01 -6.505015127674524944e-01 7.937707463010583719e-01 -1.640968811265101635e-01
-1.224207315546082864e+00 -1.898071559612952708e-01 -7.812187434847585044e-01 -1.100292180243079704e-01 1.184654913818719235e+00 -2.217620313400653353e-01 -7.190792992267752703e-01 5.670243321480761267e-01 1.060242446053382137e+00 5.034006551622759451e-01 1.343071471285736951e-01 6.814585527149962241e-01 -2.170864233252276954e+00 -7.587944270518937051e-01 8.601636145615347839e-01 1.431445939060942196e+00 -1.732001614893523556e-01 -5.819737805971869626e-01 -2.351245558605820005e-02 -5.464458231639933716e-01 -1.125021073628845736e+00 -5.997159536760682252e-02 -4.107903004856807150e-01 2.670145344411306576e-01 2.434609339763097180e-01
1.453208824127999454e+00 -2.530542757911863339e-01 -8.609553496069488610e-02 -7.768514619703601465e-01 1.396823209043781766e+00 -1.613631277710846801e+00 8.686412788244269878e-01 8.708064848893153076e-02 -4.344395670739525372e-01 1.271625518983822978e-01 -1.606520803506295669e+00 5.694905374067614767e-01 8.543889030315445776e-01 -5.180597294563696886e-01 1.270100851622101734e+00 -1.393908360538904878e+00 -5.479958653661187729e-01 1.388990280575037373e+00 1.048882384817227675e-01 -5.425769414443715188e-01 -5.077167058754440410e-01 -1.764748422332464498e-02 5.119390185365099155e-01 -1.145039260971150608e+00 2.586835262272789149e-01
1.600275878546163044e+00 -7.606607150577231469e-01 4.794265818477872476e-01 -6.945956987108348191e-01 1.060071380755127773e-01 8.171862564865782774e-01 5.993813428672279953e-01 -5.323912726800530404e-01 -1.857872950693538971e+00 1.006147059420349210e+00 -3.458019110677497676e-01 -1.223734685119707288e+00 -8.567331080260296439e-01 1.348897950738285445e+00 1.230004910158727233e-01 -1.063637545857083921e+00 9.661251294798918199e-01 -2.659688352205051912e-02 -1.671882070620314964e-01 5.577589910025333442e-01 4.981849481573078497e-01 -7.781618461751508287e-01 -3.729261863331312377e-01 3.439680703267287143e-01 3.508603478805547016e-01
-8.017853828719913312e-02 -7.282129220274482506e-01 2.628138484735463298e-01 3.464326352934545689e-02 1.572290177730607461e-02 -2.421011196815801569e-01 1.936250207095896458e-01 -3.787643397813608148e-01 -3.599898861292636809e+00 1.927910358655287315e-01 5.107429491011175049e-01 2.880874993789882765e+00 -3.496980228966476201e+00 -8.936132573933339707e-01 1.595156651830665351e-01 3.823263062705056115e+00 -6.670649666947652268e-01 -3.816928601958413103e-01 -1.043970245294079113e+00 1.016679542089146127e-01 3.669118042091011889e-01 -2.062004006910691523e-01 8.811676937892313211e-01 -1.651861689715148629e-01 3.018945857897748636e-02
-2.515021135244219330e+00 7.137493664922632819e-01 -3.203529493446778953e-01 8.866835129866249554e-01 2.824387409379915947e-01 1.002530746738100886e-01 1.496348931587751618e+00 -2.777053874261756761e+00 -1.996965329478274986e+00 -2.074123423836488345e-01 -2.159498469675415894e-02 1.511441429046823215e+00 6.975670780136192239e-02 -2.827149671652024465e-01 -6.075561130426868628e-01 9.973765066050821471e-01 -2.377232715680379638e-01 1.525190455350202041e-02 5.748352677058374827e-01 -9.651964120676569392e-01 1.086310956407920969e-02 5.860269101114145007e-01 1.524280557356152976e-01 5.062734014894790247e-02 2.881228290979620521e-01
-4.579951161030840906e-02 4.874365348681105603e-01 5.226679454972360528e-01 4.593784505591648748e-01 2.534383812289962568e-01 -1.583914441466032441e+00 -5.048612351428057865e-01 -3.869305407372330419e-01 -6.340049888902613562e-01 -9.603836219128444318e-01 -1.060585670609012432e+00 1.976254520521171509e-02 -1.534210344151325733e+00 7.938864485423356987e-01 -4.528204949535321044e-01 -8.337177183398883917e-01 1.359286337481837581e+00 7.566988825362884752e-01 -3.485028595139407215e-01 1.680356087652392916e-01 1.921504463529606355e-01 -7.964236184888089376e-01 1.428855772287365711e-01 -1.289859027577692441e+00 5.687991156217431232e-01
5.500422679764985778e-01 -1.881043736711137893e+00 7.206631392547464543e-01 -4.327619577212657997e-01 8.928794679104905541e-01 6.182346168743380055e-01 -1.186793050366083735e+00 -4.401845143351492684e-01 -2.231832809351263214e-01 2.655396913470190468e-01 3.091802241026912479e-01 -4.455555132378474226e-01 -3.630201035510816632e-01 -1.946559428081278798e+00 -8.714711123924606673e-02 2.020558670539444712e+00 -6.996942461607771023e-03 2.044714037292807152e-01 2.031785195145007772e-01 -8.156420594091174925e-01 -2.709310292832630696e-01 8.593667499902002405e-02 -4.246653646334289656e-01 5.632468283804257236e-01 -3.278972094756236744e-01
1.508455675167226451e+00 7.174833837435161676e-01 1.033020727565276742e+00 1.128186637636025447e+00 1.657586855288841199e-01 -8.365714781926831822e-01 -2.032358446825050180e+00 -9.225649488175037272e-01 4.069508003693675380e-01 -1.547600322807368034e+00 -1.913335581573271993e+00 -2.725387916592594273e-01 2.129060171494293829e+00 8.002043391653414217e-02 -1.265960676675779162e+00 -5.173553945008479982e-01 -1.274642276589039946e+00 1.404788530803787738e+00 7.927208814834267869e-01 1.303019067112457519e+00 -5.583144437126354998e-01 1.434580626249389590e-01 -7.205564884531148184e-01 6.324530426780928805e-01 1.536657674589896050e-01
4.943797637716734195e-01 -9.723941320641029673e-01 -4.720150695886851100e-01 2.656522503375652988e+00 3.336883185266446006e-01 5.005371799809306133e-01 -1.803659638473347870e+00 2.351922287671628808e+00 1.998044027511923226e-01 -1.949419187499931427e-01 -2.492526086712878897e+00 -1.044766873007257901e-01 3.057526021792108528e-01 -4.329273185872084539e-01 1.180082001523486031e-02 -5.452700138406719743e-01 -7.090171040972071959e-01 -1.130322980818192713e+00 4.441922818875431167e-01 -3.250907002749609531e-01 -4.812950215997249814e-01 -9.899928973825139478e-02 6.765418627677838304e-01 -8.019505913030088029e-02 -3.370431274968023749e-01
8.480997434561815540e-01 -4.226913627494478798e-02 2.695372200893260128e-01 -4.722294377267902687e-01 2.590675652673725127e-01 -4.320197387525485239e-03 -1.184416370304992999e-01 4.839751384751332375e-01 -1.570307257138383317e-01 5.741941480490536653e-01 -2.425446876574321176e-01 -3.811248448461999894e-02 7.490823498419593163e-01 -2.801659547179556342e-01 2.958858484214546558e-01 9.142699473685148570e-01 1.095195905862005326e+00 -1.398113798932059115e+00 -4.203666353098022279e-01 1.777236115156810348e+00 -1.911772256923126800e+00 2.754608762285546408e+00 3.040582231699335281e-01 -1.745953897528438770e+00 -1.690532396066471987e+00
-1.333224890377938898e+00 -1.753265172015836260e-01 1.911987063705394563e-01 1.533541494736427035e-01 -1.637814946754100331e-01 -2.974730813964183707e-01 -1.653759037205181359e+00 4.422522635941073532e-01 -6.164738648399036292e-01 -3.484359565474485776e-01 -1.409280877970393864e-01 -1.043676538184080266e-01 -1.354125689058886861e+00 1.205695236198689901e+00 -1.472231727957683811e-01 -9.587003382169931864e-01 1.875997301299565212e+00 8.278065548454134615e-02 -1.413671770129508065e+00 1.664972308420650471e+00 1.851117349128835188e-01 1.214993478230981389e-01 1.717942454374276728e+00 -8.331118938171192534e-01 4.005506028928637607e-01
-6.785916511389931127e-01 -2.003384341129408053e-01 2.965737157953763359e-01 1.887566993435286500e-01 -1.174334639702885180e-01 4.589785129980976097e-01 -4.885336782560431024e-01 3.930274371518405752e-01 6.696526357444285704e-01 -1.386114052290057685e+00 -3.307589233945652740e+00 -4.031736517502431671e-01 7.540006154959111306e-01 2.404060791956471821e+00 3.530237633929355745e+00 -3.417785240473152353e-01 3.507983213183048232e-02 -3.390374763973752703e+00 2.633359301472208980e-01 -6.491378088965102933e-01 1.126764681814318263e-02 -1.748227567596630228e-02 5.596405393385185389e-01 2.737828717300579973e-01 -4.101135347576426726e-01
3.410619615818837325e+00 2.005423459823503229e-01 -1.214966958857080503e-01 -2.446697566378684296e+00 6.908775791396525312e-01 -1.384184902249268809e-02 3.070720671822811276e+00 -2.993375733977892583e+00 4.373845287981042440e-01 8.999580869185921927e-02 -1.948590731643582874e+00 -1.198137855580478084e-01 2.429819314337739733e-01 6.337297328940872942e-01 -5.288696369832388555e-01 2.563610977809742120e-01 3.804788252626651879e-01 -4.612729112012686067e-02 2.548466546211399786e-01 4.548435714335463120e-01 6.574483602242587876e-01 2.131602373837934022e-02 1.160166871106524111e-01 7.344598246898112470e-02 4.380796117342029006e-01
4.630538272263226562e-01 -5.848353843809372954e-01 1.038221372504665396e+00 -1.369200419726747109e-01 -2.362584481191962738e-01 -1.150479444814131780e+00 -4.076137199290055246e-01 -7.259861209578657437e-01 -3.577020421720515930e-01 -2.490235485463166754e+00 9.120759174359475141e-01 2.412390551084130641e-01 -4.589124468704375848e-01 4.523614977173273655e-01 -2.028010196933150433e-01 9.267812971212908979e-02 1.152100225616607743e+00 6.095666556011278825e-01 3.364283312682297411e-01 -4.738466726354588210e-01 -1.001385439736767469e-01 -6.083723628350342638e-01 -6.825727594573337276e-02 -3.696412194698487363e-01 -4.291610713598480453e-01
-6.471707347880750749e-01 -3.699309597510265224e-01 -1.650349003406994808e-01 -1.022009282070254876e+00 -3.110449354591404703e-01 8.401266976698057443e-02 7.032240683893480337e-01 1.085908475904207471e+00 2.300965778831631225e-01 -6.486505838706824179e-01 -4.389685951621856708e-01 -1.698213281622041049e-01 -6.266502789556671615e-01 2.675120708865101893e-01 -4.417341781545984780e-01 5.467718274932777817e-02 -3.846145543834528779e-01 -4.180904880409000435e-01 -6.689984416479186624e-01 1.945533203405465095e+00 -1.131382310570321126e+00 -4.717528491167846116e-01 7.941628015635699978e-01 -1.279163625299344798e+00 -7.218771495021444329e-01
1.973692885850975298e-01 5.248491685815998009e-01 -4.206357680886620987e-01 2.817544520670858699e+00 -2.637441072445322748e-02 2.851552624481019094e-01 -3.842970715606585319e+00 3.214795698653582168e+00 -8.348861619739440521e-01 6.877250793170468501e-01 -3.183909976078688864e+00 1.086794959174727931e-01 3.564632996420393773e-01 -5.750760700512375090e-02 -3.347423660652325550e-01 6.052687895989673494e-01 8.939630130419081722e-01 -2.836108955646773344e-01 -4.638859064308765157e-01 -1.509924660315347666e-01 1.766384704698047842e-02 2.871287567915710714e-01 2.627486411983238623e-01 3.602901240882811496e-01 3.568289396210062026e-01
1.026985064917953050e+00 4.887022664479767631e-01 -9.488181802461373437e-02 -1.114580386272072676e+00 -4.594934358664916063e-01 5.186727148635194018e-01 9.374970336114737401e-01 -1.267479618390766616e+00 -5.326545819394261638e-01 -7.829092644286108627e-01 -1.500550231047650174e+00 -5.038680128693713289e-01 -7.051460710304081614e-01 4.368221333677072549e-01 2.530290542573527049e-02 -8.081632066959495431e-01 -2.539182839287693616e-01 3.377340030408156890e-01 9.388104524551166286e-02 -8.088669596044535393e-01 9.788700393862755922e-01 -7.353885081251834710e-02 -1.719550685157750780e-01 1.520420374808465758e-01 6.639154398296882587e-01
-1.036262651867032591e+00 -4.114776026129762787e-01 2.295430781641781826e-01 -1.441610189195593472e-01 8.463137195144992964e-01 3.071818815576596307e-01 -4.761678388153238184e-01 -5.072532376026614997e-01 2.443631565460853139e-01 9.631082012913045887e-01 -8.234705458811603096e-01 -4.952423307020116239e-01 8.577740497637476036e-01 -2.588051952025711699e-01 -8.616389754151700942e-01 -4.755941192073893653e-01 -1.144668507764442067e+00 -5.322605182378807864e-01 -2.072428820130757243e-01 -8.396806571778429040e-01 5.864359652518136290e-01 2.216419370933477295e-01 -3.440182499184198384e-01 6.278174585048018619e-02 -1.711586882854861935e+00
-5.038208345216761419e-01 -3.164233763558237822e+00 -5.769771027115613293e-01 2.036818046957100115e-01 -2.377960165645470525e+00 3.832474696685288951e+00 1.337241231751981951e+00 -2.390451545718979831e-01 3.173511128034133932e+00 -7.256832069400921403e-01 -4.391945122042643646e-01 -7.262110399581764852e-01 -8.133850540399466256e-02 -1.398899677966627397e-01 -3.066118429024600189e-01 6.203722234770921995e-01 -1.842805534864085104e-01 -3.332869441674698452e-01 -1.652758618478987196e-01 5.655411642214936974e-01 -2.018748495433237700e-01 -2.355240072383466554e-01 -1.927014487712804258e-01 -1.059760550621627884e+00 4.389809869316464996e-01
-4.163032948489340246e-01 4.525274928437659216e-01 9.410341514286345577e-01 -2.673004591786093398e-01 2.158098603205471644e+00 -5.255283965092840681e+00 9.292850275985570230e-01 -7.978397904682808794e-02 6.304589968287955815e-01 -7.767583783809488274e-02 -4.835577378939422966e-01 2.497386343217976867e-01 -4.240094485871109820e-01 2.159107569112842517e-01 2.361238357139662861e-02 -2.243263035444660602e-01 -4.034147937157793185e-01 -1.334516050430553658e-01 -3.320218534321291992e-01 -4.237466875341504013e-01 -6.136030069966842415e-01 -2.101414638059600770e-01 -7.145954141959684480e-02 -1.361469015282812112e-01 -3.474892676542466474e-01
-9.817350003062067509e-01 1.159600138966790928e+00 2.217163938463563078e+00 -2.550033423986003966e-01 1.015403222399060112e+00 9.822919261510583144e-01 -1.897051890668166818e+00 -3.085759662271177900e-02 -1.782786304955784384e+00 -3.496033739740066704e+00 1.513198094259117846e-02 -1.139936294137878087e-01 -2.421867397251518950e-02 4.670849261593864599e-01 7.862024854565140553e-01 7.666094791217231696e-01 -2.770286360952612936e-01 -1.769000656797543036e-01 -2.955711093456337424e-01 5.986952024139617912e-01 2.194337693672704648e-01 2.364666427118474468e-01 -2.008726515488244713e-02 7.197787541827746494e-02 5.747194515026968764e-01
-2.219344757575775429e+00 3.511384597628265380e-01 2.440008734337095753e-01 -3.134831916645917538e+00 1.829370795324138377e-01 -7.991624522528755215e-01 1.216197563790991643e+00 2.136863960157515674e+00 -1.189144154398890318e+00 -5.973162232572396535e-01 1.332258819177177145e+00 2.851430088183298239e-01 -4.065179203745216685e-01 5.469995962646179849e-02 6.542824680900502510e-02 -6.978350346780620717e-02 -6.882361395937846016e-01 -5.954486489920584047e-01 1.446558296658425613e-01 -8.918776269213382069e-01 3.813134855180708160e-01 -2.994751283180296375e-01 1.600134544680276438e-01 -3.565299281636754580e-01 -1.385088231419744353e-01
-4.540106894989114766e-02 4.887678344744333381e-01 -1.935877664216758276e-01 -1.936895444176704728e-01 -8.477028411906565308e-01 4.232282562042798957e-01 3.116027212698316839e-01 -5.884397054765019286e-01 2.204164405007058916e-02 -2.004887159963973098e-01 -6.026048540710887691e-01 4.364366479177980013e-02 -2.428861713634610009e+00 -4.453046492873379003e-02 -2.762361115134674416e-01 7.408547715658219124e-01 1.085295600548864314e+00 4.000441062274353587e-01 -8.199670777842634761e-01 -3.588632117402646426e-01 5.564558604875020631e-01 1.077171518712898513e+00 -2.095526053850209625e-01 2.177975962716750813e-01 -1.979792794458194116e+00
-9.000161255230056112e-02 6.109646853433785552e-01 -2.066194884274349386e-01 -3.979551909959984091e-01 7.899967033269883476e-01 -1.364319939898248402e+00 5.957977400568996718e-01 -3.780605471678800122e-01 9.208700263785569717e-01 4.129734526650085669e-01 -1.362194331580336870e+00 -3.799397547315616630e-01 3.091376744093682905e-01 6.450568887494879076e-03 1.309692847569280671e-01 6.518220761629487381e-01 -1.806158992330655910e-01 8.730597140908807896e-02 -6.425680156007068655e-01 -1.444078930903368141e+00 -1.263998449204524199e+00 3.471164833853405129e-01 -1.579216395686380947e+00 -5.730818647001306720e-01 3.164897995373037176e-01
7.496259602923600607e-01 -3.987364219750706984e-01 1.201715917892002272e-01 8.026147347036142188e-01 4.125357903876005206e-01 -4.840641982483515626e-01 -5.114070408867559259e-01 6.193221963643885664e-01 -5.532513137023596927e-01 -3.273913535824383818e-03 -1.287872968728810630e+00 -5.952181085338574817e-01 -1.332997503207278278e+00 6.728611178885256505e-01 -4.513493447831812277e-01 -3.091981367972850836e-01 -5.686858135097553335e-01 -4.744355104811707746e-01 -1.171443177706658512e+00 -2.399514652287749183e-01 1.299701910628163759e-01 3.804018224940266535e-01 -1.211215074751411658e+00 3.069253357268134086e-01 -7.677736045418150912e-01
-6.890525769136410794e-01 1.594966266593814019e+00 -3.105279722055244163e-01 -4.138542771554492017e-01 -1.903841660287204585e+00 1.099726991584087266e+00 3.299153737489043392e-01 3.447679441529812872e-01 -9.606879113529323000e-01 2.858868045146111259e-01 7.279516639489742869e-02 -5.837231514823528755e-01 -7.320682082051479522e-01 -8.683918430530187527e-01 3.577898018757616483e-01 9.800218719669013812e-01 -7.983501620960079537e-01 5.093159924681689606e-03 -3.171215870618911969e-01 5.066237359761105452e-01 1.905456221324018304e-02 -2.994792477200928782e-01 2.006841441070466026e-01 -6.507842114332267336e-01 5.352006155685135047e-01
5.611482676531007741e-01 -2.484876834597176121e-01 1.170034174710124913e-01 -3.303905973606401925e-01 1.124951020566736515e-01 -1.336303962412507040e+00 -6.200536681276221616e-03 -2.055638493677253154e-02 -1.190363893320733002e+00 8.049936888638675736e-01 5.801371703928324131e-01 -3.076766958116985279e-02 -6.528286351019874090e-01 -1.565170258838737560e-01 -3.615082320006328120e-01 -1.559178978205374655e+00 4.034915636055518701e-02 -1.301825126853151549e+00 1.680238106477121907e+00 -8.060949804963344345e-01 1.769399069960935211e-01 -4.295745032494571181e-01 -3.958128660339312321e-01 1.635195271963416630e-01 1.003776071451575103e+00
-2.832549702383583057e+00 1.079212971917459379e-01 -3.293848168748740424e+00 -2.238937975676117131e-01 4.020939840430408085e-01 2.290746283981850873e+00 1.162391293381055180e+00 3.584272215747196788e-01 -1.818028195349927767e+00 1.666690945161616533e+00 -2.030925676501096622e-01 3.888949490103132400e-01 7.958823350901884641e-01 4.025392851099118263e-01 1.727952720944104514e-01 8.917144582935843111e-02 -1.593907354536590715e+00 -6.647159863965542703e-01 -5.551829285996828095e-02 2.131639525628749310e-01 9.563031268151014896e-02 5.684599083738834935e-01 -8.648639799473041567e-02 1.624010078939794877e-01 -3.916258757356712028e-01
2.550688680933201891e+00 -5.090450786600226873e-01 8.722007793997481329e-02 -5.835366933900358877e-01 -1.920459374293101429e-01 -6.488280304134151910e-01 -4.500395210601860763e-01 -3.388894573451495806e-01 -8.434754985520598325e-01 -7.289669619986296478e-01 -2.326207597132375626e-01 -4.671953241965281500e-01 -8.849722946949294400e-01 -9.755907481638372014e-02 -3.398456664925348369e-01 -1.032982144557871962e+00 -1.430482211813321358e+00 -2.996193858189473147e-01 -4.300752525553223626e-01 -1.260608002723867971e+00 2.822044519856370393e-02 -1.831796112282750855e-01 -1.984058230614453300e-01 -3.577742712044287288e-01 1.007386302522498139e-01
6.692525846944014090e-02 -5.162585233994591849e-02 -5.989744697611193436e-01 -4.123243992761441157e-03 -6.527836533989841428e-01 1.930662025560150763e+00 -5.739964289895517213e-01 -1.085377815648127520e-01 1.091936977757257399e+00 1.531027375712996408e+00 -6.080640810290885989e-01 -3.892552712869180587e-01 -1.096420652736218360e+00 1.043704712244333921e+00 8.870197210720542902e-01 -1.049270060535976157e+00 -2.496730908230442303e+00 4.096511661324973019e-01 8.795511075823084779e-01 1.084171805539119848e+00 -1.671526494754738357e+00 2.538564139780552509e-01 -1.759817306574499085e+00 1.367747257105118130e+00 -6.335376134935117864e-01
-1.459891018243438809e+00 -4.397491482865065193e-01 -6.905698175031889374e-02 1.453017979209799693e-01 -6.850470182057242230e-01 -2.817334068572626138e-01 -4.510126535446347118e-01 -4.222482626318734833e-01 -3.131351018705844091e-01 -1.361455890189145812e+00 1.521122826170628439e+00 -2.747673448155126263e-01 -1.234861333108300679e-01 -1.602883577818368765e+00 4.854991778523923274e-01 -8.917943699170487182e-02 -1.992375048211739275e+00 1.711464452035159844e+00 -5.659150751659671741e-01 1.740963125162709457e-01 1.312686775778100445e+00 -1.490770142142989974e+00 -5.101781982573114771e-01 6.322474140110354579e-01 4.421216453094052867e-01
-4.273476293697980211e+00 -2.481695829496785022e-01 4.972277623545889313e-01 -3.839327481601649605e+00 -1.243656726649555178e-01 -1.278840936197188194e+00 1.995453983374654294e+00 2.727536952796587588e+00 -2.845308217201338308e-01 -4.265958575058304558e-01 2.097374760464022714e+00 -1.179801918829412738e-01 -2.158626294005874247e-01 -1.051381564866872564e-01 3.652284883567483154e-01 -3.716344493839732199e-01 -6.921787298797401622e-01 -7.843724944023979795e-01 -1.735663673559827980e-01 -9.078429567610980799e-02 5.979002810396254197e-02 -1.940709115988366318e-01 -3.321763243991265879e-01 -1.356092392299330929e-01 -3.521481534816956471e-01
1.567149533464696987e+00 -3.854915459378878140e-01 9.867347209020992382e-01 -7.857446438076151063e-01 -6.812128300115026791e-01 -2.865522939135733971e-01 -9.889048921786894875e-01 -2.425796971607569186e-01 -1.776247258815885077e+00 9.394410174485060550e-01 -4.242549721026199205e-01 2.819383144586660728e-01 2.984613762774169232e-01 4.691860072213285271e-01 -2.704545802914791741e-01 -6.765859088298495916e-01 6.943651930205934075e-01 6.336480104885794384e-01 -6.789882178797580492e-01 -1.868687940092742970e-03 -2.881674907226778881e-01 6.073440318955795059e-01 -9.707465527539208550e-01 -1.166535090693354426e-01 -9.007654979214172464e-01
-2.455689684440584220e+00 1.901561731427678023e-02 1.287200282503844218e-01 2.412850560023130642e-01 1.837796159020091760e-02 -7.132097020233120199e-01 -9.249245270419116371e-01 -2.046752140169954548e-01 -7.797420381763059405e-01 -6.087085921337703764e-01 -5.096185427462562867e-01 1.853207773170369999e-01 1.573354690618668617e+00 -2.426515800868176420e+00 1.243391576774341839e-01 4.893274820425251581e-04 3.114251131968947206e+00 9.725536420114109237e-01 -1.819739048108779955e-01 -1.967900193822768484e+00 6.994096035943815348e-01 -2.254921699431196025e-01 -4.288086737062555276e-01 1.699579262149446768e+00 1.979566507698283725e-02
-1.048333365856061877e-01 -3.488176483085917434e-01 -5.526291463197010589e-01 -5.087109084207274146e-01 3.313357151283294333e-01 -1.420925749370349100e+00 -3.627991759412869111e-01 1.526653018883430135e-01 1.066862484321823290e-01 -7.029551400188202570e-02 8.265553053200948019e-01 -2.360702357490763070e+00 2.053338715234124923e+00 -1.555941627125644044e-01 -1.618789439429457189e-01 2.007672739205204504e+00 -1.998983634692704514e-01 8.972822521281255126e-01 4.063342458393641166e-01 -7.818138560494506395e-01 -6.320869313016611590e-01 4.742121241968559955e-03 -6.694865952706500201e-01 -5.383305072048221174e-01 -3.876983936965623934e-01
2.938393192253729302e-01 5.485320156645474565e-01 9.780933906217802454e-01 -1.712623962725234594e-01 -7.864460385473904802e-01 1.524166708211945664e+00 -1.116632618403383459e+00 -1.863207608983837027e-01 5.144317639408452214e-01 1.395696151790316808e+00 -2.318672343123738544e-01 5.305976260467089034e-01 -6.138838051423656239e-01 1.681868630674852705e+00 -1.732623133058032450e-01 -4.726361381168944220e-01 -6.721972880821999730e-02 5.332615034120437025e-01 7.483682350585806331e-01 2.694818541497964737e-01 4.219567276434150749e-01 -6.373009012248451177e-02 -5.960351542019572957e-01 -3.623516526995346765e-01 2.108484578859322767e-03
-3.497324897308639047e-01 1.277733286413508917e+00 7.540398588228279797e-01 -1.321137713335077457e+00 -1.640625521845912260e+00 -2.465226940844718051e-01 3.987467408257857615e-01 6.283056406526790205e-01 1.755487412027446403e+00 4.030672694446494897e-01 1.218368751090101787e+00 1.524773356894030055e-02 -8.870477549728521538e-01 3.705037324990337333e-01 3.544223198574434908e-01 1.284649996784329451e-01 -3.170570559665124022e-01 -1.606304427894833298e+00 -4.148658114809244263e-02 -6.340886771430130908e-01 -6.285615936936065351e-01 -2.698672971378585084e-01 -6.863856083585100354e-01 -4.293035187004758391e-01 5.025919581683017112e-01
-1.106441043234691168e+00 -9.466705604838204779e-01 6.068110475916206614e-02 3.415900450189413018e-01 -2.606720124323576027e-01 -2.692813657141549522e-01 -6.182911417869729753e-01 3.624578838947469916e-03 9.828012514439391500e-01 1.302179264631376565e+00 9.220003394130253938e-01 -1.240562769971195412e+00 1.038304080355322512e+00 2.253583006091114393e-01 -7.036220307378265870e-02 -9.135748165008773791e-02 -7.156654590038542540e-01 -1.674330040056777325e+00 -2.784058965425180165e-01 -6.583098393629751577e-01 4.492585595619532635e-01 1.296556842732689008e-01 -2.162961196884916892e-01 -1.781831580238175394e-01 -1.123273453601287386e+00
2.492320036140757145e-01 -5.902466940050472566e-01 4.469024871957993916e-01 -7.971442573231163342e-01 1.627424177770966096e-01 -7.071701369467079390e-01 1.473597418138568593e-01 4.762127777780550408e-01 -9.994788588462276691e-01 -8.494956014750251194e-01 -3.937432550306854684e-02 2.466344822477831433e-01 -3.601633092730608388e-01 -1.334225010356399732e+00 1.078025873130417089e+00 -1.270888490904234502e-01 -9.229438607909589143e-01 2.225218278260665095e+00 -1.417589219333757367e+00 -8.568111512483184145e-03 2.073555009921211667e+00 -1.782748946569615134e+00 7.050260988053902445e-01 7.347652046560736450e-01 -1.172705223025578114e+00
1.161400952689864319e+00 1.205341956487768623e-01 -8.694234348331419948e-02 -7.925153202560267229e-02 2.352244149679028895e-01 -6.982738309961628032e-02 -2.170809831593835046e-02 -1.170010839835787242e-01 1.361865242133590559e-01 1.876606425846837067e-01 3.290382324769020594e-01 -2.173018580241521946e-01 -1.183162853611338383e-01 2.029671050281814659e-01 -2.805836049112076652e-02 -2.546924993424903416e+00 -1.291210260743015925e-01 -6.134482917167105587e-01 -3.030999554126708739e-01 -3.461280905334405578e+00 -1.794547691823241975e-01 3.609792562730850252e-01 2.741122555034468444e+00 -3.826398988895254316e-01 -5.550183023930065594e-03
7.235899116254109753e-01 1.068620556551906464e+00 -3.511605136996707177e-01 7.110589503530612143e-02 -1.439803599109768850e+00 4.073727934319127941e-01 5.629396405853341889e-01 -6.908574273778261832e-01 2.657085489606353379e-01 1.486860713479987994e-01 -2.126702675902900908e-01 -1.221301773246618261e+00 -1.831922758771645510e-01 -7.977746718178799767e-01 -2.900572187305519023e-01 3.090130446049699775e-01 -2.539302464634182743e-01 -1.450551555032522311e+00 -1.009262363912935001e+00 -7.452078360592394590e-01 2.796493775238933707e-02 1.245059320552289073e+00 1.180893480941881402e+00 8.098054365371006869e-01 -1.285717073398902732e+00
-2.342675901226728641e+00 7.145113277419569142e-01 1.451908820067417505e+00 -8.310754664399822023e-02 -7.471783443511335054e-01 1.694406821381673867e+00 1.500944266895109402e+00 3.191628279621094855e-01 -3.146833058159597685e-01 -2.486899425727473911e+00 1.020786079289960624e-02 -1.630008887401817597e-01 -8.854363995073046834e-01 -1.298334119710598644e+00 3.704924723549566506e-02 -1.002378536817042809e+00 -9.422637035079541902e-04 -2.810879484655504079e-01 -8.260106110576134752e-02 1.609418197649392646e-01 -6.128887556698593420e-01 1.811878242126970240e-01 -1.468705243331535903e-01 -1.392989842613328311e-01 -3.358740806972105308e-01
-1.866082526507810924e+00 6.500537761267359826e-01 5.803593820223752475e-01 -4.946082442831299386e-01 1.563841458391059147e+00 -2.785712006392732754e+00 -2.183514965617771308e-01 -3.206727142078583670e-01 2.993353888388953221e-01 5.378688985973240078e-01 -6.824597083974076606e-01 -1.220769736178226039e-01 -7.327589069256873477e-01 6.910192124447307460e-01 5.974174508568628333e-02 -2.365864496060113009e-01 5.907031406100423515e-02 6.042257973303194474e-01 -3.095407720187762918e-02 8.216121219592634750e-01 -6.111277305839801777e-01 -1.881352777041292168e-01 -2.926129843578221257e-01 6.229161241194535181e-01 -3.839979669261467943e-01
1.339237303989740502e+00 7.353009219751287517e-01 1.043587553183438432e+00 2.154925010893954107e-01 -5.162697505764661798e-01 -2.737156283722493866e-01 -6.752738087629109875e-01 -8.538581337589222497e-02 -2.872113553815542342e-01 6.738520610824001444e-01 -6.434241274182388448e-01 1.032853338543933824e-01 1.624369531932298369e-02 -5.102011697305931098e-02 5.737302876759424741e-01 4.403091817227473004e-01 7.244021828082820580e-01 1.979219887750128803e+00 -1.709572624155176745e-01 -8.326290205806535782e-01 -2.552523911906018128e+00 1.868148616892522984e+00 2.339412295296683653e-01 -7.803150011302557865e-02 -4.141037579462968132e+00
-2.118330735291975297e-01 -1.824582978431034952e-01 -5.790755072224938044e-02 5.492625955627471468e-01 -8.895157850634930474e-01 -7.126475291894674990e-01 -8.954245027052172290e-01 1.007669673327197535e-01 -9.683745123814029299e-01 -1.310180073517652088e+00 -1.620490628390951260e+00 4.734226199775274369e-01 8.065736968236847382e-01 1.641102149098188301e+00 2.489660592280820151e+00 -5.507092501034900611e-02 -3.125235924115803837e-02 -2.396141014639068256e+00 -1.314164847593362329e-01 -6.616076662385649287e-01 -3.458962808105489617e-02 9.165296984195057117e-01 -1.113890679531706618e-01 2.912685918015011644e-01 1.027565834141170170e-01
-5.731130239935955384e-01 6.149087273446185442e-01 -9.632229733664950111e-02 4.977776974516444075e-01 -2.211100105201816657e+00 1.072058021836061359e+00 -8.486664610303629175e-01 -5.636427857931963770e-01 1.425223707800094886e+00 2.370347673833098356e-01 -1.260212873500305308e+00 -4.511029358494748620e-01 7.021082412600520017e-01 -1.159373402800206176e-01 5.319372594926750075e-01 -4.079171055858391570e-01 -1.196068805706862914e+00 4.780490125383585753e-01 3.600514503431007651e-01 -2.219571652300571518e-01 -1.066532083921382767e+00 4.403592357854757555e-01 -1.319180416471484041e-01 -8.799728706398042555e-02 -6.775374497297057541e-01
3.098822038056931572e+00 4.281716767143403102e-01 1.583889154403733124e-01 5.414015611091363978e-01 -3.646057202669291120e-01 9.964778558830776622e-02 6.007655800259902312e-01 3.372048154970718192e-01 5.412907948463583363e-01 2.472768600018921514e+00 1.932382071127168865e+00 -4.237635634661772177e-01 -2.129045215329139484e+00 -1.951108196736487832e+00 -1.634859216198961906e+00 3.957762666056145462e-01 -1.706909762320884871e+00 -1.035887355669617538e+00 2.214274651018818818e-01 -5.423318825080082339e-01 -2.349672883112108590e-01 -1.337546854287395282e-01 2.285594119564778037e-01 5.856490615920942888e-01 7.999615806192845735e-01
3.660070368172647082e-01 1.390147863355570834e-01 2.067377577946298839e+00 1.276731402714405550e-01 1.463973395959500545e-01 -6.974453487638677673e-01 -1.342884516220048896e+00 9.753566107604280666e-02 -3.513879860262801302e-01 -1.498051241241573628e+00 -6.292940550482057915e-01 2.572957660998118068e-01 -6.357671834506791742e-01 1.451136693587838922e+00 -4.566557860263324442e-01 1.119295795611713329e+00 -3.379660312888917439e-01 4.806732432399123400e-01 -5.101702280018375335e-01 3.368518618390498598e-01 1.003004019842940631e+00 3.084407338949324284e-01 -6.860025364988939778e-01 -6.275918765917098963e-01 3.571613630079193413e-01
1.423270432365943083e+00 -1.956690967661017244e-01 3.977373901556083974e-02 -8.305704376897649066e-01 -8.984757823835709534e-01 -5.927557516407899740e-02 -7.740548809838898592e-01 -4.035121222857639967e-01 -2.809178099869669154e-01 1.755011253606568802e-02 -7.760974963183264741e-01 5.173814072138254172e-01 6.263928682144536131e-01 9.324646313298452505e-01 -3.700237102017203683e-02 -5.302647819395814865e-01 1.450326635953215308e-02 7.475644584152657535e-02 -6.297296262698578451e-01 7.704977524641684616e-02 -6.833788534515454760e-01 -1.179000956652295207e-01 -5.815714637843055757e-01 -9.238898225590309599e-01 -6.958659713873878161e-01
1.019457078986385046e+00 -1.150493755156012599e+00 1.981212376124668717e+00 -4.564236296676099647e-01 -7.256387640316733778e-01 -4.456991429523709525e-01 2.500002484079315135e+00 -5.864136078628749971e-01 -1.305407083645110378e+00 1.897949511429931402e+00 -5.127008792004753568e-01 -1.756188441989027238e-01 6.149859579274707944e-01 2.741297972274507333e-01 -3.346269670406067376e-01 -9.371241994368779693e-01 -1.919047008402908483e-01 8.804625190199916185e-02 3.964307151454141698e-01 -1.782104086897106920e-01 1.396170343812749067e-03 -4.873628680012424552e-01 6.580615643927956171e-02 -3.750505975832656436e-01 2.411367170102433621e-01
2.747766684789501479e+00 2.505357084542941259e-01 -2.009509790600826074e-01 -6.703089794379981647e-01 3.061736273071569703e-01 -1.734838970244827194e-01 -1.621833222451415646e-01 7.568467702859000834e-01 -2.119008576780186670e-01 1.416680452116584554e+00 -1.630709487055988838e+00 8.167063530476977862e-01 -4.931405587101178045e-01 -2.160744318908855988e+00 3.302928032425109350e+00 2.817774648649021829e-01 -8.331794752498223877e-01 -1.366415862055261110e+00 -3.497248650325924801e-01 7.282544359664751277e-02 -2.108652115631227952e-01 -3.857883045449995718e-01 4.258566352884364803e-01 -2.154013610926381606e-01 4.154328297114768254e-01
1.346710897794291206e+00 -6.938424314551727701e-01 -1.419705870637476275e-01 -1.705527466514450141e-01 -2.181251512815872928e+00 -1.031713347189253005e+00 2.925275527918113627e-01 -5.507513741682125430e-02 -2.519418071191458774e-01 -1.024475697014637088e-01 -7.382873987461262555e-01 6.675763071336366927e-01 -2.664506319344336904e-01 -7.452963575844000210e-02 5.878360224196903239e-02 4.098097410409947128e-01 2.652192148332516708e-01 2.586373088098148920e-01 -2.708175491043087260e-02 1.149124372766416602e-01 -1.289440550117522344e+00 4.881536247742847626e-03 -3.056005392844305946e-01 6.968385177677651754e-01 -3.980989163357337990e-01
-7.072067178595305981e-01 1.814289200444418437e+00 -5.713976072408372131e-01 -3.092519654468216528e-01 1.312272437906175204e+00 1.200792561349193655e+00 -7.434297543051175960e-01 -6.491556486496316003e-01 -2.788532425637691325e+00 -2.088488376093692311e-01 -6.244736776624018049e-01 -1.899387351237463439e-01 1.187389171820193018e-01 -7.156817769258724260e-01 6.402927340889540131e-02 -5.564242763397980046e-02 -5.418962868531445043e-01 -3.684979962484105642e-01 -6.139304258562650052e-01 -1.597852930322551379e-01 -7.038132056352537358e-01 -8.117550629452631450e-02 -2.285634415025163402e-01 -4.073624795113856001e-01 -5.052356237656240312e-01
-3.397196930049363406e+00 2.831435822207332365e+00 5.353744923014358559e-01 2.876961532372525610e-01 -3.810521413597720120e+00 1.963489278988220565e+00 -3.782792087442257145e-01 -4.146610695263235891e-01 1.518914601424795841e+00 -5.382569807746506729e-01 1.428063954331399155e-01 4.190034370309915768e-01 -3.857257559627840782e-01 -2.680112640967956539e-01 1.416932556795163500e-01 -4.370297948773853025e-01 -3.705756361571849178e-01 -7.610401080016954145e-01 -7.123952064799224382e-02 3.561839319693769212e-01 -4.233252643177730645e-01 -2.342614180937674720e-02 5.433810532430142226e-01 8.891964996588852532e-02 -4.075359392490311011e-02
-2.327277784399419402e-01 -3.011819274719471085e-01 2.149203509651281541e-01 3.587634816875150123e-02 -5.366388534728783188e-01 7.429098093464152341e-02 -8.485598622685841530e-01 -1.055292972733302970e-01 -3.629739354195099521e-02 7.528579213044609419e-01 3.582993474721013483e-01 -2.643041570461790099e-02 7.420700024947626261e-01 -1.324058938388151807e+00 -2.908297336675774170e-01 3.212245364235288836e-01 2.108100363307356506e+00 4.647437717979671645e-02 -4.930998840544846273e-01 -2.215592711789363900e+00 1.216443705828836208e+00 -3.040189927094226752e-01 -1.914767667623238634e-01 2.248225568776343497e+00 7.812019602555703157e-02
1.597836861735864034e+00 5.543629083717645234e-02 1.168768229091523420e-01 5.005293701882393975e-01 3.472870994205454198e-01 -2.764659229756019632e-01 -1.138745593093727360e+00 3.845934371325416268e-01 -7.368166633941264365e-02 -6.825605676242186837e-01 -9.903899618490215051e-01 -1.082165095212527239e+00 -1.154623780934391775e+00 -1.322731662297528255e+00 6.610083848083869729e-01 5.453111809040575020e-01 -4.990896106285019340e-01 -1.491514845280738522e+00 5.689682035162878515e-01 5.528858566269341246e-01 1.259708439058292218e+00 -1.051918152493712455e+00 3.409362898904519379e-01 2.878054757077769255e-01 6.219080329006674290e-01
6.557216125381678529e-01 2.779641816000611998e-01 -1.258745533611801970e-01 -9.518163168546313058e-01 1.409182382611769424e-01 9.379465307931615647e-02 7.413183779331770085e-01 -4.672346921415400645e-01 -2.816685836262412534e-01 8.388565487658995456e-01 -2.037746566332970577e+00 3.173616274830177303e-02 -3.049622678713826418e-01 6.237253868828100956e-01 -1.382977045356631907e+00 -2.806505581118237114e-01 1.180272779340186151e+00 -1.985813008005619329e+00 1.531168644324534256e-01 -7.050232908326036219e-01 -7.452363228554101937e-01 1.186486340772110237e+00 -8.167291749472657680e-02 5.391877993355609355e-02 -1.424809275042306700e+00
9.343865175885229801e-01 8.036595788583856814e-01 1.390138103285910587e+00 -4.544577829355644361e-01 1.110172009163824108e-01 -3.040978630637801050e+00 1.837877805045160073e+00 -6.812876841760167057e-01 -2.996912097457974378e-01 -2.351645645762125980e+00 1.325045076112141285e+00 -7.816734062622977819e-02 5.971104561224498397e-01 1.151800843320458373e-01 -4.394663819365322022e-01 1.797214741593249621e-01 -5.487965754702207599e-01 -2.521735759998675608e-01 -1.012836988017361328e+00 1.083700837435956688e+00 -4.785757476735769123e-01 -1.167126064388793877e-02 4.677667049459027226e-01 1.865527482448949351e-02 -1.936782048881817153e-01
-2.726896400292696754e+00 -2.583897744278562756e-03 4.930240112848779388e-01 -9.087980244824448439e-01 -1.861334738945036316e-01 6.698273667316740898e-01 4.675907023149007413e-01 3.674250402767778589e-01 -1.093013503135976672e-01 -1.836021317128084362e+00 3.968925369150993476e-01 -4.622811674196375953e-01 -4.845730411093202017e-02 -3.355935130490865781e-01 -4.167604225162634402e-01 -1.046856531515909738e+00 1.344927541193399412e+00 -4.647519743011490623e-01 7.401643344102621924e-01 1.804522878539996267e+00 -2.385189156613318318e+00 -1.265343041571667104e-01 1.014043468622679356e+00 1.264119773465952834e+00 -7.572164198384770395e-02
1.227039299350533907e+00 -4.028253646440940750e-02 1.006745559039456950e+00 -2.919832177322682076e-01 1.852125744488089254e-01 -2.373926971247894979e-01 -8.752570889013678856e-01 -3.252249800542746927e-01 1.321666152086577728e-01 -2.041934490840539018e-01 -3.801762485659924973e-02 2.638984234947552299e-01 7.283670638209132145e-03 -5.258962066718265715e-01 -1.486673065569121266e-01 -3.453109044287335117e+00 -5.548913211735867490e-01 1.916524898657774589e-02 2.699697934527402143e+00 -2.969327428430140969e+00 -9.388789580417880587e-02 -4.751362902298300606e-01 2.059825640763792265e+00 4.488496616188553980e-03 -1.001928257952198892e-01
7.838718756539745369e-01 -3.042258126149441910e-01 -9.458802995600441854e-02 9.710644338896903816e-02 4.252964744012818765e-01 2.110865195486639201e-01 -3.935856087853873420e-01 9.919861033570365194e-02 -8.286932812041000185e-01 1.037980315306661766e-01 -1.428930358115793053e-01 -3.987081988461061433e-01 -5.140706344119900795e-01 1.500699165455077755e-01 -9.363024817155067570e-02 -1.725236925751259198e+00 2.679766675594570824e+00 3.891129292614448065e-01 9.021237148853865628e-01 -3.746692106266848121e+00 2.799716402976275997e+00 1.822427732093994668e-01 7.952550601830706833e-01 -2.416678897811613158e+00 -4.541914693519442103e-01
-1.684250684113888785e-01 1.252054335459275025e+00 -5.465473171553101306e-01 -1.038094034954134770e+00 1.295149519095112778e+00 8.880656235320049108e-01 -1.039291254832239497e+00 -1.243682868242253159e+00 1.623440444404038896e+00 -1.281000608176637856e+00 1.200617371426078828e+00 -3.758709687975490821e-02 -1.910803426109210779e-01 -3.466745344020388253e-01 5.071500053302614025e-02 1.751143129997634051e-01 9.245492903017747954e-01 -7.560131976864019610e-01 -1.254709844829303977e-01 6.571294467052107846e-01 -4.822896770956434653e-01 -6.293207538181454508e-01 -1.467295653979332759e-01 7.721541776188729500e-01 -1.629464115603532492e-01
-5.370069900527991713e-01 -4.589883921354756535e-01 1.668823502655033819e-01 -1.943231124183807612e+00 -3.161166244658379365e-01 -4.902546640884300477e-01 -4.444892665374746699e-01 1.550531847161268351e+00 2.231197889732188522e-01 -2.923719392249660154e-01 -1.826245719198069883e+00 5.539293459992591928e-02 -3.657902789181853853e-01 1.944521592044031744e-01 7.247704065905788418e-02 3.332648141577372325e-01 7.349087639022922058e-01 -9.533121626138352234e-01 -3.810308147368641762e-01 6.765607479021349402e-01 -3.246275746950659791e-01 -3.566181791720501315e-01 4.310417147262290971e-01 -6.340792926938425556e-01 -8.068042404943573387e-02
-1.013357493993417124e+00 1.668621860135667490e+00 1.346174654769161649e-01 -1.267023084796668586e+00 -8.542681165856973458e-01 2.022761731133947194e+00 2.580526891625655184e-01 -2.975214963810197122e-01 -9.933152917082697098e-01 -1.907366706503500764e-01 5.628280619673052820e-01 -2.831638239895393760e-01 -6.673659505495488364e-02 -9.364681565550416753e-01 3.186241581892306218e-01 -9.002977492840851248e-01 5.563690315231072381e-01 -1.617464826148176660e-01 6.440054008541699904e-02 -4.337757307098137893e-01 7.034353984027982287e-01 -4.598576859956028384e-01 -1.100997647866557738e+00 -5.463832504764477571e-01 6.092684546181709182e-01
-1.183151007708992397e-01 -7.131509354469948159e-01 -1.096070691237390315e+00 7.617336499450036436e-02 -1.733492944459408547e-01 -4.976586763639637701e-01 1.380657421691171005e-01 7.098521711407219659e-01 1.989633387131342079e+00 9.364187298881345711e-01 -3.302933965861795107e-01 1.251214690982710986e-01 4.948354593945157587e-02 2.237494823143804656e-01 5.913035729631280768e-01 3.902268324186116133e-01 2.827917263716712704e-01 6.954699662172090235e-01 -1.603691725707625804e-01 3.006296595974353725e-01 -9.031739294493695835e-01 -1.640928392828614024e+00 -4.625382042126082172e-01 -2.990682953874219674e-01 6.926109104023497887e-01
1.936325429846066648e-01 -8.863695066662224953e-02 -1.273782200464263770e-01 -9.595497996763602266e-02 3.927527725315795720e-02 -2.123541407609932583e-02 1.622410959110419382e-01 -3.064274398042344735e-02 3.123049015631113035e-01 -4.124308700831573193e-01 -3.648988414512152612e-01 -5.291147541947371913e-01 2.208351285488340532e-01 -1.530329515226442338e-01 -5.187184543565900169e-02 7.859970068689314804e-01 3.553956688085199822e+00 5.839488319883219258e-01 -7.335219565441296607e-01 -4.587684863650067335e+00 -4.034567141254405520e+00 1.453727283884937160e-01 7.978201296989860802e-01 3.086227611050106123e+00 -2.700058168054385657e-02
2.864103087304830098e+00 3.363043735490408581e-01 -3.405573390031998438e-01 -3.700031493692739620e-02 4.010589544540462681e-01 -1.186503624026643972e-01 6.183909163383534136e-01 -7.978226880645152008e-02 1.865184811497177519e-01 3.738134793841942360e-01 3.596832724105760160e-01 -2.684707166679807799e-01 2.185776159653266548e-01 3.324029730178503783e-01 1.800466931034402362e-01 -2.319315608559221253e+00 1.416508611757516523e+00 -2.322635271300501902e-01 3.147989775649651101e+00 -1.960469033005288519e+00 -6.889199443681680579e-01 -3.483115581576525649e-02 -2.192799057073234525e+00 -3.190368753526739987e-01 -2.285217775414284669e-01
-4.925998386994161898e-02 -1.664486991684890338e-01 5.765881236327631276e-01 1.944497584212402375e-01 -1.713443659160512333e-01 8.587607321605933430e-02 -2.751995120588022203e-01 3.811594662209260020e-01 -2.747159883742362196e-01 4.424545054702422320e-02 8.575934262121184259e-01 3.752585341503600902e-01 -8.170177109960420347e-01 2.104762601914894962e-02 -1.262104499530887436e+00 2.089825611031410069e-01 7.826711474215231057e-01 -1.465707358627781787e+00 9.643771926040952680e-01 -1.027347468429812061e+00 -6.330135553030441509e-01 -4.620705636343142020e-01 -2.275083188472293017e-01 -6.236756362020424715e-01 -5.135471081070860366e-01
4.018387607918894738e-02 3.085259988593216929e-01 3.832255007744048841e-02 -2.645209089257429813e-01 -8.245064167768413332e-01 2.781466522262743823e-01 6.936852754685636224e-01 -3.953288047624347601e-01 -1.252789629489088785e+00 -1.164515543051210633e+00 -1.137264655559786730e+00 -1.306578400689717423e+00 2.502062651100603330e-01 3.514791184411154013e-01 -4.235582216675540246e-01 -1.558574860410224805e-01 5.294686401620543048e-01 -3.573055218504130326e-01 6.660324809893888309e-01 5.594681839348544239e-01 7.987938588288484576e-01 -6.396871839616119493e-01 1.346526632011331437e-01 1.444361608132183616e-01 9.700835967766663348e-01
-2.065112012937166397e-01 2.020183444548421040e-02 -1.925448090757778674e+00 -8.627060793149344819e-01 2.718146153788922881e-01 5.276513501703813253e-02 1.247291564129535901e+00 7.387741184778483516e-01 8.394015276434747541e-01 -1.025254474738293217e-02 -7.282050479773461982e-01 -1.187789137883376922e+00 6.627527748945163943e-02 -7.833434949957764071e-02 -7.015227246499805558e-01 1.722106530800833646e+00 -1.620845961975738228e-02 1.838203410742737520e-01 -8.317550168413736511e-01 1.643808494837694534e+00 -1.195440070059012733e-01 2.943671901843009087e-01 -2.278365145350479626e+00 7.380444557272251016e-01 4.157481932772776057e-02
1.355625009189020513e+00 -5.063714641051073606e-01 3.550552584962843317e-01 9.276204001640662167e-01 1.503105774416760410e+00 -1.622462833910301772e+00 9.305573607528480062e-01 4.082197683206523764e-01 -1.901161153663849523e+00 -2.360285622597903643e+00 6.978878924720507415e-01 -1.970696862489264012e-01 1.238977055143938300e+00 1.023770613712348343e+00 -2.867904385226199837e-01 7.831961813267825923e-01 -2.265801178319021059e+00 2.026768016141852757e-01 -6.319459085682473942e-01 1.519167595578502006e+00 -1.343625943973601133e+00 1.545376372669949872e-01 2.631031604231025556e-01 1.022160501563720292e-01 -3.818803710587418965e-01
1.595199973375444502e+00 -4.814153065687611921e-01 2.839818609584486842e-01 1.656339883179878403e-01 -8.117703926788719104e-02 -6.167172468058160772e-01 -1.051271446707991164e-01 -9.806070584213238961e-02 -3.877123173090891495e+00 -1.404611071200372319e+00 4.317293629637680152e-01 1.651023829090372708e+00 -3.272620025176325775e+00 6.822298415224917756e-01 1.313710692776955680e-01 3.015721878609948448e+00 1.449835189779121958e+00 -5.404944649366941745e-01 9.002947042315043724e-01 -2.038716279659868180e-01 -8.470499292466186769e-02 1.406645099960728840e-01 -5.909733588248854419e-01 -2.015135240806608941e-01 7.010097134127925289e-02
1.766426999519706831e-01 -2.398385426307979573e-01 4.827847653211554402e-01 -8.468552775171837022e-01 5.611349704284033235e-01 -3.628467731145811337e-01 -6.008010862312116451e-01 -7.384833991276920084e-01 5.001061334170505690e-01 -1.771902734785700595e+00 1.351729231726478186e+00 6.995134332205755756e-01 4.047998212599616119e-01 -1.960426038186020348e+00 -2.267568039507984745e-01 -3.693470538986739493e-01 -1.777245650191421555e+00 -3.707482323169640770e-01 -3.205744119440006035e-01 -3.473041463384105021e-01 2.045806459569200070e-02 -5.892815446029974202e-01 3.008098473442399889e-01 5.786507730634938597e-04 3.058145967805988574e-01
-1.693506880426866479e+00 -1.958782728251815264e-01 7.301797026417699010e-01 -1.982777149818593099e-01 -1.503269175269051905e-01 -2.068131761086901277e-01 -8.931782914950271435e-01 -2.302053843942447886e-01 1.150257896286540404e+00 1.566308186526287782e+00 1.013859594271078746e-01 -1.657466984989493852e+00 1.357047013553818182e+00 -2.318171807291448783e+00 -8.096003045279760446e-01 2.782044400786642946e-02 1.621117258559335195e+00 -7.627127352485840728e-01 2.431493065432210332e-01 6.384614219450721606e-01 4.297195566802743394e-01 -1.274201357033127313e-01 -5.640823055415448151e-01 -7.466811953688644588e-01 -2.865531774667550158e-01
1.504576044163468351e+00 9.492482690706254000e-02 4.295999502193018071e-01 6.904137096589521017e-01 -5.697374120593435842e-01 1.399988831026272251e+00 1.832581014179645862e-01 -6.959762786865386630e-01 -3.716139481663634919e-02 1.078939411667013543e-01 3.345494455927969235e-01 -7.245236615431409621e-01 -3.804544252194354215e+00 2.904932996369569143e-02 1.858528606261685701e-01 9.831135138118393124e-01 -1.169048694658034959e+00 -1.226698704281263402e-01 3.502760397027677719e-01 -9.101134591905801763e-01 1.128217058304777476e+00 1.460525183252038006e-01 3.369808787096326697e-01 -2.532142552786691425e-01 -1.023515932028516318e+00
1.283129148578216139e+00 -4.918285250699795386e-01 6.093726509796185686e-01 2.333360680360310191e-01 4.153548071486208304e-01 -2.382792483853878873e-01 2.608506920475930357e-01 -2.404193812059019289e-02 1.210369893447106771e+00 2.161431619592013575e-01 -5.333365270670967773e-01 -4.065125798602488016e-01 -1.915764113310139072e+00 -9.617837444397994151e-01 -7.394468619016374422e-01 8.938085572109415455e-01 1.225531992293003025e+00 -2.567997541740420164e+00 -3.656408546884893362e-01 -1.894857543267337158e-02 1.392798498732205070e-01 6.910244061140595750e-01 5.943725459580389420e-02 2.144098716479637123e-01 -1.505359622431658106e+00
-1.239989347524954821e+00 8.137791122386657250e-01 -1.165935729230745288e+00 3.753908522872032721e-02 -9.467004533315874770e-01 1.564287217229181293e+00 9.409602895000924727e-01 -9.660276112761272405e-01 1.198339571288141947e+00 5.869651119039203113e-01 -2.981464769180829921e-01 3.788851197690137895e-01 1.467548094335681341e+00 -2.666295003861303137e-01 -5.336733065959616829e-01 -2.979819271951298365e-01 2.872531856467284150e-01 -7.482570760096953766e-01 -3.691404407059646897e-01 -1.411788336261466714e+00 4.150487717480644823e-01 -6.076235252970030309e-01 -8.834320118550632595e-01 -5.318080582169221193e-01 -6.273749723423042157e-01
-9.889200469727790210e-01 -6.035754078506214704e-01 -2.905768201261966222e-01 1.944532992241980104e-02 5.194242332662253325e-01 -3.743067410013335983e-01 -3.435903379000553315e-01 -6.648061391593675928e-01 -3.887294721199867076e-01 -1.784463607568502197e-01 -4.864365461731092188e-01 3.667329394379775231e-01 -7.905639867409803845e-01 -8.637834721820878414e-01 -1.813589366032290817e+00 1.422166543446866216e+00 -2.147956113333834849e-01 1.001115868449636404e+00 1.487753031701614104e+00 -1.999216672679020590e-01 1.765938390452089113e+00 1.255526365008670986e+00 -2.083427779823532333e+00 -3.225753840313732024e-01 6.182182252064345462e-01
1.612711007754130232e+00 -7.479215796383198445e-02 1.507042918344976279e-01 2.648848016981683248e-02 1.404334604817267240e-01 7.133904103273992596e-03 -1.410783319617659459e-01 -4.990601738355661399e-02 -2.819423642340834757e-01 -1.901279199269714781e-01 4.705967917736932904e-01 -3.801935267727458712e-01 2.293962846260541866e-01 2.869553001725526076e-01 3.487872816163151146e-01 -3.059419688251279634e+00 6.369375304185259656e-02 -3.795739152585819176e-01 -3.595643561628719898e+00 -3.247030694254526839e+00 5.660236895448825800e-01 5.752785828370785004e-03 2.926291923504927173e+00 -2.031621374878435707e-02 2.411690966220542409e-01
8.667080278770593615e-01 -2.277041632484322342e-02 1.163560453372155801e-01 1.511559163337111711e-01 6.138218135116253471e-01 -7.711220434797921852e-01 2.931152921758776730e-01 -2.627893082317976914e-01 1.591243467076729201e-01 1.919354669633262789e-01 -1.146095195516349946e-01 -4.084880096100630686e-02 2.847484200600460813e-01 -3.628519763099231077e-01 8.682044960619431095e-02 1.353102465927003673e+00 -1.239284319052944117e+00 -2.036200014400463831e-01 3.353396645609409976e+00 -3.392964062940703851e+00 4.417850925615921520e-01 1.704144570750643073e-01 -3.212873444053231609e+00 6.063466730125824933e-01 -1.097434484569534408e-01
-1.619759920035859502e-01 -1.543051571529949761e+00 4.181961395249486624e-01 1.775554694267455092e-03 -1.801657448896941960e-01 2.086597162784382120e-01 1.066102109686597910e+00 -1.202277002471493772e-01 -9.653209849051235247e-01 1.314483007553404859e+00 -4.779229235868306946e-01 2.958759487684742631e-02 -5.509464449558800769e-01 -2.711239611730710264e-01 1.129407609775510794e-02 6.675627184229869782e-01 -1.414554847493976419e+00 -2.269539627973216067e-01 2.347092811248061017e-01 -1.895163769607831061e-01 -6.736595973647936386e-01 2.391709128939225604e-01 -4.183602295619351374e-01 -1.177262474186409724e+00 -6.187415632314144931e-01
1.149664707066983871e+00 7.073195822394096055e-02 4.508628405734997902e-01 -2.182194481817870679e-01 3.878191525183975474e-01 5.228938299462964068e-01 2.249966022835670765e-01 -1.329079813843421665e+00 -1.313088239060175244e+00 -5.269898481263417950e-02 -8.220434748496425748e-01 -8.613394140456432924e-01 -8.765475418713097877e-01 -2.708738329072735707e-01 5.050986509893138493e-02 -1.308208043384080810e+00 -1.523065407131686533e-01 6.448450443123333597e-01 -2.971780765165523142e-01 1.027067905621312116e+00 -6.816763747654690508e-01 -6.621773668670952739e-01 9.861999241072008093e-01 8.627147565828072739e-01 1.617073545925875822e+00
7.553573568807566696e-01 -1.319665540506986534e-01 6.874717735893935977e-01 -6.599643145401272726e-01 -9.078187216993174879e-02 6.597231954290950773e-01 -1.339093525214870350e+00 -2.291321838057329974e-01 -1.173632509850645267e+00 6.920009683865853134e-01 -7.114331260911289645e-01 6.557417660847685292e-01 3.160053333243428297e-01 -8.205847986485664824e-01 -9.121772433775511280e-01 -7.916218157732219929e-01 7.069268025950776746e-01 -2.257816452286716680e-01 -5.833189775939059407e-01 9.502746186382964033e-02 -1.029648477660657369e+00 -4.563062457500668412e-01 2.858988611929899615e-01 -4.986624025679485261e-01 -6.113855951829456625e-01
-1.408183063385129108e+00 6.049843437193651585e-01 1.157135042567946775e-01 2.030749046798986657e-02 4.176572913937102172e-01 4.094080023511332267e-01 -3.572207590869886373e-01 -6.885228359162459677e-01 -1.262575031084547827e+00 -1.919720989049128468e-01 -5.995815731208040678e-01 4.279873986278719955e-01 -6.247090831548890444e-01 -1.161452931164474567e+00 -7.657306620443219414e-01 9.280415382063407492e-02 5.231738592703000235e-01 -1.172507150562790867e+00 6.481225991546460952e-01 -2.037317635143231609e+00 3.005000494508162090e-01 7.077478245335238061e-01 -6.823603516643089728e-02 7.618321296193804049e-01 3.262359017094628166e-01
-1.979956176021484104e+00 -3.150593685046148562e-01 -2.079980871967292491e-02 -5.643175096678152425e-01 -3.202644205062057936e-01 -5.933705357202504471e-01 -7.382193251200539486e-01 -3.713372797623322175e-01 -3.532449724338714847e-01 1.182877125366315507e+00 2.610283901941735651e-01 -2.343916447696845484e-01 1.272141039438798638e+00 1.558288281879892656e+00 -8.932474768613920535e-01 2.016416551226947185e-01 -2.727378096152647924e+00 1.126745623002625152e+00 -4.341863826803771254e-01 -3.587918864085239412e-01 2.328926787692040534e-01 -5.268141232392479223e-01 5.424100655744062971e-01 -1.720094130615203720e-01 2.111650711348713183e-01
-2.499481095906856520e+00 1.232425559352063438e+00 -2.048787870967535008e-01 -5.556125379790900487e-01 -1.155099923538310369e+00 -1.630563536287114867e-01 -5.031573041186325479e-02 3.158486785321079071e-01 1.621861672624377304e+00 5.462404948826643514e-01 -7.228733967428501161e-01 -1.867778686215820994e+00 9.057191358594315345e-01 -1.567719399432675881e-02 -6.000688259778151901e-01 1.778089785635339481e+00 -2.219459112099988918e+00 1.395183771906473996e-02 -1.742721736913580566e+00 4.722086750856283044e-02 2.815692901685725724e-01 -6.960257215408437448e-01 1.954159364548935462e+00 3.980786323175363184e-01 -1.871821370968266285e-01
-1.705977541768676220e+00 8.548811954130145496e-01 -1.381918199580815187e+00 -1.030389298972706758e-01 -9.500770419781549014e-01 1.044032025233733840e+00 8.004489045067858521e-01 1.937820750603814340e-02 -7.089198888032538504e-02 1.436877894477236683e+00 4.019463709185571165e-01 3.217328865118707637e-01 -3.383435403228743366e-01 -1.251143874413971790e+00 1.502331749195132682e-01 -1.284880520672694537e+00 1.175878869596981846e-01 -1.197541098626477618e+00 -3.090089989506333290e-01 7.267451480804687503e-01 1.897627212863905788e+00 2.179639156408359035e+00 -2.828738968436625978e-01 4.982567738571092031e-02 -1.390459246867517429e+00
4.954082555696004975e-01 -1.118013849943754856e+00 -1.418005334466784229e+00 -3.231095904593865864e-01 -3.556092849996395633e-01 -5.792020704439416745e-01 -6.613597044044948747e-01 4.349073204791871761e-01 1.613273078947828676e+00 -5.667813421561171960e-01 -2.163413805741326579e-02 -4.563013187525165604e-01 8.699194290952602104e-01 -2.199564151332518078e-02 -3.709682155805608256e-02 -7.435078065399043368e-01 1.195284292245582414e+00 -3.649762879118935172e-03 -2.420627624451182347e-01 -6.199301818757132487e-01 -2.495777123144706788e-01 -1.543083890138659542e-01 -4.105684653731154210e-01 -3.180671930003321768e-02 -2.001020592603052189e-03
-1.382410646947545840e-01 -6.258495827228695019e-01 -2.302483303891375566e-01 4.135812208983246641e-01 -3.893215552704802906e-01 -2.885424949789957560e-01 4.661558535294752503e-01 3.426035912057418531e-01 -6.243902168875263836e-01 -5.624849659797304807e-02 -1.225010485187544962e+00 2.463118178637352940e-01 -6.985535423571127556e-01 -1.099228083402600253e+00 -7.246143914669479491e-01 7.141216936946502836e-01 3.577646829806088030e-02 1.980600957016948049e+00 3.928224418759294068e-01 5.597097801646507831e-01 -6.650106864817479924e-01 -1.633265587585235545e+00 -6.953146498255597940e-01 5.574929984345903256e-01 -1.621925019649667510e+00
-9.539165825853207492e-01 4.751662958546766791e-01 -3.089885566200849254e-02 -6.750826659977027244e-02 3.777641570368839297e-02 -9.442516293724045884e-01 3.674955366871058282e-01 -6.153485000505829611e-02 1.241395864133149063e-01 -3.777017790467531722e+00 -5.756625305603573217e-01 -1.819695000804205931e-01 -3.965526562613775230e+00 4.194312003968449609e+00 -1.712626048425323344e-01 -2.198981932544216145e-01 4.100411459401318126e+00 5.193069469175448649e-01 -1.483859611044218985e-01 3.115600258901072284e-01 -4.387434853268395996e-02 -8.598310435787137607e-02 -3.132632162013659904e-01 -2.162492734465794320e-01 -3.224271496392433489e-01
-1.388208289141438456e+00 -1.436478298098465001e-01 -2.808082329971960389e-01 -6.700547904319930081e-01 -3.565450503909996516e-01 -5.391121067476111195e-01 3.212921601188645226e-02 3.965865711828590046e-01 7.964484626831010161e-02 -1.674345005820777887e-01 -4.714437927840913617e-02 -1.669751121128197069e-01 5.199819351369447951e-01 -4.758718954138550609e-03 -3.008146591483160104e-01 -2.916266836041311539e+00 -1.305484597881317876e+00 2.841365221266119456e-01 1.791818536011801966e+00 1.503895951500159534e+00 5.648059446926039229e-01 1.851957902391483668e-01 1.239945043115297851e+00 3.852312604707089361e-01 -1.255721077176678468e+00
7.974966917824588553e-01 1.039359028242755195e-01 -1.728695267398716318e-01 -7.462263578252518181e-01 -1.041004819969640199e-01 -3.547310870333897359e-01 -2.110927102981184911e-01 4.976434971479543612e-01 1.132981578193865912e+00 -6.385636100228888612e-01 1.561655912482655229e+00 -5.203903849748568039e-02 -1.615903631598274437e-01 -1.377956772372273819e-01 3.116250083166736268e-02 -2.030351357330724416e-01 -2.416711909787706780e+00 -3.909207708326137287e-01 -5.226312076896465486e-01 -1.624212757575748567e+00 -2.227741601676925587e+00 -1.158432212458415378e-01 -2.666644691920484478e-01 1.305409327169622102e+00 -2.854531027320971193e-01
-1.117341950481507862e+00 1.841554745676351246e+00 -5.266532201541560543e-01 -4.073419168136639401e-01 1.899471282997190924e+00 -1.485447952224636881e+00 -1.371596623251368496e-01 -2.181439787219235094e-01 6.900261848880735460e-01 -5.322427236069304790e-01 -6.616773369561816942e-01 -5.891771697456196222e-01 -3.439799336661364948e-01 4.930099562896710363e-01 -2.213566691749007109e-01 -3.841974171273391803e-01 -2.967496456587322418e-01 -5.842812073998630007e-01 -3.333337635032636026e-01 6.595052699566432697e-01 -5.979429740818323902e-01 -4.840438952251239213e-01 -4.704720758376513823e-01 -8.200501274232137039e-01 2.224101233825377111e-01
-6.772967842871797650e-01 -5.710825940661087285e-01 6.696856094271355642e-03 -1.096360770767930426e-01 -6.515940597922121880e-01 -1.119492650856268812e+00 -2.536894123945830359e-01 -2.869739266629754981e-01 -1.374101844875494638e-01 -6.259822127374811140e-01 2.365123955607834061e-01 5.602311063777321021e-01 -1.704032243864466722e-01 4.886624182653514503e-01 -7.161869790999733087e-01 9.546655918801567609e-01 -3.116030891967405854e-03 5.307961509516381238e-01 1.310804121315679138e+00 -1.428223865208847476e+00 -1.157707247746712076e-01 -6.270548650766590848e-01 8.666167978177614639e-01 -4.370043027008591596e-01 -7.952987231652741684e-01
-1.539313061904817870e+00 4.967225433629177678e-01 -7.839808383563949545e-02 4.910006643423009409e-01 7.654520164956938322e-01 -1.930804080475481799e+00 -3.630022938071508221e-01 2.142196003204497046e-01 2.558596759937145082e-01 -5.338934897461126150e-01 -2.015757122669082635e-01 1.896048111686829962e-01 1.955264690792110627e-01 -5.768796629264929532e-01 -6.888603750465943643e-01 -1.833423884342955335e+00 -8.966547510179337932e-01 -8.518421190211298288e-01 1.293125187340090410e+00 1.345833922726123344e+00 6.839673639535474026e-01 1.035709848832372160e+00 2.144804594528448294e-01 -1.249837700063424067e-02 3.849016013163387151e-01
-1.309639373100119020e+00 -1.968602858723810245e-01 2.554516878877955421e-01 1.457926069563258153e-01 -1.102022883409133208e-01 -3.444086990746303978e-01 -2.147379355760473396e-01 -4.223287374189698684e-01 -2.764170958687828805e-01 -1.163113348506613631e+00 -5.971089464781149658e-01 -4.124859751848982126e-01 -1.195161282695511806e+00 -1.221277315147149212e+00 -6.769381967933975064e-01 -1.597668745447593741e+00 -1.865875757644261945e+00 -1.368650134599034063e+00 3.515467107062920649e-01 2.005036235218213392e+00 8.146612322376841631e-01 1.133874661186875743e+00 4.073628066858105412e-01 1.010148106292198200e+00 9.237613926113443785e-01
-9.444376227634224130e-02 -3.831725012478700565e-01 -1.230584203121465880e-01 -5.025706518181463078e-01 -1.034004695238804894e-01 4.370681970534113781e-01 -7.376987950767518454e-01 3.534400316725298530e-01 1.052730483686079577e+00 -1.101761758933414104e+00 1.880947864873830699e+00 -1.265310392685146557e+00 1.206334060778669670e+00 1.958798712253288610e+00 -2.194472923453104851e+00 1.373320595780177233e-01 9.464877704395673330e-01 -2.089483500730894061e+00 2.389451705329691533e-01 -2.245443518787875625e+00 -5.549759955882810347e-01 -1.006636589677142979e+00 -1.142748082755339935e-02 1.422182760613579067e+00 1.495519261086269314e+00
-1.239756872630791262e+00 3.923389542927849138e+00 -2.445451460718398029e-01 -5.040783032518882933e-01 -3.295208734780472160e+00 -3.459147498456271119e+00 -1.203894846181510492e-01 6.000088104034251302e-01 3.966695684373071629e+00 1.663708357449907860e-01 -7.422601428905869179e-03 2.155230742637063990e-01 1.624705974431244204e-01 2.127438416646360297e-01 -3.110669841284535719e-01 -1.231743790800989613e+00 -6.427588353293248180e-02 2.379505134383729306e-02 -2.242315362186088901e-01 8.146104631814528041e-01 3.060763319384172676e-01 1.913560247047523255e-01 -2.397296450424229314e-02 -6.340909756798487340e-01 -3.476059030961092255e-01
-5.810963292217931342e-02 -1.237966263372603848e+00 1.805096262004935448e-01 3.373999738171928886e-01 5.150418042687907594e-01 -4.385631403420578445e-01 -1.085686993795633937e+00 1.291049206370917357e+00 2.971622859193533486e-02 -6.563135457668052286e-01 -2.496266113761017369e+00 -4.221484614719128170e-01 4.641490152567698257e-01 -3.368488383892027649e-01 6.045335528920373624e-01 -3.321383182085118624e-01 -4.548854085244660173e-01 9.594962942633917802e-01 2.056785918078019304e-01 2.295333270911640022e-01 6.065073079630679542e-01 -1.149608748817674053e+00 -4.331325853347026689e-01 -6.187784793024442287e-01 8.079035142327268826e-01
6.140759645218175217e-02 -5.920796520887612324e-01 1.859563156167942377e-01 -1.086962552471981036e+00 -1.164789078309946407e-01 -4.427415720626589613e-01 -5.544906547222230309e-01 2.101564415520349727e-01 -3.208090230857476022e-01 1.101557828002959427e+00 8.341576675499526861e-01 -2.348608969964293691e-01 -1.865271457011293599e+00 -2.643448857528286400e+00 -1.577679607142591589e+00 4.708468579154150291e-01 1.611284290856201062e+00 2.164011781586388850e+00 1.973589164028485277e-01 9.569316765161609006e-02 -7.712857695750567899e-01 -2.949577288245019968e-01 1.204881322066709143e-01 4.092792824427789466e-01 1.070783056421323431e+00
8.992287037587435305e-01 -3.649178050994515699e-02 4.610965990637793527e-02 -5.326537286212256195e-01 -9.730036661921592778e-02 -1.281858712154118618e-01 -8.724597834388646556e-01 2.467451131822882837e-01 5.747098237885550631e-01 -5.135821793546876401e-01 4.012355100141483666e-01 9.398590035540763665e-01 4.731969397374231612e-01 -4.959041414407912574e-01 -7.376547609045670528e-01 -1.668051836329055071e+00 -8.697555333400129873e-01 1.154870576662758996e-01 3.139482228682395348e-01 -1.287207718940460488e+00 -9.308595700943027573e-01 -1.260695996171384614e+00 -3.082597056463188823e-01 4.655126668228976028e-01 8.110728424470808884e-02
7.286779001359910968e-01 -1.627850056712319970e-01 -1.597730053935305650e-01 -2.454616545283503648e-01 -4.989322593333966882e-01 6.530925300862995275e-01 2.895802223756356319e-01 -1.396559663292993303e-01 -4.302541382049244745e-01 1.290082517265609852e+00 2.497753142973669627e-01 -8.518570630520797549e-01 -2.534296868551831339e-01 -7.493150729396648169e-01 -6.682968590229066974e-01 1.175859702854368027e+00 1.567685214013045059e+00 5.502328200154271709e-02 7.078970182715323967e-01 -2.441419373975425078e+00 -2.177401040982723579e+00 -1.341422916152410272e+00 -8.486411675649896402e-01 1.703000566490656009e+00 1.032212156053867735e-01
-7.914063454432832545e-01 -6.272006533640143155e-01 1.050328926412940733e+00 3.758236835586507008e-01 3.765550822654506469e-01 -5.242007047182071222e-01 1.810923826343636689e-01 -5.590952593805463555e-02 -3.737197393161267311e-01 1.450923051886055526e-01 2.954408474912375571e-01 -4.819189035854364866e-01 2.756727245493571510e-01 -5.351938193682540534e-01 4.063198090302922449e-01 2.524468663408395708e-01 -1.398514314073694198e+00 4.103894849188295946e-01 -1.855100473852337561e+00 -1.877822769274856807e+00 2.375556312466939879e-01 4.621460959733826313e-01 1.804718176421427289e+00 2.538332235117293778e-01 1.257659348533553878e+00
3.116984043171509566e-01 3.587743575606625046e-01 -2.201622609564229949e-01 -1.158640722716071769e+00 -1.706378748783784760e-01 -4.671439754049832027e-01 -1.035876533214730832e+00 -7.776381036074878628e-01 -2.740458030930792988e-01 2.740637389247884137e-01 4.847430896706834136e-01 1.479835339300499264e-01 4.743183431152232093e-02 -1.822028889251773587e-01 2.078684578678210437e-01 -7.329460496185744023e-02 8.850992381228804662e-02 -5.124705546122866329e-01 5.765550437268286421e-01 -2.618256936740310237e-01 -1.450230774981873916e+00 3.475374044383268135e-01 1.064136754880196323e+00 -7.058479910364801047e-01 -1.824566957429552341e-02
-4.284093342006439764e-01 -1.973485352594834819e-01 -2.742046966454228518e-01 5.730514939694113241e-02 -7.474661995677879256e-01 -1.239604883466875140e+00 -2.578736510003246107e-01 -3.303684881783219840e-01 -1.788897806129094992e+00 -1.914074701916062660e+00 -2.421344285246165573e-01 1.152996786360988013e+00 9.005823679042542773e-01 1.178978034886017712e+00 -3.489347924186309569e-01 3.371772752498611303e-01 -2.847814375068075457e-02 1.966648759407176317e-01 -1.702349691271993204e-01 -8.353549695857392932e-01 5.659144616777800341e-01 -1.291036157509971805e+00 1.130021429216632733e-01 7.853904219708068846e-01 2.556335969657473339e-01
-2.416180329206195854e+00 1.007350739179768834e-01 -3.035465874239112183e-01 -1.041449402133560603e-01 -5.644041260472065780e-01 1.168667327739073003e-01 -6.339010793509346486e-01 -7.633976839466383169e-01 -5.823508868086706425e-01 2.145963391910778728e-01 2.009136040281009894e+00 1.978093163878426874e-01 -1.735812620966367958e-01 2.651186020586263847e+00 -3.900334447884395761e+00 -2.356467031368083553e-01 -1.048470717232222321e-01 1.268426201003297837e+00 -2.394586769716431363e-01 -3.405264056062181632e-01 -2.858696014237533944e-01 -1.134989506143718185e-01 -9.041020568620854181e-02 -1.457660815577977165e-01 -2.707977599625550208e-02
