1.781777025413244508e-01 1.718363667592847852e-02 -8.092235477221713935e-02 1.938488137665651534e-01 -5.184388742472408745e-02 -6.190653778169584731e-01 -4.007743506871935257e-01 1.490278202763342386e-01 4.327810968081158838e-01 -4.008903202708329894e-01 -2.003746337481099871e-01 1.310327734676663414e-01 -4.989164135617599749e-01 6.489499177312711975e-01 -7.116376684536739328e-01 1.832516069544204151e-01 -4.988927367757571285e-01 7.602809847363971585e-01 8.668461805263264486e-01 -7.731214659800841327e-01 7.770364501001617574e-01 -1.045404644331448640e+00 -9.481216111446336692e-01 8.371476143491856509e-03 -9.491544102232317703e-01 -3.617316751801369357e-01 -6.993304994071553038e-01 -4.892497666435088322e-01 8.988331454400456666e-01 7.598968730093192958e-01 5.664767240442618590e-01 2.637401051186265555e-01 -8.995388945482356569e-01 3.484251741299649874e-01 1.696347044377654323e-01 1.143575570334729175e-01 -7.498226396316953757e-01 -6.097403845639217668e-01 1.030624663927996905e-02 -8.625716421280996138e-02 -8.348117105934664828e-01 -3.162561875460722649e-01 4.839744246885033241e-01 3.965061362668698686e-01 -8.248448280259849108e-01 -1.003452223883415151e+00 -4.147428968658093407e-01 5.939902822520050085e-01 1.743751249319983043e-01 -8.796082287709001690e-01 -5.516419619046566414e-01 1.319906788910859274e-01 -1.456151357888661180e-01 2.072951814229907208e-01 -9.178799932331793698e-01 7.572797181069663985e-02 8.918176823285963728e-01 -1.096967611431700185e+00 3.299682471491591773e-01 7.764935138470445697e-01 5.594455461055148904e-01 2.027507871007557805e-01 5.757489760015517266e-01 -8.478740513919236221e-01 -5.231242811818099803e-01 -6.801543198712671490e-03 7.478503543242616125e-01 -1.438285867551497565e-02 -7.001387322948341430e-01 2.416642265794989308e-01 -4.195537995537516607e-01 5.403358365813241138e-01 3.342954573414760322e-01 -7.284346724286773211e-01 5.424700675295365260e-01 -1.448794701508424321e-01 7.050375821366935414e-01 1.343162445810922589e-01 9.187288554615168357e-01 -2.553254274809386160e-01 -3.272337433739924695e-01 4.316850322496016551e-02 -4.901176951828383199e-01 -2.767720127179060796e-01 2.108460576983182955e-01 -4.564485580892429506e-01 1.296158892740287283e-01 7.924225654242607053e-01 -3.354414003651984277e-01 -9.631287948485054429e-01 -2.112148252167257712e-01 3.355361572118772950e-01 -7.752253983836895901e-02 8.915031887985542802e-01 -3.165239571012518766e-02 1.486531166553651528e-01 8.117362065464426291e-01 -6.650737759249250036e-01 -6.962122271497155346e-01 9.133254594579894858e-01 -1.732148646864921926e-01 -9.995972501096100915e-01 4.318131964981954951e-01 -1.292024254084485346e-01 -8.595027003622466300e-01 -5.878077272024391231e-01 -4.086286096772333010e-01 -6.577970939133621631e-01 1.603996087898796608e-01 -2.137983265249565057e-01 -6.507133470112447249e-01 -8.360303437339994259e-01 -7.078813092362442605e-01 -3.430857340531846544e-01 -1.034985783564795092e+00 -8.461603764726828292e-01 1.721949977444399704e-01 -8.808657738054247455e-01 6.569056437268067095e-01 -3.897870288820204365e-01 -5.751576989979235721e-01 -3.429759838840386599e-01 -1.039608148523119224e+00 1.795883303188910152e-01 3.423460280608857098e-01 -5.504775050765884359e-01 -6.779526803524481560e-01 -8.824429513726742558e-01 4.000446335381023233e-01 -9.691979447163289185e-01 -2.325276044822361388e-01 -7.666614561456465415e-02 -2.524750768481640040e-01 1.344817435294807795e-01 6.979263840079980019e-01 5.553128977514553144e-01 -4.751875478159486854e-01 -7.501923034127614409e-01 -9.839216794485310391e-01 5.227847711801043573e-01 1.284929625506865403e-01 9.354861141623098675e-01 -2.277347488358910377e-01 -2.046264123936209489e-01 2.696136969939402772e-01 7.397666839420872220e-01 7.530786359376396844e-01 -7.805020721028943509e-01 9.860107958931858541e-01 -6.778048329158017360e-01 -9.051257311857148213e-01 -8.512520703215185058e-01 7.964014751035619621e-01 5.871691468766980782e-01 -9.002005434665705241e-01 -5.735435789249920119e-02 -1.064520878482019262e-01 -9.545371289209481080e-01 -5.533192953723991003e-01 -4.639204539451186049e-01 8.361644222470829835e-01 -8.148813521385309677e-01 2.492055930742346215e-01 -2.131549557103896639e-02 -1.006056920613042971e+00 -5.169897850588131005e-01 -4.888413298476559365e-01 -2.449247185584121633e-01 -9.483193215597820469e-01 6.881101100026415507e-01 -7.869250899540295441e-01 -6.614627592799992017e-01 -2.258740701149171692e-01 7.332772084263883272e-01 8.532844159561723263e-01 -3.265672541343201396e-01 6.215032620927736229e-01 3.291814787989697511e-01 -5.675008911427859015e-01 -4.109867471597784538e-01 8.471427135677901399e-01 6.967741207848151541e-01 -1.428349081103122975e-01 -7.101600884076540998e-01 -1.961761866504475038e-01 3.080918649500539730e-01 1.689722453753166043e-01 -2.823848956103712782e-01 -3.486784805109576224e-01 2.668126324064083454e-01 1.956511914816801423e-01 -8.041296031648933473e-01 -7.168031243135395414e-01 5.959076287045893539e-01 -8.196098412432520908e-01 -2.162313750582860739e-01 -1.641595536840056713e-01 -5.236608242418472337e-01 -6.418505491877208868e-01 -5.281816249400688168e-01 4.257758662305278219e-01 -2.530298165659754517e-01 -8.472069688250891129e-02 -1.034309310758572575e+00 -1.018438396242743682e+00 -4.223096984530160247e-01 8.363866171975059549e-01 9.165521859469330512e-02 -9.632769968272558714e-01 -1.828079530395315122e-01 -6.625702924389352821e-01 1.781857078335212230e-01 2.443906599657052481e-01 3.271286703788870986e-01 -8.172747204414474442e-01 -9.146082923755425309e-01 7.044561555978534617e-02 -1.871677064331116191e-01 -1.044876933303303446e+00 -6.253679398200825412e-01 -2.434228199643408835e-02 4.911119366347228565e-01 -8.234959121100650092e-01 -7.002735219673078548e-01 -5.320860075003750467e-01 9.703617847193789503e-01 2.045125815812407211e-01 -1.987513782858648659e-01 -5.411371888851904677e-01 -8.526727308800531313e-01 -8.433752176513115151e-01 -1.076853026559141613e+00 7.803381761135943506e-01 -1.041535260385718920e-01 3.321075998552751318e-02 8.538688671593355206e-01 -2.439094121899289536e-01 6.393740218630580285e-01 -2.301081476667150849e-01 7.677304306142959112e-01 -8.706308411391963098e-01 2.850523060340282577e-01 2.172064020447769805e-01 6.925837245145904930e-01 -5.288029023665706818e-01 -1.536287816959158448e-01 -1.542706966633584616e-03 8.464680897777349111e-01 8.558544570320664180e-01 -6.982880293080074852e-01 -6.778296635900499245e-02 -1.047456019756931589e+00 7.792579495189737582e-01 6.147936284882273839e-01 8.370736095424562428e-01 1.660025974079318289e-01 4.958248475453188031e-01 -2.647636107442671305e-01 2.784394926772105205e-01 -9.506270380733145009e-01 9.486571016174710075e-03 6.015753327269095507e-01 -7.245055710550030170e-01 5.058347185538815127e-01 -7.665120248715884266e-02 -7.146612221493372497e-01 -9.925496948376331119e-01 6.866257394386395818e-01 -2.636318071641018945e-01 7.922693409055902025e-01 -7.694561093844028143e-02 -8.808592908192881821e-02 -5.531262342848293212e-01 -2.080564583232870357e-01 -4.358988515803913777e-01 -4.715777541222950786e-01 2.212479830665938785e-01 -7.216511236232281412e-01 8.974944426233909534e-01 -1.171959878733204868e-01 1.045380218235393843e-01 7.216999625135953611e-01 5.545567944586664577e-01 -9.270458438344009178e-01 -1.077203143760691872e-01 5.413282194987024676e-01 8.876321274231400160e-01 3.021552047226552795e-02 -4.531352984537701141e-03 6.750886559182993629e-01 -8.591366130104830523e-01 6.133440839722321680e-01 6.591131550528728233e-02 -4.029479299068094988e-01 -7.010297368903272153e-01 -4.394840531563309893e-01 -8.442581158670656727e-01 8.000714388391519938e-01 6.510387075131687795e-02 -9.651863468073261787e-01 8.752901088644060579e-01
3.500869084313915636e-01 -5.498856388096033943e-01 3.348443947523741526e-01 1.352624257153794085e+00 -6.706332646420512349e-04 3.034261454680979297e-01 -1.112256071002104774e+00 6.152277294511798722e-01 -5.749901344869822184e-01 1.153645762079582360e+00 1.617617736507067916e-01 5.766303439739774994e-01 4.437438242916353914e-01 4.466634245430005090e-01 -1.028051947442711889e+00 -1.363299204674025822e-01 -9.087316086044083807e-01 -8.512219189954275400e-01 2.371092569643138206e-03 1.106756670770137285e+00 1.347927296823127064e+00 -5.437670882504620495e-01 -3.173440008322100936e-01 -1.432729239695249845e-01 6.776194762245152381e-01 9.418144451751734314e-01 4.265806427387049404e-01 4.320639759857002882e-01 1.060540097888877487e+00 -8.254757725279784353e-01 -4.138130723170451719e-01 4.547199865068086294e-02 1.071927410977994377e+00 3.395431957280725666e-01 -8.558554747415604291e-01 -7.139411841952546522e-01 -4.177804539668281136e-01 -1.803854498500616910e-01 1.208358781400620030e+00 5.245941997538509094e-01 -5.773929858927561165e-01 8.084949091160509305e-01 7.551160213156242751e-01 -3.652255946317708446e-01 9.009707482567202996e-01 4.505200034103628570e-01 2.043135126953302128e-01 -2.388007508011736890e-01 1.098288710046098293e+00 -5.383708278469823139e-01 -2.092981051807611681e-01 -1.624791044935288475e+00 9.160210008043726537e-01 2.732973971755436327e-01 -1.073272707191533920e-01 9.310721015170128068e-01 -8.566535646362570533e-02 -8.251079977550664912e-01 9.410075655764796876e-01 9.430736794970111525e-01 3.171197181532453557e-01 2.319773428279585104e-01 6.157475998569869602e-02 -1.182712751894667569e-01 1.171211309232627507e+00 6.476544245521792531e-01 6.029686267095336616e-01 5.355833736541645851e-02 1.126051390702985898e-02 -2.072075391597416050e-01 3.328481805078657429e-01 7.313252108242160876e-01 -1.179638304027342266e-01 5.251912064900195881e-02 4.526396886095956362e-01 -6.785189278160226323e-01 -4.123408762422982599e-01 2.080962745650915061e-02 -6.736855507712963265e-01 1.525938751301033902e-01 1.770815519512221603e-01 -4.762173729449524495e-02 1.900534311278027563e-02 7.870650379758493687e-01 1.703941904746114344e-01 -6.238263544058646470e-01 -1.490721570248710603e-01 -3.803361729213959319e-01 1.786324392821141138e-01 5.501549955155651261e-01 3.075339439539460651e-01 1.225079176222141769e-01 -5.240862198716009224e-02 -3.144126677146508730e-01 -6.910191624529474774e-01 -1.166277035200953938e+00 5.213793050251231964e-01 3.413259039448693910e-01 -5.511973420456192096e-01 -7.156387290016289482e-01 5.011010358567855594e-01 2.739216621509846239e-01 3.816048241815363506e-01 -7.907219412217737428e-03 6.340793019414808773e-01 1.458918719035520450e-01 -2.292165428136560545e-01 -7.080283542798977425e-01 -3.077706091837398295e-01 -1.379072317472318066e+00 7.708110626822309852e-01 -3.240724795312298623e-01 -7.051137225488378624e-01 2.187756307061850536e-01 -2.115316663602183622e-01 -4.329902388500962984e-01 1.142926531477582497e+00 -6.507385137927558239e-01 6.090758330277242782e-01 1.829592389174735170e-02 -6.892311415784860840e-01 8.504580847251282105e-02 1.032764481528193112e+00 -2.095670516319486365e-01 2.060242380512983251e-01 3.537294137210645339e-01 -7.744919079231148418e-01 1.246217421240420065e-01 2.278751999466348543e-01 -2.924726995223803638e-01 7.441809284573600580e-01 3.317332176671622390e-01 8.405082810894974887e-01 5.267904301378396603e-01 8.157149780041706988e-01 6.239903837755178539e-01 9.407281225875798736e-01 7.503078100240838655e-01 9.809996309000014181e-01 -6.088595299369958976e-03 6.632830754832179654e-01 -3.153545637601423146e-01 -2.094517630503648156e-03 2.069329282657206004e-01 7.330322088842677886e-01 -6.292038143439349085e-01 -4.710813605465825060e-01 2.741256552529353074e-01 1.049778645402886124e+00 6.423222917138461385e-01 -1.824039281143838176e+00 -1.843433963030950973e-01 9.089076199170428305e-01 1.086713497954890473e+00 -6.995334959540333575e-02 5.834887487122508015e-02 -2.294604932030612499e-01 -2.250854962751644983e+00 4.958247072621546625e-01 -5.228522471363554747e-01 -1.379790435286359640e-01 -6.270487781474869127e-02 2.072562160547173904e-01 7.061303038937957188e-01 3.094957471103925162e-01 8.567405751590463359e-01 -7.013431853300781116e-01 -5.470594161165596159e-01 1.106997320985179806e-01 -1.345769990588308596e-01 3.713812704735936499e-01 -1.858995765260429422e-01 2.878284194113528427e-01 2.511806894633145104e-01 7.493999288841632911e-01 9.091897606630641171e-01 2.058063852185327280e-01 2.878637726156436094e-01 -2.059758368967771480e-01 1.014869725020822955e+00 3.422805623254454588e-01 8.066267404885216208e-02 1.209744328655422245e-02 5.256320932475434526e-01 -3.446086109279545839e-01 5.451037831746958773e-01 2.770131895493748581e-02 -2.084575271062817561e-03 -1.380662549221304047e+00 7.195413391088406607e-01 3.093485384554791606e-01 -4.702808936317383615e-01 -4.017557122972396089e-01 3.401753103907292353e-01 -1.064988554279100025e-01 -9.460620598993833008e-01 6.366861334447529996e-01 -2.115089801173783979e-01 6.641302325992317623e-01 8.367682952889921033e-01 -4.508052808579378068e-01 4.067249635079451253e-01 -4.323240410684203033e-02 -4.411421781096059314e-01 -6.187276905926888393e-01 3.258804068464011827e-01 1.045343919181767944e+00 -5.747277446302275772e-01 -4.346165448540730836e-01 5.766171472837159362e-01 -7.657568247900415903e-01 -2.290721809081219251e-01 -1.016434639883749824e+00 6.343489528638461827e-01 -1.755611576817374675e-01 8.893685129089264063e-02 4.564983695668377028e-01 -4.990709952891190238e-01 -4.916737979965781768e-01 8.583872508034974258e-01 2.320030516527741282e-01 -1.374930183479822654e+00 3.629610016773203718e-01 7.575340777482577614e-01 1.009615076827768299e+00 -5.115764699625403589e-01 -6.207860943983906088e-01 2.448597502163360126e-02 -1.911211799795223543e-01 -4.033556729671827767e-02 -3.894986145127335431e-01 9.645174380870173980e-01 5.931757953082685830e-01 -2.553379440045921989e-01 3.159501388492110818e-01 3.497623720374158363e-01 -4.676811083430655325e-01 -3.516513103783298066e-01 6.586153286914896432e-01 3.720063656824066367e-01 5.047020354819962973e-02 -1.025065721973200256e-01 -1.301989773854194121e-01 -7.984526280076722493e-01 -1.830383765703528232e+00 9.975380103859072811e-01 1.090268574360777398e+00 -3.288819955043891657e-02 -1.336628462277036355e-01 -4.548948594698060122e-01 -9.890517249726086257e-01 4.380414152415289947e-02 4.678729544215740055e-01 1.064752131391550449e+00 1.122949639980116848e-01 1.193848777567716457e+00 -1.644443029445955995e+00 -8.617277838174548787e-02 -2.458424947642670888e-01 1.336095949565592411e+00 -3.853899780395680374e-01 5.892508839827886868e-01 -2.653472254777148875e-01 -7.812503271043240716e-01 2.646995260660665039e-01 1.708921567817976439e-01 6.283823695830367262e-01 2.664039183581265458e-01 7.745641871151809355e-01 -1.072809771319958028e+00 1.197294280622211771e+00 7.715961917761572364e-01 4.326576572417552558e-01 8.089982453666998419e-01 9.961946161533299371e-01 2.607704872712103827e-01 4.687416189380719800e-01 4.985623700148655302e-01 1.073601980364362829e+00 -5.696885268947876613e-01 -9.610846525002550433e-02 -1.793468527530625856e-01 9.793167445728805376e-01 -1.964562313535387905e-01 -6.539853813543914374e-01 3.717018366682216524e-01 8.942412725468559254e-01 5.642955873336505945e-01 -5.029560421802750092e-01 3.625696663599309866e-01 7.191506504682602108e-01 -9.062885567774141282e-02 8.052551407866455069e-01 3.610361188137872768e-02 3.295804211557872843e-01 8.845764903298912740e-01 -1.906356375517704316e-01 1.082321271360582093e+00 1.173925987155985728e+00 -9.222943885431089672e-02 6.850009664838562218e-01
-2.149738849187332046e-01 -7.515177683052857160e-01 -3.491896891067379216e-01 -4.919764823800299447e-01 1.750949485735170119e-01 1.776686945345571159e-02 4.588576845417676187e-01 -1.158501726574441143e-01 -2.646792902350497134e-01 -7.259905038101559516e-01 -1.639792868584986074e+00 -5.848280217279714366e-01 -5.325039306405485728e-01 -9.261024802020635383e-01 -3.676284655923047762e-01 -2.760237791852848677e-01 -1.340012491331184608e+00 6.528293205232121865e-01 -1.382618016817210638e+00 -3.503817174561463244e-01 -3.316965437067566635e-01 -8.621313313993103078e-01 -3.905103302164781298e-01 -7.741699804945507690e-01 -5.265460151133626726e-02 4.422067171160427579e-01 -7.444023685660551282e-01 -1.034972235876150393e+00 -6.751192653737483895e-02 1.344091906374799139e+00 9.345956213146445757e-01 -5.405977861250353955e-01 5.148816658676315106e-01 9.474267316569746911e-02 -1.751621602881443973e+00 -1.367813543562493850e+00 4.378363814444273250e-01 9.793945722455348057e-02 -3.499760403442942480e-01 -8.749304597421734275e-01 -1.418380381143090174e+00 -4.758919988603736440e-01 -7.622816950385796764e-01 -4.867670144687594180e-01 -5.120808425280696241e-01 7.911248056517461436e-01 9.885562200008218836e-02 -3.501954643790536892e-01 -1.100677397856345552e+00 -8.190379456266503322e-01 -6.531559083509601571e-01 3.397541229763008652e-01 -2.613390374527901350e-01 -1.104358463674496749e+00 -3.072258113087728004e-01 -9.342895597811584629e-01 1.282769435687136084e-01 6.326443443537662636e-01 3.920877732691769452e-02 1.081503005023646269e+00 -9.260169507374422793e-01 -1.032394845914175879e-01 -5.027701473002578192e-01 -6.793507705222110449e-01 -1.006810574747691200e+00 -4.974034167031544246e-02 -1.681858123727975718e+00 -9.279176434283385733e-02 1.652092292625781944e+00 -3.516539298078718012e-01 -3.094019773841616069e-02 1.540675788299220583e-01 -3.327383955109826097e-01 -6.830158336839128319e-01 6.385662962918972618e-02 -1.197102114138989259e+00 -7.730339276680117111e-01 -1.146712330498195875e+00 -1.194642786252825939e+00 -2.868127834377022234e-01 -1.080240193073768618e+00 3.824517203433070445e-01 -1.413477262480702379e+00 7.697483948099900219e-01 3.571296447178909927e-01 -4.914510402261206279e-01 -3.547347635574374380e-01 1.979829756715453457e-02 5.537380860309608632e-01 -3.695040194127665462e-02 -1.727131192472598775e-01 -1.412347608191657500e-01 3.659314900211348420e-01 9.043893676275778226e-01 8.215707434847518975e-02 1.641643496809702008e+00 2.818315553712350541e-01 -5.025918756943197341e-01 6.134166934348598277e-01 -3.495952568288597240e-01 -1.089377766077038512e+00 6.935650155474139267e-02 -1.353222478774147863e-01 1.977104538291890937e-02 1.803259500731233755e+00 2.895101726471315251e-01 -1.087897948165095885e+00 7.006661724926338541e-01 1.254677860929660271e+00 -2.092937807738396438e-01 4.287310384991955825e-01 2.008770657829332118e-01 -1.024022470521645523e-01 -5.712161074281746354e-01 -1.221142647900685940e+00 1.094085520756544749e+00 7.179780474308551652e-02 1.518446743555050549e-01 -1.192548780726844448e+00 -1.260782649350602913e+00 -1.254967068293891375e+00 -6.221517415850567716e-03 1.593318877162395619e+00 3.665577420415556675e-01 -4.881293100950461206e-01 9.759920789399307850e-01 9.094055323348680941e-01 -2.022347561785888259e-01 -3.783023384424961111e-01 -1.026446008312638991e+00 -1.375615052090515045e+00 1.163313672332918491e+00 1.949311679554089238e+00 7.151675164467955481e-01 -8.426595582855081479e-02 -6.922512235110948042e-01 -1.650112359098669934e-01 -5.817019664582551153e-01 -1.173661581497531303e+00 -9.201170720202902498e-01 4.053358954087419447e-02 1.110856656138834220e+00 -5.500989804726950094e-01 -8.983767948312160190e-01 -1.488528152430479978e-01 3.951556209928503982e-01 -1.061537087066082741e+00 -3.802061334388167485e-02 3.334430922181954582e-01 -1.115540218879961909e+00 -8.620515011627176705e-01 -1.079372888560202748e+00 5.040290401493473516e-01 -1.426115399430743835e+00 4.217617946486426073e-01 3.216315969788387519e-01 2.523656275822373285e+00 7.852804648235250928e-02 -7.213674776679528389e-01 -4.166248673095361843e-01 7.726792179941039951e-01 6.216546080075073810e-01 1.494271313373980448e-01 -5.393395127996414296e-01 -2.538257557029856559e-01 6.075694979428840625e-01 1.526509627966699256e-01 -5.737866619185825329e-02 -5.794727968557227271e-01 3.103010002491720098e-01 1.244603180546593579e+00 -3.655431755690695672e-01 -4.313927991370626325e-01 1.501446947044903446e+00 -4.201415617186520235e-01 -4.917421481442452724e-01 -1.144740828016551637e-01 -8.932369507322997226e-02 4.370251066476436574e-01 -1.319859050455064686e+00 7.572968466834750778e-01 1.404224292822961184e-01 -3.532538912388352159e-01 1.569109811160844525e-02 4.030017594224442612e-01 9.944128875123238176e-01 -1.615283013288457248e+00 -1.220566300430278917e+00 -1.555162062413203809e-02 -6.045672573622361545e-01 1.742234648268065289e+00 -6.372540161852981999e-01 8.840281199621152775e-01 -8.994160544179217176e-01 2.524494068083690257e-01 -1.172601270175444688e+00 -5.072320276977831943e-01 -1.295913030610432726e+00 4.044335324191629666e-01 9.241486232754173025e-02 -8.825944750406229389e-01 -1.249625359045886119e+00 -4.539655748671005409e-01 -1.178389865356265220e+00 -2.578677690295352876e-01 -1.564327536624126269e+00 -5.322822287492400273e-01 -3.544626703076436680e-01 -1.350283751201128701e-01 -3.208064339233799300e-01 2.204854961531775182e+00 -3.550094857335618914e-01 -5.272782763548431451e-01 8.767810307275357706e-01 -4.763143377853878979e-01 3.237949641665087697e-01 -5.273612229479150981e-01 -1.042535363177556906e+00 -1.886242959874620873e+00 -1.377550628177387493e+00 -5.683154773286093198e-01 -9.588980923278536128e-01 -3.989493689168585044e-01 -1.907396070887518169e-01 2.381078984208099270e-01 -2.560785941500476892e-01 5.027824423727881298e-01 -9.561581512689006912e-01 -7.092195486335057808e-01 2.756562381248541249e-01 -3.091277320517644700e-01 1.024559535660378579e-01 2.037301167986833583e-01 5.883027476011133405e-01 4.395367737828376753e-01 -2.916933214232945160e-01 4.768387178649154956e-01 -4.868333110585193468e-01 -1.231004710899949561e+00 6.697046343911925749e-03 2.108337478526664532e-01 -4.966329859136583980e-01 -1.101657660393356108e+00 -7.559795560077963161e-01 -4.194707865391933410e-01 -4.717319412260145839e-02 6.751573542731530153e-02 -1.602843685628583259e+00 -4.796240408042092285e-01 7.981095504561650511e-01 4.354201931697079808e-01 1.824161698014186428e-01 6.846315101545503989e-02 4.864863356585126808e-01 2.967200446623766696e-01 2.719554637311535905e-01 -6.192773532734825448e-01 7.549694091195463530e-01 -1.670610571244237397e+00 8.451691797120767236e-01 6.391205272398611248e-01 6.133012132661914279e-02 1.123149264200137276e+00 -5.731139333492454302e-01 1.755765961230037753e-01 -3.958448326045786447e-01 -5.392995343269118003e-01 1.093124375229389128e-01 6.247634736889474683e-01 -3.783155128570523384e-01 -1.667293285323761531e-01 -1.812189496758104812e-01 -9.948945861513085465e-01 -9.853431058721182634e-01 -7.281816690134917947e-02 -3.813675585174975957e-01 -3.131592241273687405e-01 -9.349603541927608008e-01 -7.788826746839747628e-01 -7.493932084535888105e-01 -7.286238539557414740e-01 5.523325620190029372e-01 1.212392728957860211e+00 8.297338608454687403e-01 2.286546847812031213e+00 -3.851539897361578313e-01 3.169606938000422147e-01 3.251283585047376468e-01 7.339411812317517825e-01 5.687972626849843727e-02 -3.534699838041202580e-01 3.881795645480155543e-01 -9.126921855350709212e-01 -7.556136024186167754e-02 -2.442590072381873867e-01 -6.998499545030357760e-01 -1.336986690949072687e-02 7.052894476311342975e-02 6.359103645157912488e-02 -2.208140365327577737e-01 3.317965661455960502e-01
8.302809552704429885e-01 -4.492305079792017763e-01 3.131710676984206798e-01 -3.862960287037128793e-02 1.030351322654554203e+00 -8.737304991941426957e-01 6.723203458005034827e-01 -1.886039317792325698e-01 -9.836953174864252469e-01 -2.619650347502659460e-01 -9.839704792548245038e-01 -2.651795958216676685e-01 8.437896125200841091e-01 -8.565545561328468116e-01 9.506703494763235618e-02 7.871842032028076863e-01 -2.301619016879730695e-01 -1.457184351455959037e-01 -1.239850755016294270e+00 3.708040465361580051e-01 4.841297774276562826e-01 -7.581018799608190140e-01 -1.011684959084534257e-04 -5.645709204134274906e-01 2.077347266226073075e-01 5.969784857383626520e-01 -1.634394326251987495e-01 4.279636986025792678e-01 -5.611577260520436150e-01 -7.334311711887844254e-01 7.674418833457626876e-01 3.446193716020599096e-01 7.703028877271632657e-01 1.440165833815134910e-01 -6.023441420874627861e-01 -5.350406320219620593e-01 -2.715352498491627187e-01 -2.631500716377808136e-01 1.952190990553226424e-01 -1.622004514680703557e-01 1.200780094704594791e+00 5.526679100829321456e-01 6.838983566997454133e-01 -4.802285300926336653e-01 -5.323113472061460349e-01 -5.768715533721512356e-01 2.178879699665698111e-01 -1.780268860232553096e-01 2.068042628827982954e-01 -1.895730921215298403e-01 -7.282047119304211336e-01 -2.072478994413968212e-01 -2.423602510403474741e-01 -4.948038027547589368e-01 7.906522559038726694e-01 -3.165627166261348879e-01 -4.163320014300484484e-01 -1.072622106378136042e+00 -5.222953200954651987e-01 -5.480061944873005908e-01 -6.692162622544544082e-01 -2.333981259870913372e-01 7.198112568012953183e-01 -9.340651950416393179e-01 3.113683130123108267e-01 4.663211671054046104e-01 2.324822532881226922e-01 -4.215330230053027094e-01 -6.618268106419615548e-02 -4.637394276075502142e-01 -6.706225777673295863e-01 5.908907113117949361e-01 5.342420412166810732e-03 -9.467197533535792742e-02 9.209005011394684193e-01 4.567580357397350577e-01 1.513188056989310804e-01 -2.853274855566937385e-01 -8.455951234481429157e-01 7.930790672389433915e-01 8.395637548752976631e-01 3.930770675680285153e-01 3.677311931667462952e-01 2.131132437635584187e-01 -8.398766716697584345e-01 -1.380102621924669037e+00 3.483571762191904897e-01 -4.817784825343217059e-01 7.374567712840424116e-01 1.597406567024257373e-01 6.442735069414602389e-01 1.810188009543153842e-01 1.988088892056318613e-01 6.668015427168615394e-01 1.713992270880567437e-01 -6.247015032386838973e-01 1.818644966320418777e-01 4.089284518873003565e-02 -4.215519277878407856e-01 7.186447226516522457e-01 -5.896881485406505474e-01 -7.033667842053163977e-01 8.977650026125767457e-01 -6.851646054710869294e-01 1.948515152638696513e-01 -6.123293504825269018e-01 5.179249175213045120e-02 -6.511240016027780575e-02 -7.123758670793292058e-01 -2.005261994087940147e-01 9.588449626344575094e-01 -7.155291673931934993e-01 2.175369040423677860e-02 5.321898663227941917e-01 -3.785281939460708456e-01 4.915184589174202978e-01 2.990937958104799010e-01 1.803988580737427017e-02 1.227059131585160223e+00 -4.900123610618784681e-02 1.215006307038213995e+00 -3.017589778429466407e-01 -5.701347419818213469e-01 2.808017230433065836e-01 8.847781041706310745e-01 -7.031127105675644140e-01 -4.137066117491388084e-01 2.589922576651310093e-01 -2.681641729781763517e-01 -8.137391892079094691e-02 9.237701939279676644e-01 -8.595956488584192146e-01 -9.028980551451215586e-01 3.994301638858219206e-01 4.470053872176230070e-01 4.550058858875344336e-01 6.156617222899775088e-01 8.090807448288293013e-01 -5.453051459591000683e-01 -6.116749697043786238e-01 -6.239371404682576561e-01 -3.993456764716714069e-01 -3.601365042984802090e-01 -2.137824236197357619e-01 7.051317419968933242e-02 1.534042630432825433e-02 -4.825849660424303966e-01 -8.194823520864003008e-01 -7.855117862050015054e-01 -1.189023452896402544e+00 -4.711721570193800890e-01 5.722950308805638819e-01 3.064598595796144131e-01 -3.972923933414278519e-01 4.766784028543141760e-01 6.211407394125670889e-01 3.045801442888430022e-01 -4.913860243143119422e-01 -2.771359897965335328e-01 -3.677326256116283387e-01 -2.823810696910372120e-01 6.967689445727794917e-01 -7.588671974236838036e-01 6.792265872278623329e-01 -4.846718784265247604e-01 -6.895958934399072648e-02 -3.256787675758397449e-01 -2.002641253508856689e+00 3.539130983379504269e-01 -6.877476335812834352e-01 2.583192893599551287e-01 4.373406206469499513e-01 6.568277400009442379e-01 -6.691241028448526862e-01 6.694320949383436581e-01 3.880080758290832543e-01 8.626654398845882143e-01 -6.598510070971287389e-01 4.118004057219736280e-01 -2.495866817251121972e-01 2.014350909357176186e-02 -6.810672138573768686e-02 5.922389916203045779e-01 2.237042269090196711e-01 4.590574856158812223e-01 8.507962195489110480e-01 -7.972892530788572296e-01 8.039305550244009169e-01 8.599113535551001775e-01 6.371467880420634833e-01 -6.227046971988078328e-01 1.115001261422628176e-01 4.554377213840538063e-01 3.875114729736250929e-02 2.806240987342352722e-01 -3.102472183198700106e-01 -9.922026342182915792e-01 2.776693622914741533e-01 -1.788689511193633508e-01 1.026334868466125816e-01 9.592683884852859499e-01 -4.042156064336072108e-01 -7.480681711978208748e-01 -3.718452822463063634e-01 5.166248679743208339e-01 -4.323220516782200207e-01 9.335317292425325819e-01 -1.969132914244091093e-01 -8.882173797953691885e-01 -5.172479532795885016e-01 4.881596596072197980e-01 -1.139772141144464124e+00 1.142494831621469142e+00 3.549905834511539182e-01 -7.296864146308452981e-02 -1.061924715478814285e+00 -5.208973536794725412e-01 8.135534387960950964e-01 3.668626935377862774e-01 4.399161686797560533e-02 1.630298264942406095e-01 -8.883790974738627055e-02 8.346301737009936828e-01 -9.721701037497114672e-01 -6.189235715561445250e-01 2.073484136309016457e-01 -7.192130889176565622e-01 3.171228748067697611e-01 1.374374824157873931e+00 5.149925969100694889e-01 -5.177347886321356230e-01 -1.098683136324655418e+00 2.836762833609711709e-01 -4.079121437355734958e-01 -2.349944442015632351e-01 -4.321088344786011559e-01 -4.228426047113825054e-02 -8.530287786473399470e-01 -7.097126451685121795e-01 -1.091808009041468130e+00 -5.932001161957754787e-02 7.356775125469681154e-01 -1.379248475909939861e-02 -9.796040711427176362e-01 -7.668132062394940052e-01 7.276353206291858999e-01 1.577491603190840641e-01 -1.115805563190363503e-01 -9.553262834319998786e-01 -3.810386561191497767e-01 4.555265562902376386e-01 -8.682215356350553304e-01 -5.494809690571392791e-01 -4.934636294368720533e-01 -8.872945457831091232e-02 -3.290483376421797224e-01 -1.099433112744454322e+00 -7.684017241968820189e-01 -4.054972719466458653e-01 -6.050914231888037120e-01 -4.355802856888769115e-01 -1.741463565279145254e+00 -2.537166283056329630e-01 1.070070347398721089e-01 -3.416190804718462481e-01 5.315860034352911656e-01 -6.545094855725290817e-01 4.405069603040653314e-01 -5.585680029084456599e-01 -4.378486025308059304e-01 2.217870891514076848e-01 -2.087901758856137713e-01 -1.832499923350863202e-01 2.067425370582378630e-01 2.452153619189079148e-01 5.540884082367169006e-01 -6.134568133899700459e-01 1.946671982963877889e+00 3.162183801038646602e-01 -1.449192795591152938e-01 -5.617116793264343988e-01 2.935570985582562908e-01 -1.453693406380834885e+00 4.794247957762348689e-01 -8.564058097592976981e-01 -6.354960784926757533e-01 6.775006494197707285e-01 -1.383908076629273287e-01 -1.622798600977142236e+00 -4.516399635344017782e-01 9.710196002381897562e-02 2.801206761543705848e-01 1.168296373980604708e+00 -1.064116323780635032e+00 3.701773458865899036e-01 -6.577649194837319468e-01 -1.469492947779373407e-02 -9.820665653403238826e-01 4.247084893627006141e-01 -1.139228778024698130e+00 5.487822064818769219e-01
1.565581943359386219e-01 4.317187206240400421e-01 8.223548451202487009e-01 -6.017241658561403028e-01 -2.740978667402416691e-01 5.556142984625288550e-01 -7.990456924725958254e-01 -3.004679561081196049e-01 7.734006772522488554e-03 -5.628077713589713094e-01 -8.686605773389503016e-01 9.440900881830474045e-01 1.006014539543549580e+00 7.649598380613228943e-02 -4.863147730022847059e-01 7.944556810385908774e-01 -7.048355801248884500e-02 -4.022572099094256504e-01 -7.485094554469301498e-01 -3.209890150915716278e-01 9.894203988062622024e-01 8.635009868992209459e-01 -8.483131786952254894e-01 -6.900646528337918417e-02 6.721136298548511245e-01 -6.892672996298954136e-01 -3.501673567263281495e-01 -3.128005338282042191e-01 -6.666897420600777224e-02 -3.723978373307877954e-01 6.794822988350390780e-01 9.735696858022063749e-01 -1.025329309333020245e+00 8.522897753859914882e-02 -8.960366465825913007e-01 -9.239323804234657045e-01 5.529440084883948670e-01 -6.631907232170182187e-01 -8.137190173978566810e-01 1.197705552781615397e-02 3.582676319779943830e-01 5.988227452915318993e-01 -6.108181951022828571e-01 8.277830997768159671e-01 -4.847389832154739286e-01 -7.523854894570647378e-01 8.143363811888709725e-02 7.958868196245118265e-02 -3.553755359116443913e-01 6.671986442700587050e-01 3.348679335842015825e-01 6.201514812139441446e-01 5.539493918660495231e-01 3.658094699203777167e-01 -3.066273617662639839e-01 9.100796985747783285e-02 -3.035058981261077871e-01 1.019773807382668984e+00 -5.176458972121600333e-01 3.884641404092831762e-01 3.748093217402073685e-01 -9.171523973770315807e-01 1.405150723091440623e+00 -5.260294612524595292e-01 -3.758251371267313790e-01 5.743414292718258540e-01 -5.761488156422346352e-01 -2.546920587418310400e-01 6.771887145469956959e-01 -7.711075655980534904e-01 -1.087056583084637928e+00 8.509006890448227167e-02 1.438048956705515025e+00 -1.852750854260170332e-01 1.696247263876018152e-01 1.415905821473895931e-01 -1.299349922519215772e+00 -7.742853120018803326e-01 -4.651885618405912082e-01 6.693254757562109303e-01 1.740552674894609297e-01 3.839285740484245091e-01 -9.031681036568507404e-01 -1.188226091623328262e+00 -3.881386003021851661e-01 1.413990110404194367e-01 6.209900465655191493e-01 -1.380250294054825355e+00 5.645555945520052132e-01 2.930710677000720674e-02 2.857989706946880704e-01 -2.577467541711585541e-01 -8.128365581230884152e-01 6.273087011073182895e-01 -2.643183357563190228e-01 -4.008999285707106064e-01 -2.298596818519716756e+00 -3.394294106395724930e-01 4.529467332133845781e-01 3.786704721232670573e-02 2.182804105208865642e-01 -2.549561002259361983e-02 -6.557489463778144734e-02 -7.263703295640131993e-03 -8.444753185942905915e-01 -2.142137469849029752e-01 -1.968080152777789554e-02 9.082910607032497197e-01 -4.329331365967052925e-01 4.900962292156260114e-01 1.894999053798728239e-01 5.778228395198488077e-01 6.835942563187071830e-01 -2.004450648745911556e-01 3.618720366152087808e-01 -5.352791871354466435e-01 6.449944094016971663e-01 5.849597346587750435e-01 6.245437795936548131e-01 -7.520066057201482135e-01 7.219688520652713104e-02 -1.052636411081747832e-02 -6.106251587905958678e-01 -5.573380586476481824e-01 -6.262497320265395517e-01 -3.686206424265648929e-01 2.618412543199023501e-01 3.828027196475652372e-01 -6.975242643885447569e-01 -2.714615247676235299e-01 -4.915430151246961699e-01 1.887907695379253403e-01 -2.992414727418367115e-01 1.080527517297283358e-02 -6.629857257461572173e-01 -5.228823325196111371e-01 -1.183665685126821465e+00 1.621931704996822710e+00 4.867022516615997496e-01 -2.749847344038859887e-01 -1.363670388315579629e+00 7.170297719042019180e-01 7.935532299814015422e-01 7.361192554959161694e-01 -1.953859565020140687e-01 -3.702333216170767827e-01 -7.964083873696971017e-01 2.718760061415499418e-01 -8.712650452171691873e-01 1.660888809020127088e-01 5.352245623401462593e-01 7.642234556961685632e-02 -5.952317917661133911e-02 3.583805325111152906e-01 -9.667303050285387389e-01 2.851923766303234853e-01 -1.157190204335888373e+00 -6.860798185198039301e-01 -9.399515150176641631e-01 2.065326783850039705e-01 -8.936771556572439268e-01 3.060852812484032293e-01 -5.592234127148980605e-01 -8.963768658461878092e-01 -5.917129891748844628e-01 6.134838974251615173e-01 -1.983100680284744510e-01 -1.523255624421394894e-01 9.512884179410112662e-01 -4.424302274334865892e-01 -1.491512719051801161e+00 -6.989360339690977586e-01 -2.312928542279694619e-02 6.188785749532526026e-01 -7.931516559991395043e-01 7.733393334633967831e-01 3.330973137306248999e-01 2.516829997418893461e-01 -1.159582453182167905e+00 -4.680177436984641615e-01 7.674713879841309205e-02 -3.688194859161232353e-01 1.219103984243490313e+00 -2.826758757836022595e-01 -3.080859883138388211e-01 -9.318369358710022476e-01 2.574667450385064726e-01 4.664874206310779675e-02 1.001300562886209278e-01 -2.486449296318642699e-01 -6.479737430810907917e-01 3.355345134064743884e-02 8.804549447755285474e-01 -4.414118183730891820e-02 9.200845662271018854e-01 -5.217885742104304558e-01 8.527889923494651470e-01 8.153420216503096118e-02 1.363994075768790726e-01 -4.808952408412582868e-01 -1.468037645971250971e+00 4.242179628624752619e-01 -1.294033111083706888e+00 8.040243473315816791e-01 4.659959004947858974e-01 9.401954244563499874e-02 -2.796847079568340333e-01 7.505171431507932089e-01 -1.658952679012830334e-02 -9.722664344029432471e-01 2.700842479026639986e-01 -5.438647690999222073e-01 -1.460462577136723894e+00 -1.828082945749222865e-01 -9.684065926768054000e-02 -8.417383646033615996e-02 5.104217543678575275e-01 5.189042102462073647e-01 4.352159066533712317e-01 2.536742764610660505e-01 -3.966529478881970494e-01 2.291991920795017901e-01 -2.672568221113153508e-01 6.971243058521927605e-01 4.553506075843901657e-01 5.113475652999137644e-01 -9.856636126905907735e-01 -5.771573682616717438e-01 -7.600588863873124490e-01 -1.167611366790167332e-01 5.013905025543500260e-01 -3.192953539354573822e-01 -4.900526944447987643e-01 9.846223650904331048e-01 -4.229639996978771382e-02 7.318217270699658439e-01 -1.015145048147924056e+00 9.373858249492204031e-01 -1.074336193041331766e+00 3.714641409172014241e-01 8.881461191793521559e-01 5.726535857670593810e-01 1.049393466404889147e-01 -5.824507102636564682e-01 6.681778894156922277e-01 2.445893444309280018e-01 -4.201490824882742059e-01 -6.113810753980349899e-01 -9.848201613217623385e-02 1.227828060621580369e-01 8.176683667695821001e-01 -3.926554573085472843e-01 -7.757573826267801786e-01 5.226947790078363409e-01 -1.074359430703245299e-01 -2.144344044352314016e-01 -5.731103001756394644e-01 1.286456911583990337e+00 -8.462775557168171758e-01 -1.200315699483240461e+00 -5.610727627000158257e-01 1.367870471017532249e-03 -1.973817664894658430e-01 7.962224468095578933e-01 3.613638304016289493e-01 -5.562529056764852209e-01 -2.154883374429903131e-01 -1.273083339405832071e+00 -1.819230768355940830e-01 1.846484527608024395e-01 -1.991197553057625358e-01 -4.056320154158838953e-01 6.076783859629347750e-01 -3.081914081625787283e-01 -8.535711940390009467e-01 1.096918222152020173e+00 4.473871928181366586e-01 -1.192635322393869934e+00 -1.299153616368888819e-01 -2.680055163755486469e-01 -4.522566948238894158e-01 4.239401143982746700e-01 -5.331214100624974694e-01 -5.737435601082686576e-01 -4.710059818702202472e-01 -7.157770067665680802e-01 -1.355516661143889579e+00 -7.582924175648068088e-01 3.593024630213010884e-01 1.340305911937561822e-01 4.245183922175852498e-01 -5.412727965200782032e-01 9.134713836016532529e-01 -5.653048660261340563e-01 6.773837903849770636e-02 5.312047879965057229e-01 -4.718157472102953998e-01 -7.014066170995834903e-02 -9.394907468057038802e-01 6.215352426237744088e-02 9.666408714483611941e-01
8.375370130497681309e-01 6.538177341877052795e-01 3.204739878819213433e-03 1.138967883808756909e+00 -4.453969647538957854e-01 -8.576123759050229278e-01 1.440904186994248048e+00 3.938424270351041923e-01 -5.405501036901230738e-02 -1.659065264854623356e-01 -4.396945727506584856e-01 -3.931136170480267755e-01 2.550208294537933962e-01 -7.619788221044007659e-02 -1.961483107456437336e-01 -1.352170385891637017e-01 -7.340540917495556039e-01 -6.828997793461227817e-01 2.058946762643164008e-01 -5.736993730263983959e-01 -6.856204197563766645e-01 4.327305145797540886e-01 2.989788888958379243e+00 5.844624159897119364e-01 -6.201973737326506031e-01 -4.277608476691079908e-01 2.387881481865670452e-01 2.849003701157186430e-02 -3.816176257065840294e-01 -2.518137509446116695e-02 1.521459723912372830e-01 2.809511028572979074e-01 7.383951613873487307e-01 1.047895602111145408e+00 2.488743253604106531e-01 -1.272773736351727747e+00 -1.230146835918119574e+00 -1.543136089837079172e+00 -1.924748544031346098e-01 -6.883109467894350519e-01 5.899640894535866931e-01 3.304543844964322186e-01 5.855381311173268183e-02 -4.447991242350267105e-01 6.233129415201040802e-01 -7.484291807787474271e-01 2.236191248013021937e-01 -6.025628722397842196e-01 -4.877490447514593597e-01 1.106446223330601386e+00 -3.517638510745888653e-02 -2.344690758384328222e-01 -3.631345024483335626e-01 -2.460975178201240954e-01 -3.389590265908696276e-01 -9.438404462134947215e-01 -6.946089916884162774e-01 2.778280121803897718e-01 5.185942763488899931e-01 6.897582465357162684e-01 -1.363244691492481175e-01 -1.276089563007606065e-01 -1.016575139249856985e+00 5.442902185675327908e-01 8.576839576250985808e-02 6.283635897192857422e-01 4.396441437872842251e-01 -6.241610449021690599e-01 -5.449672046498101885e-01 4.076722042432887605e-01 -1.164935961513198448e+00 3.927485330677876196e-01 1.700151711628593992e-02 3.413040516623190856e-01 -3.103946338687935125e-01 8.373903686988442008e-01 -2.984096903379804822e-01 5.966119380570192865e-01 -2.752087580873309111e-02 2.661721433805732361e-03 -3.019823058321805531e-01 6.487124239913998336e-01 6.100285837978164372e-01 -1.030881707410181702e+00 -8.418048397105150071e-01 -3.890373356818614958e-01 -1.422016734132668159e+00 1.531722816726445391e+00 -2.030023157719705873e-01 -9.972817917878136484e-02 -7.501544610412418379e-01 -5.643420850216684936e-01 -1.057585447335182227e+00 -3.504086688454263188e-01 9.218023381917788139e-01 -1.382675097201521153e+00 -1.388813034571410920e+00 6.535821385607125389e-02 -8.771964804874161636e-01 -2.542045209563827401e-01 -4.393482648435553112e-02 -1.589582031142377366e-02 -8.965794943374386650e-01 8.563069018639931640e-01 6.139565675102265363e-01 1.728347779048361732e-01 -1.888658435852215711e-01 -5.561185513059856145e-02 -1.241941020730640000e-01 4.745325434408369514e-01 -6.361755406198710272e-01 -2.695086728455123315e-01 9.756982549611834532e-01 -8.622734097672194453e-01 1.310201777892905928e-01 -5.186954977835454006e-01 -4.110696160593983461e-01 5.932027870273727244e-01 6.432537287777627677e-01 4.389722358400517943e-01 -1.160242517502583504e-01 -7.453378118773668071e-01 1.233008637297782345e-01 3.314839957458006192e-01 7.033664699094752670e-01 -1.168806399268599749e+00 6.604381659813215455e-01 -5.625560998520073852e-01 -1.165735682935746365e+00 -1.022434738735364564e-02 -2.061006936420560487e-01 -6.847307204488599641e-01 4.096748682270948128e-01 -3.631587419406251960e-01 -1.125359553102837529e+00 -1.954106156768455060e-01 -8.656251203868011723e-01 2.934256462037614366e-01 2.731671287589239605e-01 -1.026581824106485907e+00 -3.278557141914073547e-01 4.232310741595708414e-01 -6.238207499254346811e-01 -4.507158750275669368e-01 6.075312832703267940e-01 5.012103226117933241e-01 6.616646198575222571e-02 1.713878449761095657e-01 -4.531367612768349429e-01 6.933539089606149952e-01 6.528887258857788423e-01 -4.701551099068115858e-01 -1.467378429507650572e-01 4.676235513899481416e-02 1.876921331597589004e+00 -1.480329779602871598e+00 1.303781953020475948e+00 -6.302494821782462786e-01 1.103590011183269021e-01 4.180633766364179049e-01 6.360029852162637498e-01 -1.193983030334034190e+00 2.041589950608211843e-02 -7.359283782423584608e-01 1.769706040622587850e-01 3.364744445137698992e-01 -1.014325746482785395e-01 1.518292408316537223e-01 5.703632876762750221e-03 1.064012879192196281e-01 -4.417242489873307587e-01 3.657432105557885116e-01 -2.136941881696976242e-01 -1.414700308543927365e+00 -2.186318782437914610e-01 -7.285563078270108628e-01 -4.376094994566809837e-01 2.097900827792449074e-01 -9.125625064849558488e-01 1.692915639246372006e+00 -1.577571802020428238e-01 -4.718000317073134386e-02 1.261409410498918859e+00 -6.611501643230561776e-01 4.847825285274199869e-01 2.540621888985442611e-01 -9.395879194123621936e-01 2.763859428790519934e-01 5.728766084635013023e-01 -6.369337973940556452e-01 4.079874524997919583e-01 -3.782945438463254373e-01 -2.547657450884540653e-01 3.580549572501505184e-01 7.848693218346467493e-01 -6.570370103979960019e-01 6.126425357431396490e-01 1.815512977681535134e-01 -2.737411394566910960e-01 2.219984726304349565e-01 1.035368727448542581e+00 -7.059760871911615610e-01 -7.007191090374310649e-01 -2.220106121998602633e-01 -1.665767244925517421e+00 -1.725448083951756639e-01 -1.664811737385987478e-01 3.977904520612366990e-01 -1.255070048463346457e-03 -1.831781501713121152e-01 9.575059214693758536e-01 2.632098355326603079e-01 9.510331008708257094e-01 -4.129992710126168670e-02 -9.133533634148564007e-01 -1.398409478574599962e+00 7.282765061320400912e-01 3.257351919474257146e-02 -9.042650355453896172e-01 -9.332076420348183188e-01 8.543408337721636325e-01 1.777647090215551673e+00 7.586663301095981915e-02 -3.275096269119587844e-01 -1.006753074460539521e+00 -8.489085463510274154e-01 -1.303667365758209185e+00 -6.959773479987990674e-01 1.821512257898399711e-01 -4.460403290011962230e-01 -7.986982543188048123e-01 -2.803193051172761519e-01 1.041961503178846782e-01 6.249573881926183683e-01 6.095717180002342417e-01 -2.503374357152424512e+00 5.295144917187002975e-02 -3.962229729497854791e-01 2.098993513073187656e-01 -7.748719353375234098e-01 -4.655711591635416924e-01 -3.576862692251192230e-03 -4.592571840923809212e-01 1.082111245128924093e+00 1.273864719845493321e+00 -5.378111964820389002e-01 5.637060830186363392e-01 1.188954692724801365e+00 8.116152472041064936e-01 2.804492736128118557e-01 -1.098861992139088750e+00 5.833040508017320880e-01 -3.472566252558443867e-01 6.970650134161773814e-02 1.436406243748858391e-01 7.307368304587319452e-01 -1.334161511636924979e+00 -1.408413133767993486e+00 -1.009630390969092018e+00 5.161781541274701457e-01 -4.183648601431858571e-01 -1.703008201837742375e-01 6.350369355209454225e-01 -1.161724341633964208e+00 -7.848043352826739039e-01 -1.650470087808334485e+00 -1.173756150955980626e+00 1.357963171797576252e-01 -8.987908329205912539e-01 -9.347522260080071144e-01 -2.913449030313384758e-01 -5.812269260121016162e-02 -3.802756447493217951e-01 -9.881667886593806793e-01 1.444902982640162481e+00 -3.344369245077941644e-01 4.584268265627068906e-01 1.560777892866040517e+00 1.427798375462933311e+00 3.053474368232535152e+00 6.086742355606623578e-01 -9.044551935842003454e-01 5.735161843737313081e-01 8.771808713629063448e-01 -5.552729998588914473e-01 5.351463049425422280e-01 -1.981125697724548662e-01 -5.294846880695643909e-01 -3.688863824652812706e-01 -4.443702246859173033e-01 4.554539578136908989e-02 -4.674068957229711163e-01 -1.099202374910434266e+00 -7.007639429282547239e-01 -4.019131764188673683e-01 5.657991453202743104e-01 1.347449463605836062e+00 -1.208009532711619816e+00 -1.011419227558250755e+00 -1.717603854510618422e-01 -1.320443553053742836e+00
4.452953621714019761e-01 -3.902156953236254333e-01 1.214352559194130515e-01 3.133892138645436032e-01 3.627326877193004506e-01 8.989781572789394826e-01 -6.981169524921294611e-01 -5.158084064892201059e-01 3.266972758433598495e-02 -3.522402031683222190e-01 5.962942889148011849e-01 -9.651911600777177691e-01 -7.946378287698060428e-01 9.544469771674527481e-01 -5.769792762569243560e-01 5.958667496950558612e-02 -4.489550776131717713e-01 1.325989826631439883e-01 -2.483129431229018705e-02 -1.020765680473993076e+00 -7.023957430346084232e-03 -4.327295230205220333e-01 -4.040137177591533457e-01 -1.552529396882464940e+00 -9.261529168362482300e-01 -5.051257181757404929e-02 -3.440954801933390761e-01 4.921999422368586452e-01 -1.776236563721187919e-02 3.288373249421759903e-01 -2.572063669881020087e-01 2.586167559641923130e-01 3.075007448657241516e-01 2.106551635462300121e-01 4.610131798065326691e-01 -1.120586943934960278e+00 7.810179985201280983e-01 6.437838403497181394e-01 3.941428095761722039e-01 2.690381053961398705e-01 4.581958166495310736e-01 -4.583365060519839496e-01 2.653001750942561299e-01 3.327220496618901180e-01 -4.202320734832924454e-01 -7.180191858705844421e-01 -2.840426672900358412e-02 -1.101382834379387443e+00 5.945810270201973280e-01 2.848715037896769678e-02 1.154607126412296125e+00 2.897672597530352723e-02 -8.200055342189646046e-01 -9.111523282026460224e-01 -1.999644949851329678e-01 3.695395184546636513e-01 -7.795909122350576093e-01 -5.781195481885968990e-01 -4.470108246577162436e-01 -8.529805928479434751e-01 -5.000964261990007431e-01 1.392092086306338850e+00 -1.786837437589673838e+00 -3.629337127412308184e-01 -1.648325890701213270e+00 -2.137125079668471261e-01 9.823508082120495644e-01 -9.888247959351326166e-01 1.064862053561227651e+00 -3.938383005863250186e-01 -3.402945865042549256e-01 5.331886293851462177e-01 9.244748296103635354e-01 -4.513060747848155092e-03 -3.579799846840145405e-01 -4.445677353639942431e-01 -1.671531851307914429e-01 1.492162810466720335e-01 -5.146136018194449324e-01 1.095004659658016966e+00 4.711134433439211344e-01 7.068277552694791632e-01 9.425669008861827791e-01 7.323779439400759372e-01 -4.560451501495950688e-01 -4.035493361282201930e-01 -4.433020789000514106e-01 6.360972701055146554e-03 1.045056790058882246e-01 -5.231997382238254835e-01 -5.354932685615587488e-03 1.619710222422090951e+00 1.110328583179537087e+00 1.944712628382083142e-01 8.462022319428139649e-01 -1.806703414647227168e-01 1.348522911431730753e+00 2.465083354060719767e-01 -2.264990843690099787e-01 -7.530353962675220281e-01 -6.219265395564188559e-01 7.381269695052034008e-02 -1.429309138370615517e-01 1.504897783435605041e-01 8.695030608388648607e-01 -7.017825890211455420e-01 7.203642728829081632e-01 -7.073604425952199071e-01 -4.708938366557254840e-01 4.165582714817759880e-01 -7.953695745026560793e-02 -1.958657162173353672e-01 8.700722932924150888e-01 3.491361852491912249e-02 6.537240017946732706e-01 -1.772907702031640831e-01 -1.241834138371200158e+00 -8.193758597569857915e-01 5.322010285021863130e-01 4.866974892192263424e-01 -1.387505188764522057e-01 -1.037524332071516397e+00 -1.592943340091538262e-01 -5.893273971093413444e-01 -7.788269974924385552e-01 1.176376718455590220e+00 -9.631183311295834493e-01 -6.684755676149780612e-01 -6.562899363509702155e-01 5.958657918286667243e-01 -1.075623737473216490e+00 -4.193843785139259595e-01 -1.091756567254975607e+00 -7.267152717098720460e-01 1.778243600967989724e-01 8.321277390112015171e-01 3.783443871155585669e-01 1.129256488635189459e+00 -4.578481313071918607e-02 -1.019733126387110667e-01 7.484393565142590798e-01 -2.239605635059999378e-01 2.783602476486242150e-01 8.408263249738303635e-01 -5.035405358641127649e-02 1.666900779242935504e-01 6.358535018965775221e-01 -2.148876210429432054e-01 -1.874214562039066001e-01 -9.024607090278902177e-01 5.600320427316873850e-01 3.110885781592267474e-01 -2.746052646391632102e-02 -5.155287086750478531e-01 4.150764111378922872e-01 -9.784848052231573390e-02 7.719130461554209177e-02 4.638573741465515377e-02 1.028171860647109526e+00 1.317642102272752247e+00 8.479846156939849777e-01 8.256151122068025039e-01 3.461059130425082619e-01 -4.638047979426271894e-01 -2.208095292952006183e-01 -2.895468272550646982e-01 -1.773766147181310981e-01 -1.429245918367571200e+00 -5.442371405165765674e-01 1.517306792176117691e-01 4.187554362649543727e-01 -7.779473906695816288e-01 -4.192754039949351252e-01 6.925723748543146652e-01 2.037890852816116039e-01 -1.879932790959830402e-01 2.104216957693279613e-02 -7.401148504956472918e-01 8.042936522474338767e-01 1.239933722299031149e-01 -4.818949905715736448e-01 9.947626635704377440e-01 -6.575624715428998179e-01 -3.371277484630356026e-03 -4.283199335657154605e-01 -1.559392057467305637e-01 3.400831849840026955e-01 2.195398686203714755e-01 -7.382013709434573911e-01 -5.363798372411221482e-02 -4.855578866798232474e-01 -1.408000793736574829e+00 5.380505432580430514e-02 3.309082948180162576e-01 -4.569110656108571478e-03 7.238738432367824993e-01 -9.960470766348421545e-01 -8.813199976843432148e-01 -5.104186505568481663e-02 -8.352163048560555872e-03 -6.794328898287392837e-01 -3.362211594820374572e-01 -3.481688359513887554e-01 4.418535635095233727e-01 -9.094122283015630970e-01 -6.531759773542417102e-02 -6.547550093924706660e-01 -2.647703600239002530e-01 -9.123888355612109757e-01 -2.647486623880726531e-01 4.063532674755849783e-01 -9.705550904024754511e-01 1.074886665315018641e+00 -8.369565659413783498e-01 1.711974152177069344e-02 -9.633783683078919191e-01 -1.603992055528891819e-02 7.205222245652668223e-01 5.443368018465797459e-02 -6.830932019099246189e-01 7.037852084252174123e-01 -1.036008800771003324e+00 8.221171703971145162e-01 -9.574191402866789602e-01 -1.025050050635516907e+00 8.085994974371530919e-01 -1.044220190139387272e+00 -6.964047836194872665e-02 -3.368405638097163868e-01 -4.155448886843365885e-01 -3.317491728712946841e-01 4.847701370474936933e-02 -9.041032606167317409e-01 -5.028466772010441455e-01 2.152393375598023184e-01 5.790194262285789373e-01 2.692271261200947507e-01 6.762965750433294065e-01 5.643364393922468691e-01 2.480112075499634472e-01 -6.468555943775295969e-01 1.252620740433658397e-01 -3.546158318876841964e-01 1.176810515785705835e+00 4.070306061048498125e-01 -4.553152600909157188e-01 -6.083591788956828061e-01 -2.493017474079258777e-01 -7.213023934877610399e-01 -1.087604731129783842e+00 9.541692903406620019e-01 1.813958412893559580e-01 6.320092060585154325e-02 8.458696582478776316e-01 -5.801278475120704714e-01 1.654410437384004284e+00 -1.226775563754220588e+00 -2.550320044768882521e+00 -8.315310031255028766e-01 -8.107824679804763734e-01 -9.873929979661566492e-01 1.138097630929816972e+00 -6.485686006355974309e-02 -6.671920660772450162e-01 1.227750694286285083e-01 4.528738352557363234e-01 7.381241283531136954e-01 2.578827177982743746e-01 1.557457056631412762e+00 -2.221658813125025889e-01 -7.728766686354107129e-01 3.585710287187766632e-01 -1.022263619597596929e+00 4.361905177996575761e-02 -1.196651159252987151e+00 -5.817950905712443443e-01 -5.625873463385221429e-01 -3.121506215904161774e-01 -8.562825335292694184e-01 1.321268492654269766e-01 5.972884396888331615e-01 -1.418973483236420696e+00 -1.336459113188694481e+00 -8.824906312181242385e-02 -1.967998963991897665e-01 -9.219760374477152798e-01 1.508558073548363465e+00 4.644937684150493573e-01 8.331787156160038732e-01 1.320014684468229782e-01 -1.158444502740762161e+00 -7.980610979590616605e-01 4.788366316850236060e-01 3.288596893637981688e-01 -6.849437352570242332e-02 -4.753895897225824951e-01 -3.902270532141668968e-02 -8.338462623220449510e-01 -5.764852474070391031e-01 4.633022302069346177e-01 1.038732787561547966e+00
-1.076211481113276802e+00 9.050530364130542349e-01 1.211430961487911483e-02 -6.150335815649088378e-01 -5.828182312276469074e-02 -4.663328968276960196e-01 5.809242545378127121e-01 -9.600312870588227909e-01 -7.290700541691850223e-01 4.475701659859762649e-01 -9.121058872658865946e-01 4.350683055330550331e-01 -1.027346404836793292e+00 5.333405298567311242e-02 4.650946156622758343e-01 6.448547970506554039e-01 9.029954408304110558e-01 -1.418070847347837338e-01 -3.259859089591087833e-01 5.914062976405970451e-01 -2.698128463403399180e-01 2.361140777791694845e-01 -9.700019219433476669e-01 4.907025833008937798e-01 -1.424725828603332911e-01 -1.968039571610443253e-02 4.828785153401529140e-01 -2.187518437991977927e-01 6.635141342687450594e-01 2.188575220769370944e-01 2.914050276702983555e-01 4.452527152546568723e-01 -3.617784415781120089e-01 -1.021467715539924992e+00 -3.753904932644446801e-01 -5.966067649990013377e-01 7.829255006547893858e-01 -5.299619671247636221e-01 -5.168978763393399234e-01 8.011036116654075556e-01 3.888196408403350457e-01 -1.756303199606782106e-01 7.919869350034759448e-01 1.633356777406817506e-01 -8.657176709647567137e-01 -3.960541483715974143e-01 6.492770990699545663e-01 2.180357388333120094e-01 1.804652167548368991e-01 5.146360714606074138e-01 1.716067380959271083e-01 -5.891205383698653320e-01 -3.807516080082625209e-01 -5.275589616484046562e-01 -6.677884770318353036e-01 -5.514026155462593559e-01 3.000396536132883818e-01 6.371273651801836468e-01 -5.812805694389951983e-01 4.038094858788083275e-01 5.987586930305918154e-01 1.235042198209806638e-02 -3.111467802766406665e-01 -7.635571595595935790e-01 -7.188854677559644024e-01 -4.517816555646652632e-01 -8.852553724151032144e-01 -6.346551281656596100e-01 6.916915266530007100e-01 1.024963264383886574e-01 -9.867667252148121237e-01 -5.788921483946247726e-01 4.124649393569217448e-01 8.241396797937337038e-01 -3.208826299722972730e-01 3.372661611020170147e-01 6.407847612755478428e-01 -9.363258667943951119e-01 5.465163886916615255e-01 -1.665031420725255062e-01 -4.930283964910688321e-01 -6.008205742820939277e-02 -8.634628567501835272e-01 -7.887479370338681406e-01 5.693685450379964985e-02 1.470573975147626000e-01 -6.198575677283238994e-01 3.987762850089012767e-01 3.929795943838531591e-01 -4.399503939611648096e-01 1.773194922937039175e-01 8.130281056879061774e-01 -4.711437955123484733e-01 1.520601882719586073e-01 -4.648244378117448172e-01 7.510210340618276303e-01 -1.641247461507622241e-01 5.762218106622676306e-01 -8.875370502954676999e-01 -5.790598901912107355e-01 -5.462870354514309801e-01 6.946259004778569668e-02 -7.465694904326176939e-02 4.047980012830773022e-01 -9.016277898281277459e-01 6.950474390880310160e-01 -3.999832597402967482e-01 2.164578567860990510e-02 -2.064911940062256757e-01 -3.456764984078649489e-02 8.485743312152925766e-01 7.811319467489242357e-03 -1.233773035484391489e-01 -2.536330738812895835e-01 -5.004527108846227312e-01 8.716013287159608547e-01 4.076405687545302525e-01 -5.725724226202558720e-01 -4.934032594290634899e-01 4.272176430222587862e-01 -7.255239876419358747e-02 -9.756942758692183082e-01 -1.251931064542221306e-01 -2.925870996163439930e-01 4.705638080677576607e-01 3.458854647495316903e-01 -1.043576396257142713e+00 5.659054530904462643e-01 -9.143666695578717141e-01 1.965276188766891530e-01 -9.975468757785115326e-01 3.205412368129127998e-01 -2.528346631358134311e-01 -7.015987861232924061e-01 4.649419104332164765e-01 7.204143267357145941e-01 1.145601991165591249e-01 -3.713629221482511178e-01 -3.794854555862910844e-02 -9.794622790265326007e-01 -9.916802288477207794e-01 -5.086073905327298528e-01 -9.648085661781656830e-01 -3.043265395650946448e-01 -6.872217384423713327e-01 6.834155694518727342e-02 -9.775574470965177343e-02 -9.142015752186878341e-01 3.959181875056248523e-01 -1.136587657798513229e+00 6.166762918998268672e-01 1.578783229241957631e-01 6.181841075860515788e-01 -6.992027064979183804e-01 -6.325608734476456663e-01 -8.697828965552191205e-01 -4.491255845597748042e-01 1.538094422544554196e-01 -8.839998046816947008e-01 -6.930779501097531492e-01 -2.701443579198775646e-01 2.374273525335675594e-01 -4.978054433650141303e-02 -4.058927385548747463e-02 -3.653535883164877873e-01 -8.388641594897767728e-01 2.385892528484160058e-01 1.394765918999248469e-02 -6.790072664858533003e-01 4.659611703793805626e-01 -7.887667036616081706e-01 7.112491011909118921e-01 7.376794951485543539e-01 -1.588040868599326916e-01 2.023205470934092975e-01 5.697755306741016934e-01 -4.428855858578486515e-01 -5.347035709646738022e-01 -1.005116832651722358e+00 -6.784864478948956501e-01 3.570447440393892946e-01 7.698166530069399105e-01 2.893617977230401039e-01 -9.758328374251672432e-01 5.791172917795742725e-01 -5.479902275094068465e-01 -6.028681121782255570e-01 -7.254801978019467246e-01 1.263771877004482014e-01 -9.262738455022390127e-01 -9.679635001699495866e-01 -4.074017735201559409e-01 2.776794798738745906e-01 -7.007055941556381562e-01 8.731389230908052079e-01 1.530720798787374437e-01 -1.032891817233190235e+00 -4.677258361523596308e-01 1.999027384170194432e-01 -8.934340694499995905e-01 3.677579300013817387e-01 1.909190900064828278e-01 8.800572511804448661e-01 2.624784431268649132e-01 -7.350489771107079351e-01 -1.614267676629392856e-01 2.708870154468073221e-01 -5.892000479739564200e-01 9.480050496953249528e-01 -6.255291164199024978e-01 -8.585736576657033714e-01 -3.113356110403176641e-02 6.361063072560682596e-02 -4.591089738144170374e-03 3.181776771113081076e-02 -6.708339860612612116e-01 -8.661271646395679591e-01 -5.693912559497346093e-01 -2.011597998926635267e-01 -7.488231395277762485e-03 -1.646670710210359212e-01 -5.429529267829507067e-01 7.381288987092632370e-01 -8.419750015409791510e-01 -3.658709986096249644e-01 -3.072901319093464534e-01 -4.012127171809855286e-02 6.473940669969434347e-02 -1.856897149852141660e-01 2.317671997141111939e-01 2.207163665728175961e-01 -9.738601423713756366e-01 -7.382491255729502211e-02 -8.804630850661516739e-01 2.145862502366667479e-01 4.496355442753441345e-01 8.161454177268359089e-01 -4.014088899635196994e-01 -1.993584980498111503e-02 4.081448328385336444e-01 -5.333521626300243845e-01 6.551577008088727005e-02 4.735999415157750581e-01 -7.333524457368042482e-01 -1.929763884137733199e-01 2.556149845434579557e-02 8.034152082452380439e-01 1.932448579099466102e-01 -4.431661174331736341e-01 2.429251985627776389e-01 2.483049006897307676e-01 -6.313383287380437414e-01 -6.761677961068421339e-02 -8.237687461663758537e-01 8.745694746577286072e-01 -2.040194321921287579e-01 7.740531723767677397e-01 -6.079257177922503530e-01 3.686324554740690873e-01 8.379599975419917968e-01 6.548598970445699274e-01 -5.227577271176820500e-02 -8.989772066708697773e-01 -1.280804921469902713e-01 2.874728861632778187e-01 7.782732055988638153e-01 4.455411158072246636e-01 -1.305638814455351571e-01 -9.639175263882959754e-01 -1.643145729637751906e-01 -3.110730257561780676e-01 -3.320742650266795826e-01 -6.678652090737161595e-01 -7.959183754351323303e-01 -3.601736147433720059e-01 6.233104480590360152e-01 -9.842609316938868425e-01 -7.633705046525263160e-01 6.966298372798770400e-01 8.235748790879762193e-01 1.346984356312768694e-01 -9.497565036829294094e-01 -9.036084891716609224e-01 -4.852710962906822689e-01 4.527520727867463679e-02 5.345934006287673679e-01 -6.848759416732911331e-01 3.952714997161356214e-01 5.343787357816696115e-01 8.168293115621715339e-01 -2.363755936242336875e-01 -8.586567562230753570e-01 -1.549540641006336150e-01 -9.893269330177831833e-01 3.062396406887191169e-01 3.580205668468638969e-01 4.140573700474411978e-01 3.945846842280717470e-01 3.834709252464423845e-01 -5.360742027040457103e-01 8.865294636549938545e-01
9.137215018500087771e-01 4.857292750668061876e-01 1.100450966751261167e-01 1.679723689638903172e+00 7.376386568150587741e-02 -3.002958865013374279e-01 3.093061347893714674e-01 2.845960311926723496e-01 3.969293930928017855e-01 -2.099286232315925316e-01 3.174816684549773282e-01 -1.083478997629564594e-01 -5.980999414017389680e-03 -3.401581437483128800e-01 -1.169098409569369501e+00 -4.260229558197269062e-02 4.434731376371286449e-01 -9.171710539127749806e-01 1.196397117595614512e+00 -3.733938814421758345e-01 3.460510665046081513e-01 4.136931765960343843e-01 9.276086710498890886e-01 8.131661562701891777e-01 -6.544336547193400078e-01 -5.219246639751526917e-01 2.364117700275669975e-01 5.401437250102022469e-01 2.330600840046109790e-01 -3.608266035610284139e-01 -4.055476955453911625e-01 1.301577239225664706e-01 9.183629378692773626e-01 1.051338614123599191e+00 5.489846019995715531e-01 -1.267681829653129810e+00 -9.129294822685176669e-01 -1.774999281434039178e+00 -1.374468051912132727e-01 -8.760289196254413824e-01 5.370252560349285664e-01 7.494073177356080917e-01 1.554973026022822002e-01 -5.965784406441912990e-01 8.946495051361158524e-01 4.025021208204053458e-02 6.199366046080525550e-01 -1.467876603802944713e+00 -2.627367161609402424e-01 3.879691492838052702e-01 -3.720144155447469569e-01 -8.027653467831455947e-01 5.569705787639982475e-01 -4.101158398944741990e-01 -7.039458073219908574e-01 2.419436077644767924e-01 -3.335890395126782648e-01 -1.890204172303343866e-01 1.566125828575450074e-01 4.752600898637603932e-01 -1.292385484825374076e-01 1.034662307472104456e-02 -2.194032135212069801e-01 6.004118874717699894e-01 3.808158222090425871e-01 1.320377094648182759e+00 1.269426079835728638e+00 -5.016633186980243853e-01 5.891300766508941744e-02 3.300647471000710542e-01 -3.225772785360024320e-01 1.401428829440717116e+00 1.210288541129846074e+00 1.462847362617548663e+00 -2.254868048196524422e-01 1.198528079723665707e+00 5.816665313077963584e-02 1.168488464229203050e+00 -3.017517896339689809e-01 6.042740467801457904e-02 -2.610499213821277920e-01 6.946034853401188425e-01 6.439834237719354038e-01 -1.967161761403708464e-01 -3.199941955758677792e-01 -2.099467915693772890e-01 -1.303194459723261645e+00 4.825993919090840745e-01 -2.783146442217296346e-01 -7.900484911927913023e-01 -3.623709886098820387e-01 -1.122456529469537806e-01 -2.245463819561477337e-01 3.742473387876452673e-01 4.039098821366609027e-01 -8.304296455406873223e-01 -5.694170506429026002e-01 4.928364419853091538e-02 -5.701735934690240759e-01 -4.116523696616081196e-02 -4.254438845339411635e-02 4.845878676791423034e-01 -5.332903622096624163e-01 3.430467853930092015e-01 1.315290900543549801e+00 -1.435553727794441070e-01 3.241826521237522463e-01 -2.355228338743061700e-01 -1.108623560925984686e+00 4.619842878044668200e-01 1.465918872731505618e-01 2.694434895399743235e-01 9.064381913158408022e-01 -4.837628851491670434e-01 -1.430755685156959167e+00 -9.908914150624900108e-01 -3.013815815550366928e-01 2.619578056018523893e-01 5.403407516237173080e-01 2.577070678760414180e-01 4.976894783696761970e-01 -4.941417306024461012e-03 2.831832103774097331e-01 1.511523699596834858e+00 9.395779624863452861e-01 -1.035460388055362280e-01 -1.863554845497646106e-01 6.118556990231438508e-01 -6.662463949319845646e-01 6.606607314532436659e-01 -1.022752134419757430e+00 7.325408621601314785e-02 5.784913568824945340e-01 9.630987593939627223e-02 -1.112801419705185202e+00 -3.290493057647457253e-01 -2.888955715344021513e-01 1.443908645790647594e+00 -1.429225338722670269e-01 -7.596888585825053442e-01 -3.201904278941254400e-01 6.130424780197162304e-01 -1.903123028933710326e-01 -7.614644565521906383e-01 1.226258874881311467e+00 3.351963793560106541e-01 3.195782281899304245e-01 -8.983646106490823513e-01 -6.895173382111159377e-01 5.375842152315204459e-01 -2.279168442133436279e-01 -1.209887226687400341e+00 7.130453699746438501e-01 -2.087540649027095352e-01 1.146369524194785772e+00 -4.859951064465826698e-01 -1.058300385763837059e-01 -7.932871356764960025e-01 -7.994310739804603994e-02 4.794986998738808293e-01 6.881805776354362747e-01 1.055720240119461806e-01 2.906088857698321259e-01 -2.212157314502037619e-01 -5.171554291519186476e-03 6.442728890377000806e-01 -6.423646619390094292e-01 1.966249780713672068e+00 -4.740435145168078734e-01 6.552922823637749028e-01 -6.160237290532125654e-01 8.233894851218982458e-01 5.182304498813619098e-01 -7.061909342154130131e-01 1.469231657828511672e-01 -6.632014381137650849e-01 -2.781365487305933470e-01 7.473895883405611285e-01 -2.327180395786551947e-01 1.013864426181463552e+00 -5.009558397759565906e-01 8.976370534128978729e-02 6.459252016286891607e-01 -3.287065850001221756e-01 7.038723147575950412e-01 2.698748283422408578e-01 1.282398941633552614e+00 1.472369892786826451e-01 2.410447556962952431e-01 -6.034724041693396712e-01 3.587334309207502181e-01 -3.322314758998365369e-01 -7.262198058168554127e-01 -5.654668755755786619e-02 3.831918682617011518e-01 -4.983009266986220265e-01 9.721343069866181241e-02 8.504224559739144151e-01 -5.608342186406716223e-01 1.422812528179732694e-01 7.927800494612089466e-01 -3.617287805942231288e-02 -7.095088424595086263e-01 9.344497695756877331e-02 -8.464364338146198596e-01 -5.220597699294038385e-01 1.307616196946666254e-01 4.336467484203590517e-01 -4.058573651414134065e-01 1.015383997702193009e+00 1.080218892906909200e+00 -2.168095601064262135e-01 8.454938627843789911e-01 -2.157839494926478696e-01 -1.092007881185627305e+00 -4.852912695507536900e-01 1.384375115337663553e+00 5.439786609828126673e-01 -5.920920724055347417e-01 -1.847506201519759084e-01 -4.110988136987021174e-02 5.791845856188925223e-01 -4.390847172525784159e-01 -9.091497633850769144e-01 -9.004902198231539145e-01 7.025605697041580056e-02 -7.518192697948908876e-01 -3.733676097326080190e-01 6.936468000408563261e-02 -8.582359687729157471e-01 -3.943069681530088633e-01 8.599676221050592817e-01 -8.159487599248550493e-01 6.433608280596877504e-01 1.466675163401799598e+00 -4.529061801616615646e-01 6.480761088721667118e-01 1.959643403817744323e-01 2.461439149907284074e-01 -7.767246655352006979e-01 -1.158412066606761437e+00 -9.977193877076020456e-01 -1.119658011754206761e+00 4.877145951657227974e-01 -3.376592790015491841e-01 -1.296419407653954525e-01 3.267926942951487890e-01 8.180252328686051788e-01 1.343860175165655590e+00 5.973480474474649471e-01 -4.141394835444522360e-01 9.492058811380877925e-01 -5.866499437255757732e-01 -2.410444792654284629e-01 -4.927783689014690327e-01 1.361504270473202549e+00 -1.637495396942703296e+00 -5.663015677037297468e-01 -8.278084675624226563e-01 7.556373565060914288e-01 -7.661162802473747702e-01 3.920238166773387101e-01 3.653094295623899868e-01 -1.904886708522245176e+00 -9.628185321894416893e-01 -8.248533856786668395e-01 -1.120334283192042646e+00 3.633527711604586652e-01 -5.997968416102608114e-01 -6.129424419636858579e-01 -2.846502561053284031e-01 7.642933013979357204e-01 -7.990320926242332478e-01 -8.128076874051575196e-01 1.146906027052026156e+00 -2.033894820473546305e-01 3.149215843972811846e-01 1.063599009132300655e+00 1.571646228017674618e-01 8.167578766445515726e-01 2.704373567572129419e-02 -4.396143398396794022e-01 -8.708090256969630572e-02 8.218386440504561463e-01 -3.151734914885713779e-01 -4.649127758964545221e-01 -3.059554338874414525e-01 6.297191988503759996e-02 -1.078765898003327672e+00 -3.345402790306482022e-01 1.140523742525731299e+00 -1.392235237801982883e+00 -4.585633062621052858e-01 -6.834774062483155443e-01 -4.588606672989657409e-01 5.207870345313974081e-01 1.250979920857981709e+00 1.953809032534142287e-01 -1.258030440930764771e+00 -7.469796451893295774e-01 -3.334901447408324948e-01
-7.426524757537749100e-01 -6.671548389133541597e-03 4.047834272377969222e-01 3.496493067419902401e-01 -6.831067763765944489e-01 5.510752119657014170e-01 9.136672564379123562e-01 4.024988478508031986e-01 6.892303095166202320e-01 6.071568808313440035e-01 -6.318385281300890055e-01 4.935061521987733069e-01 -2.753646716915951198e-01 5.140390693762576513e-01 -4.467046494083048436e-01 5.976396382873889745e-01 -1.342635239183412432e+00 -1.235303703120171237e+00 9.351280893092842605e-01 3.820278135271375913e-02 -7.598715621381759711e-01 3.631818999095728362e-01 -1.108146322316707177e+00 -7.509161911025274971e-02 -6.250179108219940938e-01 1.370174232400920011e-01 -2.585311993697774202e-01 -4.240424841501601594e-01 2.157886255344482196e-01 2.138476995001821479e-01 -6.424121574303647275e-01 1.056956756365560413e+00 -1.909272649271031019e-01 -4.849697345498500678e-02 1.321991792924778197e-01 -2.328583489396697459e+00 -2.383274438364075265e-01 -3.089296975282389557e-01 -5.593625673144281274e-01 -6.654767044004018528e-01 5.692791275105987259e-01 -4.923324818493376442e-01 -5.802761459348746431e-01 -1.808082309623245884e-02 8.037437224385062251e-01 6.012640416354072537e-01 -7.106539786367741529e-01 6.205923832870795520e-01 -6.690224309932308877e-01 1.044255017858304081e-02 3.880614966103772268e-02 -8.939109402425902129e-01 1.166817712060997492e+00 -8.050761596625152783e-02 4.029199165251798886e-01 -1.509629929480163835e+00 1.889385435606783792e-01 -6.866794591719226348e-01 5.281068366546110004e-01 -8.271203484405282857e-01 -7.768693218563903213e-02 2.928907508925792658e-01 4.986574268035128821e-01 -6.134054102004828923e-01 -1.045781631550891211e+00 -6.993879924821048977e-02 3.184196665546500937e-01 -5.322455265381437900e-02 3.973845681605121527e-01 -3.813908352352926023e-01 -7.525246773279889445e-02 4.123798769744804749e-01 -2.828000751926187384e-01 -1.616437304242965611e+00 -5.531831122968096093e-01 2.044348473717909342e-02 -6.576947087779819734e-01 -8.918885525645545709e-01 -6.369128044068316230e-01 -1.210506230362472097e-01 -6.652100266003693751e-02 -3.501439617769400159e-03 -6.844493822542592198e-01 -4.024001350279204220e-02 -7.003399982739004770e-01 -7.289150484295322530e-01 -5.673176558140780035e-01 6.015089704636148449e-01 -4.233025325873968937e-03 -4.272466800354562388e-01 -6.708714747469048945e-01 6.017652826568096192e-01 1.191004011475710112e+00 2.141292081795036217e-01 -2.523665993484845438e-01 2.873547454170755966e+00 2.682470264616800271e-01 2.346687394694692286e-01 -3.255327446486983023e-01 -6.872657744470391794e-01 6.593080130939078520e-01 2.813853952499351663e-01 -7.028361649930134902e-01 1.702190574496822650e+00 6.213637073370477104e-01 -5.451196585642252845e-01 -1.704250954377331539e-01 2.844400545369795363e+00 -7.521177013001142386e-01 5.029849200490398298e-01 -1.008167594992694482e+00 -3.285304002326841499e-01 -9.579799772786560252e-01 1.121234823895374655e+00 -8.510336311233286377e-01 5.872842359186524197e-01 -8.102128898690033956e-03 -2.218491468533068944e-01 2.143939909687262446e+00 -1.767288497195308450e-01 -7.746571242857465400e-02 -6.115737663679117198e-01 -6.398450992267199489e-01 3.698358635970593333e-01 6.791054815991400817e-01 -2.377745588654487374e-01 1.866394058130996125e+00 -1.153632217642228674e+00 -8.018526786372885962e-01 1.888799700792370695e-01 -7.811942457094528391e-01 -1.042600535711146303e+00 -2.342370965839578323e-01 5.311520020288529320e-01 -4.336664710085876284e-01 4.581407792879587659e-01 -3.499660180428770251e-01 -2.529642176885059879e+00 8.628915466690241232e-01 9.473748164185833431e-01 5.998409663817197979e-01 -1.011594564351187442e+00 9.388260004606718834e-01 -6.596346806316770728e-01 7.848181984762194752e-01 5.105065810686092442e-01 4.676790704367701779e-02 -7.173763572758092844e-01 -7.375472601806177808e-01 -1.012687063349888117e+00 -1.067018958598902750e-01 -3.786627969317735154e-01 4.815745083492763146e-02 -4.720520884341329326e-01 3.822892872802395869e-01 9.411642223244946759e-02 1.588414608280056983e+00 -2.713264672937070188e-01 9.051998763078159538e-01 -6.814121772605639948e-02 1.639903344927652051e-01 4.489812740454666995e-02 5.495063639778692277e-01 -5.364283366922255603e-01 -2.597154356308196688e-01 -1.839822579079009729e-02 3.399337741601991536e-01 -2.141739320672659819e+00 6.949319422410025204e-01 5.526899478211617645e-01 -4.516948811822795173e-01 -4.326544390243278748e-01 -2.770459697358765849e-01 3.364517922658833426e-01 3.040553273245712174e-02 1.454867278552424703e-01 6.521178228179476122e-01 -3.740069584723312857e-01 1.021413989752177010e+00 -9.927309476137856636e-01 4.989964412097672164e-01 4.749519721755033341e-01 5.453368107954513766e-01 -5.531110051488478119e-01 -5.631066974901520750e-01 -7.217380745813930520e-01 -4.920282053363213559e-01 1.275495730602076994e-01 2.874451404372873053e-01 -5.309708800795533978e-01 -8.146764202313987457e-01 -3.143379816708726238e-01 1.421345468249475899e-02 2.659732916762891808e+00 8.229059683172716688e-02 3.278875823304667203e-01 2.314998132253233143e-01 -1.227297872273311885e+00 3.895952476919182228e-01 -8.491119846232998425e-01 1.351041394094401271e+00 -6.127877272292967525e-01 -8.741439395626073861e-01 -5.487456625985861342e-02 -6.246558680007102682e-01 -1.486198452273754245e-01 2.124209277771644533e-01 1.205671043274579857e+00 -1.008687328434259900e+00 4.145994227741514604e-01 7.464340561981994693e-01 -1.869908789933180104e-01 -3.747685012440012953e-01 1.403981326720269984e-01 -1.317711054166925966e-01 -3.429140038034931948e+00 2.588533854245106750e-02 -4.701792571357802375e-01 -3.119621861510098459e-01 4.251519313601175853e-01 8.725063986403838179e-01 -1.062733792629620533e+00 -7.998090172677070342e-01 1.056937541959046545e+00 -8.593174368883363945e-01 -9.707606417052712100e-01 2.526682619474674318e+00 3.474787009977786667e-01 -3.906452695435717049e-01 7.524459003047385686e-01 6.458117127992492046e-01 -1.184217380018650845e+00 -1.407742756189134914e+00 -5.025473315631090454e-01 -6.592877112049557731e-01 1.056895579972243926e+00 -1.396506104479841304e-01 6.369158998865726007e-01 -5.963523878830543357e-01 -1.226302119381256772e-01 -5.900190469970448826e-01 5.124437147571122425e-02 -1.800519735656058848e-03 2.920670500939908099e-01 -9.470382891257331792e-01 -2.555828598900005688e-01 -1.537473396574886131e+00 -1.198748977943743910e+00 -6.295911027568305007e-01 -3.799794979519566240e-01 5.419214767216715689e-01 -4.168061391044399211e-01 -2.350023528398977046e-01 1.823697065191144939e-01 -3.594660829898261856e-01 2.865356214715579219e-01 -2.427992133544278897e-01 -1.427121004268537829e-01 -1.459637908495604597e+00 -2.199252305194966950e-01 -4.845776679516311525e-01 -3.363700607333197090e-01 -1.005925769638231770e+00 8.295346294927811170e-01 -9.027491366272889506e-01 6.217354783673257890e-01 -2.223857395353345257e-01 -4.874771014889255349e-01 1.042297919352193070e-01 -2.756681713609594020e+00 2.785814331278277378e-01 3.080095756859874134e-01 -3.219325303824787099e-01 5.605939301820688225e-01 -7.585456526717198056e-01 1.309172963371531273e-01 5.039003144208278329e-01 1.348457961504013314e+00 -1.028025098604980148e+00 2.522443631427251920e-01 1.065362396856961574e-01 -3.654361971962509781e-01 -8.885718093005878782e-01 5.060177503911901242e-01 7.355019156480531173e-01 -5.832595198693596439e-02 2.624495141630643902e-01 -5.299171339863415486e-01 -8.526836152094103838e-01 -4.158355415516645781e-01 -7.406572256722296910e-01 5.736014731517045107e-01 -9.610704899801648660e-01 5.008717879194920508e-01 3.697822608208679029e-01 1.950864619263950259e-02 6.194560735904187654e-01 1.002994169842574140e-01 -1.070428835161899711e-01 -5.612908079612477508e-02 -1.252156240170190449e+00
-9.842689858245410317e-01 9.146505336744865655e-01 4.177637339168617236e-01 -1.009892483103479233e+00 -6.127066877714263532e-02 1.389144929633772951e-01 3.830250925512866389e-01 1.961123348976603065e-01 1.237840639217182126e+00 -6.479714930012785423e-01 6.155422077044032658e-01 -4.916196844126353716e-01 -8.024903307711537259e-01 -5.433602260795090677e-01 -2.032064340334421570e-01 -5.106270948092284101e-01 1.265499103783417789e+00 -1.392673989813853375e+00 1.495407727384373553e-01 3.730872630664107681e-01 -1.064872907506769106e+00 -2.655587488838733745e-01 4.354112696071769095e-01 6.374139195601146168e-01 -5.657575903395076766e-01 3.241719739320160776e-01 -4.124640947722042761e-02 -8.955596678289496904e-01 -1.636547592356727698e-01 -3.576959314500992027e-01 -4.945001847957553043e-01 2.602638790179969894e-02 -1.092652592825626545e+00 3.348477211493468553e-01 -1.302376011272600442e-01 2.008160197097325739e+00 -9.794262180196264822e-01 -6.993722566322839729e-01 -4.940678195025638986e-01 -3.730599075129226172e-01 -6.019717632554957287e-01 2.686444991566351859e-01 -2.203722938579026625e-01 -4.960015473140196307e-01 -1.141581314321203244e+00 -2.339840099084037617e-01 5.774481078171641441e-02 -1.143393616128894619e-01 -1.163737506126887727e-01 8.279810587334928140e-01 1.158227868650930081e-01 2.135100557634947438e-01 -2.288095544560340977e-01 -4.340059049825613635e-01 9.186117527474761957e-01 7.138671810089269876e-01 5.887759726120254111e-01 1.500361510536114551e-01 -1.354770187200895482e-01 -8.407139372861106574e-01 9.504148388382869239e-01 -3.262951513475582654e-01 5.271510897574417376e-01 -7.304114121041302421e-02 4.006143053367923201e-01 -8.331211031392964372e-01 -3.669979491056954979e-01 -5.742352779419328535e-01 -2.275042840812547262e-01 8.463515192466698478e-01 -1.334283499108209980e+00 -4.317951841881162989e-01 -3.717048735798285375e-02 2.213436671078929108e-01 1.884419275781945222e-02 -1.740933789810803212e-01 -1.305736577729363912e-01 -1.677609581095950708e-01 2.432758139961649635e-01 -7.700223311110229174e-01 -8.680080538100205523e-01 1.229671527294594391e+00 -1.807468820805270826e-01 6.205309137593373325e-01 5.957033019133028094e-03 -8.777844388025078937e-01 -7.171202953265227720e-01 -3.261586728722200568e-01 3.856372099646951379e-01 -6.837084049528621872e-03 -8.333753381144655137e-01 4.447229098869328046e-01 -3.969672611000883977e-01 1.528647158039486975e-01 -1.418775438052074733e+00 2.876404795812237958e-01 -6.347903737016212800e-01 1.340824904687887564e-01 -1.046635809004625717e+00 5.350731821807711563e-01 3.686785349880756235e-01 -1.995006286666540229e-01 7.012904056670777875e-01 1.573000980564639883e+00 -4.242668959940005813e-01 5.376366660622615701e-01 -3.218835760190211226e-02 -4.389699849156719069e-01 -1.357392508916324125e+00 -6.302329393865320484e-02 -8.195482647860469205e-01 -1.157935439091715368e+00 2.767487090305442154e-01 7.355838934850674748e-01 -4.778797541484346989e-01 -2.409621948155251658e-01 -1.499739412779498571e-01 -7.600602671133269150e-02 -2.559558934908570560e+00 6.795215155550672348e-01 -8.212470353391874145e-01 -2.909174054262999576e-01 -2.400449724143188801e-01 2.588326500474830150e-01 -9.768623309271947663e-01 -2.534966741058743422e-01 2.030798480063000788e-01 3.998938099380216493e-01 3.263600745751986665e-01 1.021819694139687457e-01 2.842707490633646361e-01 1.500645512719927188e+00 1.017021303659783271e+00 -2.681067158440583742e-01 -1.429912237577074752e+00 -5.152339664776973971e-02 -1.197296199099953773e+00 -3.531118532399208365e-01 -8.578093303654966972e-02 -6.295680228987733384e-01 6.808499064938420275e-01 -1.037853910631383603e-01 -9.210696937624537339e-01 -8.335295894609917600e-01 -1.848964434835412007e-01 1.386339290644085454e+00 -3.875898811380523168e-01 -2.272483583964378662e-01 4.872833159681149162e-01 -1.430786502469166610e+00 2.659093892786659752e-01 -9.283184857604616091e-01 3.416983032444552149e-01 1.406597816220133135e+00 2.567203236273994937e-01 -6.831085657911294406e-01 3.098333129991488466e-01 -3.148504662771475782e-01 -1.531996390691844068e-01 -9.329128616154739317e-01 2.863409794237316008e-01 -3.142719741771020092e-01 -1.945010389109756099e+00 2.128838220240740486e-01 -1.168735425148063278e+00 -2.739414671640684196e-01 -6.890779058188847284e-01 1.572488448349012469e+00 -2.127520258005638487e-01 1.543783852986517768e-01 8.842947086829369141e-01 -1.705338900708198047e+00 6.331360736543772960e-02 3.750250017074698294e-01 1.790348720122058798e-02 -5.501258391211442111e-01 -5.597477735409782662e-01 -7.575611890828378714e-01 -5.441752459312864110e-01 3.670570695222262758e-01 -8.486986231950358062e-02 -2.272348099119338105e+00 -4.205702955624259221e-01 2.463274083260720282e-01 -2.745650366189740788e-01 2.433970554258681196e-01 -9.288239987864710390e-01 -1.541869810311600197e-01 -9.986434800824024460e-01 -4.584692246475015609e-01 5.822259506427142073e-01 4.456930437050027338e-01 1.006057241518455214e+00 -4.304703337433744559e-01 -3.711051463047416177e-01 -3.444070912253466843e-01 -9.341178544798689476e-01 -1.051080151688357889e+00 4.896234838961690400e-02 3.132073867190122707e-01 -3.304260299078513596e-01 3.348956450315981881e-01 3.263653228232866188e-01 5.835393541714658516e-01 -2.440327869080822776e-01 -3.750053666473225356e-01 5.870317853044623169e-01 -1.796884053613223342e+00 8.310402246696008133e-01 2.356572664607776701e-01 8.055684091200664143e-02 -5.081397929468209895e-01 2.718675276371164129e-01 5.159276000108069943e-02 -7.393220359154616117e-02 7.007414146479590267e-01 2.177596403305769535e+00 1.539173230944737902e+00 -1.256156496827074642e+00 5.342096177161475001e-01 5.908179874093106854e-01 6.816576949782364725e-01 -1.089015578656898020e+00 1.283947631518616017e+00 -6.010079147521495135e-02 -5.571575101680025233e-01 -3.986070481072844646e-02 -2.279280753891192030e-02 -2.854789531721575457e-01 -9.343861897173929565e-01 -2.581519317839282568e-01 3.734774580383876108e-01 8.119253820577256864e-01 -1.195781505474210915e+00 -5.370466598765520905e-01 1.604104622222734533e-01 -4.836093346388420366e-01 -5.701376697742372747e-03 -4.933210720029507779e-01 1.210565775093021212e+00 -8.635644684494726553e-01 -1.426032546198373385e+00 3.520069317539341602e-01 8.883779064647877310e-02 2.784457777137289147e-01 -4.238217446282814826e-01 2.923734394805572179e-01 1.081728520730634635e+00 -1.718321106424061662e-02 -4.424343179510099866e-02 3.841236181042841369e-01 3.261091494764505327e-01 6.802040930341405334e-01 -1.348215235521526001e+00 -2.086145418631903808e-02 -1.226527394303546847e+00 7.967204613369958111e-01 1.889076276086326112e-01 6.712530547467061570e-01 4.886240892445181117e-01 -2.165031179181645449e+00 -3.201498031605363170e-01 1.329713117830038538e+00 -1.666738207694186125e-01 -4.644455410018336061e-01 1.894664132290812264e-01 8.799872609974647153e-01 1.200090821804267321e-01 3.816122057672183265e-02 1.701151293981704615e+00 -1.034942249258931746e+00 2.459115938329701698e-02 -6.400473211227063475e-01 -4.496884589455498737e-01 -2.420523585257986221e-01 -1.059528667386184564e+00 -2.367463071888723306e-02 6.063515997237108740e-02 -1.106627365233905147e+00 -7.430066634493515121e-01 1.203288634950028108e-01 1.473150604589524182e+00 5.223223699691112998e-01 -9.051840881057539034e-01 4.871570638591816160e-01 5.667521023125789981e-01 7.047708575184902235e-01 5.833631106781416165e-01 1.695865603930995613e+00 -3.939088042389886357e-02 -1.660331926403863234e-01 2.211087495863213459e-01 3.287801337799930446e-01 3.598772840055369571e+00 -3.243787915058991556e-01 -2.464681669864351166e-01 -5.111031989925282071e-01 -8.192577801325473530e-01 4.442376742104370280e-02 -5.563104308252579955e-01 4.110271350719273409e-01
-7.825970407595840284e-01 -8.363559938845543940e-01 6.748997295678582642e-01 5.669847184581738864e-01 -8.910759061837784101e-01 -7.990065503366601263e-01 4.737255065979902036e-02 3.353000944031114816e-01 -8.202968003915652728e-01 5.350326719010126686e-01 -1.634629278386436624e-01 9.267724035141331473e-01 -6.206659330354740156e-01 -5.677858151646161255e-01 -5.638365982250943542e-01 2.104713139159045676e-01 2.248616402453011975e-01 1.774414732212603873e-01 -4.654208522248129420e-01 2.940536515825521446e-01 6.744892888819227217e-01 -8.693991135431393402e-02 -7.087226772751128445e-01 1.285288796687585222e+00 6.296047896536572930e-01 -7.294624837105386783e-01 5.723019354720328827e-02 9.161374060525755425e-01 1.067236916362104049e+00 4.961602938300917476e-01 1.575487000687694483e-01 2.589733247753789880e-01 1.883261848777292510e-02 2.613256690085856149e-01 5.105755046220534776e-01 -5.788851768276265242e-02 -1.244836247285519282e-01 7.558386079426591964e-02 -4.944934253844293082e-01 -4.240859540550856455e-01 6.497735222513396636e-01 1.166812838639887107e-01 1.507559419712308224e-01 2.567654536323055528e-02 3.959113148239525315e-01 -8.096374593362831718e-01 9.738964136679481021e-01 -3.595829546320717385e-01 1.098346663444208782e-01 3.711572158743722261e-01 -8.695469230451179365e-01 5.661233220342100081e-01 1.127755238258646431e+00 3.033562791622431143e-01 1.680996170201345397e-01 1.245256370342254088e-01 4.221542814026109369e-02 1.094375626144332481e+00 -1.013728076035359082e+00 9.153599193329840789e-02 -1.339086601828587408e+00 6.735003753206503241e-01 6.460053691521357999e-01 -1.443997951817706626e+00 3.770145961403194579e-01 -6.183127878706873304e-01 3.979965872941507166e-01 7.195115714139090901e-01 -7.576123903127981452e-01 -5.306009489660530321e-01 -3.523495933044702433e-01 -4.223751159594779092e-01 -6.694880814591480656e-01 -1.224611633071787387e-01 4.302467562589354921e-01 -4.635056494134991434e-01 -9.452789795006104612e-01 -4.658324270828028690e-01 -7.744207880721722947e-01 -1.110088945241325675e-01 -6.842248192442060839e-01 -2.414977666436297910e-01 1.878293396316368380e-01 4.450311544384535356e-01 1.120500789496097660e+00 -1.588770412832689327e-01 -5.084663384898178151e-01 9.816459824983474192e-02 -7.871379235606434932e-01 -1.694875675803229204e-02 5.985506090702531479e-01 -1.304576935900952639e-01 -7.159494076315912059e-01 9.227047567526255323e-01 -3.781037618032272452e-01 2.161456309366474038e+00 -9.005758084393541418e-01 5.315603659057489550e-01 -8.013436380728573838e-02 4.102306160116366285e-01 9.230864489697321318e-01 -6.350973586978413132e-02 1.090818886240195879e-01 -2.370502167861129605e-01 1.928083614014631728e-02 -5.560988178657981507e-02 5.924415949219226374e-02 1.902851320345350761e+00 3.143108116148467523e-01 6.895663907289386607e-01 -8.395709563854831803e-01 2.801653293102894238e-01 -4.442464902623344813e-01 -9.625383978494654880e-01 -7.683610255871091699e-01 4.495472437590999903e-01 -6.585045135420009021e-02 -8.517436755012032235e-01 6.900719395428085434e-01 -8.791096870552154163e-01 -3.638120860500170667e-02 1.145799823041543930e-01 7.721387233338617984e-01 -3.307940497199101659e-01 1.171676649058385061e-01 -3.272481634502252823e-01 9.186599253939405907e-01 3.806602160466507345e-01 -6.192438773440520627e-01 -3.182161185090346400e-01 -7.607408857431056104e-01 -6.411949665499144801e-01 4.654292094496027821e-02 -2.126023501690215423e-01 1.845911428061494386e-01 -3.758698774131167264e-01 -2.743447244997259116e-01 -7.637625054525581936e-01 -3.428865084553197606e-01 9.815989757772171087e-01 3.869011416597099018e-01 -7.141716550507792860e-01 5.385448669703808422e-01 -8.536911095032068131e-02 3.484496168625468293e-01 2.626983875984988948e-01 -9.691693596250130494e-01 -5.504491390602501699e-01 -1.421445099627295372e-01 6.335661860600865225e-01 -7.135043581503486276e-01 -3.440336794988951286e-01 3.395862684269954079e-01 -3.751666433350684532e-02 -2.769271253760848817e-01 5.416084639912851495e-01 -1.638099383867387682e-02 -8.540687021789129529e-01 -1.101442745753528074e+00 3.596194135395847785e-02 4.580808125630743133e-01 2.735810315940050419e-01 7.183335905135745936e-01 -6.149478157270045209e-01 -5.698647589898089283e-01 -7.141403596640861773e-01 -3.373190568405743939e-01 -7.921783747322621583e-01 -1.077833306890753073e+00 6.142204386968220797e-01 3.500923072841087835e-01 1.552353438726206125e-01 -7.138364410722185527e-01 7.070661984018179469e-01 1.023192525622464322e+00 -6.576612950692795057e-01 -5.689937132953949428e-01 1.833683283144037779e-01 2.294054029654667426e-01 -1.705488923422913139e-01 -4.550066630819259439e-01 -4.315836356890430103e-01 5.485409734285445760e-01 2.829648570409702413e-01 7.350614767536184369e-01 1.905401650275094505e-01 1.068269521365743935e-01 -4.479365976152303586e-01 -9.826314554647564981e-01 2.892486854741515567e-01 3.481021562709301631e-01 -6.505701077638212926e-01 -1.726170919997221109e-01 6.722146559556298456e-04 -3.833937983753047951e-01 8.858751316688139033e-02 -1.273207184071846187e+00 -9.295198457466535835e-01 1.437114001394269869e-02 1.933148657635538892e-01 2.362771723862337470e-01 -5.510827323869436911e-02 -1.483954970673602602e+00 -5.246786140172122748e-01 1.036447181614769120e+00 5.222135527794315862e-02 3.562152032889232423e-03 -1.700257051004943065e-01 2.749467714566593557e-01 -3.766726304438861583e-01 -3.307356532063671639e-01 7.315574749075660632e-01 1.059337184931460202e-01 1.895423823773622479e-02 -2.596175541817418164e-01 -8.295154749271372863e-01 -5.548953577257966785e-01 5.049758306968833432e-01 8.495942754608479253e-03 -5.288799768131307033e-01 -2.479476785350614720e-01 -1.306294275465925026e+00 -6.725261959252094579e-01 4.896395760638558997e-02 -4.687465847400112962e-01 -8.006285154695315098e-01 1.484668919527876607e+00 4.847389688628814253e-01 -7.061261527033920737e-01 6.748045951041919954e-01 1.007233685903768494e+00 -1.096068415393350454e-01 -5.658548134084302045e-02 -6.421769347068452261e-01 -1.010548454151106168e-01 9.772121424558205538e-01 3.761421166960006723e-01 -1.810396932147736527e-03 -8.965660154405858950e-01 -9.844105465898367324e-01 -1.803249601824759296e-01 -1.574274381865286843e-01 -3.555156914978919724e-01 -7.950977838680732823e-01 2.357315160055528658e-01 -4.498335378217161451e-01 -6.427633816500258890e-01 -4.323741041370335325e-01 -8.546706625791502532e-01 -3.795501590706194528e-01 -1.713086316579523205e-01 -5.058451366666559812e-01 2.561965950685274329e-01 -6.423643444918144541e-01 -2.884645412069152259e-01 -5.039816846657899641e-01 -7.698354059012396666e-01 1.679086081897804839e+00 6.548740586643592154e-01 2.448001719958239897e-02 -1.250197406948639310e-02 2.202255360525481320e-01 -7.181419878442245608e-01 -1.473585498895333856e+00 -1.009157942454006918e+00 1.262105453555916634e+00 -5.234309733208942772e-01 -2.161983514150931096e-01 2.186396803350681428e-01 2.501296162779529375e-01 -6.113281522466477158e-01 4.122901865059877546e-01 4.010907186844762662e-01 -2.619955552158855228e-01 -2.130826041289105355e+00 1.101192036188434198e+00 3.617667222706902885e-01 -2.417429004485396882e-02 -1.054268211577759073e+00 -4.273296987056902085e-01 2.100324853512370027e-01 7.432294458427760597e-01 -1.842503474000355690e-01 4.827087821772113596e-01 4.977062084071667281e-01 -5.550142254167439448e-01 -1.313002467533171402e-01 4.051948610443410481e-01 -6.591805460808622952e-01 -7.942519400814973540e-01 -5.565656108776094735e-01 3.605195145838004100e-02 -4.698040391474464506e-01 7.125582053288080919e-01 -6.341423117845472746e-01 3.645196886735859593e-02 2.581247207133028909e-01 -4.612484179323223521e-01 1.641127204884434976e-01 7.836370324243248087e-01 -7.000867528890397651e-01
-8.346494755935651710e-01 6.447952986603900927e-01 8.113735551311494765e-02 1.012649310825058269e+00 -5.240448224094205187e-01 -1.124248238620221274e+00 -1.115846225676912162e+00 4.980806525954067920e-01 -2.992814060829710257e-02 -5.657755850396352093e-01 -8.106556589150325509e-01 -3.027301930997420842e-01 9.718158189087031801e-03 -7.690838909193170592e-01 -2.948103134828993221e-01 -1.068959654603349740e+00 -1.553720740517360088e+00 -4.786712366441217004e-01 4.636307041205823265e-01 4.715137231148381902e-01 5.358086254362450784e-01 1.089317480205697075e+00 1.037539566728384433e+00 4.149982319950771825e-01 6.092906593852279729e-01 -4.361165976892097951e-01 3.956341022439864852e-01 4.130671579385374881e-01 -8.169763653891130017e-01 1.349756307335387318e+00 -2.094313696431724658e-01 1.837457200957841041e-01 -1.094369877414081760e+00 -5.596237565336928954e-01 6.649888229167579823e-01 -8.195112670643004416e-01 8.259482861424399802e-01 -4.894629855262658813e-01 -3.131150246201275800e-01 -4.477577852780806889e-01 -1.029759378342673282e+00 5.078844343571740083e-01 -2.760962292656913772e-02 -3.900069960105000400e-01 5.928031691643044221e-01 5.307560343812576242e-01 2.258265461913869510e-01 1.340128321285878055e-01 3.641992029442670531e-01 -1.797687781973646703e-01 1.048160783572234411e+00 -9.182953324088048708e-02 -1.209520832141974811e+00 6.971314905519844229e-01 3.664899948562295728e-01 1.689676283327016693e+00 -2.051370045493703387e-01 -6.702294963001810546e-02 -2.194881499424130855e-01 -1.422377826051183514e-01 -7.067141943335522036e-01 -1.721997202178991021e-02 -7.774555296670780935e-01 -4.093835597669650550e-01 -7.989369773699930288e-01 6.138787242578405134e-01 1.713539401648651039e-01 -4.220098323328107526e-01 -4.546803877775622560e-01 1.146663615690249438e+00 8.864230885997297082e-02 2.632591160332782843e-01 2.569112840144917587e-01 -2.088242830091640578e-01 9.833549297831843949e-01 -6.931385763730455452e-01 -9.109044502136911525e-01 -8.138545533082508499e-01 3.536565736125594217e-01 3.999043935681173556e-01 -4.864699629120571300e-01 3.422857206268600794e-01 6.897579295459707605e-02 1.220813087853500067e-01 -1.207347818465380307e+00 -1.319951709830129993e-01 7.422530421915521925e-01 -3.912161596294960186e-01 -2.987366857364430195e-01 -5.070247999497946578e-01 -4.709464861079029618e-01 2.597094466200685625e-01 5.361178526687118722e-05 1.921317468487786062e+00 6.160896461857130468e-01 1.178678879931113865e+00 -4.591187323952509725e-01 9.474859293038326649e-03 -4.642852872627372673e-01 2.069235980509126493e-01 2.794619198366861679e-01 -1.165352464329850735e+00 1.994162798648189960e-01 4.071943418574532347e-01 -1.551175323977086185e-01 3.574989999021111475e-01 -1.018682711577769462e+00 -8.383897550868245618e-01 8.698422365955552626e-01 -7.130335252243622524e-01 1.021599054041742338e+00 2.199650827777025197e-01 2.911946906334051399e-01 -5.970733960782192984e-01 4.697003830934294855e-01 -1.335435860756541748e+00 -6.910293591294504045e-01 -3.676503766953954644e-01 1.202631026484361765e-01 9.461947978425204742e-01 -2.301689650996462944e-01 -8.933552178202894822e-01 5.519071473326780247e-02 -5.504404217007290434e-01 6.580845661780293510e-01 1.262371140395279978e+00 7.586309518931654283e-01 -2.534430321631773730e-01 -5.791928518983083807e-01 6.101023017009601923e-02 -8.956793375487822617e-01 3.963847205625174036e-02 -2.221742408060394525e-01 -2.741628136835334018e-01 2.978923956018735275e-01 -1.127578802931841206e-01 -4.299018695116060274e-01 -1.819570879057791635e-01 -1.220715297552818379e+00 -8.651114767175163145e-01 -4.341218939367189056e-01 -1.518072307014615430e-01 1.028169607306146094e-01 -4.086398656535029233e-02 -1.229475715573683653e-01 3.367591489273939753e-02 -4.480528547403168083e-01 -3.977685694382385173e-01 2.276138732600339332e-01 -9.671292598483192948e-02 4.134953541962212431e-01 1.341975476345115825e-01 -3.027556400849563678e-01 3.121987823451004562e-01 1.101540073988794166e+00 2.809439748504602430e-01 6.346821850660848696e-01 -3.945679892481783746e-01 2.895825616608605491e-01 -3.005018640980640018e-02 8.888796086216639303e-01 6.607368894759084454e-02 9.665246421658243992e-02 6.093819135800996323e-01 4.586251391518556542e-01 -1.541808774663883282e-02 5.963412731981284631e-01 -8.460135354147110265e-01 6.225812639896280976e-01 -2.070548352907917167e-01 6.904514752451204052e-01 2.656877310837990058e-01 -1.197457012878979932e-01 5.205694200571797658e-01 -4.573445087456551317e-01 3.820994466500378661e-01 4.211430168806154506e-01 -7.380514584975053083e-01 -1.342952761531875039e+00 1.340947946587916773e-01 6.223200744177825872e-01 -6.471216298617810114e-01 2.055190479679378790e-01 -4.680391850724260894e-02 -3.479832633775574446e-02 -1.925980653407676435e+00 1.860496567657087041e+00 -4.094465424634400885e-01 -7.567940679623180733e-02 2.640455661620858541e-01 5.331082220193952281e-01 6.469727185525768753e-01 -7.684480320566976497e-01 6.561807506089508690e-01 1.574708627653234327e-01 -1.232430405457485695e-01 3.275119955531012317e-01 1.799129239922157564e-01 1.618115053272409787e-01 5.031192719167590921e-01 7.340696552080626658e-01 2.157530261895374279e-01 -5.312964697311747114e-02 2.352786223506266594e-01 -1.380181355129325382e+00 1.827134010294054201e-01 1.496254428998012864e-01 3.827445789935555731e-01 -1.213922379667523144e+00 -4.977649319093970237e-01 6.915527932713606551e-01 2.758394566891906319e-01 -2.862198908026565847e-01 -2.045962202158391474e-01 6.747416043295287880e-01 -4.458269074414454858e-01 1.843307469904131024e-01 4.599707697120947736e-01 -1.075622934210271220e+00 -5.918100334011890951e-01 8.295062377540604048e-01 1.678212176715082604e+00 8.836241433778337789e-03 2.628840751866044489e-01 -3.557099072666375372e-01 3.466103589871671331e-01 -5.016944706476542670e-01 -4.660931914545042298e-01 6.488138684808294476e-01 -5.826799250733029067e-01 2.606542980182777192e-01 4.511544123033962572e-01 6.664843240748256903e-02 -2.951089781689302805e-01 -4.145818884320172093e-01 -1.201197883705666714e+00 -2.350570813550526272e-01 7.895945676213581010e-02 8.282556596189594167e-01 6.399255525216337448e-01 -2.452808129111439250e-01 -4.325487975640835425e-01 5.771303165900304455e-01 -4.094027402118752268e-02 -1.322144131430611491e-01 -2.939344380488180253e-01 2.187707728291658160e+00 5.903513322634809102e-01 2.153645250018775548e-01 -4.421358382920792529e-01 -3.803026938240663402e-01 -9.361531849134155370e-02 -4.159776522211975913e-01 2.291222017549004175e-01 1.206206482233980887e-01 -2.941718484778567122e-01 9.038718198341113563e-01 -1.247968118893705958e+00 9.941355994955789477e-01 5.788710805772508960e-01 1.639178745447407437e-01 -2.411464667942871815e-02 -1.096866144788055525e-01 -1.181615453344733169e-01 3.232455655997754085e-01 -1.680118156186097278e-01 2.851173093780251522e-01 -3.664596615032928578e-02 -7.853358018903819904e-01 -5.714126675317551252e-01 4.095627857951472661e-01 -3.638606591891380138e-01 3.624607449512131652e-01 6.910961519512254236e-01 2.362413847683154433e+00 -2.331693691880909747e-01 -1.377076044220928719e-01 1.130055132534627527e+00 2.160464802563568376e-01 1.345990690014891911e+00 2.156729191187078398e-01 -8.275249389727452609e-01 1.540052518753000310e+00 5.213139246026611273e-01 -8.737551078633877533e-02 9.908176728486135509e-01 1.355017851466287504e-01 -5.454015288302346276e-01 -1.615698405274202110e-01 -4.369763281684727607e-01 1.610708308123637744e+00 3.888342845945229609e-01 6.510057102228000714e-01 -7.835462830332728945e-02 6.789123834013586212e-01 -2.646736180468670097e-01 -8.460535516767515585e-01 9.515951595995245094e-02 7.906819997257248378e-01 -4.628317183044992622e-01 -3.071653884346327579e-01
