4.383143300050962310e-02 3.988127340293281531e-01 -4.602620578540994600e-01 3.489637493779846888e-01 8.161441666266298078e-01 3.703004083188146112e-01 -5.766933120138451052e-01 -3.654678517476390720e-01 -4.654011900740904206e-01 -7.589873626129881590e-01 9.937137926031591739e-01 -8.391206212564119582e-01 -4.308005006200723574e-01 7.050039837896693307e-02 6.916042155143971026e-01 -5.997517278508601724e-01 6.240871022605645191e-01 -2.541264180343139056e-01 6.192824820111693107e-01 -9.760094744471912165e-01 3.361388251538341976e-01 -4.189516076790609223e-01 -3.545603893073872026e-01 -1.645801701449969290e-01 -2.720800644371323962e-02
8.382180635983635941e-01 2.843911998477108849e-01 5.074244594583534607e-01 -7.213708637945299706e-01 -8.253609040207998682e-01 5.760041160729836296e-01 -3.476981259310223393e-01 8.213564295193531706e-02 -5.195296482639879532e-01 9.084585115180976445e-02 -1.988909926402215866e-01 4.303837745595138209e-01 6.733598821623896225e-01 1.769622850933658675e-01 -4.076908719332807962e-01 -4.379646186920715945e-01 4.111944893148584690e-01 -1.548071396204957484e-01 -8.853680295055876837e-01 4.940546134142431711e-01 -9.537397388140633758e-02 -6.484505239373512531e-01 -9.012460013710259510e-01 -4.150493226100904209e-01 -8.664017378170774109e-01
-4.812570601031131989e-01 -9.132778976761994905e-01 1.640606842532086329e-01 -7.749756643777572229e-01 2.215535649943007890e-01 -4.072240834085458783e-01 6.145043868223787342e-01 -8.103245301675605639e-01 4.002007475911386614e-01 8.657920461345101071e-01 6.844177981972463520e-01 5.999179688171623059e-01 9.456465881341147295e-01 7.217284684865088451e-02 1.446561011472824454e-02 9.096617145749974487e-01 5.513935519267940677e-01 1.811117329401390474e-01 -6.622439146349952122e-01 -6.332191177411019556e-01 -9.364935968750662809e-01 -5.407532987160892368e-01 5.982275299102757238e-02 3.838311259816440391e-01 -4.200656720543920475e-01
-5.627098997055879348e-01 -9.371945609948388878e-01 -4.257494453205932228e-01 -6.547106888895870558e-01 -3.932472382431793090e-01 -6.740995549858233016e-01 3.986275064555331316e-01 5.430216633363864620e-01 2.910489525653381371e-02 -5.283862237648737636e-01 -5.399207468024516121e-01 1.143033272411697610e-02 -7.316300740253016688e-01 1.229245259699269788e-01 -3.599959378992023673e-02 3.593375112912873259e-01 4.774145838606502767e-01 -6.697186886574919562e-01 -7.986125854699190896e-01 8.551751472228583673e-01 -5.594569380533072067e-01 -7.995838569999322853e-01 5.861125843659806822e-01 -7.851471466327935023e-01 -8.851818871557459723e-02
-6.394606222464616074e-01 -9.610495170247508323e-01 -7.356294700331078573e-02 4.498678583842956602e-01 -1.595927908245451388e-01 -2.914580366443519921e-02 -9.744383708187827065e-01 -2.525678536025677268e-02 8.836133046867322705e-01 7.015901787535574474e-01 4.599289404416371241e-01 -7.825278562620501255e-01 7.878083405701623576e-01 7.143084941456592230e-01 -6.698267648095457272e-01 2.646680276469921544e-01 -9.590327744175346503e-01 -7.665254624399675532e-01 -3.672653767749192166e-01 -6.841753866501261161e-01 5.179591763210107391e-01 6.365507157282870310e-01 -3.107510180815651335e-01 -3.624024062751327602e-01 -7.766775360106792370e-01
-8.049327965010968366e-01 5.224994333497126053e-01 -5.061240536673459189e-01 -7.237366250473609153e-01 -3.371068734581370574e-01 -8.340008699862142549e-01 3.439541625609332520e-01 6.131875963233150983e-01 9.654838290884280028e-01 2.713214695937051779e-01 -5.681534879056393539e-01 9.805486416855924148e-02 9.111991601845215172e-02 -5.318478537059967426e-01 -7.725483139858411175e-01 -6.814659020906166376e-04 -6.957831551564239714e-01 6.537216111453925116e-02 -2.259864631069019580e-01 3.766547668443287478e-01 -2.541456871832141751e-01 8.923200899267851316e-01 5.547158362134139153e-01 2.160686061349088583e-01 2.304640731721379066e-01
5.554048211476403374e-01 -5.249175599301754147e-01 6.485570653227370475e-01 9.314983960859994916e-01 9.452022278097866881e-01 -9.310150516537563092e-02 2.180849255225558725e-01 5.510530292096933458e-01 2.832266895181383415e-01 4.440364590338943263e-01 -9.299269517971253673e-01 -4.031010582216412175e-01 -8.829750162358505072e-01 7.141218851743977858e-01 -2.542919442503850380e-01 3.596959031561939302e-01 -4.874401013467397625e-01 -3.048375696950160751e-01 -9.811744598380611748e-01 -2.833324345900605223e-01 8.981883633564207159e-01 -5.642019817366221712e-01 -3.612172672392708339e-01 8.355447720011748292e-01 -9.361926671202105421e-01
2.407476291065120400e-01 1.790613729081402816e-02 -4.035103164825426525e-01 3.075974247851915866e-01 -4.529869312954668548e-01 4.625215670006843638e-02 -2.535005158014465021e-01 -2.614428128535268847e-01 4.693872028190080314e-01 2.972777512905986352e-01 8.515934683576427133e-01 -5.457037129901978201e-01 -1.888944925858750956e-01 7.673614808015318811e-01 -5.821977688896173841e-01 -5.724254746850776510e-01 -4.331192972446289424e-01 -9.374232197028220526e-02 -3.248572262983662196e-01 -9.765254703944146186e-01 -2.061062542860829794e-01 3.782846203057150802e-01 6.704066117691962479e-01 -3.684230288015142296e-01 4.383782212919771215e-01
-9.792516922286000902e-01 3.749184297477503591e-03 -8.453413731707826173e-03 -7.323409420814468440e-01 -7.157778290909229124e-01 -5.628826487478435503e-01 -1.629836389790950690e-01 -5.037976631728817711e-01 -8.318806976692998401e-01 -3.090027198991998070e-01 -6.664473069353571422e-01 7.571181710653180907e-01 9.019280632534329989e-01 -9.225032483353603485e-01 3.982147827975219823e-01 1.455196311388184949e-01 7.960142364502991175e-01 3.337979458392732468e-01 9.567556609296312686e-02 4.048548481361105011e-01 -2.270456607706692331e-01 3.888773555289164463e-01 6.497409290010962568e-01 -6.866304926546829002e-02 8.810488190533121156e-01
-2.697888339546121728e-01 -9.758816821332416680e-02 -7.879302464421034102e-03 -8.487558668097261450e-01 1.435231646554417928e-01 -4.207319884520828168e-01 -3.823910824231504524e-01 -2.502476669895588035e-01 6.317133488620287896e-01 9.376693874146260210e-01 5.777624383289401422e-01 -2.386363456936513305e-01 -6.745675673243685111e-01 9.477535346059462462e-02 5.598813578518764267e-01 -3.999125865328554408e-01 3.056725762002199254e-01 -4.070019401867324138e-01 -9.347414711861281589e-01 8.975104874926269627e-01 -6.945158461292704200e-01 -4.422264107841586966e-01 1.490156988525364046e-01 1.077717392044361677e-01 -8.410804690810385065e-01
-5.423930248861976722e-01 -6.186239627516341155e-01 7.727193419647973016e-01 4.378517911788128991e-01 6.596676686828439884e-02 7.389242000082287820e-01 4.484753527986953259e-01 -3.582601772167093301e-02 5.121543935774597323e-01 9.494799890936838072e-01 1.673420143400328186e-02 9.169827052911545540e-01 -1.147327795609620615e-02 3.433466734414847288e-02 -3.118753787998045368e-01 9.395004641619502106e-01 -4.878230583353593275e-01 -1.934495594942127195e-01 6.589812472617060379e-01 -2.290257066782390716e-01 -5.365821895540814346e-01 6.394321137115244191e-02 -3.724675083073922810e-01 -8.995414090522895201e-01 -3.938949154054687263e-01
4.383143300050962310e-02 3.988127340293281531e-01 -4.602620578540994600e-01 3.489637493779846888e-01 8.161441666266298078e-01 3.703004083188146112e-01 -5.766933120138451052e-01 -3.654678517476390720e-01 -4.654011900740904206e-01 -7.589873626129881590e-01 9.937137926031591739e-01 -8.391206212564119582e-01 -4.308005006200723574e-01 7.050039837896693307e-02 6.916042155143971026e-01 -5.997517278508601724e-01 6.240871022605645191e-01 -2.541264180343139056e-01 6.192824820111693107e-01 -9.760094744471912165e-01 3.361388251538341976e-01 -4.189516076790609223e-01 -3.545603893073872026e-01 -1.645801701449969290e-01 -2.720800644371323962e-02
2.951020987060468670e-01 1.429937642616030402e-02 5.668276030447882974e-02 7.925704080197757406e-01 3.999823813349758783e-01 4.285942037422698636e-01 4.346767641828015449e-01 -5.543610756342778334e-01 -6.496909533519539259e-01 -8.631702332383794918e-02 8.574768630771245626e-01 -9.802282259191030800e-01 -8.201556106320928574e-01 7.004005357098530560e-01 -2.875788220986996713e-02 7.536711838975505007e-01 -3.853321222696584059e-01 -2.240689076771642529e-01 1.628914858818961697e-01 -7.726256389683698877e-01 5.357603695983810255e-01 -3.748679203939864202e-01 2.920209195045699868e-01 -9.346021660079182336e-01 -6.672088461365992540e-01
-5.955954131395173601e-01 5.690952082211218066e-01 7.210744784740623636e-01 -3.458295978371306312e-01 -5.022790478303331696e-01 6.207274324929548115e-01 4.268695785145255606e-01 3.226568267564484671e-01 4.209825140591332282e-01 -7.741982496597652474e-01 7.399440069121450136e-01 -4.714436526809873129e-02 -8.394582381251616265e-01 -7.024590761544990958e-01 -3.519514925750222289e-01 -9.864852303571631786e-01 4.337601454811819135e-01 -8.698465570011360004e-01 -1.523085239917281175e-01 6.097591811745743939e-01 -9.410077540443528843e-01 5.153661713289703350e-02 5.746720321429632516e-01 6.237517214376668839e-01 -3.170851513522685572e-01
-5.706262219663467139e-01 8.190047426833271249e-01 6.344707463269136927e-01 8.077609494702147064e-01 4.137585399488559190e-01 -7.638475973182310419e-01 -8.151983698486915397e-01 1.239479966253589360e-01 1.428239303723517484e-01 -9.220860708507123693e-01 -3.469050686124490745e-01 -4.183636320017742882e-01 2.112635470897417100e-02 -3.923063677247042857e-01 -3.925120303236764308e-01 -7.136556764343653381e-01 -9.273399429607271927e-01 -2.015293240131490471e-01 4.936840653651455302e-01 7.099354955228409647e-01 3.093609206518130872e-01 9.325800879113124164e-01 2.873106548396844317e-01 4.885343430836717182e-01 6.640051612009054693e-01
3.459576769317851408e-02 8.939252076296282379e-01 5.309195187938138272e-01 -4.352083120657745940e-01 -5.579092734766948336e-01 3.724441704749337223e-01 -6.657215937998874900e-01 -2.151150670699386591e-01 2.361046945056184398e-01 -1.761398102825080247e-01 -9.950702375982276582e-01 7.680643647442095823e-01 7.698950767529471051e-01 -3.991806212670381271e-01 1.791637304294291244e-01 9.568538320296617883e-01 6.901876442526222455e-01 -8.698491218856130303e-01 -4.105110705652688097e-01 -4.241311180655071844e-01 6.449326782068660613e-01 2.523660759204922055e-01 -7.790445721726524386e-01 -9.989423776614478889e-01 8.843324657109992160e-01
9.340596780273533462e-01 9.446449835144465901e-02 9.453687199297686750e-01 4.296319873487293162e-01 3.954576491945416272e-01 -5.678210088392472432e-01 9.525489095524835026e-01 -9.875394895908202741e-01 -4.940352752331120811e-01 -1.304169351911084185e-01 5.587658435875049179e-01 -6.046298507994938287e-01 7.259864711984445051e-01 9.668013543506255303e-01 -6.723155171906025629e-01 1.946678878657184253e-01 -9.820278046648900361e-01 -2.268574347127412238e-01 -9.116798841370008510e-01 9.133059354284718268e-01 -1.277067062404046993e-01 8.979546135631255588e-01 5.726119718701219163e-01 7.325785971633969051e-01 -6.536691570081036851e-01
-6.938916024677062033e-01 -6.846286779811854295e-01 9.709822283663052112e-01 8.089954616105874408e-01 -6.278434746659180554e-01 -4.645809711736765824e-01 -3.318976850232417952e-01 2.891837418650491376e-01 -4.971855184841873498e-01 2.704127747758984235e-01 1.595955576826586508e-01 2.376224456859079570e-01 -2.644557480463440857e-01 -4.836654153051087590e-01 -6.112996199371067974e-01 1.050407931001062778e-01 6.512616033360514312e-01 6.900405748716975651e-03 3.751197536791879283e-01 5.190978196190503269e-01 2.846079786117883259e-01 -2.299913788010696791e-01 -8.397922062840950108e-01 6.149796833843352850e-01 6.229480290778952600e-01
-5.029797451245401341e-01 -1.000491578984090690e-01 -1.781183940069184235e-01 -4.794006182262002813e-01 7.407913766938989397e-01 -6.299201456761900353e-01 -9.606771491399119789e-01 9.065040630074241434e-01 3.609016094620784987e-01 -2.682374689894428954e-02 9.300536397319081328e-01 -2.132025217567332653e-01 -8.408848574262115516e-01 -2.971851511724075134e-01 -6.727296747898094953e-01 9.663336420677952621e-01 7.612563684304827216e-01 -1.187306377687313841e-02 -1.980815177630430579e-01 -9.741707398247356764e-02 4.417536970077924341e-01 -5.044634311265874249e-01 2.455599048083019209e-01 -7.151023682691424188e-01 -5.976474350561704618e-01
-5.534178416929222966e-01 4.632668280135221472e-02 1.014029131623621627e-01 -9.087960997343873526e-01 -2.785423293044546611e-01 -5.538381166174224379e-01 3.774523236427129724e-01 -6.725371499982015777e-01 -8.593502663889993620e-01 8.820217204916720455e-01 1.273627604696505600e-01 -8.440153212200258714e-01 4.452810222496796921e-01 -6.830956529536671429e-01 -4.994373865119532407e-01 -4.130254877956049953e-01 3.932214284171897667e-01 -7.147182391969653104e-02 -5.698757125713209692e-01 -1.063474758406848242e-01 -7.582424969220862288e-01 8.353740154894500058e-01 1.328926574383910708e-01 -5.596136851614552654e-02 -3.708671507055769645e-01
-5.830789252823147528e-01 -3.663787647326821606e-02 -1.589239293712505496e-01 7.183639970426882737e-01 -6.576768927766534212e-01 -3.222720787925992258e-01 -4.589343334043376466e-01 3.820827008991922735e-01 -5.591909667245487103e-01 6.239018410773733425e-01 -9.789462513677831268e-01 1.224073933259994806e-01 6.274523748303928450e-01 4.902005921176713077e-01 -6.217772894788760052e-01 -9.877182673078035435e-01 5.440877428890724676e-01 9.156643361865504094e-01 4.038757681886222528e-01 -4.048434662698989772e-01 5.359854839111819480e-01 3.764366497852282833e-01 -2.256330392379555239e-01 2.304116501861124267e-01 -1.448895203113187424e-01
8.382180635983635941e-01 2.843911998477108849e-01 5.074244594583534607e-01 -7.213708637945299706e-01 -8.253609040207998682e-01 5.760041160729836296e-01 -3.476981259310223393e-01 8.213564295193531706e-02 -5.195296482639879532e-01 9.084585115180976445e-02 -1.988909926402215866e-01 4.303837745595138209e-01 6.733598821623896225e-01 1.769622850933658675e-01 -4.076908719332807962e-01 -4.379646186920715945e-01 4.111944893148584690e-01 -1.548071396204957484e-01 -8.853680295055876837e-01 4.940546134142431711e-01 -9.537397388140633758e-02 -6.484505239373512531e-01 -9.012460013710259510e-01 -4.150493226100904209e-01 -8.664017378170774109e-01
5.676647016115012878e-01 2.696674121054603024e-01 -5.019138169685022355e-01 5.161517292996353756e-01 -3.738461287366403596e-01 8.744747149767950756e-01 -9.142691032954721742e-01 -1.182655931403910898e-01 8.254445798703953230e-01 -8.999216214644234491e-02 1.586868140758324053e-02 -8.301840904105997065e-01 -1.473004178689245602e-01 4.914339193877441669e-01 7.341627912215804574e-01 -3.526683461986588330e-01 -7.918512053734234613e-01 6.042160937068941085e-01 -2.103361016397644612e-01 2.555361764683794501e-01 -9.280229128005985650e-01 -4.001842999569291681e-01 -9.046935607919335265e-01 -2.555778443877496642e-01 -4.751696071436057878e-01
-3.982533399067624824e-01 -6.261083673162439744e-01 -3.536346460635610978e-01 3.314991405766181121e-01 1.339416019384267464e-01 -2.034920822024706144e-01 -2.411701689508067847e-01 -9.788369282427140661e-01 -6.592687980125757630e-01 -7.532132586397919383e-01 3.848025528081719937e-01 7.488831211453825798e-01 -3.252061907227532522e-01 9.849184513591351386e-01 -7.369198584325638013e-01 6.596731145840362132e-04 -4.267589868765457872e-01 -5.588302903908954899e-01 4.171093275918691390e-03 2.721250794583527366e-01 2.713538781181212833e-01 -8.391338227143207984e-01 1.628675034729027971e-01 6.783817188383094443e-01 -4.139634958247320196e-01
-5.029797451245401341e-01 -1.000491578984090690e-01 -1.781183940069184235e-01 -4.794006182262002813e-01 7.407913766938989397e-01 -6.299201456761900353e-01 -9.606771491399119789e-01 9.065040630074241434e-01 3.609016094620784987e-01 -2.682374689894428954e-02 9.300536397319081328e-01 -2.132025217567332653e-01 -8.408848574262115516e-01 -2.971851511724075134e-01 -6.727296747898094953e-01 9.663336420677952621e-01 7.612563684304827216e-01 -1.187306377687313841e-02 -1.980815177630430579e-01 -9.741707398247356764e-02 4.417536970077924341e-01 -5.044634311265874249e-01 2.455599048083019209e-01 -7.151023682691424188e-01 -5.976474350561704618e-01
6.976353945371573939e-01 -6.422081501580030327e-01 -8.912735713871371424e-01 -2.769231078235541155e-01 -4.491981427871760690e-01 6.000044979085061847e-02 -3.881621685281679834e-01 -3.910512816917137702e-01 -7.765174476488105881e-01 -5.002019722397710311e-01 8.352597956731249162e-01 -4.717062934932527707e-01 4.355473749471121536e-01 7.314300683803081071e-01 6.141589644907514689e-01 -5.788988346823440434e-01 -6.655139370871090421e-01 -9.065872166358566187e-01 -9.211553764850037851e-01 -5.995383804490541646e-01 9.970868054543440273e-01 -2.544260433442235847e-01 5.210205478578993077e-01 -5.305111463367762070e-02 1.943061163530934721e-02
-9.036375449995246445e-01 3.619260277354356958e-01 5.973921358076035304e-01 6.002171833157650127e-01 9.305945003125208892e-01 -1.119603515614213674e-01 6.624697531216963142e-01 -5.068647302455744352e-01 -8.994442437801519752e-01 -2.513643450182612149e-02 3.004755072568661145e-01 8.419575810079642508e-01 4.774680536468076664e-01 -5.051558542804808205e-01 3.606633579674456413e-02 3.281677202461366072e-01 -4.144033722537154851e-01 7.470055205403527410e-01 7.661371030833485918e-01 1.195560128263661870e-01 -5.516165089066562555e-01 8.668017903934517321e-01 -2.203167393095819548e-01 -6.986417463769600822e-01 -3.563462067988827364e-01
8.889932057146137101e-01 -7.180365139118483064e-02 -6.144099420856847793e-01 1.637897537599839470e-01 2.401684203472542745e-01 3.684480349263481447e-01 -7.931248899600038538e-01 4.909515325688669218e-01 -4.360418598515281019e-01 5.068491742885663509e-01 5.854112591414319944e-01 2.548011925587194693e-01 -1.130223124431970483e-01 9.269307048149313388e-01 7.941331074391042577e-01 -6.063914238429517489e-01 1.919022663751792646e-01 1.467538909620265120e-01 4.098987083566241196e-01 8.585240368016517909e-01 -8.975403422247605345e-01 -7.303760221714643563e-01 -7.659429877670917985e-01 -2.705504785988177563e-01 6.068216765566059046e-01
4.570143831914512678e-01 2.032284247404265720e-01 9.043613348120274065e-01 -7.136531045579390664e-01 6.147182597403295645e-01 -2.735708069579421142e-01 -6.268863754213682693e-01 -4.816975234241056558e-01 2.595246852238985991e-01 -9.348781569221413790e-01 8.944641463545208726e-01 8.086364872364126821e-01 1.002603112436646349e-01 -6.059834247185056366e-01 -5.359343370065474677e-01 -9.952680499115773571e-01 -5.478889100510286880e-01 -2.493135248898128431e-01 -9.451258931732064994e-02 -5.078416198514943414e-01 -7.974684068420256899e-02 -5.791860431144542076e-01 3.417777604052567586e-01 -9.646160019063931834e-02 1.853695913286814712e-01
3.459576769317851408e-02 8.939252076296282379e-01 5.309195187938138272e-01 -4.352083120657745940e-01 -5.579092734766948336e-01 3.724441704749337223e-01 -6.657215937998874900e-01 -2.151150670699386591e-01 2.361046945056184398e-01 -1.761398102825080247e-01 -9.950702375982276582e-01 7.680643647442095823e-01 7.698950767529471051e-01 -3.991806212670381271e-01 1.791637304294291244e-01 9.568538320296617883e-01 6.901876442526222455e-01 -8.698491218856130303e-01 -4.105110705652688097e-01 -4.241311180655071844e-01 6.449326782068660613e-01 2.523660759204922055e-01 -7.790445721726524386e-01 -9.989423776614478889e-01 8.843324657109992160e-01
1.378804402384912198e-01 -8.680715448211151486e-01 7.762213398005142206e-01 8.593163543481379119e-01 3.593840827522598591e-01 8.855163284966782733e-02 -6.243013156839929412e-01 2.365269243700283130e-01 -2.517444632292353823e-01 8.671643365438459483e-01 2.962824048561349954e-01 3.435823547580953985e-01 8.631471356486621893e-01 3.399761708363990831e-01 -5.357509772547095483e-01 -4.883312979088731964e-01 -5.500163526392827240e-01 -8.385986892423058503e-01 -6.319995154933681913e-01 4.498987365181279507e-01 9.978612715947381417e-01 -7.136597695220405768e-01 -5.585570010105622707e-01 -4.430940963002987232e-01 4.941155190144264076e-01
2.882870721366699307e-01 -2.385030207297669236e-01 3.260958106713371940e-01 -6.726985477944933400e-01 9.252156273486373816e-01 -3.066763192404686755e-01 9.835019845872152722e-01 -5.298842087887087882e-01 1.713885370433154698e-01 -1.866197967495986099e-01 -7.275313559619061010e-01 8.827257527635956613e-02 3.635269365169091493e-02 5.337102125970107913e-01 8.677002866371594791e-01 -8.205932344281450241e-01 -6.084574864599499033e-01 9.883873685947230925e-01 -5.296390047660222145e-01 -5.220272561146979129e-01 2.581996616544040002e-01 4.699051532862790204e-01 3.766887661344076044e-01 -9.377385031647456071e-01 8.050276864970700164e-01
-9.036375449995246445e-01 3.619260277354356958e-01 5.973921358076035304e-01 6.002171833157650127e-01 9.305945003125208892e-01 -1.119603515614213674e-01 6.624697531216963142e-01 -5.068647302455744352e-01 -8.994442437801519752e-01 -2.513643450182612149e-02 3.004755072568661145e-01 8.419575810079642508e-01 4.774680536468076664e-01 -5.051558542804808205e-01 3.606633579674456413e-02 3.281677202461366072e-01 -4.144033722537154851e-01 7.470055205403527410e-01 7.661371030833485918e-01 1.195560128263661870e-01 -5.516165089066562555e-01 8.668017903934517321e-01 -2.203167393095819548e-01 -6.986417463769600822e-01 -3.563462067988827364e-01
1.015958051491510084e-01 4.162956452362096549e-01 -4.181905221741113454e-01 2.165521039532602998e-02 7.858939086953093955e-01 7.925861778668761293e-01 -7.488293790723274945e-01 -5.855142437236264819e-01 -8.970655933983402441e-01 -1.183803126987270637e-01 -9.402475782428660889e-01 -8.633355121057784132e-02 2.982880952295214882e-01 -4.430254347040494256e-01 3.525098039602625466e-01 1.817256348327016546e-01 -9.520362352456692712e-01 1.177081759817639739e-01 -4.814951061850691882e-01 -1.697976059798607107e-01 -4.329498364573625135e-01 3.862758366259926301e-01 -1.190925646585210274e-01 -6.862645230500734606e-01 8.929803606368946767e-02
-2.418029491324598101e-01 1.341963343592280644e-01 1.911850253142437506e-01 -1.002822022890947906e-01 -8.596034921056272537e-02 -3.766980042492089620e-01 -3.733252776048592292e-01 -4.102810779968391053e-01 6.154492247125276094e-02 -2.075559568011622336e-01 4.375007443699188148e-01 9.618399389978105063e-02 1.641501654142820676e-01 -6.646981244179037684e-01 -9.414456048052091131e-01 -5.825161641719791561e-01 -9.548491268446428482e-01 2.693488843733735649e-01 -5.511165216005213807e-01 -2.033802593978160100e-01 2.390015968240684074e-01 -9.961030051310715283e-01 -9.286600624752714417e-01 -2.464208949611372823e-01 -5.671111318532469081e-01
-6.914248437374483913e-01 -7.326008785998681105e-01 -2.746290676462248559e-01 3.582177508912629538e-01 -6.110998853322646696e-01 -4.975792330260129237e-01 5.168327830712131643e-01 1.152371791247055466e-01 2.960583578867215238e-02 -6.440027535779990764e-02 -8.256479927820836728e-01 6.581908845554906851e-01 -4.027188819759299765e-01 -9.373082211370356021e-01 3.560115132660239823e-01 8.069780659364100828e-01 2.890236996811612613e-02 7.821094863813460307e-02 3.286550326818133971e-01 2.681135105349425896e-01 -2.931610637153285737e-01 -9.467149743165632625e-01 -6.694203209052804748e-01 7.586379827700906464e-01 -8.643590882916889484e-01
6.976353945371573939e-01 -6.422081501580030327e-01 -8.912735713871371424e-01 -2.769231078235541155e-01 -4.491981427871760690e-01 6.000044979085061847e-02 -3.881621685281679834e-01 -3.910512816917137702e-01 -7.765174476488105881e-01 -5.002019722397710311e-01 8.352597956731249162e-01 -4.717062934932527707e-01 4.355473749471121536e-01 7.314300683803081071e-01 6.141589644907514689e-01 -5.788988346823440434e-01 -6.655139370871090421e-01 -9.065872166358566187e-01 -9.211553764850037851e-01 -5.995383804490541646e-01 9.970868054543440273e-01 -2.544260433442235847e-01 5.210205478578993077e-01 -5.305111463367762070e-02 1.943061163530934721e-02
7.717609988752514028e-01 5.771631336074491969e-01 -1.505437370497848537e-01 -4.226070630562128727e-02 -9.992918805369004343e-01 7.127340921477054447e-01 -2.933566133267047071e-01 -2.650190858848389119e-02 -1.174537874359933287e-01 8.771610898650732402e-01 4.353577710118492483e-01 6.806983287923076276e-01 -4.169632237310925138e-01 6.704708447903517943e-01 -1.051258556680920719e-01 -4.214394903801499392e-01 -1.932378958890512699e-01 5.985776402279541220e-01 7.116729399187071703e-01 4.321146830687714324e-01 5.668994652409571344e-01 7.402645825776990041e-01 -6.580766890841882599e-01 -1.192225691629760220e-01 5.468004270919435417e-01
9.170285986995718730e-02 7.177132211827179642e-01 3.717851731331582865e-01 -3.368163579731315860e-01 -8.800041408787642183e-01 -2.274444379145821316e-01 -5.737002826312886938e-01 8.650133001627202667e-01 4.456365977117242583e-01 -9.062093866632408012e-01 6.426216987689956639e-01 1.837389985817234894e-01 -4.958569832215209416e-01 -3.698466192203788694e-01 -6.243239554817048287e-01 -2.993601859058816483e-01 -4.855143762115377015e-01 -9.777717693534961896e-01 -1.808229802631056149e-01 -1.754910969480647509e-01 -9.136224582071359457e-01 9.100175868574447158e-01 -2.046454304530089807e-01 5.931677928753265050e-02 -5.343741746769672396e-01
-2.304537609665124887e-01 7.194156931812381028e-01 8.883992716148401136e-01 4.056497872214588352e-01 2.672681943428136808e-01 2.119225639811961326e-01 -5.997463142801910951e-01 -2.252242246665976388e-01 -4.820336724971368003e-01 -8.507854371604641752e-01 -4.380860506444184121e-01 -1.231316977079004449e-01 -3.350191282107362056e-02 7.369789725747895037e-01 5.925876800856921811e-02 1.245262884695117478e-01 -5.788931200961844326e-02 3.776840139936437080e-01 9.657210752758382810e-03 6.463515095314251724e-01 9.207343079731720170e-01 7.162884774302527013e-01 -3.816471511036712005e-01 9.944212495809812147e-02 3.093567632705247483e-01
-5.955954131395173601e-01 5.690952082211218066e-01 7.210744784740623636e-01 -3.458295978371306312e-01 -5.022790478303331696e-01 6.207274324929548115e-01 4.268695785145255606e-01 3.226568267564484671e-01 4.209825140591332282e-01 -7.741982496597652474e-01 7.399440069121450136e-01 -4.714436526809873129e-02 -8.394582381251616265e-01 -7.024590761544990958e-01 -3.519514925750222289e-01 -9.864852303571631786e-01 4.337601454811819135e-01 -8.698465570011360004e-01 -1.523085239917281175e-01 6.097591811745743939e-01 -9.410077540443528843e-01 5.153661713289703350e-02 5.746720321429632516e-01 6.237517214376668839e-01 -3.170851513522685572e-01
1.762616021545484468e-01 7.954274558188358935e-01 7.830614589494160338e-01 6.316749546153679340e-01 -9.282208287662934154e-01 3.835151635177678209e-01 -2.426381159891837225e-01 3.702189089616125806e-02 3.159029311176260180e-01 -6.122995642341033662e-01 -4.553671958668321640e-01 4.372118672023315167e-01 5.660072189180209712e-01 7.006552795499907393e-01 5.504897879887253875e-01 -9.266713871578284856e-01 -7.666125297342096800e-01 5.025613989754018629e-01 -5.215635676007810417e-01 -4.903879721157065052e-01 7.152510623395249567e-01 8.995580522286055203e-01 1.233737160223158380e-01 -6.424389603000468796e-01 5.405038662768004709e-01
9.762700785464950570e-02 4.303787327448389544e-01 2.055267521432877498e-01 8.976636599379372861e-02 -1.526904013221905831e-01 2.917882261333122340e-01 -1.248255774746149793e-01 7.835460015641595444e-01 9.273255210020585615e-01 -2.331169623484445896e-01 5.834500761653291789e-01 5.778983950580895979e-02 1.360891221878646196e-01 8.511932765853220673e-01 -8.579278836042261158e-01 -8.257414005969185844e-01 -9.595632051193485612e-01 6.652396910958759957e-01 5.563135018997009684e-01 7.400242964936383228e-01 9.572366844655280094e-01 5.983171284334471984e-01 -7.704127549413630760e-02 5.610583525729109233e-01 -7.634511482621335610e-01
-4.075016766551329273e-01 6.181354313466533856e-01 -2.994949495531771255e-01 5.788185128617850950e-01 1.226979515411450450e-01 -4.928220915597336660e-01 -7.900458326297818967e-01 -8.830785416062405524e-01 3.465847615396884240e-01 3.956593140034201372e-01 4.655664119033078308e-01 5.757481169954208333e-01 -8.472473592128144659e-01 -3.646388067600714322e-01 4.820465543672536324e-01 -3.430115416499039949e-01 -5.970903015991146923e-02 -6.378285645306314144e-01 -3.529911963817986553e-01 -9.018768806602350807e-02 5.926103096350532340e-02 -4.139389026950304196e-01 -4.460497042396383005e-01 3.563061439498993455e-01 -5.330825987886960160e-01
6.933248144202677210e-01 1.223310805300683590e-01 -9.024919518849428002e-02 -2.956501726160765120e-01 1.717027682696745661e-01 7.149948854615151284e-02 6.549125535586921565e-01 -4.709156025559311232e-01 -4.324187732256845607e-02 -3.044299543085562387e-01 -7.310433553820525621e-01 -4.800452993138817348e-01 -9.047306476614285220e-01 -2.114133905418444925e-01 -2.567676158235769890e-01 1.134658465710856046e-01 7.949891087353160302e-01 -6.653082259872320492e-01 -1.855871603403469461e-01 3.047066775575020259e-01 1.354981603162623838e-01 1.330377120300783034e-01 4.871019920929531288e-02 2.151600485622857661e-01 -7.435442519535717665e-01
7.402482732544237720e-01 1.645538573451195141e-01 -4.423221185978618575e-01 -6.281775358196415304e-01 -1.777997441497736197e-01 -7.652489057305689180e-01 3.699374887482700380e-01 -1.247778806806991714e-01 1.124586503439404250e-01 -2.658393567613521746e-01 -1.952685423715943003e-01 -7.739185986112073756e-01 -1.059383074650213086e-01 1.708902330220714028e-01 -6.760297923101235007e-01 4.143757610536713543e-02 -3.478977477243490046e-01 3.983724758888820272e-01 -2.672109021674327067e-01 6.727490165321103888e-01 -3.731411350496527390e-02 3.300459598372196268e-02 -2.339037436612618759e-01 9.950817917551615377e-01 2.848897650355786126e-02
-2.697888339546121728e-01 -9.758816821332416680e-02 -7.879302464421034102e-03 -8.487558668097261450e-01 1.435231646554417928e-01 -4.207319884520828168e-01 -3.823910824231504524e-01 -2.502476669895588035e-01 6.317133488620287896e-01 9.376693874146260210e-01 5.777624383289401422e-01 -2.386363456936513305e-01 -6.745675673243685111e-01 9.477535346059462462e-02 5.598813578518764267e-01 -3.999125865328554408e-01 3.056725762002199254e-01 -4.070019401867324138e-01 -9.347414711861281589e-01 8.975104874926269627e-01 -6.945158461292704200e-01 -4.422264107841586966e-01 1.490156988525364046e-01 1.077717392044361677e-01 -8.410804690810385065e-01
-6.394606222464616074e-01 -9.610495170247508323e-01 -7.356294700331078573e-02 4.498678583842956602e-01 -1.595927908245451388e-01 -2.914580366443519921e-02 -9.744383708187827065e-01 -2.525678536025677268e-02 8.836133046867322705e-01 7.015901787535574474e-01 4.599289404416371241e-01 -7.825278562620501255e-01 7.878083405701623576e-01 7.143084941456592230e-01 -6.698267648095457272e-01 2.646680276469921544e-01 -9.590327744175346503e-01 -7.665254624399675532e-01 -3.672653767749192166e-01 -6.841753866501261161e-01 5.179591763210107391e-01 6.365507157282870310e-01 -3.107510180815651335e-01 -3.624024062751327602e-01 -7.766775360106792370e-01
-3.783404004872894522e-01 6.379744414376999906e-01 -3.304947508569497927e-01 -6.125729626529146099e-01 -7.793733498947992278e-01 9.246201748924416375e-01 7.300945034762706953e-01 7.048239478184459283e-01 -8.409779357958815371e-01 5.214777761239866027e-01 7.203865502893653794e-01 -6.692975453587002299e-01 3.126117178655478668e-01 -2.610885641450757522e-01 6.348774381595632121e-01 8.375011633851527915e-01 -6.735595802253917519e-01 6.642470068798602689e-01 -1.143243828208295731e-01 9.753158226321827495e-01 4.784478978275079619e-01 1.251580524480593315e-01 5.596050055944596924e-01 -1.154707666774723585e-02 8.044959116850454173e-01
-1.280101957159924808e-01 -9.481475363442173343e-01 9.932495575741828731e-02 -1.293552147634462468e-01 -1.592643958250219427e-01 -3.393303579922517521e-01 -5.907027319243149943e-01 2.385419327013273971e-01 -4.006906526509537159e-01 -4.663454497942667309e-01 2.422676655385898048e-01 5.828418855407813126e-02 -7.308401093101328794e-01 2.715624253149284684e-02 -6.311202687061694405e-01 5.706702956333469245e-01 7.079505852789775844e-01 -1.152632523614438576e-02 6.931229707149360042e-01 -8.407090459818780115e-01 1.049218024340792255e-02 -8.694269912262437838e-01 -1.437553448052211191e-01 -8.069381686787748809e-01 -7.456800565974450734e-01
