-7.715497710393715014e-01 8.006907971363259879e-02 -6.686650240992721983e-01 -7.068169717874109859e-01 5.172192700068061200e-01 6.788444345849431460e-01 3.936364355596023712e-01 1.934426056324949350e+00 -8.977418263025299661e-01 -1.924429110379293206e-01 8.482373974894542590e-01 -2.345650845681003904e+00 -1.177264029256300942e-01 8.714044282030829480e-01 -7.590062539496795768e-01 8.023133540965609045e-01 1.337303597302150093e+00 1.535093349300215293e-01 -2.190417811341625332e-01 -7.545777954358597883e-01 -3.314816228847342061e-01 8.836716902962936659e-01 -6.296035590100526047e-01 1.056956658423632733e+00 -9.839330405389820969e-03 4.427636990878716650e-01 -6.042604938185394126e-01 -9.034644382497311055e-01 4.696047351634223266e-01 -4.180408347190375795e-01 -9.494221938503336622e-01 4.578880506593912547e-01 -1.326351610918307666e-01 -8.429840344592172130e-01 -6.235850569781590247e-01 -1.018006700961056277e+00 5.865958281475164293e-01 -6.661861512119165996e-01 -3.744432056292680278e-01 5.737024736327769325e-01 1.129279604402721460e-01 -2.789672051951930243e-01 6.134252304811922407e-01 2.482297894778573155e-01 1.268535201352658792e-01 8.931899660071637159e-01 6.367392023132074641e-01 -1.797447083275189039e-01 -3.416296218991144995e-01 4.544185400293709320e-01 4.092328626886680421e-01 -1.255943842128676158e+00 -1.602728892908150959e-01 -1.422922209155434159e-01 1.682020012685317423e-01 1.149459342117462146e+00 -4.365970359950078206e-01 9.022821244950611774e-01 -1.127724362079798093e+00 2.350894230912609906e-01 7.572417032283157434e-02 8.595228418760217926e-01 -5.804031229859063501e-01 -2.349017460608380681e+00 3.521390041531032855e-01 -5.894229256937940642e-01 7.602672542363696495e-01 1.120013646466291091e+00 7.026628437130857385e-01 1.345642198629104780e-01 -1.025409280430652048e+00 -5.726639161709625725e-01 -6.313635534558067475e-01 4.201720744986321421e-01 -8.345926385130238989e-01 -1.134674989264743000e-01 1.429222934730590255e+00 4.544140769995415607e-01 3.887462980921062017e-01 -2.195091099308658089e-01 -5.588977398495916793e-01 -7.993598871551216289e-01 -6.412156219220648268e-01 -6.776817297128662210e-01 2.974429507001000728e-01 2.469486195218892899e-01 2.854839829686964814e-01 -1.134466615522737420e+00 -3.203676302623581496e-02 -1.986541972055760330e-01 1.168713862532586197e-02 1.746734083530769310e-01 9.175932589679235418e-01 5.169626308489503330e-01 6.059317585020605051e-02 -1.035269351526383996e+00 8.842441527608909668e-01 4.261932691127041095e-01 5.581748661392060828e-01 -2.292211756599708550e-01 2.370154365656814699e-01
-4.017606559202473865e-02 4.319763704352773126e-01 -4.926158881673853296e-01 1.040206947123694520e-01 7.734927743851022219e-01 3.814464149608424171e-01 -7.135988496160080574e-01 -1.708806674985195784e+00 -1.025478337116391359e+00 -1.839069407513841403e-01 -9.789061548921250688e-01 -1.475571893673286172e-01 1.288638509286117728e-02 -1.024077402563785100e+00 -3.654208268471596799e-02 3.132752317071503256e-01 -1.378191966696144410e+00 7.373860300558923719e-02 -9.735766717428759875e-01 -2.638192280521238220e-01 -2.062049363485477294e+00 4.053367081581469439e-02 -2.084004605510965391e-01 -3.645012999820533839e-01 -3.743967159081258989e-01 2.644788880763480954e+00 -3.151711050267103076e-01 -5.101362444822724607e-01 -1.493498565069170114e-01 8.777469389359060514e-01 8.036460018974003194e-01 3.072193780207743696e-01 3.202285804177392170e-01 7.347333485136157138e-01 -4.006958137887267068e-01 -9.599654606344553143e-01 8.260165393616452079e-01 8.791783262826777245e-02 -3.488236688454308121e-01 -1.912757385174663538e+00 -4.354175643043253774e-01 -6.867937206309840045e-03 -2.794780372415173186e-01 -5.146722194109464299e-01 -8.152808385082202514e-02 8.696280780433920388e-01 5.993297397533529081e-01 -3.969642797454746019e-01 -1.236528430642624743e+00 6.322188485607801445e-01 -7.891387073817466291e-01 -7.078657730379295243e-01 1.194541218830807716e-01 -8.410496460008587416e-01 5.769728555803813608e-01 -1.843995531308841862e+00 5.464727598994393309e-01 4.364195467370092230e-01 -3.456825971380133589e-01 1.132371001663273757e+00 -5.632227518807653155e-01 3.154253621352119397e-01 -2.311294491767773851e-01 -4.389000383670905725e-01 -3.381434211468032358e-01 -1.477767709797094854e-02 -1.512733435010636285e+00 -3.220011306626547332e-01 9.363852224509766620e-01 -1.318541020425749166e-01 3.794265903868317968e-01 2.785060133054385045e-01 5.437768553170134744e-01 -1.332602239602532698e-02 1.963654815912625751e-01 -9.413175940839190181e-01 -7.997471414271943857e-01 -1.273432574536188966e+00 -9.632474578772772800e-01 -8.205292788303710783e-01 -7.161488077123656648e-01 -1.586911571353104844e-01 -1.010366368310761542e+00 2.015533177235725226e+00 5.349683108520910668e-01 6.212777750962726886e-01 1.543248303630563867e-01 -6.133642680277113790e-01 6.351940340377927319e-01 8.926301917553752796e-01 5.362983308029267704e-01 6.568910456186158875e-01 7.568694699599443076e-01 4.243067661790864142e-01 -1.158400990300590960e-01 7.377799709130126171e-01 2.961716945121146694e-01 -2.646953555240494915e-01 1.256863302557242323e-01 -6.284643151545609152e-01 -7.069112445434512226e-01
1.258491951815865484e-01 -4.325144508170306601e-01 -9.775481991278546223e-01 1.355053332186985093e+00 -1.362707868411925094e-01 -5.585346751996423942e-01 3.969336127098516687e-01 9.342457454977031173e-01 3.260407459239496042e-01 2.962926476950817345e-01 -5.838252012956568482e-01 4.819537523072781049e-01 -1.195761158263842994e+00 9.893040654025853087e-03 -1.583111645617902019e-01 -5.305428701384522494e-01 -1.005950852322478939e+00 2.645907257492131626e-01 1.096653545050255835e-01 7.860998090182939879e-02 -4.666387024187776955e-01 -1.048570695093756916e-01 4.283665791902826342e-02 6.634174779374898412e-01 6.991128902984747318e-02 -8.113510712947982206e-01 3.203560051221494009e-01 -2.991979143945402986e-01 5.035258980665481277e-01 -1.140665374762769857e-01 -1.332836269435804466e+00 -2.175394103111078226e-01 -4.577849293062610236e-01 2.611207096942909645e-01 -4.150596672848081981e-01 -2.416527615740175494e-01 -7.025353560964934241e-01 4.048328912183303818e-01 -7.700336515714261143e-01 -4.327309509887001804e-01 -3.256883923103534029e-01 -1.641263093351145841e+00 -1.917366177910721781e-01 5.443845204680030081e-01 -1.640723707443419332e+00 -1.308596734556630503e+00 1.009179568231961088e+00 4.035268947084167945e-01 -1.913118179497566018e-01 -4.356045504974702109e-01 -1.041415242627419691e+00 -1.227650551738517004e+00 -4.164971697610486689e-01 -4.662956186575245576e-01 2.854003158400101992e+00 -5.833479217403333417e-01 -3.352771889991502663e-01 1.761691024275048589e-01 8.817492427836705338e-02 4.065020116036496822e-01 -8.716973013051444452e-01 -2.564378628961456186e-01 6.441425897823223334e-02 -7.887180042842787397e-01 3.346717706934727588e-01 -2.145473950779871741e-01 1.282991155084495238e+00 -8.299609025713824417e-01 -7.070087472908087589e-01 -2.787115076936352853e-01 -2.624887428166895464e-01 -2.726034006585777436e-01 1.466498637732172872e-01 5.043188833098007917e-01 -9.855133301722447392e-01 -6.548807729473356092e-03 -2.858827585261345394e-01 -4.557257684012527843e-01 8.784402620987007415e-01 -9.838448903186322037e-01 -5.692171291466268518e-02 -4.290737545401687170e-01 -2.836132536240569824e-01 -6.765934633419842248e-01 1.556236872024343298e-01 -1.568546442290922327e+00 1.027430968559262192e+00 3.387348981848998797e-01 -1.352616600364045518e-01 -1.264342389216416729e+00 6.970738811103495136e-01 4.824526962506604510e-01 6.045425254884185806e-01 -9.628464325057235484e-01 -6.506578159995732302e-02 -1.220300149320955985e+00 2.958463286101995493e-01 -4.365591092187528499e-01 -8.584301660649233945e-01 8.126638094427611758e-01 4.126030984473665897e-01
-9.701706573285344692e-01 4.843416473565706482e-01 -4.575825673093930623e-01 1.738134252272774127e-01 -9.749927165333818202e-01 1.634589555514474934e+00 7.227367312399061161e-01 -3.037223903688494264e+00 6.467550723316596306e-01 -6.075751091544908666e-01 -4.236809470532826305e-01 3.025529402186543759e+00 5.667831504527059971e-01 6.905646254328414724e-01 -1.228518354064511930e+00 1.925977155272680374e-01 -1.401515208848380878e+00 -3.021740358957093753e-02 1.911002070811683440e-01 -9.332384929197475865e-01 -3.636245701251598073e-01 -1.593857607109743668e+00 -9.707486653252324071e-01 -1.833734829401373778e+00 -4.655006839486502263e-02 6.806932254343883715e-01 -2.399075070249372943e-01 4.747671683142151156e-01 -5.063913584427496284e-01 4.655212442331976286e-01 1.314864669371897665e-01 -6.489966232473232122e-01 -5.626286748365744161e-01 9.430389416723424789e-01 5.408483490951493389e-01 5.928142863300738252e-01 -2.315781993789518822e-01 5.224127895728056803e-01 -4.205397252380186357e-01 -4.691560490931233618e-01 -1.356617974459942255e+00 -7.089200883691858524e-01 -6.484227248080546291e-01 1.015489599755625694e-01 1.459702727941656786e+00 -2.518474243639691190e-01 -9.324594104284282814e-01 -5.487272486252912085e-01 3.620092974492052362e-01 -9.612070472258906761e-01 -1.007670476538944371e+00 2.054372848050746714e-01 2.525343592834861095e-01 -9.500412639051720731e-01 6.185544659858421834e-01 5.327057313782763703e-01 -8.145487723932637314e-01 5.034808334601932611e-02 3.195101028050704728e-01 -7.394879851970740381e-01 -8.706312060902928751e-01 5.828939687668962533e-01 -8.278161025753604241e-01 -2.303037745961895588e+00 -2.182170222754928057e-01 4.247417203350378201e-01 -8.227623651811678540e-01 -1.279067109652512357e+00 6.053105312604226684e-01 3.329055135069841076e-01 -1.463951582773631355e+00 -7.953699313000961446e-02 -3.800422820681722547e-01 7.824926197466450795e-01 -5.834881655132522216e-01 2.528752764477591786e+00 1.004062814588339431e-01 8.873586152120072068e-02 -2.648650065333152948e-01 3.013324354961063878e-01 2.519994110689306455e-01 4.683544968263905761e-01 1.324560720496082311e+00 -4.547864729840510045e-01 -5.744164495456439701e-01 1.666036435601315535e+00 9.884728195312414423e-02 -6.275493434205721144e-01 -3.718026661599345695e-01 -6.265929340248164170e-01 9.205589644404418292e-01 1.419315810209166751e+00 -2.876607912464482775e-01 7.011114724312986768e-01 4.524828836097976037e-01 -1.193872696413259549e+00 6.608497256920717877e-01 8.391964653314009093e-01 -1.051967396232780239e+00 7.589943386651156754e-01 -4.077812231331407467e-01
-9.533890864313796509e-01 7.188201681354206007e-01 -6.055862629715008660e-01 6.775305511507409562e-02 -5.350044987259147677e-02 -1.820511813882354835e+00 5.017265424980591471e-01 2.688077887964402279e+00 -6.156924543906363567e-01 -6.531951317302909787e-01 -8.497302682123220041e-01 2.590383939353987586e+00 3.404186271970009448e-01 -8.145396700065712370e-01 6.365225172783669505e-01 9.338159910395557595e-02 4.237784172898974994e-02 -4.335150923015779201e-01 -3.083629617904599107e-01 -2.225705062749353536e-01 1.832668075130856167e+00 -1.477479842804708010e+00 -8.171952056379111484e-01 -1.846441239075688800e+00 7.832087352310256045e-02 -1.592583092595860172e+00 -7.131152618358289619e-01 8.419158444006288322e-01 9.087474240898422151e-01 -6.011032329801679897e-01 -1.347866935032490554e+00 -8.392930557895612598e-01 4.759201506832968359e-02 5.000157543143028960e-01 -5.660420545132884840e-01 -2.208837289565694639e-01 -9.800404204259655083e-02 -4.134272479489393276e-02 -1.931611623199779304e-01 2.271244704529932434e+00 -1.580719654498952798e+00 2.273927058900252707e+00 6.313602124545680816e-01 1.147164548854036292e+00 -1.461044085402298132e+00 -8.231906899864277483e-01 1.571304098817829509e+00 -2.697761150596774682e-01 -3.991442281773429079e-01 -4.082942212744827271e-01 1.669986128681479401e-02 -4.286721532836362814e-01 -9.539320326722586785e-01 -1.761483841796307237e+00 -2.414787096518860476e+00 -2.230448456624815279e+00 8.125205996200585146e-01 2.444068698383906335e-01 1.197688031081445281e+00 -1.597048789869392138e+00 4.631610309994610986e-01 6.098911513976267296e-01 8.362995944326221398e-01 3.673167036539884744e+00 7.164299946030012745e-01 -7.442972381127650472e-01 -1.513682578572968174e+00 -5.879861191355677530e-01 1.040875037834045232e-02 -1.566114731937965077e-01 -2.276295132254320119e+00 -3.609615208757198657e-01 -4.465584460512770359e-01 -4.963440580107968403e-01 5.904930224685910334e-01 -9.257801817936858191e-01 6.497820990493489157e-01 -8.399426819923185850e-01 3.166149922346458423e-01 8.662892408878338779e-01 8.725595535125403313e-01 -1.105509200186253205e+00 -1.682044450089668075e-01 1.108324006159358222e+00 -1.309075817639648420e+00 -2.107877472748156400e+00 1.372771816578875481e-01 5.331979626854814747e-01 6.578799775069697764e-02 -1.981932138058275061e+00 6.497188816524236410e-01 -1.366542420389671664e+00 -6.765191265893705230e-01 5.952131207627096021e-01 -5.809371814697499720e-02 -4.697492514785292506e-01 5.907580136328791642e-01 -9.588978985930982635e-01 1.161222318911729057e-01 -4.165634048966572189e-01 4.204506916420673313e-01
-2.563840772242254040e-01 -3.642137819328625931e-02 5.343510960251576236e-01 -1.324428302269357927e+00 5.682327178523846056e-01 1.034816487676219060e-01 -4.424762044059366572e-01 -2.169517463462543816e+00 6.217502378675525687e-01 -5.774392886863704000e-01 4.647837979664835029e-01 -9.268774175869939347e-01 6.413808602779109969e-02 -2.072669461003636970e-01 1.378845189255132331e-01 -1.717641073441543709e-01 2.572144317994104590e+00 -8.022485558031158814e-02 -1.184690770576554142e+00 7.055507409232980587e-02 -1.542924276722614507e-01 1.666074655935618209e-01 -9.726435645553840326e-01 9.261873519244473441e-01 7.406296687166472603e-01 -1.626939435321890448e+00 8.142861636058680574e-02 -7.933950351112352140e-01 -1.474655874950811241e-01 -8.087015890199240609e-01 -1.300300751151891587e+00 -8.929557711021999244e-01 -4.043520392794242024e-01 -8.396947431565673359e-01 -1.772917285655716546e-01 -1.458523704185680003e+00 7.909495308797792612e-01 -7.371149839280985439e-02 -1.084944795740136581e+00 1.693032173561182185e+00 -1.193058066188063870e+00 -3.214816774858075821e+00 -2.659593503714932083e-01 4.672504263311406669e-01 1.891932567917002261e+00 -1.267233890888060710e+00 -2.517013120699013839e+00 1.034699225868543238e+00 -5.615690430327141547e-01 -4.628306865102559120e-02 2.142353393981539345e+00 -7.915766489282540785e-01 -5.492376707479932341e-01 6.761564524743779447e-01 4.035073233493775113e+00 1.144960623143874923e+00 -4.070283680452004837e-01 2.811544618368746473e-01 6.088282810657105193e-01 -2.530375244473284990e+00 -1.337569277223971398e-01 2.263771429344475783e-01 8.303732105364207694e-01 8.070803297637971219e-02 6.905008596108098695e-01 4.262435029782162266e-01 -7.975774203928421846e-01 6.057631933313718520e-01 -3.861135255414974154e-01 2.518756460052835530e-02 4.431017162623226979e-01 -9.473759096666737323e-01 -7.656740026618182871e-01 -9.034273605462738166e-01 7.471233712255938020e-01 7.661719032629278336e-01 4.620767944022760032e-01 1.226528083888589915e+00 -9.179749752765296034e-01 -6.740509171456532389e-02 1.074591969097465904e-01 -5.270104619513387156e-01 5.308427445188331761e-01 1.039814102332220491e+00 -4.407907980248081947e-01 -2.510937568028977496e-01 -6.300157010409259684e-01 -1.109117120280777691e+00 8.249217414234366608e-01 -2.058695050552602268e+00 3.376006776510367957e-01 -5.373805366633305214e-01 -1.753229627167248283e+00 -2.429513650954526760e-01 -1.097784048149355263e+00 -1.085796327699415142e+00 2.647623953313028335e-03 -2.928572865525447821e-01 4.681927838905679540e-01 -6.749607091024648620e-01 1.875476512536156104e-01
-8.695547741566179711e-01 4.520776244335754646e-01 -4.685696680120972069e-01 -1.214387383149403199e+00 -9.789131394369177119e-01 5.560238435919256927e-02 7.429320075772906096e-01 -1.560105402573523481e+00 8.770968631371889312e-01 3.513226457391059598e-02 -4.344396651661830422e-01 1.231276117155521155e-01 1.252444675491627413e+00 3.140151631286041689e-01 -1.075916904607126634e+00 4.557825380431536622e-01 3.904678787514072602e-01 -2.860167498421596968e-02 4.047688359365645971e-01 -8.852262676284664566e-01 3.930478570940035832e-01 -1.023704039489263362e+00 -8.821474943803206958e-01 -4.164015955311512474e-01 -5.832568446619211810e-01 -2.493236453668838670e-02 -2.207439489389894857e-02 5.249250423252733722e-01 -3.309224784626241811e-01 4.609642727518585281e-01 2.261353231704569255e-01 -4.466810081282457934e-01 -3.863075576106309028e-01 1.001954810968953780e+00 5.096314877502797908e-02 7.327395839300608893e-01 5.782058168660686448e-01 5.497447538114184074e-01 -3.121354763666890353e-01 4.399987982890889437e-01 -5.779192841956086735e-01 3.240607958561178670e+00 -6.970668035826491638e-01 4.314803083198596734e-01 -1.767853040460112046e+00 -1.176366909288945495e+00 6.751049721434877471e-01 8.452386897243351072e-02 9.838398472519140903e-01 -4.962664396002398060e-01 -2.789944083740126590e+00 1.935235876270169353e-01 2.678377276879449487e-01 -8.704537583761318142e-01 -4.215628126776387319e+00 -6.127532519475640399e-02 -8.688211314799866303e-01 4.279350413019850780e-02 -2.665015356358302681e-02 -8.813892597414125785e-01 -6.056746979841173273e-01 7.218985548339790226e-01 -7.747041554721579848e-01 -4.472785739527304072e-01 -8.053644134991063686e-01 6.844089461759002013e-01 2.633750811201028830e-01 1.159954915636356443e+00 1.024430644128269119e+00 -4.333166003180015657e-01 6.697673493829028324e-01 8.376661632275042568e-02 -2.796827742304575648e-01 8.097978104629784957e-01 -5.820023793489319530e-01 2.231899219633648179e-01 -6.013721105951872481e-01 -4.332255187407983987e-01 -5.931987419842418285e-01 4.206909824689988309e-01 2.703674533809761749e-01 4.699487023007107300e-01 -8.729192875548268393e-01 -1.546698358600796741e+00 3.284322568138804965e-01 2.149219951751835556e+00 9.006456605693314854e-01 -5.231866567733166606e-01 -8.504142130214167872e-02 -3.394629317609597630e-01 9.880559043762185967e-01 -1.260480024294800216e+00 -4.694659905301046265e-01 7.341724938527424138e-01 -2.068128359456486084e-02 -1.221499612147655789e+00 7.855095596298814487e-01 8.409477194397059208e-01 -9.805189313606614832e-01 7.086549316667412057e-02 -3.320703907166475122e-01
3.943508770789778128e-01 7.616276182722897525e-02 8.430656154446293238e-01 1.207796119373999666e+00 3.815700927247454577e-01 -1.302805435970932235e+00 9.109539445195932172e-01 -2.096649983586786892e+00 -7.691866712986331622e-01 1.683028667364853792e+00 4.936081617047166081e-01 -3.283152791718126018e+00 9.969574250236980240e-02 4.704144652415651051e-01 -5.367277926267212118e-01 -8.958162643985400145e-03 -1.338518705900807459e+00 -3.459808369702485065e-01 -1.327982913044619240e+00 4.056972621960279191e-01 -4.862325960757291066e-01 1.036023316841245601e+00 9.320593445082454853e-02 2.135509342508611130e+00 -1.438686175334129791e+00 -1.537617757876664770e+00 2.198850930829957667e-02 -6.825520897196774017e-01 3.880672515526106259e-01 -1.529287910468626610e-01 -4.756013666564803954e-01 4.657624913370198017e-01 -3.960029200699535790e-01 -6.030163771309182685e-01 -3.006724648065260963e-01 -3.637035478247306886e-01 -8.717639458403214636e-02 1.712262509788292364e-01 -6.703777075080340486e-01 -4.298875344064917448e-01 -1.902896232324591486e+00 5.250407339573947008e-01 4.106552314566152551e-01 -5.445661903024944239e-01 -4.084556653632079315e-01 2.257156404685261575e-01 -5.243262553288200456e-01 -3.582952837029305670e-01 2.587637139087375360e-01 -7.912969841554456929e-01 1.783938630200505027e-01 -7.890071514152595666e-01 2.471155031461411133e-01 -1.086563483283335296e+00 7.075415235337959574e-01 -1.402541415335237573e+00 9.260470282848536350e-01 -2.676178808663369213e-01 4.489718985191826772e-01 -3.124223619968292120e-01 2.728122246061315953e-02 -1.976380202848700973e-01 -4.273691925293299221e-01 2.589295847138290974e+00 1.633118032307516510e+00 3.833908133656508177e+00 1.142029501514195827e-01 -7.970329190252889440e-01 1.048430624118433518e-01 1.206086451724619479e-01 2.842976881216016771e+00 7.268824755294613915e-01 -2.744184843864821421e-01 1.963418879206516032e-01 -8.704322947271427857e-01 -4.956645923408696808e-01 -2.794475229980188491e+00 -1.673499665831557626e-01 7.763551211428072474e-01 5.493944241885843072e-01 -9.545384201550892733e-01 -1.317938918134517801e+00 6.959101459698457948e-01 -8.564355383057417614e-02 -3.629387406474154920e-01 1.870019925122282933e-01 -9.404688728301836553e-01 8.067841616034801544e-02 -1.213138922717570539e-01 -7.016136056146502487e-01 2.443724861751423449e-01 -1.229969101396239523e-02 -9.480124200264608003e-01 6.913762876960413140e-01 -3.917596332051819785e-01 -1.134065889196320898e+00 -8.163709740525855463e-02 -2.151363907804509090e-01 1.386305563512642836e-01 3.261686584318981286e-01 -9.628768298034982021e-01
-1.508823946972671859e+00 3.347373601538147225e-01 5.042592524704376800e-01 1.688457174070923661e-01 9.209635834072658067e-01 4.348210858691793912e-01 6.157751264970442451e-01 1.047154986254873910e+00 -1.125157087568959158e+00 -5.653113613905318136e-02 2.328750781646379275e-01 6.996113452736200111e-01 3.758656125210392829e-01 -2.169185535974412771e-01 -3.269819224347487174e-01 5.067806881905494165e-02 -1.550060925917319254e+00 6.475891897306841338e-01 2.739745083981334206e-01 -4.802389694482797622e-01 5.059039207503349678e-01 8.447263686727453091e-01 -7.644718411389919144e-01 -3.387687669235199261e-01 -3.689381267447093826e-01 -1.733731227194190261e+00 7.375930217706919700e-01 -1.040071554411154509e+00 -5.383033833383746858e-01 6.019306364915221197e-01 -4.586975465893735060e-01 -4.604089997412591506e-02 3.190779677182243312e-01 -1.517399145123125848e-01 -1.695543949135635442e+00 -1.353409621674867003e+00 -1.620575677673720794e+00 7.658189654403573243e-01 -1.585416391157041804e-01 -3.330662219473204733e+00 -1.359657368727179128e+00 4.127020030406973183e-01 -3.123808356960136035e-01 -9.082839153501822693e-01 8.692439786052995609e-01 1.008596430509062447e+00 -1.279747358408795943e+00 -1.304267470853157418e+00 2.715429016616822455e+00 4.153696568624284935e-01 -3.643217261992674483e-01 -1.047207829474729873e-01 -7.536548739776056938e-02 5.193290569810570245e-01 -1.799396214793177684e+00 2.150207425072039324e+00 -8.652316546426381816e-01 -2.911258529417847241e-01 5.356214738408883180e-01 2.001002888112054290e+00 3.036807612060611894e-01 3.803189396206259620e-01 5.963681909404079662e-02 -7.603774734641280952e-01 -1.412925329703581534e+00 -6.711269802300051657e-01 2.077687836779495090e+00 -4.877309032908859199e-01 3.795898187413349611e-01 3.870476697614709249e-01 7.822171429408170118e-01 6.019334356377917805e-01 3.880063324905269617e-01 -3.031750401727703603e-02 -7.954951586887588633e-01 1.290238928913139738e+00 1.649870163073457463e-01 8.483540967486618012e-01 1.157528774378828507e+00 -9.180947173589076860e-02 1.805847712796485316e-01 -4.698449646703269922e-01 1.744194466226527407e-01 -2.530701456787271209e+00 -3.005069189902995208e-01 4.474091093421452281e-01 -8.644352446488142716e-01 -7.558110863997169471e-01 -9.710125161936148386e-01 -2.124604732132471696e+00 1.136475518096144444e-01 -9.674145650200876023e-01 -4.678498291235697604e-01 -3.928226462683048203e-01 -4.997018281800241213e-01 -4.305814810445210417e-01 -8.904202755590316931e-01 -9.553006513493839114e-01 4.768652792307256361e-01 -4.689966370068594514e-01 -9.624538332408785202e-01
-1.102137683708044769e+00 3.129384951506132273e-01 2.959937492476865661e-01 1.940362454131020931e+00 6.219282918976761776e-01 -7.969448549334036125e-01 -3.174339977292653381e-01 1.752866566199799081e+00 -1.006382935155334613e+00 -2.651094993495072272e-01 1.244899696098581282e-01 -1.199572174437881777e+00 -4.654409261967569211e-01 4.128349370840442289e-01 -3.740536893970807242e-01 -1.812070291322685600e+00 -9.245135533761836832e-01 6.086809391605613184e-01 -6.184137540904514063e-01 2.359511011969489258e-01 -6.008584794178338517e-02 -1.108151505231376177e+00 -1.057482237619415733e+00 -1.233277083448635209e-01 1.212759056233549071e+00 1.626084922800052457e+00 3.017559251420229294e-01 -6.353993758025341387e-01 2.889358413077928733e-01 -3.135368813445024716e-01 -9.603638294472046644e-01 -9.251948315985478732e-01 1.261934776392623636e-01 -8.438300818194681696e-01 3.553392289044058905e-01 3.543144759124369214e-01 1.814474371134979336e+00 -5.137022536566558939e-01 -1.257011701102855206e+00 7.218368746473796671e-01 -3.808908426625847721e-01 1.651122502823151983e+00 -4.123559393623384417e-01 5.658885084662681336e-02 1.740320213597973842e+00 2.641927463187159653e+00 -1.262378037886574544e+00 6.270748932341800863e-01 4.692636921923781790e-01 -9.320092541544839904e-01 1.088999006267789227e+00 -8.741034618490280961e-01 3.489028856451430877e-02 -1.278563785542203179e+00 -2.448777072954369416e+00 -5.012569331452466637e-01 -2.732204762380452401e-01 -7.937779601664124440e-02 -4.865856917477037191e-01 -6.187624345089426381e-01 2.602721427670303900e+00 2.797063239366825438e-01 5.960381429890267979e-01 7.766459137020647052e-01 -9.699102558151918574e-01 -8.332502837976080157e-01 -9.439825291419616793e-01 -1.507233716341551899e+00 2.646522341136238465e-02 -1.109660280885255146e+00 -1.444245301542760762e+00 4.699903827013068858e-01 -1.293596842111374823e+00 6.935886279436285218e-01 7.838849235164753182e-01 9.242586969250035089e-01 -8.927562408344569267e-02 1.482888735951492620e+00 1.157034151177099179e+00 -6.341390182783420704e-01 -3.448578658767241512e-02 -1.254851776701214616e+00 -7.647512711663764229e-01 6.678004323245045892e-01 -1.384994682486020867e+00 4.112872981010684548e-01 -2.020012533467203664e+00 3.345344993480177109e-01 -6.595965220834947296e-01 -2.078749743023402818e-01 1.904296147354959390e-01 1.227979788417586482e+00 1.219220651948085044e+00 -4.779849322457759286e-01 -9.191687210432905042e-01 7.344091584602678580e-02 3.784313307317802022e-01 -8.638911407436655754e-01 1.778971310177637766e-01 -7.765952131203870401e-01 -7.078845531585549189e-01
-5.241455272556474476e-01 -2.991238362928302363e-01 8.365476521643407937e-01 2.631384489453059694e-01 6.848566358662522280e-01 -2.275756355212029014e+00 -5.117464477776233478e-01 1.301256457794498500e-01 -8.837948378736277810e-01 1.131680858857343486e+00 -2.262865156169873715e-01 1.745721765113152468e+00 1.047572535170428365e+00 1.050540008320744595e-01 -3.575913020220808924e-01 3.459835747220068591e-01 2.244542590204651467e-01 -1.369653698732498370e-01 -2.402864249063003943e-01 2.546604997622797795e-01 7.028349846740473694e-01 -8.035753973683232854e-01 -3.511777542896712401e-01 1.153253280118523127e+00 -7.460663568327959849e-01 2.406134677014919454e+00 3.703583817459878413e-01 7.186609410142074106e-01 9.508309535888227471e-01 4.297138509037584653e-01 -5.639768634851211049e-01 -6.309896248565869392e-01 -1.013531480922980066e+00 -6.395850387779959956e-01 1.501081259628972986e-01 -7.319463568213009641e-02 -1.073106640704527326e+00 -4.059298569229687348e-01 -1.095159911373409845e+00 -2.565027774818368078e-01 -7.391021842159690713e-01 -1.042908879160213909e+00 -4.493603896009766840e-01 -2.790248847080911143e-01 -1.503302746299559622e-01 3.075939877671320377e-01 5.601020462609056505e-01 -4.006347356249508884e-01 -1.052065476483940110e+00 1.017838422480381144e+00 1.493769846883604147e-01 -5.298218835089242296e-01 3.795326682233819415e-01 2.096959112485410337e-01 1.523523393068594023e-01 3.649836380173553940e-01 5.478188316036350924e-01 4.651912731022659342e-01 9.442215046485606667e-02 -8.761585333854833568e-02 -8.341152098022742711e-01 -6.669313120400947037e-01 4.340568377946824041e-01 -8.191887846819375651e-01 -8.005687051918645158e-01 -3.027875441720105698e+00 9.044544236568434481e-02 5.674776733617958868e-02 -5.201509327557460871e-01 7.510052469732493574e-02 -4.249315361111188905e-01 5.167201193730724951e-01 5.835117336563938606e-01 -5.739460217100932349e-01 9.919459223873774434e-01 1.220542877245254010e+00 1.068698564525614875e-01 4.869310259528674134e-01 -1.463167731707040842e+00 2.833070178502976044e-01 -7.792571475294195471e-01 6.240533059278828842e-01 1.005519608619287186e-01 1.112683458432953909e+00 -3.448052369557159658e-01 1.821828676761229060e-01 -4.133539066091414527e-01 -6.626320714230033992e-01 -3.386743635201171498e-01 -2.455861603046771979e-01 -6.328709881202980725e-01 -6.802106907747355047e-01 -8.316894097450786560e-01 -5.544134030043286199e-01 6.419018663894767718e-01 -1.546834908448943557e-02 1.850600459118834917e-01 5.269054140614137793e-01 -8.705575476848287364e-01 -9.844164693302140945e-01 5.395218969337800541e-01
-2.021637240864904150e-01 2.004235469835251027e-01 7.916269932497382866e-01 -9.589319278848510431e-01 6.007454187314954508e-01 1.255506516304703224e+00 -6.471547965698358773e-01 -1.052321358223924141e+00 -2.662659159067208292e-01 -2.105275622643757227e+00 8.178704073162522681e-01 1.774863403116270444e+00 7.831026306255974845e-01 -5.584572063393796748e-01 -6.550668623245747835e-01 -1.176207715993849767e+00 -1.114844119176759962e+00 -3.816874645961016999e-01 -6.906776017213458463e-01 -1.071299237656960113e+00 -7.395655991328012879e-01 -3.119366883985598138e-01 -2.968109039287875617e-01 -5.889908242591168630e-01 3.257255999082061759e+00 -2.178196911420029913e+00 -4.813831884430876396e-01 -5.890310312747011334e-01 -6.697338399641388218e-01 -9.561903499894051084e-01 -3.820873735634081614e-01 -4.990612287248629153e-01 -1.118594587281675823e+00 -5.691962701510609735e-02 -2.277242770527907953e-02 -9.271002856288506067e-01 2.174131899339127649e+00 -4.203510330607123646e-01 -1.530197882620486061e+00 1.075009225702609816e+00 -1.281670040731333726e+00 1.877630215831360139e-01 4.191860142644223131e-01 -2.456299625004997877e-01 -1.143160024193059066e+00 -7.392512884355808556e-01 6.627989588490786899e-01 1.927261651444280577e-01 -1.716842245295868707e+00 1.307888823936186995e+00 6.150121319133300402e-01 -1.231064394689660890e+00 4.753855165935000349e-01 -3.081662003078341344e-02 -1.238628323530352737e-01 -9.741338150205847146e-01 -6.613187067320321910e-01 6.345180587853413989e-01 1.041396383992188729e-01 -5.740076862531870994e-01 -1.423642552663394456e+00 -8.267035869967430672e-01 -5.291662444882715421e-01 -1.448848528244014222e+00 -1.873541379208194524e+00 2.961514050022138189e+00 -3.013200824399087652e-01 -9.584577695269277942e-02 5.131381121115596855e-01 -8.580073637816364174e-02 -2.539422477770382769e-01 -7.939370972696029316e-01 -7.321229941963254551e-02 2.883237596964385863e-01 -3.595513598423806245e-01 -7.873393660194522026e-01 6.407524787842352465e-01 9.609505422671136277e-01 2.142084346764676184e+00 -9.883475637066324246e-03 9.669445470674123966e-01 -1.208610144197768133e+00 -1.659965017869289516e+00 7.025165646657638430e-01 5.529418067932320158e-01 4.201386364173779198e-01 8.176358154029903513e-01 -8.791413705726630612e-01 1.198118048037047217e-01 -1.682312888105267135e+00 -1.075470396023106234e+00 3.883524686820127303e-01 7.966857003043621710e-02 -6.924178589519630611e-01 1.666027428398954569e-01 -1.459409700787512865e-01 6.147828537233980262e-01 -1.436718331159442252e-02 8.997935814149004008e-01 -5.583481602478914674e-01 -4.939713035093405424e-01
-1.043951263823033937e+00 4.160290160752851407e-01 -5.145854850207839393e-01 -8.758129865365388289e-01 -9.650431348874495274e-01 5.468394163475177594e-01 7.870984496706568967e-01 -7.444875079616983804e-01 6.204852895941829205e-01 -4.023418145165061910e-01 -4.569479044890674690e-01 2.915079452860402376e-01 2.012168548089551812e-01 6.261829357927711781e-01 -8.737258997817922701e-01 -1.975294675970024949e+00 8.239924914810352607e-01 -7.106519230512144125e-02 2.738269389235679085e-01 -9.895682935933760582e-01 1.633719296755017647e-01 3.074992814090796167e-01 -1.045333499000359989e+00 -5.556089193109543523e-01 -1.054699853221123806e+00 2.735813772597699978e-01 1.591731049305455947e-02 5.857217918000724444e-01 -4.128961031853647379e-01 4.534563094277956341e-01 5.882006866804162515e-02 -5.806445940853920407e-01 -4.886278262070482548e-01 1.033495660261099847e+00 1.279041998488007703e+00 5.292672838611949260e-01 -1.470176591266174393e+00 5.124666345032556913e-01 -4.634357654739926224e-01 -1.701098622618052891e+00 -9.658009340578407320e-01 1.240555941198663525e+00 -5.809026908968289993e-01 2.869214046742652791e+00 -1.638993074069624134e+00 -3.413508378485461403e-01 -8.415411017290821416e-01 -3.400811868171973451e-01 -1.493711835993824399e+00 -6.002688065317438593e-01 -1.649543777188754667e+00 1.128631567642243011e-01 2.471540019543261857e-01 -1.062354220396096949e+00 2.384497395799180630e+00 -6.789777056601242755e-01 -8.921668227415038288e-01 -3.973636758752803651e-03 -7.731395223618653390e-01 -2.191506647508062677e+00 2.845840371311946893e+00 5.759584426392864165e-01 -7.605444018851045263e-01 -1.991642685177554162e+00 3.340032283084823028e+00 -4.529485832695698821e-01 -4.080720336014577732e-01 2.715200279188243471e-01 8.622856479920379957e-01 -5.372950294920680187e-02 -4.021607282846073050e-01 -2.165996673437403652e-01 -3.871477715824921950e-01 7.158394811750860010e-01 -5.824382413411413051e-01 -4.287365390302353974e-01 2.156438729997301185e-01 -8.589164845661370618e-03 -1.350531947880698080e+00 1.917108841288111265e-01 2.694204885227631241e-01 4.841583665307100381e-01 1.698613151603707017e-01 6.524899124824624641e-01 6.336655169709873858e-01 4.844835912322041915e-01 -4.546362647997832518e-01 -6.925254648539760360e-01 -4.832195746874541897e-01 -1.395425241354306012e+00 8.659104274619011665e-01 -1.315418809467536310e+00 7.608647792844221991e-01 6.441291676561214929e-01 4.611582493450306353e-01 -1.310394986442279031e+00 7.597492582069756972e-01 8.403788820798788750e-01 -1.002567394119970201e+00 2.864916930919667037e-01 -5.257594285039856041e-01
-1.187659739639832512e-01 4.445242676831864803e-01 1.774914704716957503e-01 -1.159620241304515131e+00 -1.745183703680476817e-01 8.614251103768537365e-02 -1.230530499612542128e-01 8.437842616712738497e-01 7.384863865102246905e-01 -5.319507741149887003e-01 5.497737108466788092e-01 6.105121992078539339e-01 8.754963868615378564e-01 5.603649270779810232e-01 -1.433602853015229828e+00 -1.335744639590559890e+00 -9.235205192355716575e-01 6.318520022278198978e-01 2.502741516837374003e-01 5.599414307558006065e-01 5.914196975917548338e-01 1.490407151003520836e+00 -2.520006908522440803e-01 -4.256117185950030607e-02 -1.688037428209150814e+00 4.210910093270222032e-01 -6.560339892585342891e-01 6.869453362594714063e-01 2.649066845674364571e-03 -1.611932485067144594e-01 -6.828015214710768666e-01 3.384211322370194730e-01 -1.872009265899149122e-01 9.503593078888951384e-02 -2.340958702214201104e+00 3.291603645062263911e-02 -5.840342132772446265e-02 1.162499451788436555e-01 7.004943054692606141e-01 1.213987522428102261e+00 -8.020017206273085675e-01 1.158602045366892846e-01 1.220138226315503789e-02 -1.030646863888388776e+00 1.553481219981170947e+00 -3.953849737600492187e-01 -5.209809075485277718e-01 -6.314080969036386382e-01 -3.999400744911522643e-01 -1.321196222396032183e-01 1.115864780343439167e+00 -3.306736672709967850e-01 9.670114694554758916e-01 -9.712739327508228548e-01 -4.609406798752597734e-01 -1.039871834716773025e+00 3.205763159810084972e-01 -5.264724789269793481e-01 -2.080128845392738846e-01 -8.018121682695906749e-01 -3.084517427389872779e+00 -7.512470619841891128e-01 3.123288434341836561e-01 -1.143855647585957369e+00 -1.678045545194896349e+00 5.226766610756283793e-01 2.519353035678619790e-01 -6.442034904479795321e-01 6.324233553142430964e-01 -1.395021518511984526e+00 8.359990748038121922e-01 9.561138228789747839e-02 6.482803398695863306e-01 2.164845069487310592e-01 4.805566133599514789e-01 -6.227769287157195466e-01 1.313717416416882167e-01 -1.013553375043810378e+00 -1.372594603096707333e+00 -8.073275661157183203e-01 -3.140476122804768400e-01 -3.258045855228551280e-01 4.778439857951917724e-01 -5.847573536639585345e-01 3.111315854739172271e-01 -9.499594643680320250e-01 1.090367620879836519e+00 -1.019947400709074969e+00 7.183075190812355793e-01 3.274920723859728877e-01 -4.057116584003319093e-01 2.194508792211578851e-01 -1.864597258871248719e+00 3.620690326608876908e-01 -1.210811128450762109e+00 -8.127386839280417163e-01 3.061855159343586097e-01 -9.571479011130548109e-01 7.210651978479636348e-01 3.208280729756498029e-01 2.204544691922745714e-01
-6.790007451622976919e-01 7.763533407766413097e-01 -4.493348998684603690e-01 -2.885423808201499352e-01 5.807917270717759539e-01 2.060962518312241976e+00 7.122569295511400611e-01 -7.057971038791406304e-01 3.565529654337700749e-01 -2.565374043165404405e+00 -7.888104362114736201e-01 -2.128305538726870783e+00 -9.564077339622610863e-01 4.140891632618726725e-01 6.181520287195395313e-02 1.419695806040698581e-02 4.360913075821725715e-01 -1.117946365963101707e-01 -5.250504249192343709e-01 9.123815153813120971e-02 -1.133280745365736975e+00 -1.511792905431476264e+00 -5.575640738144685971e-01 -2.396340913835160791e+00 -1.736994792783894237e+00 -4.275221574829609072e-01 5.054189586472062068e-01 7.008482707854180038e-02 -4.546573349992061308e-01 -2.764911938984128126e-01 8.756502974750920987e-02 6.742778246321509128e-01 -5.680303262744291759e-01 4.341540880033762928e-01 -2.172674223935260773e+00 5.146135455038042261e-01 -8.915689537596265257e-01 7.927614976161557747e-01 -1.954040381226286316e-01 9.175436829383257775e-01 -9.222106601374924217e-01 9.924783779915732351e-01 8.993333086160664180e-01 -4.290746086077047439e-01 -1.465664680693031796e+00 1.418683873477652457e-01 -1.027117649829192514e+00 -5.749101085426945590e-02 1.360075114891220016e+00 -3.172091264574414260e-01 -3.599407203345113548e-01 -3.278396924681878932e-01 -9.117288950213147114e-01 5.196383017821788741e-02 3.493464963780397725e-01 -8.498328406922288358e-02 7.894569188122464443e-01 1.795344216237429805e-02 -3.376450362159375551e-01 -1.486885294113508837e-01 -2.495992609916098670e-01 -2.156365151576268291e-01 -6.169456911779925834e-01 8.503164959308197046e-01 -1.507511129007982564e+00 -3.215349482306737006e+00 -3.946357466922416068e-01 1.488229500254608373e-01 2.712244566590364947e-01 2.460111332799905792e-01 1.950607445305787835e-01 8.268364661721444575e-02 1.058794086856320815e+00 -8.419864194356870835e-01 2.327889654746276016e-01 -1.795767063345805381e+00 -1.352555493694621302e-01 -6.480286201213644737e-02 -1.889132528681923828e+00 5.576492195905538019e-01 4.476389448559274786e-01 -1.702919739024976635e-03 1.224322818440811422e-01 3.018683110451330087e-01 -6.510651602326438248e-01 -1.024860309219093102e+00 2.130858451634138340e-01 1.844148538352549938e-01 -1.118504785714179661e+00 -8.565416612324964207e-01 -9.777950603871706781e-01 9.122588688717074845e-01 7.393712042384709138e-01 7.711332015164151787e-01 -3.989758362144607551e-01 -2.265400947011256827e-01 -5.168443197929061261e-01 9.761776648894814334e-01 4.094618529498505466e-01 3.655409596608849565e-01 1.104603695206637815e+00
1.123116516479381738e-01 -7.053074565064068047e-01 4.226845080737662297e-01 2.735590584223247523e-01 -2.831314487105879851e-01 -1.262921318879429267e+00 -2.051204504585074084e-01 -4.036141864687654568e-01 -3.673817476582251773e-01 -6.181627612998535914e-01 8.663297663689617512e-01 -3.573147588296768373e-01 -4.000601411937902419e-01 -8.138859365137769419e-01 -9.154671992338064834e-01 1.747744631768084034e+00 8.755703658744926621e-01 6.840596429064584871e-01 3.983455842923442486e-02 -1.026415208137776647e+00 -3.594609235067893760e-01 -7.273424747106063126e-01 -5.826459633666827287e-01 5.292347132341127525e-01 -1.684880057647286433e+00 1.103396628141167346e+00 7.377077494262640478e-01 -8.308881854629937003e-01 -7.435993866300115440e-02 -6.758725059979239225e-01 -1.193585243756038361e+00 -1.195577351471004857e+00 -1.190832894872958514e+00 -1.621633143614404360e-01 9.647669162312986213e-01 4.636735003286932000e-01 1.456318470735750575e-03 -4.495134490887725542e-01 -4.796382199350884834e-01 1.754499324138246719e+00 -6.384856697860027408e-01 2.303325893993036777e-01 1.419192614234307426e+00 -5.142964134140557038e-03 1.077015287632165474e+00 1.568055931239106693e+00 1.137345602688740076e+00 1.338403922616149044e+00 2.024097441056456503e+00 2.494869355241861320e-01 -8.449235732412018196e-01 -5.618056244249058917e-01 -7.799058356950869797e-01 -9.168132705988599751e-01 8.356530382063225293e-01 -1.079920985600618000e+00 6.959296597681960961e-01 -7.534151537295101786e-01 -1.387131719729984392e+00 4.634914872358938398e-01 -1.506167360024000645e+00 -1.390728777597232402e-01 -3.613841505087342365e-01 -9.493571513078106205e-01 -1.347451871949494340e+00 9.358922669795547433e-01 6.544657310081811175e-02 1.212007485664342132e+00 6.727163104932094573e-01 -1.061285641028282711e+00 4.890975536581821936e-01 2.246967247246380861e-01 -1.379181295275304420e+00 -3.639864892572818311e-01 1.291965988876786209e-01 -9.364653683258233885e-01 2.906077528224975115e-01 -1.242462891024992633e+00 2.181559449688314500e-01 4.796359974501698820e-01 4.888623793454514033e-01 -1.289833694127075381e+00 1.451007867087799497e+00 7.926442181433630552e-01 -1.891688558302920375e+00 -1.524363056301939245e+00 4.101917002965747572e-01 1.570831009327190719e-01 -9.463584070825468153e-01 -1.406549107142853972e+00 -4.169398320694620713e-02 1.389100219717830820e+00 -2.363819954257331268e-01 7.684851691120343498e-01 3.827182672590828671e-01 -3.691255221089184135e-01 -8.195759250378426009e-01 1.914445219652565200e-01 2.166520164572032225e-01 1.431765938307381081e+00 -1.345643120903096790e+00
2.699351307181021009e-01 2.118169862711387352e-01 3.100083091534059365e-01 -6.260353988460325425e-01 2.514370034582583818e-02 4.777093942594028420e-01 -1.603268267018258773e-03 -7.335398172373083225e-01 9.472474975310104517e-01 -6.477905777758311556e-01 8.594880112323531884e-01 -8.961317502807618351e-02 -1.571186697000215848e-01 -3.135936212322885108e-01 -4.631771535152386376e-01 4.085429558756519697e+00 -8.049473633229715652e-01 8.765649775035677660e-01 -7.715866531908386339e-01 -5.841847473354871978e-02 2.498349952604480839e-01 -5.203601312987530259e-01 -1.032479387582777575e+00 -1.130260878715101808e-01 3.008738550932021361e-01 -9.065539830619664396e-01 -5.921513785702998689e-01 1.582734224523208721e-01 6.219783205307564122e-01 -1.983387390812754447e-01 3.013735359076959441e-01 -7.235723333673635960e-01 -1.125489347870540335e+00 -6.725754749905676899e-01 1.618203397612957728e+00 -7.787677935657638661e-01 -1.950043166946836326e+00 -9.151152444610156644e-01 -6.526619820668604355e-01 -1.403138741225005703e-01 -1.195543484769996612e+00 7.427066200344720759e-01 6.604850032602219700e-01 -5.638546520702951703e-01 -1.450929316543547953e+00 2.094094219227207732e-01 7.352235034519037926e-01 8.451952910795846874e-01 -5.681563247999291688e-01 1.615193167377630079e+00 4.622771686388066903e-01 1.042528451010094892e-01 5.289742888404257437e-01 -5.883215845010071332e-01 5.517064313969771705e-01 1.147454189349461862e+00 -2.160488424387680406e-01 2.040461383480960678e-01 -3.993667914227446158e-01 -1.546961095333629244e+00 -2.282752054444889378e+00 4.021777543914631381e-01 5.084109928903483011e-01 5.450727795222905930e-02 5.402511406308297959e-01 5.212720509322221751e-01 -6.782991361297925348e-01 -8.978492405158104983e-01 -7.375969922481823149e-02 2.869331274441479618e+00 3.077166611779288963e-01 -4.262758375509766995e-01 -6.231008830119749708e-01 -9.417661457636068434e-01 7.928834190310285468e-01 -8.232963773167770727e-01 5.239903857912875385e-01 1.037897129796487156e-01 1.557802631807768234e+00 5.775277200837856117e-01 6.936665990572916662e-01 2.084892787513021595e-01 -2.710143732595096666e-01 -4.951320119237226924e-01 -4.854004396070576988e-01 -6.210939857631773142e-01 -8.656120521148090718e-01 -5.181834921565396934e-01 -1.194747207560505231e+00 -1.566068177061226363e+00 -1.144565303588944150e-01 2.121503676278231609e-01 7.150214950155681093e-01 4.120197988377136133e-01 -1.488072943188210484e+00 -7.161460619223576352e-01 -5.035827600399827020e-01 -6.317242913160221462e-01 -1.468665648210469299e-01 -2.690387128186019439e+00 -7.445137954938008118e-01
-1.255301640019373277e+00 -2.285279192679766022e-02 6.585576903439158691e-01 2.695868782740646896e-01 2.116938942759859221e-01 -2.260827786165761744e+00 7.620895813514194650e-02 -4.471265189107813676e-01 -5.419094614377342189e-01 -7.183954496377553678e-01 2.670662798504805924e-01 -4.590191160422381622e-01 4.993918003012627893e-01 4.130295044560489681e-01 3.146104639711441164e-01 -2.017067912900344373e-01 2.220896256906905800e-02 8.840241761952645216e-01 -8.949988232137467969e-01 -1.214371250379161271e+00 7.247597713997299129e-01 4.608412106448598888e-01 6.234149687623187219e-01 -3.118515329712790440e-01 1.635571936537666415e+00 1.188146598827008793e+00 -6.999574454627347508e-01 2.082998377175994675e-01 -2.185801754397887209e-01 -4.570311599533177782e-01 -1.286679177150887421e+00 -7.553678396468363476e-02 6.698251152411280884e-01 -8.164587095835958985e-01 -3.841175540194354254e-01 -9.564319209682291545e-01 1.885501022389538539e-01 8.538486130764758597e-01 -2.180108053554676711e-02 8.692520732954936991e-01 -2.584807571671527970e-01 -1.857858565969010833e-01 -1.574160493396251914e-01 -5.119223024524519605e-01 -9.663764584538124536e-02 3.002825811755456265e-01 -8.170940039072617234e-01 3.096307383288583459e-01 -5.161775014275422624e-01 1.137364545998606369e+00 -9.204252337814289309e-01 -5.724771336835520197e-01 8.488631805246827922e-01 1.923054740078618541e-01 -3.176082192913997626e-01 4.075798871433539139e-01 2.588081931150845172e-01 -1.032857069284146334e+00 -5.471187210673087442e-01 -1.887318034681556567e-01 -3.073136897936132872e-01 5.840095793391890389e-02 -6.371369851388516414e-01 -1.382643698652977760e+00 1.438968803097671723e+00 7.582336904401614230e-01 6.089800099639238740e-01 -2.596090906761475137e-01 -4.100008025179325832e-01 -4.391790537531335969e-01 -8.969420513976148479e-01 -9.108140608817958395e-01 2.887569850127740256e-01 -4.792646952555273954e-01 8.173995060516994204e-01 5.094228972086582985e-01 3.346937413948982698e-01 -1.865868725757054314e+00 1.013571883553165742e+00 5.711977934723782013e-01 -2.406057484427986393e-01 7.473624075315814519e-01 9.802631705385274064e-01 1.155366265839321116e+00 1.159365713180771085e+00 -3.206037263113165614e-01 -8.717365225852201638e-01 -1.048477837542492130e+00 -9.704088969583143376e-01 2.091525702298517309e-01 9.484359891414402277e-01 -1.209924778594026140e+00 8.643907689138076444e-02 -1.011110068658936711e+00 -1.377446317092858585e-01 4.680751812199336892e-01 5.914273426735974226e-01 -3.846011043816244257e-02 -7.109876837799843363e-01 -2.113029310566198402e-02 1.457163029247769970e-01
2.575371853852728710e-01 -7.624399187307739911e-02 -6.394750258862583747e-01 1.915487790616677566e-01 2.312400509982614205e-01 1.887664601494955408e+00 -8.160340671495966980e-01 -7.394448929833885315e-04 -8.530481389121008506e-01 1.822398314789708484e+00 5.727591304632566604e-01 1.806888778022327502e+00 -2.949947998540102256e-01 7.263226840858219013e-01 9.668763748528302893e-02 -7.956507190702190035e-01 3.449284459312197404e-01 1.087338056124710906e-01 -3.987083908505172913e-01 2.797476488498729097e-01 -7.260788448223056690e-01 -9.087605444405078003e-01 -1.348525810209651565e+00 7.008512330557377101e-01 1.155166463026223278e+00 9.091375695564498649e-01 -3.071794606148217088e-01 -1.006170621424521683e-01 -7.306966505076734064e-01 7.995128072044950240e-01 -9.680446525427652271e-02 -9.727713221026063062e-01 -7.388238647820116745e-01 5.907038263365613218e-02 -1.360333712416970764e+00 5.349011965419867010e-02 -7.416092701721624936e-01 -1.051834404143527246e+00 -1.952573388398330667e-02 -2.692717337173424208e-01 -1.665393174409071753e+00 -7.498414960470455304e-01 -2.835749031243847695e-01 -3.486606718593785459e-01 9.481752273675813081e-01 5.243019779594323415e-01 1.786720106610706793e+00 -3.816797030818303571e-01 -1.419119332123649935e+00 -2.579652868026557133e+00 7.806998113199425937e-01 -7.727900784112801125e-01 7.686279327878028367e-01 2.415350337927175128e-01 8.497000977705203573e-01 8.017043328810048441e-01 8.341122215603954393e-01 1.166210169299783522e-01 -1.268934545664806679e+00 -3.191772560701986450e-01 1.944293773669128145e+00 4.502357098179877726e-01 2.643194106840456303e-01 2.180891735044240276e-01 6.488111999207908376e-01 7.447766781086405385e-02 -1.153734365917439275e+00 -5.333309815298233891e-01 -8.868287179640929052e-01 4.197583759384578284e-01 1.250620290872736184e+00 1.058739026169456698e+00 1.532163772881648678e-01 8.545724698560781540e-01 1.678223436734258556e-01 -5.333687000579215853e-01 1.089965850114980928e+00 -1.435722707962498790e+00 9.677881894156088460e-01 -6.283394837750097550e-02 5.297402198556894204e-01 -5.284832071607254989e-01 -1.991739825163928446e+00 -1.977286979863617455e+00 -1.155084419404911689e+00 6.202034003901764694e-03 1.584456863831883666e+00 -9.733884867385391715e-01 -1.069018130265225075e+00 -1.421358122775006949e+00 2.250144051985387139e-01 -1.313307679049877663e+00 -1.179266969274472610e+00 2.809075977353419143e-02 -5.555827187488043828e-01 -8.106669400583886853e-01 2.112686275427501925e-01 1.012722429434551458e-01 -2.727196142295950088e-01 -8.553702015966483385e-01 -7.345783371351982671e-01
4.469728915205565256e-01 1.740404929495770747e-01 8.955048806157516195e-01 -6.901637335945622898e-01 6.026349511703914530e-01 -2.198009635892240521e+00 -5.185512079499380311e-01 7.910354382204512480e-02 1.376387429131390727e-01 -1.381281054637069294e+00 8.874612012533877881e-01 -1.581024888594940447e-01 5.089462297753329922e-01 -7.875624715194390335e-01 -1.619991981459719899e+00 -2.632198588886592194e+00 -1.249923640279813203e-02 -2.630770395609295931e-01 -6.338457017611036359e-02 -4.842222629354448471e-01 -1.233805650005970200e+00 -4.761452304779672517e-01 3.282334991304156069e-01 -5.557040479096482244e-01 -4.837641970700815031e-01 3.921505740412643548e-01 -5.574946016823046913e-01 -6.847265888788230948e-01 -7.934783912440651621e-01 -9.556091927199164004e-01 2.551615532312832557e-01 3.902261349394419571e-02 -7.370151636290329655e-01 1.617049609130249144e-01 -1.408025796255999218e+00 -2.922491398780152627e-01 -2.107341595372716481e-01 -6.292130482730827756e-01 -9.659263021053813292e-01 -6.609359342843128537e-01 -8.434884466792819113e-01 1.885561066029235039e-02 3.537332757548882212e-01 -7.907012571282496793e-01 -1.567509360150536768e+00 9.386862973565039681e-02 1.811919762595326222e-01 5.249902952822536051e-01 -1.598234182026707861e+00 -1.581870710003874914e+00 1.906377605315313417e+00 -6.357838937867942297e-01 4.424317924175015238e-01 3.248249452471579923e-01 1.128966813968502458e-01 -9.270173601573012956e-01 -4.202769879435663825e-01 7.163115273876557998e-01 1.966552721694338202e-01 2.178412645546421583e-02 -1.158527885146973357e+00 -8.187950803823350610e-01 -5.564148374125194030e-01 -6.193366160636082363e-01 -7.155471860232791581e-01 -8.597217139301847055e-01 -8.311311695288012835e-01 1.373913846498872715e+00 4.543496301045023555e-01 -1.637863738494986121e+00 1.339520235644809931e-01 -1.075094057839376838e+00 3.004829375733286123e-01 2.265726061541730729e-01 -3.587602528423678439e-01 6.711167304310521331e-01 1.855619632497099714e-01 3.819021590042886993e-01 1.408962425927461126e+00 2.771527585154660162e-02 9.078794451046813263e-01 -2.198274589418955927e-01 1.965683626261979677e+00 -1.810192702059832071e+00 1.575306523300711747e+00 -1.947323152508575184e-01 -1.432195890136318539e+00 -2.465632090483389771e-01 5.068960560621087463e-01 -1.699632577221683150e+00 -1.007339446390545179e+00 1.100213863387138474e-01 3.113612725405219717e+00 -4.935955546526387683e-01 1.094534663016554221e-01 5.419720246569526001e-01 6.222113564648614759e-01 -1.345153717946209228e-02 7.382593541914670432e-01 -2.225883143832410482e+00 8.281670396969035425e-03
-1.099325600993958929e+00 5.437526900719031886e-01 -1.348470758002924819e-01 1.753593530984973503e+00 9.318904176740587797e-01 8.221340518099612416e-01 -1.941961788851919585e-02 -9.697022189072689313e-01 -7.221893653604849472e-01 -2.834220022298721275e-01 3.432974065974400135e-01 1.112098580858613905e+00 -5.303597014233368823e-01 -8.596686132525975799e-01 -8.383039929516258315e-01 9.083689274512594114e-01 -2.332716767609263053e-01 -1.308349478981988001e-01 5.731677837254121055e-01 -1.150283806442249590e+00 2.057652954722403171e-01 8.317017524344947343e-01 -7.454396719541813709e-01 -6.191825107669066686e-01 9.254603661738868281e-01 -2.613532098202496767e-01 -4.802277036958774170e-02 4.971716086711171489e-01 3.302531968579156540e-01 -5.740085832678459843e-02 -8.132349469213492332e-01 -1.790109477002534699e-01 -3.584031775229096217e-01 -4.006760095085457746e-02 -8.926562999718652414e-01 4.480460020904796226e-01 1.198646865911477510e+00 -5.727678855906841449e-01 -5.308491350035613593e-02 4.871522569996613594e-01 -2.464070933428650911e-01 -1.091321860976076086e-01 3.294263885735123631e-01 -1.340930716953151192e-01 5.710939342335694668e-01 8.586758382050385663e-01 -4.691546369103561931e-01 8.419966711646554858e-01 -1.280282734653514387e+00 1.068885305063865143e+00 -5.591443438305506719e-01 -3.877204949068784323e-01 2.382511939461025852e-01 -1.912796651804819781e-01 4.215837124879268094e-02 -6.347475642614502922e-01 -7.604227537332398645e-01 3.839579390566249528e-01 1.642324108891607959e-01 -5.720906945811490285e-01 2.482900139276927209e+00 3.493515830822424006e-01 -9.176127980268420359e-01 -1.933836305764254082e-01 1.886454297917334044e-01 -1.336603974212850154e+00 8.616016929189185269e-01 1.636690910075046190e+00 6.872385705707343417e-01 -7.336905585565232091e-01 1.291370568084713621e+00 -7.030531824788266437e-01 -6.051070375608419427e-01 -6.745453885846913744e-02 4.838067887821865254e-01 6.006875800762174755e-01 -4.099273272044737793e-01 -1.184637674094270343e+00 -7.495572192371017239e-01 -3.998162042487551360e-01 -6.505355768533283012e-01 -4.001271009390277578e-01 -1.182169378054594322e+00 -4.941752884708614652e-02 -1.225509812949357041e-01 -4.226466499635687102e-01 -2.721451481237077141e-01 3.108447134555331060e-01 7.342507610709940735e-01 -2.338503393290158883e-01 6.179689504393824917e-01 7.301978514134371823e-01 -2.137436711243658305e+00 7.008150931203708245e-01 -6.496921722245514452e-01 -2.968818460231456013e-01 5.057075979494689566e-01 4.346820430462648988e-01 -6.924049271695148500e-01 2.315105327458607753e+00 -1.081650100935741543e+00
4.127828679660425770e-01 9.228573169808774734e-01 6.883277610791687096e-01 -5.955645357457591826e-01 -5.508734198183938835e-01 -3.093256026546806758e+00 -1.538016273996439809e-01 -2.266131015153295073e-03 -1.033617557654908786e-01 -9.632044370665985289e-01 8.204739309963433869e-02 1.035748653549369430e-01 -5.540232859113531916e-01 1.917897345989281188e-01 1.562148754417443386e-01 4.615206258464372158e-01 -7.090843855366719961e-02 8.956683606336827141e-01 -7.445966742632814661e-01 -8.648221856065972935e-01 7.116018282312301935e-01 2.166946143907885869e+00 -1.052584797074678891e+00 -1.765835638305134792e+00 -2.174669557171108991e+00 -3.489655954413394268e-01 -2.657371026021602689e-01 7.833857750651607166e-01 -3.684357834015693500e-01 9.575160653776394470e-01 -1.256884601143513525e+00 -5.485242541840332775e-01 -5.171841437250743745e-01 5.365160106193482825e-01 1.398771725431112722e+00 -6.686412742081335736e-01 -5.297032036432648416e-01 -5.716644625285943748e-01 3.342938142653589795e-01 -3.324066095408985122e-01 -1.270756242712717032e+00 -3.234434984158558457e-01 5.958175228023521175e-01 -1.073196096932284904e+00 4.814223015771414982e-01 1.390947673320718447e+00 4.139355748253533696e-01 1.995677184032341317e-02 -1.670197768742374356e+00 1.086561674286475210e+00 -8.083472248745084965e-01 -3.886147807909944019e-02 -5.922109148112594257e-01 -8.274532853985131498e-01 1.146021757075254000e+00 -1.120587009826634839e+00 5.362555595663662800e-01 8.022530233150982903e-01 -1.268403002992117556e-01 -5.102572981008682840e-01 -6.806561357046332361e-01 3.002146021165715273e-01 -5.710130289724744956e-03 4.228264958941281848e-01 -8.918339551210495708e-01 -1.824337231982073593e-01 -1.386703980856735408e+00 2.189346430625720707e-01 -6.832144637199486503e-01 1.362471226493212617e-01 9.834916734391587756e-01 3.415217103960801470e-01 -6.233131667789900687e-01 -1.930478899839752627e-01 6.443217536380002608e-01 5.112163258815968225e-01 5.399294524554399954e-01 2.427925201046313042e+00 9.360450024843606220e-01 4.450015093690391499e-01 7.904642328248001615e-01 -8.753146450513428212e-01 -8.109397201961153767e-01 -1.545712467339739993e+00 5.048679706081412588e-01 7.844816014641425861e-01 2.459183596199215893e-01 -2.808470659370947420e-01 2.016879390014910400e-01 -2.107775917445807168e-01 -6.381899928087350071e-01 4.987227712289254433e-01 -1.096492372614870370e-01 4.781001495090611009e-01 1.272201068337826424e+00 -7.117369693715217549e-01 -7.561837298414278985e-01 2.693619644837491056e-01 -8.862597561449659933e-01 7.322861665243302065e-01 -2.529745869894725052e-01
5.854013683298037174e-01 -6.900114177750756861e-01 6.857778073315093925e-01 -4.937732865652307845e-01 1.280118393155133261e-01 9.214528498056838712e-01 -4.910658982892650570e-01 4.619310676539759020e-01 -6.869861119791794701e-01 -8.175300923692888633e-01 2.151179519475971413e-01 5.407056033973147713e-01 -5.776327828450346091e-01 -2.735033868704753179e-01 -9.327610893617754861e-01 -1.056415011168358120e+00 -9.599445350500872554e-01 -9.741992504313820578e-02 -1.056416952606665571e+00 -6.781765613582264596e-01 1.237024430019903809e+00 8.696190515683422939e-01 -1.046760842075901810e+00 4.789720743945293790e-01 -1.756378725348277658e+00 8.809166044961094233e-01 7.721381459996382590e-01 -4.439770992614915923e-01 -6.949505267051481194e-02 -5.482114126531626441e-01 -3.890601784980576294e-01 7.568761128082482359e-02 6.115549923648742059e-01 7.721154970149897434e-02 -8.729998051988006047e-01 4.599455028393618916e-02 1.551657484397632736e+00 2.103525363177631557e-01 -1.806022407997608936e-01 5.683880860120440470e-01 -1.030958726117378266e+00 2.402956768956088229e-01 4.087996879963586294e-01 6.878689802374089446e-01 -1.380336968494345617e+00 -5.061853413791370104e-02 -7.593515655481475335e-01 1.294445390711305433e-01 1.321736893362059351e-01 1.610881122156976986e+00 -2.009091660720936368e+00 -8.349648806364639020e-01 -4.142848897615463710e-01 8.866055575711154213e-02 5.694573060443877122e-01 3.743061649604439434e-01 4.494325894644262687e-01 2.306096814466997158e-01 -9.448751340879352201e-01 -7.701837990817093915e-02 -1.539458216628918574e+00 6.166111132036538045e-01 -3.895433618983726864e-01 9.414972750192969198e-01 1.320994761542520601e+00 -1.887060054552261792e-02 -2.469128721607683208e-01 -9.262704662740942618e-01 2.541540332672826974e-01 8.913243578048822835e-01 -1.800320144452777216e+00 6.250276517282833399e-01 -8.631523272160616100e-01 2.647701724558927383e-01 2.941000625599176493e-02 1.965562559259310393e-01 -1.189803537634781305e+00 1.827050052542050329e+00 -6.305258789141874320e-01 9.466823950195081272e-01 -5.535287347859503271e-01 1.603244852635857254e-01 -1.665480985816544468e+00 -4.130122766345938889e-01 1.159023239916265213e+00 -1.429341446714458286e-01 -1.443932857547200355e+00 5.700752766537799943e-01 1.532305197366138627e-01 6.116188119596395190e-01 4.064829421819509125e-01 5.716867047377373057e-01 -2.166242090208939652e-01 2.512904577792787753e-01 5.800208980574419471e-01 -4.060903932678611855e-02 -7.270728824323150485e-01 6.023273146276076906e-01 1.911816575780415917e-01 1.173968925862930224e+00 -1.003901726436477571e+00
-3.760178157567675150e-01 -1.034204105013634550e-01 -5.382376953007944609e-02 -1.512163397420397626e+00 1.236861611160108981e-01 -1.965206321356766650e-01 -3.917517962074684723e-01 -6.697669048993425134e-02 6.167982417822042152e-01 3.150292169425917832e-01 5.372600296550197330e-01 -3.936861563216527138e-01 -1.035399504340588139e+00 -1.988099919212569025e-02 3.429722128593493680e-01 -1.722846455065443649e+00 2.623450084569670659e-01 -4.601573149037031518e-01 -8.656066988386825756e-01 8.315958144680934971e-01 -1.377169714106832865e+00 -1.975603003474080355e+00 6.573152479267185821e-02 -6.777388231437700972e-01 -1.482230036332199852e+00 1.034936104842374971e-01 5.208948484862768735e-01 -7.677747030116599536e-01 -3.371136188927345012e-01 -9.523678330294550465e-01 -6.663862678818734120e-02 -5.184619903421676668e-01 -1.163423167147142750e-01 -2.650288287133645837e-01 -6.012070936050589731e-01 -2.067713193557068618e-01 1.750059668634800225e-01 1.353104300739342014e-01 4.336977808567897552e-02 3.481266975560187160e-01 -5.593348191917794088e-01 -9.593112692057791102e-02 2.874317921205137294e-01 -7.713760039755991338e-01 1.320339564292804857e+00 1.389545749877469705e+00 -4.668061535074525814e-01 7.568987108099977101e-01 5.719404760079456196e-01 1.368511672336098606e+00 5.617023259301964222e-01 6.935535932914849155e-02 9.875908242420442518e-01 -4.254232647479419538e-01 7.298421906859293706e-01 -8.370857046261160894e-01 5.059681188638662785e-01 7.001094837105734658e-01 -1.283446775786929672e+00 -8.213899968529551066e-01 -1.395314612695691459e+00 6.099310707896982153e-01 1.919779002704173065e-01 -1.084107476305078838e-02 1.087184601626110414e+00 -6.373073464657220688e-01 4.580393671853750237e-01 -1.184654567188594632e+00 2.992018847067426934e-01 -1.649629729985930160e+00 -1.535766160043227302e+00 -4.952398594747146610e-01 -4.274263605526688048e-01 7.317421732565767556e-01 1.938680754504503237e-02 -4.550645165239095569e-01 2.462306110775542567e-01 -1.027662969009408123e+00 1.306057982457234479e+00 1.570722199548727771e-01 5.026343008892081299e-01 7.974843145797162469e-01 -1.465694123673988214e+00 -1.176378720981652082e+00 -2.644646868010879781e-01 1.648484653573755176e-01 -3.211789336282665497e-01 -4.249552197710472212e-01 -1.911130178615169650e-01 -3.069972134932353325e-01 8.942910428731529748e-01 -7.539512865192057323e-01 -1.627927903539353016e+00 -2.215944445493386872e-01 1.508953916002691242e+00 -8.042116543522186412e-01 8.609128008152440170e-01 -5.614084009284980858e-01 -9.752390167974617219e-01 1.683342444034919172e+00 -2.591686446265465404e-01
