-8.860138933062106092e-01 -7.162856685225812425e-01 -3.707943266432419671e-01 2.806889827850760355e-01 -6.889366295641791149e-01 8.941080339147634143e-03 4.899726644464931224e-01 -1.952623664175006379e-01 -1.880107907729991756e-01 -1.332795227648949088e-01 -1.228533335836089257e+00 6.120123175468221710e-01 -3.475370028810486067e-01 -1.111307243321791871e+00 3.772098333276152071e-01 6.881354302985998039e-01 2.083487717389871929e-01 2.687866628488770893e-01 3.415397981721051135e-01 -1.877033380453089779e-03 -5.334112099440501131e-01 -7.113788568049872474e-01 -5.851083963030165869e-01 8.591045430850429154e-01 -3.518239403234582063e-01 -3.127401751308050426e-01 -8.788670553124977580e-01 -1.117344038187072064e+00 -4.904836722535561022e-01 -1.044298624538130493e+00 -8.493407664742922414e-01 4.520915683949152664e-01 -1.141818004621859783e+00 -3.653463705499333802e-02 1.149653371743158736e+00 -5.211107085870891886e-01 -5.788205216230060124e-01 -1.132836996911848582e+00 -4.036941743091900237e-01 -6.840590633707580581e-01 -7.407813674570327134e-01 -1.107303340648914114e-01 7.306185000977483135e-01 -8.184785983511418950e-01 1.034170970434756143e+00 -6.248432982279344960e-01 -7.524046773977772773e-01 -7.543292530175346178e-01 6.700297569103755846e-01 -7.069781864473391186e-01 -6.825260221410566208e-01 9.543417882252500650e-01 2.938292153571650522e-01 4.497631471212952536e-02 -7.919227829474017044e-01 5.475843420260962935e-01 4.427482724949203252e-01 -2.400054617016952885e-01 3.445087169490958501e-01 -7.910081733809984916e-01 3.888589002901576830e-01 -4.200524901191597937e-01 8.816210265838245186e-02 7.640749656476458762e-01 -9.028134896490996875e-01 1.215609653189333866e-01 -7.144710741541944188e-01 -2.534378191552792425e-01 9.585137604511898002e-02 -1.017876084543243298e+00 1.354874820800112900e+00 -4.627831990349124958e-01 6.213673292537839066e-01 7.089524481558057145e-02 6.106820774514127859e-01 3.006099331882353121e-01 -5.768940438046233909e-01 7.940064133315000161e-01 -9.483905109764935171e-01 -6.419028851131533542e-02 -7.079997039655732127e-01 2.038197154403338651e-01 5.748045398456670396e-01 -1.027638599339611158e-01 -5.837367245474613942e-01 -1.515074902330460771e-01 1.702499032266657497e-01 1.046305706287791598e-01 -5.047212724310140564e-01 3.090442973560768580e-01 6.925425352414399383e-01 -8.803304528814684948e-01 4.069898143683061686e-01 1.831796219112401258e-01 3.910494960600914838e-01 -2.276230536283625205e-01 -5.789809573535127374e-01 -2.469996798902124660e-02 8.221305537644671424e-02 -2.962548417038851287e-02 -1.765215956552509846e+00 -2.403560687443264399e-01 -2.843306204165054751e-01 -6.025144555169630323e-01 -1.008959231490984099e+00 -7.677404511554227762e-01 -3.474202439131331035e-05 2.809116717872075508e-01 8.332011695758744230e-01 -9.175426248499382043e-01 6.959472686058872926e-01 -2.651481510287796994e-01 2.728045773222624870e-01 8.674424784473773187e-01 -5.868785482054793556e-01 -3.824000689448309731e-01 4.542682439306996445e-01 3.380688052473384553e-01 1.903429819771538800e-01 -6.428228003353143594e-01 3.448999258190021261e-02 -4.186807812346166058e-01 -1.784446765358410625e-01 3.222437584080158346e-01 -9.663363048673286049e-02 -6.001600602330527945e-01 2.721873789873337501e-01 -2.951482803237149288e-01 -2.181860077779203266e-01 2.638188101074909198e-01 1.539218201484253423e-01 1.016038310447549220e+00 -1.052483922331982624e+00 -2.891258868664006720e-01 5.580743234955743218e-03 -3.914681365692220250e-01 7.825909530852489526e-01 5.943679565518810923e-03 -7.957391741221909731e-01 -9.287821500676523012e-01 5.589627967578553180e-01 6.666474022313885195e-01 1.798030829358424542e-03 1.304111180480141297e+00 -8.826196968332781223e-01 9.545479655332217428e-02 -5.118808504606645604e-01 4.436011040151471851e-01 1.110848495171275818e+00 2.850382721616506188e-01 6.038818509455679689e-02 -6.335194139414066505e-01 6.216565446473415468e-01 -9.228033418754226780e-01 -7.887363793413015856e-01 -3.196928076183441214e-01 7.515619145022695013e-01 -7.945276300907995193e-01 7.145022893397721120e-01 -6.947417854670840942e-01 8.570674703704280750e-01 -9.225375177655701364e-01 4.404124359775160591e-01 8.637771006782523076e-01 -3.037130568836330924e-01 8.828383640976278368e-01 8.556223617687124250e-01 -2.837130725581744062e-01 8.161347019923672619e-01 3.661720275797371998e-02 -7.910160054251045292e-01 -3.334767209571713464e-01 5.623038222279449494e-01 -8.771392511608571141e-01 -3.039020928642351127e-02 -9.718584706016499819e-01 3.155807408920489610e-01 -1.480349228916953142e-01 -3.051699881960978633e-01 9.290446257133265773e-01 -8.864755465973434001e-01 -5.208894231484745285e-01 -1.042682070949194906e-01 4.023978164357371878e-01 -1.067418861880344627e+00 -3.184456739535480585e-01 -4.927956916373769647e-01 9.159905988937884214e-01 3.200720361971766126e-01 4.264502501031853243e-01 7.773448254923122080e-01 5.250522626104290325e-01 -6.140279891469471174e-01 -5.636899369016019623e-01 1.264996056888635090e-01 -5.959722922894572505e-01 -5.217406519407805643e-01 7.172413021250797494e-01 -9.133189050421683941e-01 1.546560516217829195e-01 -4.487759338089807315e-01 -4.355875618927356752e-01 -3.862881915721828041e-01 6.363212859731567361e-01 2.673838639342409063e-01 3.946301876738739778e-01 6.964316973426291912e-02 9.918770841092489077e-01 5.266667119026955390e-01 -3.545350055836494763e-01 5.302536580341812300e-01 4.781499557063337846e-01 1.013268212306261518e+00 -4.781192161751957048e-01 -8.329563055519232373e-01 8.086029377058451262e-02 -7.086419946066997433e-01 -6.076461535187790419e-01 1.712390325360387822e-01 -9.164944170569833820e-03 4.768659139902104993e-01 -8.680398866726972695e-01 3.824333483137220546e-01 7.207036093450674974e-01 8.707313642320347880e-01 -3.442297635514731113e-01 -2.763175171918757500e-01 4.318268184302514467e-01 3.077195742356466091e-01 4.208130964316821876e-01 -2.760351892265496265e-01 -4.221588443942551061e-01 4.749849484978581060e-01 -2.430954307665286241e-04 5.906438796208487302e-02 -8.607587340756067684e-01 -6.810338587048537784e-01 -7.837208454187601925e-01 -8.938152079930103966e-01 4.027644311631554952e-02 5.339031606958710707e-02 8.434079308785895346e-02 2.316911883256617122e-01 -5.763083484786231114e-01 3.754785143506633727e-01 4.118279318793952037e-01 4.003809037840656004e-01 4.276042912345680014e-01 1.645252204453882816e-01 6.438750246877408268e-01 6.309839786520873295e-01 3.935769512445295160e-01 -6.298666872889157053e-01 -9.178219285442104081e-01 -7.852224621081096423e-01 2.472748589681022235e-01 5.593092032845859984e-01 -3.615122525106104212e-01 1.555716259766819765e-01 1.170145784211030771e+00 6.119791773452079031e-01 2.735415791100667127e-01 5.179232968004069404e-01 -6.544710180222650386e-01 -3.775351862671730840e-01 7.358084153917763270e-01 -6.207212878205805445e-02 -8.212054039618397194e-01 -8.126242098850434692e-01 -2.055414561397520823e-01 -2.130276197592716747e-01 -5.263097704055821890e-02 -8.519667369690778758e-01 4.309104032346330326e-01 5.040451648273803764e-01 -2.677862829297473768e-01 2.991073359686607369e-01 -2.416128051660971499e-01 -1.223976557809884486e-01 9.382236169047961649e-01 -5.336385938089329706e-01 -8.429006282464768240e-01 -1.053140993859138091e-01 6.310111800529331072e-01 9.879270964185021819e-01 -5.253246706835790897e-02 -5.992062911546003345e-01 -2.033934286215858533e-01 -2.494274668850744725e-01 5.601864322439753519e-01 2.486365485412522780e-01 5.578965684248294865e-01 5.747133313523281606e-01 7.326689700084076939e-01 9.509174793724996244e-02 -6.082694321767778689e-01 3.971359400988644373e-01 -1.192736152174531217e+00 -7.767959941970122850e-01 -6.149478075411380917e-01 -1.036534571509489355e+00
3.765875840121765683e-01 5.095371870702056216e-02 7.385210091336210647e-01 -5.637732648677175051e-01 7.403134571991745183e-01 5.212249337587869791e-01 3.921942720463933441e-01 9.645282268241784918e-01 -4.133953771593253390e-01 -9.896324697498637413e-01 3.953063150157302696e-01 6.962026960647028639e-01 5.629128428657619310e-01 -1.005251350393923548e+00 -7.910395202589326491e-01 -3.291700312806086770e-01 3.717194326213444366e-01 6.959627491555938628e-01 -6.478711995307036009e-01 2.557447229100304198e-01 3.497843997076183209e-01 -2.474361720884263594e-01 4.534146717729075071e-01 5.093259580660401964e-01 -4.974149994132956443e-01 8.559905624671735325e-01 -6.407689579205698427e-02 3.117349757883057793e-01 -4.743414940762266108e-01 6.661212645299445789e-01 -3.263642626093010701e-01 -3.893926377409897555e-01 -4.191083498041661692e-01 7.322515065914558807e-01 2.917479009796462158e-02 -5.741266881888188456e-01 3.849634208957695702e-01 3.504272412504089163e-01 6.780931647109328386e-02 1.448200149291413164e-01 -1.042971055275682568e+00 4.159533595773493020e-01 4.585329309189128955e-02 -9.171373151444055516e-01 -9.775079785925808729e-01 -4.733912843704224938e-01 1.005628760697235835e+00 -5.894655851045992323e-01 -7.170636039867358535e-01 -8.760683491838134884e-01 -2.665946331546471537e-01 6.367710103758500439e-01 -4.939823712022959334e-01 8.081041886911116690e-01 8.585400005566982129e-01 -1.164104433778536452e+00 6.073947408779510893e-01 3.720041791903263007e-01 1.927821058489606332e-01 -3.839269283948011369e-01 4.239922085027663656e-01 6.675698590349561368e-01 4.465906430540173347e-03 1.119569656684696213e+00 -2.470672419147312143e-02 4.243698440759181012e-01 -6.021168796579051685e-02 -4.625937449933173462e-01 9.446259886942047768e-01 3.455371115135503213e-01 3.121041504520802867e-01 -8.811945169012799228e-01 7.992123819001027973e-01 -1.010134591163465573e-01 -1.242053320916231517e-02 -7.123114413196832695e-01 -3.144682403747004473e-01 -5.238582482875919766e-01 -6.804355732616946817e-01 5.395786195781078209e-01 9.112457062122712725e-02 7.278879351868146053e-01 5.766165893687711375e-01 2.415378967606058580e-01 -7.627482601560752196e-01 6.541714300943429761e-01 -1.428944461355819984e-01 -8.751413004373534421e-02 -8.485150354203414569e-01 -5.665958510205268972e-01 -3.283080797524407513e-01 -3.126306077916310433e-01 -9.531442554045133075e-01 -4.100699843549839296e-01 -5.102322473184615070e-01 -2.423060171288484443e-01 6.382649338870121092e-01 4.571143180410929818e-01 7.368246683110764028e-01 -5.694573556862175812e-01 2.672933003969463206e-01 9.036639328753862110e-02 -1.250185764574242575e-01 3.225319212016816151e-01 -1.560129316298577429e-01 1.281650728819161145e-01 9.054424943893893962e-01 -2.878822028538812611e-02 3.101212030153077670e-01 2.587147498321893946e-01 -4.790760937086660509e-01 5.270145262988977786e-01 3.277462685499507034e-01 -2.956288742793717894e-01 6.499293435462600854e-01 -8.536813245210479462e-01 -4.234424364561242271e-01 1.020515968868124235e+00 -1.002979603727659347e-01 1.900608431999231962e-01 -8.411636268463684729e-01 7.976108100750458618e-01 -8.912153252505030654e-01 2.472208568288641883e-01 8.295647708913460594e-01 -7.929536182634542296e-01 -1.848408651767151634e-01 9.013749722520676688e-02 -1.019743950937466725e-01 3.745579221242290036e-01 5.113241252816606852e-02 -3.823889814228079165e-02 -1.766295105710971314e-01 -4.557362901242978936e-01 -9.776401010391307933e-01 6.636291911336844596e-01 4.007255126289083758e-01 -5.281283930194795584e-01 4.583190589093745770e-01 5.319267859481506822e-01 2.053174750946880067e-01 7.924637288367192278e-01 -4.113016346370634291e-01 -6.227955874079164067e-01 6.146507976895876357e-01 8.028401509990112928e-01 6.536906417861262364e-01 1.668813887905041746e-02 1.074809748867920495e-01 -2.347401624122629482e-01 6.843341655495230325e-02 9.242398057691063595e-01 8.000491746317236474e-01 6.733569780363840573e-01 -2.789674251675453576e-01 6.390322420334029196e-01 -1.959811413616672215e-01 -1.075333475795734905e+00 -6.342143574376017945e-01 3.400372518310817993e-01 4.041394052834605399e-01 -2.066007052368275532e-01 -4.073187910069583362e-01 1.325068670945675764e-01 7.968018725189190965e-01 4.732179891823481421e-01 9.689866949072737379e-01 1.009435051231031055e+00 7.948435923864348718e-01 9.091503356546914993e-01 3.954689977777419152e-01 6.143981509408923403e-01 -3.881529599978906786e-01 -4.685383485569282261e-03 -2.633314549200875265e-01 7.343728119595683834e-01 -4.173428327782350289e-01 9.934106667591562356e-01 3.333260986107752788e-01 9.505340711497958228e-01 3.939501297464088614e-01 1.982983959907317073e-01 2.172911102241449344e-01 -9.416217723042531462e-01 6.534025017987471484e-01 7.289378064385838851e-02 -4.055273518446127490e-01 3.103302910232227374e-01 8.831409813263431108e-01 -5.291656093670438210e-02 -1.339278835864790296e-01 -7.613704324698024051e-01 -2.688311897955453222e-01 6.684732632037230227e-01 -3.967812482355796422e-01 1.324640529601547358e-02 -5.618814217336262073e-01 -2.812625408817458483e-01 -1.455265575590939386e-01 1.002304662045336858e+00 -9.268573968673473606e-01 -4.592994064926420594e-01 2.583982010392973927e-01 7.814869981408307797e-01 -8.545734722340403433e-01 3.357740178455641544e-01 4.690115028785343254e-01 3.241605203431704996e-02 4.986996584971555846e-01 9.000708459507390513e-01 -5.601323521580433562e-01 3.161111155166774211e-01 4.009856881649960236e-01 -1.142535579582033695e-01 9.370211344303739365e-01 -4.203186442391645961e-01 -8.323352109303747692e-01 -5.431929431986416527e-03 -6.576008285881347337e-01 9.168012151738875737e-01 9.204683058444367294e-01 -1.080808874697245958e+00 -9.501832008949430142e-01 -3.057240213219844516e-01 4.164535403608917163e-01 -6.668403210360666078e-01 -2.861708977433932155e-01 -6.464643411523401939e-01 -4.313923111283789469e-01 1.860089497678171500e-01 -4.920507274158258948e-02 -9.764518741692468362e-01 1.697532982834150939e-01 -3.246999700963263957e-01 -9.878295746714886860e-01 -1.019328450982365686e+00 -7.861199014394034679e-01 7.097423466729465558e-01 3.728183595187145594e-01 9.654533582953901683e-02 8.781496956407091048e-01 -4.923319458976398999e-01 1.652529313418007184e-01 -9.327753166556970177e-01 5.756454838878607427e-01 6.847625193178406844e-02 8.360644244408566017e-02 3.877951342584868288e-01 -8.267804656983986922e-01 8.191891442790879552e-01 3.476480064177812634e-01 -5.854911871627450637e-01 5.165887191159819203e-01 5.438753019371623809e-01 4.627961978948534338e-01 -6.516355435803194984e-01 2.424593519017347876e-01 8.359676187368627609e-01 6.509338775947409728e-01 1.996798789314197797e-01 -4.555155755730830314e-01 -3.783871811858355305e-01 4.307380072899984480e-01 6.605734280319197627e-01 -6.704116541798650353e-01 -4.765504620265326730e-01 3.988877380467569789e-01 -3.026895377100918133e-02 -4.496423046805133605e-01 8.983661203911005311e-01 1.602832534353740845e-01 3.283329922681945123e-01 6.575315085307976704e-01 -3.536001693437400006e-01 -5.725028487891662410e-01 -4.601926500228544215e-01 -4.019832622930722410e-01 7.894239211209186369e-01 2.968949339098902324e-02 8.281812889808242151e-01 2.308497773921913410e-01 -3.884974537838774555e-01 -1.555129151271535393e-01 3.801719767358327506e-01 -9.126452840412973000e-01 2.129600309623705945e-01 2.977408574258590956e-01 7.091092440007236153e-01 -5.925165987739388074e-01 4.065549468759840357e-01 4.239658550478850874e-01 -3.240245176804573690e-01 -5.512358340203065143e-01 4.416083730543031438e-02 1.890393923293145206e-01 2.236530396185133218e-01 1.437417838740936704e-01 6.898653875350012621e-01 -5.494846745205931304e-01 1.506250084597758609e-01 -7.381008175191153819e-01
5.369646063125216306e-01 -1.282253133086565522e-01 4.176483885340836477e-01 -1.407760499123019260e+00 -7.508908163879560727e-01 1.078104971218305924e-01 -8.009149089909999297e-01 2.191641396753806481e-01 -1.894938037357634941e-01 7.001346224933836515e-01 -7.428867798986144022e-02 2.197933409371748692e-01 6.030713240865552827e-01 -1.075328451874748126e+00 6.829108054280759454e-02 9.367391760183096938e-01 9.079639645272361559e-01 -1.301078658634729768e-01 9.019558712037334391e-01 6.013708772378816014e-02 -9.881917093793353146e-01 3.339596857009520803e-01 -3.243758096760950699e-02 2.884519109156850197e-02 -2.200192657016160624e-01 -1.790260747610319669e-01 -2.270683967859978003e-01 1.066499826548960694e+00 -2.481278431113071170e-01 -9.925370343937017781e-01 2.941358677984524661e-01 -6.522155383815780860e-02 -8.114362013383158434e-01 -5.107310975623197136e-01 -2.789114730307356779e-02 9.061949604989576468e-01 -8.495487752093099088e-02 -1.412456023395682603e-01 -1.052623994043476285e+00 4.355664833952337389e-01 1.042938472975702136e-01 2.258416197006827553e-01 -1.231961566008780568e-01 1.098745003410034116e+00 -1.099806042743904033e+00 -9.352522235629665559e-01 4.465129899453745832e-01 -1.022286858203889981e+00 -3.624530121420528328e-01 -4.805016062511823227e-01 6.020509848027915112e-01 -9.122912961437436019e-01 -2.055376851195985233e-01 9.719947616628978396e-03 -2.447567921008900527e+00 -1.007463811352597105e+00 -5.409717081458288446e-01 -4.183692756566757542e-01 6.196830066983975982e-01 1.251392750099078466e-01 1.423268388684578445e-01 5.231491514386946706e-01 1.360913760440775278e+00 -3.114107982993806201e-01 4.832304034488890676e-02 -2.121834534090126234e-01 -4.185978346144748063e-01 1.289101062848871382e-01 9.747297523791309537e-01 9.400444687529279086e-01 -3.696471438888178640e-01 1.047806302493752562e-01 -1.051095880652852754e+00 -8.596608336034344822e-01 1.781958157914416141e+00 -3.317386236366867691e-01 -7.840261573591362776e-01 1.776175198829817448e-01 -6.603687416872914273e-01 2.807413723578954801e-01 7.429924704386775547e-01 -1.065414067097540718e+00 5.727752685142037947e-01 -9.083680137009271238e-01 -3.821590717049039992e-02 3.648854229700324026e-01 2.114326451347229574e-01 5.465900349077913445e-01 7.307584819634465045e-01 -1.000108934606685172e-02 4.898926447912343995e-01 4.217788665908737133e-01 5.527363300162012605e-01 6.419343535562939129e-01 -7.076998459913133033e-01 -2.964649843058154155e-01 9.980925514927103670e-01 -8.845012865111678835e-02 -3.769932765497467919e-01 -7.469895249603863974e-02 6.995436164816807301e-01 -4.521430084441267483e-01 -1.041494909703616134e+00 -4.063676940188373221e-01 2.945127482730917068e-01 5.880721519510065942e-01 -6.227895769900261280e-01 -8.284625466932077353e-02 1.220367377813360577e-01 9.654404579261224861e-02 8.795563339241447842e-01 8.740399187019418648e-01 1.235258995136183868e+00 3.238037906917689002e-01 4.030705773873335951e-01 6.219791705492074829e-01 -4.908829050228490920e-01 1.063005446764109907e+00 -1.179948417109801140e+00 -4.857947213121844854e-01 2.988594849480382676e-01 -8.056645930813662870e-01 -2.366698601825156789e+00 1.680670605635525006e-01 5.823946245806994604e-01 -5.442105684884545047e-01 -5.654292616681629857e-01 8.458348750060598054e-01 -1.630970560388316448e+00 -1.071836751741371163e+00 -9.524109645956823078e-01 -8.035686322079972355e-01 -4.244206380052755745e-01 -4.337725114861005760e-01 -9.830562239932914836e-02 -2.850162753983778025e-02 3.556650327866808237e-01 3.701252956116546367e-01 5.241319403987265702e-01 6.226311527917804955e-01 9.743085308307810610e-01 5.575246740439366855e-01 1.250365943167547123e+00 4.265459202811345413e-02 -9.279962104313246307e-01 9.622702831750575836e-01 6.125611423124665000e-01 1.241014370099350339e+00 2.131615625332059505e+00 5.382224080273078082e-01 -9.539470117820798567e-01 9.268095118052162018e-01 -3.728506330933629709e-01 -1.056634733521065184e-01 -5.993812575276902255e-02 -1.330955930000031096e+00 1.128193501825252854e-01 3.793067479927535457e-01 -1.336265460396240501e+00 -1.731219621402781683e-01 -1.963280165836729818e+00 -1.486119121446693558e+00 7.282754950179419762e-01 -2.253031269423319660e+00 5.303806295143112526e-03 -1.147364849694011424e+00 -9.937962519386859261e-01 7.002324819305761894e-01 4.625287626814153508e-01 4.391532461474804278e-02 -1.968696702948298793e-01 -2.440943190155139053e+00 7.741138759587222751e-01 -6.450896148525376850e-01 -9.392197429683207810e-01 -7.574457499957598650e-02 4.774018474820237445e-01 1.862490890400921417e+00 -2.259298708278492940e-01 8.454404948613809534e-01 7.774386669631523361e-01 1.548955036487981163e+00 -3.468048496473633557e-01 -1.337766772253461856e+00 -8.460695364844961208e-02 -6.681981827715217648e-01 -1.623919134526973895e+00 -1.276238304848857641e-01 -6.664037158666137328e-01 -5.023566362010670749e-01 3.361784395449505802e-01 -3.956814157207164118e-02 1.268737033127959046e-01 -6.570719499860555590e-01 -1.136125121633056789e+00 5.113711826018239037e-01 -1.013911192960606611e+00 3.154254468734001282e-01 -6.387242950066054359e-01 4.455472825575493290e-02 -3.263298455589406233e-01 1.284705591747415665e-01 1.187484683244098005e-01 9.836899700632516230e-02 -5.059113279886847669e-01 4.479632287403633728e-01 -1.816091327973321734e+00 9.481448640653646065e-02 1.139200992268275314e+00 -1.521319876821869199e+00 1.747419443832871622e-01 2.087829788208675763e-01 2.163681180366701096e+00 -9.473373502525501699e-01 5.215753599775019289e-02 2.358373571586663831e-01 -5.373670129135613704e-01 3.955934417997772901e-01 5.499925729352068277e-02 2.551915029752173103e-01 -1.629706962981245955e+00 1.990342403462337650e-01 -8.852302013338101405e-01 -9.542658536906054589e-01 -1.143844766947234026e+00 -4.735413645916167896e-02 -3.001616530457855148e-01 4.097721392234765503e-01 3.230258108914516035e-01 5.633512046282429520e-02 -6.265852660986241940e-01 3.454849681525314353e-01 4.057860614538507660e-01 6.707881899982928164e-01 -4.712555962485430738e-01 -5.699287920645548233e-01 -6.928150593831975401e-01 -2.771688978522621749e-01 -7.666459364338620297e-01 -1.262263776406901572e+00 3.780087721403850298e-01 -1.292960095717164137e-01 2.067894060870601181e-01 1.628597984390058040e-01 5.004677545382820725e-01 -1.068468385572788198e-01 -4.271205736434265793e-02 3.939773518764735361e-01 1.700105004217162818e-01 -4.858841873675630585e-01 -2.851356349947069990e+00 -4.276151953373572012e-01 -3.821435142876646318e-01 3.386024392976011987e-01 -1.444588801139785328e-01 5.806629472537422343e-01 -2.057536415514985562e-01 2.685570561190350203e-01 -1.509434753097354531e-01 -6.258732448825577999e-01 3.891827183235199161e-01 -4.071027226345103056e-01 -2.290117134160238321e-01 -9.846642546434699605e-01 2.582888952252565540e-01 6.530799142610249630e-01 -1.232589156882340775e-01 -8.923896530832495788e-01 -7.041021201189919809e-01 9.171945271831567492e-01 1.739580888082537524e-01 9.499765045835011079e-02 1.196828633579335222e+00 8.490196223838269995e-01 6.513805821098443971e-01 -6.757101188432891314e-01 -4.010833469469555213e-01 1.271090657117851075e+00 -1.571447281099892235e-01 -2.492676995225368286e-01 7.279371263731532204e-01 2.129577123194175900e-02 -5.952584478726747896e-01 4.315508447845837758e-01 2.703094394567854830e-01 -3.261371902877419626e-01 -8.360997930155734670e-01 -4.422906809188015265e-01 3.444361873213261926e-01 -5.664562289662371519e-01 -5.322866833840134149e-01 1.932441691079414881e+00 -3.141773275944129695e-01 -6.058681227571551808e-01 1.251951143927157561e+00 -3.735098922447469549e-01 -6.774148837596494221e-02 1.230840354940254455e+00 -5.682327034534063320e-02 7.061782314084678047e-01 -1.414899145922061952e-01
5.254186469798589609e-01 -7.216187751564606678e-01 -6.048543648669970629e-01 -2.053416379633348776e-01 1.037733250368375826e+00 4.179440102280344016e-01 -3.947111820615545885e-01 8.300416114070306994e-01 1.639500237578084274e-01 1.008859382074619671e+00 -7.442184486009167932e-01 1.080135014972736673e+00 2.797358744072068748e-01 -6.360029709450518709e-01 8.241093833102404176e-01 1.166229428543938074e+00 -2.300090599099706978e-01 -4.788019417818262791e-01 -3.969141796965598434e-01 3.808699145557912780e-01 -3.165671251819076604e-01 3.008467706390403618e-01 8.848619514759824556e-01 6.005140471789609524e-01 6.249401769344947732e-01 1.190577163539340733e+00 -3.171746670354488873e-01 -5.888666338173603743e-01 2.815620495616191765e-01 -4.891725317160667830e-01 4.856682687024862499e-01 7.745431702025904475e-01 -4.362959068346670133e-01 -3.118957547687791765e-01 5.367271791207357534e-01 -8.404905846221651933e-01 4.300113534143228389e-01 8.139205323316114349e-01 2.239589800957476548e-02 -3.353071095523497691e-01 -6.871210586461194980e-01 3.777980512673183022e-01 -2.699646204896720240e-03 8.102991196423308118e-01 2.753091218711119503e-01 -7.248259008293682637e-01 2.336723008758915809e-01 4.839077776228496441e-01 7.676286280078444824e-01 -6.845667214589240546e-01 6.327597273344226503e-01 -2.654590263197468408e-02 6.426456460197530474e-01 -8.132403505892461526e-01 2.232563322991299448e-01 -1.565390007658858385e-01 8.928533268743408247e-01 -3.829105555143570011e-02 -1.439247746105082770e+00 6.466145903954069185e-01 -1.544045328263946304e-01 1.080660579724561421e+00 1.380041997780284913e+00 -5.286266721001455782e-01 4.863331470183126504e-01 -3.704766369696224637e-01 3.176219318164127392e-01 1.597084144221100066e-01 3.652289585828488172e-01 -7.101063690526326910e-01 1.218783576741871100e+00 -6.948903337770930833e-01 8.251943121898036582e-01 6.505025064144959179e-01 -3.317556326774758757e-01 -4.086275982153628750e-01 -2.543521584480682995e-01 4.700216618314002615e-01 -1.774368352670019910e-01 5.810451773338174419e-01 -3.802447313576778343e-01 -6.965337055998131093e-04 -2.240973026642069654e-01 5.874567773278943639e-01 -6.779379000742625019e-04 4.506659873335621541e-02 5.229181191572580545e-01 4.578302610844265375e-01 5.280584879594870662e-01 6.801668449273826633e-01 1.594395610584620204e+00 1.125181269072068391e+00 -2.169072141827133038e-01 1.024492045307420600e-02 2.283799606844070518e-01 3.408511440251068593e-03 -5.794639264067571460e-01 6.045017233868901219e-01 -5.716841746777282518e-01 1.351761472702081024e+00 -1.497937809458568803e-01 1.532623230827605265e-01 -1.439837320557394162e-01 -3.758158728434130569e-01 -2.467053954603098120e-01 -7.995789695112810735e-03 -4.456257857751075302e-01 -3.224966881277179787e-01 2.215338292564487666e-01 6.767324794526393683e-01 7.052960324647458146e-01 9.874976804819098897e-01 -1.114232074325649968e+00 -5.036978077937482867e-01 -5.145432799530084145e-01 -4.653088960697285836e-01 1.160680739948268148e+00 3.492601406776014716e-01 -2.506920995305795818e-01 -3.145533481026436262e-01 -4.610714558093868543e-01 5.720102424701084542e-02 -1.010323078635888105e+00 4.462449960212682698e-01 -5.523057632935390870e-01 6.094778957371278505e-01 6.342834964857957392e-01 7.061678077395782127e-01 -6.905310289979407212e-01 7.339299078154065681e-01 -1.319608168335944631e+00 5.434315695031182586e-02 3.934682085319206046e-01 9.576170402069150711e-01 4.429978417831836324e-01 1.159868067224763877e+00 9.217745830363234250e-01 -2.743597927664413461e-01 -5.022089587033000679e-01 4.940212007860534937e-01 9.987955154921196455e-02 -8.040744217102323566e-01 6.360863130773897374e-03 -2.773272012237616990e-01 2.957343520953631399e-01 -1.033454850913722689e+00 1.052738715805168646e+00 6.322228402864922270e-01 6.419544990435501752e-01 -5.104936831885680260e-01 6.712671229287999752e-01 1.174914103167481683e+00 -3.309941788822813313e-01 1.014297401999777692e+00 4.793681515096065437e-01 3.993106480369261191e-01 -1.420693253790432098e-01 -1.423929925776340755e-01 4.284549236974310449e-01 6.303990574445905715e-01 -1.015470910069588895e+00 -5.087085397600538128e-02 8.754712942825148003e-01 1.177408927238171726e-01 2.414408316096246232e-01 -8.609129427021036118e-01 7.783570455241258790e-01 -7.261701738291703734e-01 -3.763457297235267562e-01 -5.574588310038264272e-01 -6.123747499748269929e-01 3.527841382938693426e-01 2.542537184946171425e-01 8.016781112457354030e-01 1.161165318865114426e-01 6.483960567635788097e-01 -1.191192913402602804e-01 5.537888794511193202e-01 1.016277771912880157e+00 3.465268451034147490e-01 -7.622356185711556646e-03 7.803922723430206654e-01 -6.129865351457958189e-01 2.257180620141305272e-01 -5.439079680085801005e-01 1.176933373135391064e-01 1.503180988426725539e+00 -4.457938521224718564e-01 3.670698978250744315e-01 2.997458727248183408e-01 7.880867928964033764e-01 -9.513713432877875936e-03 -1.853629046494816579e-01 -1.550842838862761253e-01 -2.706070149877934372e-02 6.345345674489105692e-01 8.099018237250600327e-01 2.351752597285009516e-01 -2.229756380101247937e-01 -1.019118005003590427e-01 1.153760301428035540e+00 8.621788246488127916e-01 -1.923849861491564728e-01 2.572341470448418210e-01 3.322169887680660461e-01 -3.675335830518725588e-01 -7.753067141228862091e-01 -3.833908575937881036e-01 5.799976558635537849e-01 -9.494213867292743136e-02 -1.625053171849533684e-01 1.353155359659946044e-01 1.630707525219973753e-01 -5.642346537323476019e-01 5.944368136169281280e-01 2.053331945410433179e-01 1.355223922986225349e-01 4.953264323746367492e-01 2.967005917723775088e-01 1.203905773134677393e+00 2.650155045046642122e-01 -1.029232039838182011e+00 3.765695447154358000e-01 -9.889610198202090918e-02 1.429390990473493828e+00 7.798186803474883577e-01 6.841190396283490793e-01 6.553731786266975279e-02 1.013915002995252390e+00 -1.435831424303755377e-01 -1.583988369183226552e-01 -6.889452346867613874e-01 1.129070904017369648e+00 -3.347436688491579049e-01 -7.772837988294351019e-01 1.290184485417154914e+00 1.607056132430775552e-01 -8.084251029673576727e-03 1.717329283592886058e-01 -6.897153872185091128e-01 3.504313951109302994e-01 2.446850270927781457e-01 6.697941231320522215e-01 5.602173405602569600e-01 -3.786296151917799557e-01 -6.920239289744909428e-01 -3.973147003578834102e-01 -7.341938982162647953e-01 -8.035408417625103938e-01 1.478680971149575196e-01 -8.111881143420490714e-01 2.141742355040287815e-01 4.231153761960919080e-01 6.470945616049827986e-01 -1.376278718741006379e-01 4.333415252497357928e-01 -6.427679204472559471e-01 -1.968980123754796585e-01 -8.943933525352975034e-01 -3.297651314059688032e-01 -7.045655996175547164e-01 5.066482545226568268e-01 1.278447160942872474e+00 -2.282352270827037177e+00 -1.164005328939704681e-01 -5.148429961298386232e-02 3.880892283862341086e-01 -7.413350965888884092e-01 7.022035693198376283e-01 -6.368637428677925705e-01 -2.658964588345008040e-01 7.510606273151448908e-01 3.351150196892788702e-01 5.311856191815218509e-01 -4.721847073235881376e-01 5.494605038275165443e-01 -2.625744793333668059e-01 -5.961934994554650424e-02 6.415878304994959702e-01 4.858657673750916839e-01 2.276574812154788865e-02 -1.086920538484033472e+00 -6.066446666329593507e-01 3.615102241130058736e-01 1.217432560902696193e-01 5.411303683740441572e-01 1.115062757328947773e+00 -2.729449571802423091e-01 -5.969501687624547553e-02 4.422689303589371623e-01 -1.704918977240844347e-01 2.778980727033424358e-01 1.266646982463044191e+00 -4.476391578487136091e-01 3.014376035394199516e-01 -3.139770724583603179e-01 1.449529584300841001e-01 2.324150911321325730e-01 1.025015178308968489e+00 5.199753379127748376e-01 7.675298671840158349e-02
-3.727993590536062274e-01 4.304502680414420968e-01 2.549958549232674843e-01 5.551098596777981342e-01 1.815698486534321476e-02 9.776735026149486751e-01 1.093761094518142407e+00 6.481782391404877774e-01 -6.237589521303810169e-01 -6.092825904566473438e-01 2.674021567787502329e-01 1.614165368177262472e-01 3.068520082067381916e-01 9.656944168843931697e-01 -2.287987455130894299e-01 5.880637355568996139e-01 3.840115913359625210e-01 1.379992241797821373e-01 -9.059789662527839571e-01 -8.872360261687036731e-01 7.954109414198127226e-01 1.051040181496323417e-01 -8.310952312472987824e-01 -2.976082287618407318e-01 -2.287574317780951272e-01 -9.722346049974015525e-01 -7.505914649087375157e-02 -8.707227772818872946e-01 3.622714246688040762e-01 -9.537428538269985268e-01 -9.667960219553274615e-02 5.745098566838783283e-01 7.406020751247092138e-01 -2.762289951931683474e-01 -7.529925735255640351e-01 -6.031553164508552944e-01 -6.229049461642557350e-01 9.028309916436746407e-01 9.969917939940854401e-01 -6.424397301371822522e-01 -3.569689686770444181e-01 -5.384510804247120141e-01 4.742443776037639225e-01 -6.483488021027631332e-01 -7.395558655941821824e-01 -5.661211631878652062e-01 8.650663884458621444e-01 1.942500073115282222e-01 -7.065463316057882803e-01 -6.179337783899121472e-01 -1.060210573305138126e+00 3.521006286265987439e-02 -8.132013176341521543e-01 8.441722389141192995e-01 -2.419481576974687465e-01 2.196792990339672957e-01 9.461570303039499308e-01 -5.978890998381301003e-01 7.644598257270327490e-01 -1.665625335765916204e-01 -4.720867084397043500e-01 -6.026528023577549797e-01 -2.937888506066380634e-01 4.930689038077638586e-01 -8.244049495970451336e-01 -3.236062928454653265e-01 -3.693627643504697189e-01 6.292657468999460768e-01 1.386526214859726824e-01 9.531332330251985896e-01 -2.698537996551035323e-01 -1.865931051152674991e-01 -3.797105620388950831e-01 -2.486946836161201824e-01 9.374093229393961613e-01 -2.397432659714527486e-02 -8.511371201516167995e-01 -5.165922093672683513e-01 8.783631194488893124e-02 -5.470314948928866050e-01 5.119358364646916515e-01 -4.351202597299077546e-01 4.673083201427770117e-01 -9.680313804956626189e-01 -3.041181615606757260e-01 -4.244553981326872893e-01 9.959444849663492416e-01 4.821521856303754294e-01 -2.969468305615008408e-01 -5.383392969155390562e-01 6.780502786717028663e-01 -3.416689336767744778e-01 -6.770189047265376403e-02 6.731703027524621463e-01 3.812580756293071915e-01 8.316808455376090148e-01 3.592356780004340999e-01 6.707226434178259478e-01 7.208073856357779530e-01 2.039609290172747780e-01 6.334206141851064231e-01 4.534916968216766708e-01 1.983265743215250343e-01 -1.313665432665538924e-01 -6.425283660888746473e-01 -1.984360044917731769e-01 -5.657574872374053765e-01 5.203199541353379365e-01 -3.343273319250221198e-01 -3.484111866552198067e-01 -6.124084795319199026e-01 -1.514665030388868405e-01 8.747461008611833178e-01 7.018561742636807432e-01 5.835457035436568685e-01 -7.376077360452283349e-01 5.656506717614552260e-01 -3.045251583677956453e-01 -6.408865051640313393e-01 -6.519111883933054186e-01 2.214971947798208621e-02 7.670456927887245868e-01 -5.954661641596296073e-01 -6.447211895108214685e-01 -1.190906719578975759e-01 -9.119606999834765082e-01 1.331313831062243547e-01 3.539995751651961453e-01 6.273151066604467641e-01 8.538708830161119145e-01 -1.087564855137554548e-01 4.477580618109629484e-01 1.927901155221066753e-01 9.416341239416682329e-01 -5.015232398538008729e-01 5.337218588320616908e-01 9.529177500269789824e-01 -9.815703846348281525e-01 -9.191107794681034893e-01 8.789079727532990161e-01 9.656978548957169395e-02 -1.590361485640818806e-01 9.447591643933093142e-01 5.941835241268775825e-01 -5.588941424164685090e-01 3.229058415009311012e-01 -3.554692945035528573e-01 8.384825241291556097e-02 -8.464953933947562126e-01 4.121724650863241024e-01 2.067246075253981186e-01 8.777134082616888655e-02 -3.148192690648341507e-01 3.137806021976107806e-01 -3.348590794983706265e-01 -3.432986629591977534e-01 7.882577417121882091e-01 2.807006982515671822e-01 2.523479750933886878e-01 -4.262739856036831809e-01 -5.783918879623884540e-02 -6.969701538298496146e-01 -1.794107461715397089e-01 4.437048109653306538e-01 7.039017593608883905e-01 -3.933074428438177450e-01 4.911879455887088186e-01 3.821739584198536877e-01 6.801948920879594684e-01 2.332572072072295610e-01 2.100153449041967102e-01 4.414716620028346500e-02 3.490877012833922266e-01 9.659226788702173216e-01 3.755317511552940801e-01 -8.434547765982692846e-01 -5.682838666259667493e-01 4.545265345230939946e-01 9.100344948650057608e-01 5.570035589030520873e-01 8.929423977168522431e-01 2.021478873452669522e-01 -4.312090602398445660e-01 9.320043440844935079e-01 -1.632263950755130921e-01 -4.418151440988115630e-01 -8.622806704565060265e-01 9.999422219078254459e-01 -3.811243019392143716e-01 -8.238487386393060496e-02 8.944248129383570722e-01 -8.796989114550626265e-01 9.048928433186774478e-02 -8.389231529276368615e-01 6.190709725038578970e-01 -2.973598252847852175e-01 9.802062324279549044e-01 7.705483197102434012e-01 7.335595288348755183e-01 -4.693630454248002848e-01 -2.879281431347126552e-01 -8.856419431791950903e-01 7.675224257844597275e-01 -1.868043429471535344e-01 -4.764551568582791052e-01 3.374580973310816606e-02 -3.044008426295173875e-01 -1.822756324883446633e-01 7.947566889193896644e-01 3.087346905195925695e-01 8.054646243103397163e-01 1.043020473589435948e+00 -8.180568160769016162e-01 -5.498157050200718210e-01 -7.497499662865891867e-01 9.190550563249418881e-01 1.351683894976298816e-01 6.715168019181465553e-01 8.388880921076548036e-01 5.833942400838003639e-01 3.348099550569386129e-02 6.674798829318344673e-01 -8.754157987671717933e-01 -4.633142660595645501e-01 -2.985712809183612149e-01 -1.514735562847835115e-01 -4.994778398652973128e-01 -9.497935941580813723e-02 -1.693279098075993194e-01 4.368594637604341080e-01 -9.010003570277144713e-02 5.115479884388818288e-01 -7.966038608865763093e-01 9.107533225000040422e-03 -8.653413623646621922e-01 9.569122220459426176e-01 -5.045043262592650013e-01 2.990674300305757802e-02 -3.853399569872243413e-01 1.160008938539837803e-01 5.173283477818475529e-01 1.160557597910000932e-01 4.074652561260926342e-01 4.004034942397062813e-01 4.187345523170086792e-01 7.177279554346598367e-01 -3.419195662432173433e-01 1.007838224540697825e+00 1.031712086742535561e+00 5.159608645240146840e-01 1.000816184391984498e+00 -3.906110435222977934e-02 6.048100486315076685e-01 -4.063321963258748060e-02 -3.811146765644837786e-01 7.916142798208900544e-01 -8.245215819018971715e-01 -5.010994413523919278e-01 -8.156835560086996839e-01 8.749544697155829942e-01 2.199316311064139773e-01 3.502995039674497435e-02 9.123592619178888530e-01 -2.849225932091688507e-01 2.728666388558268485e-01 9.121905650284833911e-01 8.523272594686660542e-01 -4.744000998763492905e-01 -3.410988660426567676e-01 9.477053825222684358e-01 5.277905652817952431e-01 -3.093377437849271772e-01 -2.512065309244573830e-01 -2.510974883713743555e-01 7.642659558222358873e-01 9.525869629223080448e-01 -3.838271454843246167e-01 -8.168759749646188340e-01 2.553961073889967626e-01 7.826819389909789315e-01 -1.003781217808157183e-01 -3.708047021870110038e-01 2.905359548018420779e-01 -6.565413111785788347e-01 8.248398513933402620e-01 1.053938675406342673e+00 3.052816061141466197e-01 -2.516414414685292922e-01 1.573538834236327399e-01 9.039406332281857415e-01 2.850781125057059162e-01 -3.465903302198769520e-01 7.240539482866666932e-01 -1.442649239363274875e-02 -2.643333566660951983e-01 -8.422947846871248201e-01 -8.197246096437986740e-01 -5.591116908137868519e-02 2.333919521229404215e-01 -1.900192362748222841e-01 3.871061900606000417e-01
5.155082771722320212e-01 -4.300806300740753207e-01 -8.692645549371373903e-01 3.684811653526329223e-01 -2.653660309371507764e-01 8.547517713981266085e-02 3.385972442233123325e-01 6.569169451174292629e-01 3.628511492352856638e-01 2.938312558548295539e-01 -5.886788710749284448e-01 3.859276150544308503e-01 -9.729585277121417519e-01 -2.725521586812688635e-01 2.122663961553651613e-01 -5.748192156295740540e-01 -5.267023907800076898e-01 3.965990271915399434e-01 5.709014723100014344e-01 5.823232551938385404e-01 -1.134276458034646939e+00 6.633051745785404352e-01 5.470902078713966166e-01 8.400775587610772588e-01 -2.349263548440554683e-01 1.901100389084125208e-01 3.427817505693921407e-01 -1.036490250591658446e-01 5.614837709126487830e-01 -3.040914568724558675e-01 -8.286807318464660677e-01 1.519290714540121878e-01 -1.826907203125423818e-01 2.720981267891592337e-01 -8.258961854685047399e-01 2.496612050687871953e-01 -8.535664167310309802e-02 5.137721993902947260e-01 -1.590891180059925691e-01 -3.963276058679665037e-01 -7.443705236430014915e-02 7.972474826951153615e-01 -4.200102549819009212e-01 8.428955115004239662e-01 -7.979305221608561371e-01 9.335919922938581417e-01 7.331959135948901141e-01 8.145284542835516950e-01 -5.578242297351213574e-01 7.328913536738008716e-01 6.232597641071393468e-01 -7.738507655825711540e-01 -5.553369540787261860e-01 -5.444973179898707216e-02 6.288800906198405150e-01 -9.924092620929577668e-01 -3.272669143355350085e-01 2.242705258403059621e-01 4.913706244051492811e-01 7.853224505125971922e-01 -8.741752378008482705e-01 -2.258838410802195273e-01 8.169396882346025013e-02 -2.453769991943874629e-01 -1.300928378103514450e-02 -2.409684557327783361e-01 8.587243078585626854e-01 -1.062996467811550882e+00 -7.219580064198379832e-01 -3.404623696305438263e-01 -9.986424384518594044e-02 -2.988678636506178488e-01 4.213454530694074607e-01 3.985558522527660186e-01 -1.028448832773157573e+00 2.038151453956286163e-01 -3.341963288312410629e-01 -5.229909336154084931e-01 -6.408812891787150079e-01 -1.026175931025395061e+00 -1.356194168570366010e-01 -7.588070044417228287e-03 4.680133431733874416e-01 -2.821884887282266607e-01 7.579512188829053976e-01 -7.933871207429894767e-02 -4.266701178222238044e-01 7.928787858931704013e-01 -2.106247293103839235e-01 -9.035770057400981381e-01 6.508555244238424242e-01 2.035197151602056720e-01 6.072641560461335963e-01 -9.512115479760172576e-01 -2.238137023726578245e-01 -6.782781765758004733e-01 3.664418618686516860e-01 -6.612053103326063219e-01 -9.138220360344676552e-01 2.743304581436454281e-01 7.875740184299514501e-01 3.223097845121287164e-01 4.358270623909497044e-01 6.934800099532945072e-02 1.272999958402828424e-01 3.550781226358865061e-01 -1.563287450914385424e-01 -1.446020105293686075e-01 7.337417026649973861e-01 -7.514161115637302268e-02 -6.648757424879306877e-01 -3.489497859064183416e-01 -8.508406273850271928e-01 1.275680785068508405e-01 -1.055308790871514857e+00 6.088082161938543901e-01 7.631200442940870854e-01 1.491968380500339475e-01 2.836886591942923141e-01 2.497536048854457624e-01 -2.187613368878065234e-01 2.879314469548599487e-01 -3.568765615929001545e-01 -8.393784722267912113e-02 2.820544915609152770e-01 -9.854599470709669573e-01 -6.354439075689859162e-02 4.030884187673311470e-01 -2.302984176847026054e-01 2.458630926286187179e-01 3.828691765230270595e-03 -5.749845351549762729e-01 6.169572144673328706e-01 -6.940472738939293951e-01 -2.760142566959519206e-01 -9.613918796447844528e-01 -1.406275160588854600e-01 1.401487074176363534e-01 6.629241077287097994e-01 1.669813219246845115e-01 -5.843932618836502613e-01 -4.387445478390530340e-01 -8.869720460854345623e-01 2.394440715875169046e-01 1.237280293313129248e-01 3.484002739539231452e-01 3.501826260337256858e-01 2.989328783085866692e-01 6.833544601085330683e-01 6.841416502904149599e-01 -9.466801891112213152e-01 4.106500616042721430e-01 7.259452806140288539e-01 3.207757507512895012e-01 -9.468085306505700238e-01 -9.096379921637250954e-01 -4.831916906582984783e-01 -9.757583855784069948e-01 8.872369214823701000e-01 -4.193697564234727948e-01 1.720551314179527558e-01 -8.708767381569724186e-01 3.704695900860421331e-01 -3.389101373873082412e-01 3.356299104166847180e-01 -4.901415994094368012e-01 -9.506543319716738161e-01 -8.940795406065368267e-01 -9.458559405628925720e-01 -4.001528105397330615e-01 9.026454716012747292e-01 3.212245829744980741e-01 2.387465736774187774e-01 -7.192211176795951788e-01 -1.085253467140484984e+00 -5.743101780932455824e-01 -6.688597488358427601e-01 6.720116059097482886e-01 8.074561257811896375e-01 6.097166254263147733e-01 7.249000247279672182e-01 4.261810253450889485e-01 -7.231172896513188286e-01 -8.841145935994358940e-01 6.739521366298679705e-01 -8.362544219524756794e-01 8.928502110484306531e-01 5.014679594600367496e-01 -4.259589133820111950e-01 -6.040943022645696159e-01 -3.557989330523342875e-01 -6.360565634290960002e-01 7.699354285743312820e-01 -1.060932322175857534e+00 -4.197622743220502106e-01 -8.634969894241872890e-01 -7.317486856417192431e-01 -4.924958550267639068e-01 -9.604967799915309357e-01 6.574030565663552261e-02 -4.591924398799047125e-01 8.052584959831523559e-01 -5.095928871788854009e-01 1.906899491141949565e-01 -1.543262444264190403e-01 9.195826418038709482e-01 6.354659708706789090e-01 3.181897973877696739e-02 -8.936514758001478098e-01 -1.292491227517140184e-01 -7.602773060272620398e-02 -2.513668071460530840e-01 -5.427566207021750078e-01 5.707197311538128037e-01 -2.889308540774344070e-01 -9.331652982368495719e-01 6.781422518433327662e-01 -1.355434755626444554e-01 5.573644321044503025e-01 -7.647782169507789662e-01 3.243197571426120751e-01 1.713701628741021166e-01 -9.432476705894478064e-01 4.776177233909432163e-01 -9.860626417776918728e-01 1.978369590125232114e-01 -9.542464080347596855e-01 3.659115939702571318e-01 -7.482578118825691238e-01 4.037073581657656396e-01 -9.602471408588930668e-01 -8.483680300880438452e-01 -6.013982925060307183e-01 6.506681645098680855e-01 5.441689460113690036e-01 -4.228317023268254177e-03 8.311877992815137617e-01 -3.860091324311402117e-01 -1.594923705136707878e-02 9.225244039053158707e-01 -3.194397216682642870e-01 -4.620615097128847326e-01 -6.863540661613933835e-01 3.574713868496424973e-02 8.179361303447568732e-02 -9.821455506303722327e-01 4.625124975221778234e-01 -6.361274620120217493e-01 -4.241011619209674177e-01 -9.612331967453668913e-01 -5.377750724237303354e-02 9.222422582327727270e-02 4.265001377263695215e-01 -4.792320919398648793e-01 1.651566725744967393e-02 7.279984317979881769e-01 6.741731542381332876e-01 4.814290335422004019e-01 3.857215742674756365e-02 4.776256789592532859e-01 -6.720360771776444642e-01 7.083566803311375226e-01 -4.638487205306680572e-01 -7.818618324833082056e-01 -4.650850883781271761e-01 -2.890047964359869770e-01 -5.102810335098049155e-01 -6.870226461551118824e-01 9.328046532511723513e-03 -1.800450068237878509e-01 -4.384615846048596222e-01 -4.126863910289987891e-01 8.183970959679297552e-01 -5.940809823305811532e-01 4.454197278727614617e-01 5.040538809645824792e-01 -7.052757699545862957e-01 -2.641914723783798501e-03 -1.530425307261284451e-01 -6.244216976533057961e-01 -6.292133411011348043e-01 -1.110230080108361328e+00 5.362938056230259765e-01 6.777813834997937770e-01 6.265656287520039447e-01 -5.641966617167291087e-01 1.975732795984349310e-01 -4.814565155858973600e-01 -1.049296668206804339e+00 7.189464684812374440e-01 -5.908115466047761943e-01 -2.109235649471002255e-02 -7.595190528546806874e-01 6.426973750881501690e-01 1.015066753341886258e-01 3.672116713268911425e-01 2.417504912030474240e-01 3.136816900015971799e-01 8.719741645969190935e-02 5.907429327513046280e-01 1.478683128899092869e-01
3.125828251699196980e-01 1.583171096558906865e-01 3.696704520408300998e-01 -2.264318186719152803e-01 -1.611702399740123914e-01 -2.447087586360216227e-01 -6.615349469037458408e-02 -8.196322238799957915e-01 8.374087888685826098e-01 -1.006302081851757207e-01 8.335626132859801363e-01 -4.125341909671629836e-01 4.890667340314953648e-01 -4.075581059431979680e-01 -4.305279180750152257e-01 4.432270252972542179e-01 -3.335803118300799675e-01 9.402724367985779708e-01 -9.689219202994814317e-01 1.460540045379117406e-02 2.842140163294046284e-01 -4.823461402614190874e-01 -9.040783982851945400e-01 2.175126502701330844e-01 -3.032752418365707719e-02 -1.030943811760931084e+00 -7.249791277106998333e-01 2.062769347877213277e-01 6.254709562480635920e-01 -2.312000992442513891e-01 3.856550512549908327e-01 -6.495960158807890794e-01 -9.874747451721619385e-01 -7.346389499023950886e-01 -7.901964383609955123e-02 -6.702150290606000427e-01 -5.399498897085596161e-01 -9.784388744856111764e-01 -5.385096304782506227e-01 6.705436064957465137e-01 -4.877810717399206353e-01 8.292301554332238700e-01 7.748595836063623121e-01 -4.477669442864777305e-01 -1.539128888516850813e-01 3.304047343116647828e-01 7.658434052839464823e-02 7.733808196249628564e-01 1.982530130757225173e-01 8.296401361555435505e-01 8.444965801377017911e-01 2.251844984760709434e-01 4.037278658166415513e-01 -6.981948698858138069e-01 -1.025769229288972934e-01 -1.161482144891590879e-01 -2.942158613261784961e-01 1.980824545232431622e-01 -6.495810583757162526e-02 -9.336092414600539735e-01 -1.032766531436997370e+00 3.403665325555191856e-01 4.632078543051295072e-01 1.445095995154091761e-01 4.150523136098465682e-01 1.474058326591147772e-01 -5.150519665009221926e-02 -7.121770891942579285e-01 -1.112517703333700397e-01 1.938452825089073683e-01 -1.601012263639084998e-01 -2.198588955454788829e-01 -4.346193515476560743e-01 -9.648985642500603754e-01 7.615296703288652047e-01 -7.221145016739854983e-01 4.439725742726265412e-01 -3.483539433188089784e-01 8.669783520984016001e-02 5.513173356124032587e-01 7.001278290855283970e-01 3.389874625161488630e-01 -4.885478121957472220e-01 -8.518796523807461996e-02 -9.665299121770983826e-01 -4.923187204613947432e-01 -8.385248925127370967e-01 -4.067675768659262392e-01 -9.509514536475498492e-01 -6.697054927728319784e-01 -2.090540307184913515e-01 4.296823923015346547e-01 4.696878834500596289e-01 4.615106828229893488e-01 -9.959153098315912667e-01 -6.308736923794664442e-01 -4.876728422812479646e-01 -7.052125872348331548e-01 -2.114194007779731377e-01 -1.012574580286392578e+00 -7.059429555617674490e-01 -8.471710492478534693e-01 -9.608001363348932511e-01 3.839180660576149151e-01 -3.162152679922696219e-01 -9.259277379200253622e-01 2.774000248466668705e-01 -1.820001651227100802e-03 -8.686702834613608815e-01 4.690111876246027545e-01 7.526669237555810854e-01 -9.039191966997406347e-01 6.446892121036337242e-01 6.743807823743261376e-02 7.154090718939284388e-01 -4.082145234510081711e-01 -2.956642119801848323e-01 -8.607096743505160408e-01 6.653208570633197816e-01 -5.754084470557594422e-01 -6.099129744604707692e-01 8.266575088749033018e-01 2.412643382010146997e-01 7.516062578531657046e-01 -1.002178052522059604e+00 1.689526068559467631e-01 -7.727018946573583902e-01 -8.473379075803163518e-01 3.929632547066834736e-01 -3.067095271098664311e-01 -8.505783582069341708e-01 3.824108126988359224e-01 5.616790907329457516e-01 5.039488488230472463e-01 5.576957229715731046e-01 -3.878495343923878957e-01 1.090360639520949471e-01 6.183131352621409338e-01 -6.566730807116968327e-01 1.467750933918389733e-01 -1.046717756353360951e+00 -2.375304314784621729e-01 2.481995505557077208e-01 -2.255157435561410406e-01 8.993777918084778777e-01 5.597345969433310531e-01 -9.957145542735298394e-01 -1.505502412063657591e-01 -9.955888304907721809e-01 6.243334261134370761e-02 -1.038948273739162542e-01 -3.055129115621365021e-01 -7.465763273764752794e-01 -5.010775603023722713e-01 8.811859523051256415e-01 -3.668895106217444080e-01 2.216719400747594049e-01 -7.020142803342074855e-02 -6.501178725600622599e-01 -1.647654933831421142e-01 4.551635587865112131e-01 4.419852526237385004e-01 -5.284645087358674775e-01 -1.599341892677509924e-01 1.529588904863606047e-01 5.778246028123791289e-01 -9.692562531839519213e-01 2.293561011615654066e-01 1.602466013439856479e-02 6.814712825534215979e-01 -2.975713861346868105e-01 7.507582506886029128e-01 -3.003570789549164233e-01 -3.695787378830391878e-01 5.466549505338045289e-01 8.349636380021993598e-02 -7.861679795591989262e-01 2.453680225538592274e-01 -4.505947503141385369e-01 -3.104615939717071949e-01 6.657343284554794183e-01 -5.196347710176880685e-01 -7.980067120417239090e-01 3.526777838565550716e-01 -5.182799529188383270e-01 -5.310078395784334493e-01 9.056341606190071447e-01 -4.195990376774207942e-01 -2.445562226749346535e-01 -4.176884653922403601e-01 -5.626172758849872224e-01 -5.631347953613604629e-01 -1.526876785100741152e-01 -7.394622792838643210e-01 4.039884535220418238e-01 4.383229524648699083e-01 -1.550931768793507859e-01 -7.819835564849843268e-02 -7.358251192082758685e-01 1.045900351904546222e-01 5.421638534868066239e-01 -7.708445231820867383e-01 -8.113598268264926583e-01 -1.804430312960243199e-01 1.298167984629583216e-01 2.011323450342123731e-01 -2.350755729443878284e-01 9.192062070393453022e-01 -2.182269996426592640e-01 5.027605006105182461e-01 -5.288635469304729941e-01 -1.331405964248533191e-01 7.964451294959332683e-01 -8.778456730209638348e-01 -8.545201904087882383e-01 5.956593390192640447e-01 -3.196013578154126289e-03 -7.568348002346776404e-01 -6.564087538807513722e-01 2.934327635654607191e-01 8.350944132702269318e-01 -6.601541507130166409e-01 8.939235382342756164e-01 -5.014345646681456214e-01 -6.481416021369230673e-01 2.978420272132925040e-01 -6.415040673157530460e-01 7.962751192077773821e-01 6.761864353765083546e-01 1.203575669588984876e-01 -1.743068224085373985e-01 2.718450327532682120e-01 4.098920012141576419e-01 -9.133038487918577752e-01 -4.652891610582929327e-01 -6.281158625371587867e-01 -8.951477137055098288e-01 -3.935134979514396530e-02 -3.580163353052094877e-01 4.577000705900688415e-01 8.263600386838820810e-01 -1.027391686649189007e+00 -1.678413341762267919e-01 -2.187727654565574734e-02 -9.588480166095404433e-01 4.037142890354215169e-02 1.478791624794323911e-01 2.352798094990328145e-02 6.900518924080012440e-02 6.134489007661546589e-01 -7.694639478583423786e-01 7.162611491585939572e-01 4.130560299207659547e-01 -1.018589276875845107e+00 6.879720234174535598e-01 -1.578200116628388772e-01 -7.964701550163989507e-01 -4.986444204640701205e-02 5.781272309177710733e-01 -7.742127019715755454e-01 -8.891580147109474919e-02 -5.694532888524991149e-02 -3.588172840047034184e-01 2.096065195546912563e-01 2.227670769715195398e-01 -5.293989757185798561e-01 -1.960478163000825835e-01 7.414744136038921296e-02 2.722084343229072556e-01 -7.636880639954382599e-02 6.785282139476019880e-01 8.820971421020854519e-01 9.222355057996758365e-01 1.935793738203826081e-02 -7.289376878050948250e-01 2.764772951144035124e-02 -2.096445281342083355e-01 6.076188660886391313e-01 -4.752150150730852229e-02 7.477879347315410374e-01 5.805437437317904070e-01 -5.338023736516179785e-01 6.129706783136313897e-01 -6.089573379746594517e-01 1.966596596841617417e-01 2.033464478876298720e-01 1.234835730668599335e-01 -2.588916594553482553e-01 -2.509542252095713910e-01 7.762611868591297037e-01 -7.095046520308675442e-01 -7.504889608331882789e-01 3.668277049252920974e-01 7.770430784850292927e-01 -4.891308575453158780e-01 -8.712334828149451704e-01 -1.225604468057342050e-01 -2.830870190980133150e-01 2.353696951870261622e-01 -4.686193896001240033e-01 -5.974975800198988329e-01
7.340752803457479825e-01 5.384929253377664926e-01 6.994945187412565657e-01 -1.623399277550032771e-01 -8.458816519153428137e-01 -9.459698654678184715e-01 -3.731415978317894067e-01 -4.520774119423821569e-01 2.350355318118738934e-01 -1.223140912785919188e+00 4.064809046589407671e-01 4.140755237489623236e-02 3.998744353297007947e-01 -3.143666870037488681e-01 1.333373455577554212e-01 -4.406427087431789569e-01 -3.581898277041356549e-01 7.799872817315712803e-01 -7.232817605693265817e-01 -4.025943303162626274e-01 -1.097880134688352216e+00 6.742290439143781011e-01 -9.100746022153282100e-01 -7.369737836761436345e-01 -9.061195408966642439e-01 -8.482016453492414731e-01 -5.599674417060007681e-01 8.871298065247294751e-02 -2.549111534313930894e-01 1.348662622729482230e+00 -1.559047884856747945e+00 -4.021529336065192695e-01 -8.024163618624543526e-01 5.763135744192955379e-01 2.107293208897071946e-01 -5.514207995950103358e-01 -3.547707708168318375e-01 -6.339487655392344045e-01 6.865781922889313549e-01 -1.650759274588250447e-01 -3.584201575460567724e-01 1.147289548667534131e-01 2.398790545586581280e-01 -1.307681981074537481e+00 -4.030230517520995148e-01 5.034433584370313630e-01 8.628141044319822539e-01 2.808599167057914542e-02 -1.188910626068979459e+00 -1.068187719605519746e-02 -5.099157453026589293e-01 2.958515544908613126e-02 -7.280938705701407443e-01 -5.108182772965146334e-01 -4.242019585655091296e-01 -1.102528402373287308e+00 8.647007017547968244e-02 2.621982976950596456e-01 6.540060717801560175e-01 -9.359565496117618899e-01 1.002716690476296524e+00 -7.898526493356505807e-02 -3.747018740040868323e-01 3.706957258798475596e-01 -9.383905866275470409e-01 -9.336530173079697903e-01 -1.515076780323593164e-02 -5.228507504726508381e-01 -8.571951101044265053e-01 -1.653159527694022302e+00 -2.705483304525765353e-01 2.568249998416491930e-01 -5.788015906358644491e-01 -8.705992161955727893e-01 7.767805731231780531e-01 -3.733092665470436056e-02 1.038242607232786469e-01 -1.038985185086693797e-01 -8.068359848216039021e-02 4.158658363758340748e-01 2.107393002682482475e-01 -7.312742697657483859e-01 -8.992659746349035421e-01 -1.774738676450009767e-01 -2.903024115909196706e-02 -2.422718525147996294e-01 5.888839139200509054e-01 -6.290470436037898239e-02 7.200782955638116434e-01 1.760127134502655621e-01 -9.860926501920840304e-01 -6.862101336949316677e-01 -8.331124083291895077e-02 6.322130158830369107e-02 9.233916389149166015e-01 -3.682111060931622104e-01 -1.249396434393847288e+00 2.284178186331080329e-01 -7.069209378951979428e-01 5.853760009273235587e-01 -1.300180880583619580e-01 1.163387360374491308e+00 6.042250128540971321e-01 -6.485099388926225394e-01 -2.489919800947358042e-01 1.544562222747071223e+00 -9.532073951676816037e-01 -7.488974633350318176e-03 4.734643669825079337e-01 1.893497390108560274e-01 -1.679939977446314181e+00 2.436953582547014829e-01 -2.659415854430765558e-01 -1.059216361211411384e+00 8.835977893764150881e-01 8.688698813891799766e-01 -1.307996446101053145e+00 5.746041211461369036e-01 7.778804090223030709e-02 -5.722721371178091099e-01 -5.522669126048594945e-01 -3.614857585141401097e-01 8.173199553892249725e-01 -9.337579426803691574e-01 -1.194408434448361311e-01 -3.799610041227290402e-01 -1.762970541761906818e+00 -5.591639650216215784e-01 6.497472987259583777e-02 1.044760006151508769e+00 -8.243378157838834319e-01 -2.561265466447037453e-01 -6.083438179991434991e-03 -1.429515218795834319e-01 -3.371500776792627496e-01 -6.774025865977181260e-01 -1.420756532678718376e+00 -7.017230505697756859e-01 3.175962191674846502e-01 -2.285580400063353529e-02 -3.791639959724795172e-01 -7.502363218993591820e-01 5.180062492337111912e-01 5.424317980550087404e-01 -3.542222154946399280e-03 -3.315208120890056342e-02 3.843534966983079837e-01 -7.895357770188113911e-01 -1.588476956592193678e+00 -1.047031875931515366e+00 -9.845489117515148214e-01 -3.088605485954888374e-01 -1.122611207111994691e+00 5.058458775258947021e-02 5.648219057038369323e-02 -3.149490569013886354e-01 -3.963464419130774963e-01 3.942382134058681764e-01 3.840453292909537519e-01 -1.069321606957320148e+00 -5.205833601779753517e-01 1.396649931094061381e-01 -5.574058918178258493e-01 -2.469121160745786081e-01 -1.419124148281757591e+00 -1.002102048423094027e+00 -8.198967792487301676e-01 -1.716770884363557625e-01 2.151657377499924945e-02 -5.784709801023274478e-01 9.049338746540913636e-01 1.350313589721646723e+00 1.265409420391961637e-01 -1.478134115916218405e-01 -1.069517700207012201e+00 3.001567938378240652e-01 -4.612679824594890787e-01 -1.593066006643780064e+00 5.676848175380356798e-01 6.356086628084106627e-01 1.988971930555931689e-01 -2.166369039688758602e-01 5.365524557976457665e-01 9.994147745687538276e-01 -3.426024816712849863e-01 -9.262535059377706714e-01 -5.529022528084458904e-02 -1.156966296515345771e+00 -4.323424097182617110e-01 -3.577708339049429642e-01 -1.000851967820516469e-01 1.194191570306942785e+00 -1.213472624800893795e+00 1.227405765794492787e+00 -1.257323449764070844e+00 -3.655033682940770912e-01 -8.639598271918984551e-01 -1.189974290006359459e+00 -7.708290423892814047e-01 -1.340523587045701293e+00 -4.056150843929583472e-01 -2.816280642847969751e-01 -8.417253820773566986e-01 -1.547078457038949084e+00 5.658138173260993664e-01 -6.390769102859863438e-01 -9.396531307924241849e-01 -2.020865293444572774e+00 -1.216225071163548721e+00 -7.642469468842488789e-01 -5.396054378673326157e-03 -3.490239535831569095e-01 -1.648457757438225868e-01 3.466977201141903109e-01 5.967051203110747097e-03 1.138193913245642321e-02 3.526711801827770443e-01 1.326022968200027130e-01 -1.017950290734607854e+00 2.017403343836436658e-01 1.241327492934352739e+00 2.740872192235411231e-01 6.783336308861286357e-01 2.732066956884859898e-01 1.011152792782429755e+00 -1.256851264726714934e+00 2.041197586586890669e-02 -6.836292519397609846e-01 -2.441323763821829917e-01 2.366874756835140869e-01 1.561033493133022199e-01 1.500284752553047440e-01 2.112452407272144561e-01 1.192890079420098476e-01 8.647215747101910481e-04 -1.555563444521609051e-01 -8.200441736575064811e-01 2.094039960688331148e-01 5.407120031447386864e-03 -2.068059167369961371e-01 1.845214584053142814e-01 -6.381330720991678085e-01 -1.052204133518255119e-02 -6.014630453409014477e-01 -8.315368582994475677e-01 -8.362281468339337331e-02 2.585882665155432858e-01 -1.228840572899147165e+00 -1.942611970405630217e-01 -7.307870061197910827e-01 1.765943990091373150e-02 -3.995962415447606997e-01 -5.884502828395908880e-01 -3.925290342610862626e-01 -6.706674524600565457e-01 -1.053287575788687536e-01 5.780966267145114523e-01 -1.415270549061540040e+00 -1.198670052177923884e+00 1.923937986787767618e-01 -8.588438940432966406e-01 5.926369110133551388e-01 -1.130172329867507708e+00 -1.139033496689598302e+00 -3.394321191667474813e-01 -1.680806107223804247e-01 -1.373538111659705852e+00 1.248673983176600943e+00 1.824995549211148316e-01 7.648869995271385669e-01 -6.229473263163188834e-01 -5.260881009867425240e-01 1.847089160225284243e-01 -1.278522012990668699e+00 -6.921904263102979238e-01 -9.391338264359708754e-01 1.258463472930992921e-01 -2.736486705688509491e-01 -4.922244060393258236e-01 -1.027098514855730116e+00 -6.809011225554165714e-01 7.147700654411629495e-01 -3.534118893117153548e-01 8.072846846149301925e-01 -6.578177951111000010e-02 -9.813336050277657874e-01 -4.961809470536209798e-01 -7.074788755443049970e-01 -3.541589635041464956e-01 4.703878248437555198e-01 -2.597392074919642191e-01 -7.541324194062741793e-01 -7.189920911480295329e-01 3.940926286714563909e-01 4.721276525446129746e-01 -2.917119643864232170e-01 -7.114514412717479197e-02 -8.319440475711052940e-01 -8.897753493200953878e-01 -1.447175676845781300e+00 -1.478411971592546781e+00
-7.017396663150783365e-01 -1.013480955031923481e+00 1.378423406600670365e-01 -7.969611067906622326e-01 1.089938827411422312e-01 -3.091184631180267095e-01 4.284442181773938652e-01 -9.373980873471497999e-01 1.225854274170182501e-01 6.927852214409357945e-01 5.991445664912639080e-01 5.417431394787342036e-01 7.993711076088190204e-01 1.323292619391987224e-01 -1.638948575670415644e-02 7.518011952435085243e-01 3.820934902536179956e-01 2.873472085147000255e-01 -7.538545723610984295e-01 -6.327630318708388213e-01 -1.024700072630767123e+00 -6.030372083766114555e-01 3.827432637078155564e-02 2.923250762722297003e-01 -5.577696428515429572e-01 -8.785264434114397059e-01 9.831480043732950813e-01 4.955211789658613419e-01 -2.700628478478322124e-03 -7.973211124224089952e-01 4.507334299368995212e-01 -8.601015931843884743e-02 5.627418576736545885e-01 4.220682031186762662e-01 -1.026158759018865663e+00 -1.491542551854977139e-01 1.847038468859326377e-01 2.890244826730570260e-01 9.759204229070658765e-03 8.511462100353129889e-01 -3.112007233735365475e-01 -3.353194513673858901e-01 -7.760085577293601711e-01 -3.669941827621952535e-01 -7.173816542491394666e-01 7.147086794025671042e-01 1.125834271635058198e-01 8.274470464919084917e-03 3.582458174150666697e-01 9.786896175089827565e-01 2.747176953337510663e-01 -1.039982037410771998e+00 -8.228632325023819138e-01 1.751624294903963430e-01 -1.076601234477871483e+00 -8.915963879793602498e-01 4.253811419278791944e-02 1.132893934301294342e-01 6.159356535983891989e-01 -6.513856981103801624e-01 2.680689635230738554e-01 8.707248978060518896e-01 -9.110571605490935809e-01 7.162250462939341311e-01 -8.160366368134923665e-01 5.450507726106376127e-01 -9.329800626820557996e-01 -4.595011719696351915e-01 -1.024727431181908344e+00 5.169095800399715612e-01 4.304891793287544677e-01 6.631810918928497944e-01 -5.856933176462091328e-01 6.535242386426557415e-01 -6.962917960493587577e-01 -3.907406864708185545e-01 8.276256019677793452e-01 -7.574797306968417132e-01 6.458729903066645628e-03 3.529905642395893550e-01 1.242165784374007764e-01 -2.405651296484573598e-01 -9.445999505151081443e-01 -3.384254290093807183e-01 2.009402591457913612e-01 -8.482994202453926214e-01 5.228539710112490857e-01 -2.486611012813588206e-01 1.237498287857357188e-01 -1.030386916134578223e+00 8.233703947969289727e-02 -6.361344727297736368e-01 -4.056679788726483965e-02 9.261763132216180305e-02 -2.233442476310286418e-02 8.921896921673565239e-02 -1.993929203501459968e-01 -9.291064025349153599e-02 8.080526583452855849e-02 -9.549818334265991471e-01 -7.781373947532487234e-01 -5.846204048441505652e-01 1.341878557182507592e-01 1.000972082349264047e+00 3.756783114987939376e-01 1.953555458946616141e-01 -2.375695876491994152e-01 2.261021617386121119e-01 -8.854935826839358537e-01 5.123758313165205358e-01 8.608745704683591349e-01 -8.226493705769455378e-01 6.112647159762757409e-01 -7.976938591250627431e-01 -9.708448333393633334e-01 -9.992427135137711414e-01 -5.426141620793681897e-01 6.362159519345633729e-01 -1.013851126688289250e+00 -8.070119601931793341e-01 -4.870951475324262758e-01 3.043540026862904049e-02 -7.944840165707035551e-01 5.669648074596838061e-01 -7.914523318849505662e-01 -1.535294950588032004e-01 4.781327681351237868e-01 -1.551705469647694513e-01 7.057813515032154705e-02 -4.616845998115201022e-01 8.940363715918549226e-02 3.445294205641473151e-01 -9.990410865217037861e-02 -6.045676006941290703e-01 8.111669804182999877e-02 -1.738609888634881362e-01 2.631023479033254286e-01 -2.851430442638874796e-01 6.495352823742703841e-01 -2.232030998496887901e-03 7.874957506635479332e-01 -1.926059064845720981e-01 -5.369437013224108712e-01 -6.524141279726322074e-01 -4.036816986389932249e-01 -6.436645202347760497e-01 -2.753556553989954248e-01 2.647549152908775794e-01 -6.267308938325604206e-01 -5.373139208737474221e-02 -1.884176200049009209e-02 7.498914142300786567e-01 -3.220947201628187595e-01 2.635746815002500965e-01 5.159020281247875817e-01 9.566243532886828937e-01 -1.858709056903636581e-01 -8.483221976273758180e-01 -9.996340799725929038e-01 -9.812182706531387133e-01 8.344164493996021337e-01 -5.123694937461373833e-01 -5.159070028052015200e-01 -2.445494294764925247e-01 -2.326797900089566662e-01 -6.751351392461893974e-01 -4.248950764853261508e-01 4.601574365956653256e-01 4.110478793006638321e-01 -7.025011892419441573e-01 9.265106957291430190e-01 -4.715843432484798092e-02 -8.935065689023941049e-01 -9.244495440482343174e-01 -1.029202469770296835e+00 -4.393611024171010238e-01 -1.056557752933384942e+00 7.226530732616317509e-01 4.318316895919320497e-02 2.764120210433422542e-02 7.381499958742773204e-01 6.965412437360495312e-01 -1.644010679512439010e-01 -1.054050400210218674e+00 -7.697670885224822124e-01 -7.971194420884798459e-01 -6.489724404189549656e-01 1.339122489257998094e-01 -6.881504170595659220e-02 -5.379292077889840096e-01 -1.177671374950465477e+00 1.247816658581166888e-02 -5.360325947530504287e-01 -5.185673809400347389e-01 4.144315383903189320e-01 -6.818694742663666819e-01 -2.867223271453952504e-01 4.565188431437074978e-01 -3.535673268720125328e-01 -3.721760621499176080e-01 4.043283607337160857e-01 -4.038258877820532500e-01 8.061387046654336919e-01 -1.458080067080402831e-02 9.040163198280278811e-01 -5.820217323877739934e-01 -2.512423259998806252e-02 7.861834643508827103e-01 6.162083137271899824e-01 8.570030979364395840e-01 -8.963428145439691352e-01 -9.251416461279441394e-01 -6.342415574301185632e-01 4.513487692143469676e-02 4.710596288738435056e-01 -8.653232590091148868e-01 6.980127962023109367e-01 -7.027224084124639170e-02 -3.210442834345325624e-02 4.866382583716562515e-01 5.211331979138901227e-01 -1.406235280840374413e-01 2.011437383069153706e-01 -7.066732268920279392e-01 8.527044328112294291e-01 -1.318182887181504337e-01 4.838539624462637884e-02 -4.245914745402040724e-01 -3.597376462541671538e-01 -4.467038785441127535e-01 3.899463773740158290e-01 -2.304247197227076993e-01 -9.703701085222321554e-01 1.255896024023306634e-01 7.723818888781113223e-01 8.812407525596243074e-01 -2.820795184766334285e-01 -9.736589524877516943e-01 -8.447753558963044807e-01 6.392110205028337377e-01 4.148671676317094992e-01 2.578891642221348146e-01 -1.583777018970546346e-01 -5.143165841598357907e-02 -1.691428432335704835e-01 8.003849103671313303e-01 7.560129328808004034e-01 5.122004228074129584e-01 -9.624822066442081381e-01 -4.985986380889651515e-01 -9.792338050015805262e-01 -4.592813808832230116e-01 -4.571557504213459300e-01 6.798889655297113421e-01 6.328200466880909980e-01 3.205593454083089378e-01 5.793326331398395146e-01 -1.107563261552563683e+00 -2.169795568825527154e-01 2.049708231654928116e-04 5.162962638487277323e-01 -8.486685956917700002e-01 5.232419801894195865e-01 5.446633990102893730e-01 1.545542308358928973e-01 2.581142146381089630e-01 7.672397026312681723e-01 -3.458347177323966570e-01 8.427893205583192326e-01 -9.631852170825528914e-01 -4.741835203490026851e-01 -1.868904957459723570e-01 -4.698644005057250883e-01 -9.810971956287152240e-01 -1.487416196039223759e-01 9.976993117089064111e-02 -3.328690351822774507e-02 -7.601884722878613498e-01 5.949963799880371162e-01 7.267445481762107029e-01 1.532659215765107275e-01 -4.636031482356149369e-01 -6.508752287532109104e-01 -2.874270382878421626e-01 1.798312014450134111e-01 1.631355556085461664e-02 6.917244441712788738e-01 -4.410069376934319663e-01 -1.106993359053304316e+00 3.977891276531538844e-01 -6.045550511755167777e-01 9.552806466867403978e-01 5.036610284086139311e-01 -8.417727386731094219e-01 -9.168047686978427757e-01 6.774864187938547389e-01 -5.254053269515174263e-01 2.680005530099738853e-01 5.967210883329649995e-01 3.008607735884069601e-01 2.007244199013903385e-01
-1.484044156514859047e-01 -9.257718912667135536e-01 -5.028308613934936444e-01 -3.919183735804965818e-01 -6.807867392162314513e-01 -1.097559574943330452e+00 -1.202785088549104708e+00 -2.690727921948353751e-01 -3.795474698270570046e-01 -1.656974092733829007e+00 1.066739436942725661e+00 -3.634278719542219926e-01 -5.935672733752906938e-01 5.875617585015613376e-01 -9.546646711878334912e-01 -3.421908238149121151e-01 -6.540442730735719634e-02 -9.727872555501225760e-01 6.170308134804266542e-01 -9.481501488110535281e-01 -7.522951878272343684e-02 8.413911548796887407e-02 7.830539045780669782e-02 8.484246448354285652e-01 6.060669153867594972e-01 -4.640370728546630019e-01 -6.759645784964299908e-01 3.619508523124425614e-01 4.561169438922845765e-01 -2.840153876324050808e-01 -1.954725334521229263e-01 -6.623419019995158141e-01 -2.686234623883174688e-01 -1.047241837831767830e+00 -6.814439598185739744e-01 -6.113790301231091240e-01 -1.196525756289718911e+00 6.765209532777386459e-01 -7.997476591665078072e-01 -5.880018321809250548e-01 -6.914736324979608995e-01 -1.086913755989395713e-01 7.812818983288503105e-01 -8.451327405381410252e-01 1.190529398127201412e-02 -3.629558024741668110e-01 -4.660038065094073145e-01 -1.088288750859265075e-01 7.109553035112435859e-01 -5.541838381617926468e-02 -5.879965611253660240e-01 -1.251875698572728846e+00 -5.511085291662728425e-01 -1.811126621573237727e-01 -1.838152439994783505e-02 3.034273546475523275e-01 -1.046822104250770602e+00 -3.980346704724411766e-01 6.550357678301801378e-01 -1.200282955439292643e+00 4.658711139724373562e-01 -6.273100893560830116e-01 1.234074158214490263e-01 3.649901474805954393e-01 1.019094214870072262e-01 7.372187094905762184e-01 -2.129872197256661714e-01 5.520679264708430178e-01 -4.097146094423069207e-01 -7.591021765805392452e-01 -3.079213306894399219e-02 3.532226935207674057e-01 -2.483498987376122624e-01 1.289009202440822843e+00 -7.722780208427695303e-01 -5.204509412313874928e-02 -9.075390050466561886e-01 -8.619236213511629607e-01 3.427215363456801445e-01 -8.168505067533645692e-01 -1.101195466936156359e-02 2.188663934022878899e-01 -4.301284277704109371e-01 9.318929629825536409e-01 5.003873889692362908e-01 2.821651169077994403e-01 -5.458185786357853120e-01 -8.582414738754027272e-01 -4.933758572600179804e-01 1.338261127107593262e+00 -8.225749420913965881e-01 8.255756528719494503e-01 8.298684109856164781e-01 4.439734774211676060e-01 1.947875862156209337e+00 3.290718492430442788e-01 -6.665589007181484948e-01 -1.185822193279277403e+00 6.913984933931418553e-01 -5.819178489347132111e-01 -5.657454134630641729e-01 -3.429375502796879749e-01 3.923772652399928340e-01 -1.674921308555689381e-01 -5.003640957066699535e-01 -6.925219168298536454e-01 -6.003490616626403487e-01 -6.073216339460106861e-01 -7.157363323420335988e-01 -6.126494456461852867e-01 1.033425495599793603e-01 1.243916999562725945e+00 -7.939507062938581106e-01 -4.706601460634308731e-01 1.236208741429294655e-01 -6.873322568657156406e-01 7.402740617810540380e-01 -2.353016990122284158e-01 -8.759938922610588374e-01 -5.002556524922059378e-01 7.741066098680924323e-01 -2.799159805116028799e-01 -2.805519703426051503e-01 8.466844673558802936e-02 -4.885836497863864647e-01 7.840251076291394616e-01 1.356333308537102933e-01 -5.201203079532585871e-01 1.066943316649923812e+00 5.975353391220146193e-01 -5.823373607148140119e-01 4.869524943683269935e-01 -1.303788881349862150e+00 -1.008995603161666060e-01 7.072620863112538681e-01 -7.921744884261290309e-01 3.357755568125925238e-01 1.163508321755793773e+00 2.864863386288268865e-01 -4.696406832571666801e-01 4.052583579264159019e-01 1.198602735948426368e+00 -9.804744601778755397e-01 7.015063511896275639e-01 2.180313122259266989e-01 2.419169693596152082e-01 4.484194260754381101e-01 -1.010338418700552632e+00 -5.730715825259183882e-01 -5.624135915749520903e-02 -5.930276766880584471e-01 4.216060659640998853e-01 -6.604897953769334196e-01 -2.473269480807106790e-01 -6.044218691570506508e-01 -7.317198057279925560e-01 4.442696284570818444e-02 -1.100270385247341665e+00 5.279637157604643027e-01 6.896282697896846114e-01 -6.328948945026889872e-01 -4.429432447630106129e-01 -1.520870568978044179e+00 -8.501288446660150155e-01 -1.880697877991364397e-01 3.306977988307797656e-01 -7.695023735280901445e-01 7.683007645380451889e-01 -7.592345629847992161e-02 -1.120131258422939702e+00 -1.991629610719987120e-01 -2.621691623373695323e-01 -7.197290809189372807e-01 -2.624813969887000026e-02 -7.271611726956259680e-01 -5.742706331046375928e-02 -6.704284524402771561e-01 4.830697686834478088e-01 -1.148635988770136729e+00 -6.149783486852743453e-01 2.806043942117345535e-01 9.897822488505400029e-01 4.692742280358306317e-01 -1.124586645489671799e+00 -5.422921672557394768e-01 -3.608417625030508891e-01 3.692675391765073978e-01 -7.301264291347848712e-01 -8.576408069686511926e-01 -5.426444659088572875e-01 -5.363024308622428293e-01 2.083129755887514478e-01 -3.443765523570074261e-01 -1.023205166071289529e+00 4.073189941333451025e-01 5.306426020315793135e-01 -3.151255434787638698e-01 1.437775034194576529e+00 4.158863498685428928e-01 -6.120108571643432249e-01 -9.747806396831089071e-01 -6.315411536035909768e-01 -1.325054853549774148e+00 2.807915704791958192e-02 9.556439502634213323e-02 -9.366801416312514617e-01 -7.045574002088973442e-01 -3.674073176019448939e-01 -5.257247162358381631e-01 -7.728171330368480696e-01 3.624310621504950869e-01 -6.858105597199513070e-01 1.564451256883365171e-01 5.051263180886981230e-01 7.047716749290756644e-01 2.073796210359730718e+00 -8.217339841721308380e-01 -6.601252792285187965e-02 -8.575469362058095735e-01 6.241871255044203481e-01 2.820895643491878602e-01 7.762552194187403165e-01 4.755135434597920069e-02 -3.775587505883402639e-01 -8.367771308801894570e-01 -2.690302201169521568e-01 -6.634262293877486449e-01 -4.422265265545659574e-01 -7.106452840760456580e-01 -7.029743764000482287e-01 -2.962535287934141004e-01 5.719815688454529257e-01 -9.377017927982058687e-01 -2.256526318102569373e-01 -1.108932163311021846e+00 7.797438920313529698e-01 -3.009712495055593129e-01 1.025176466532536496e-01 -8.432714775226237691e-01 -9.427420773362117645e-02 -4.647956503288816488e-01 -1.102720496561298669e+00 -7.704354074664578889e-01 -1.669733838154402114e-02 -1.331317379108903243e+00 -6.934102964084197795e-01 -3.117483696597904141e-01 -4.752030294397222576e-01 -9.955981299612124413e-01 -9.146956478907566357e-01 -2.282550720761538643e-01 1.529845717475142530e+00 3.049402024183284765e-01 -6.632963828043904053e-01 -2.135894046275700620e-01 -4.772923877331675113e-01 -6.423097084040174654e-02 9.151585507116836160e-01 6.348138792207481951e-02 3.050501975979888480e-01 -8.901682595154213340e-01 -7.175839075714101067e-01 6.370553581778833907e-01 -5.082694729687023960e-01 8.604826812948046522e-01 4.997080248074525777e-01 2.801260800159054432e-01 4.651522180181821842e-01 -1.239842523457537066e-01 1.198532288211309638e+00 2.542323690105308120e+00 4.530666397554404257e-01 2.873825675120240675e-01 1.580107260680722270e+00 -7.627304996409758342e-01 2.425677994577175312e-01 1.319022744713878925e+00 -8.075704052298982027e-01 -4.667515774512908111e-01 -2.004235958306929966e-01 -1.368765311640217641e+00 7.846308319197752290e-01 -4.715687532628635159e-01 -1.445185065596171076e-02 6.390496428831199394e-02 3.243594480124485369e-01 -3.496419435588343227e-01 -1.124696014160050245e-02 -7.529923858555990224e-01 6.256527666741924509e-01 -6.024733059631902643e-01 2.027219434018234512e-01 1.048981595377552756e+00 1.501834662651675145e-01 -7.247126847177282061e-01 -9.587443743287522580e-01 -4.649446197270292180e-01 -6.257991824935609237e-01 -7.803255129661043621e-02 1.426636841522598009e-01 -5.121959497466299638e-01
-8.308390265836802513e-01 -6.790152917700624791e-01 -7.098920526431620193e-01 4.266019417236231459e-01 -6.364718194307316113e-01 1.962293188168862390e-01 -6.740285658543725134e-03 -2.011484830834220638e-01 6.035992322066072724e-01 -1.044237352229096943e-01 -6.324776632016212430e-01 6.345426587295834864e-01 4.623312798866287543e-01 4.541556215906344951e-01 5.957447388232752772e-01 -9.932590426773333370e-01 -4.364219052015509970e-01 -6.970243653029989384e-01 -2.389098840237854349e-01 6.990855458506061160e-01 -5.913718095116208273e-01 2.086630551655647703e-01 5.308650161651116139e-01 -4.854044640390257070e-01 -9.004707902675203324e-02 5.543013588728963603e-02 -7.201537415226718641e-01 4.177700517413969750e-01 9.917201844533228561e-02 -1.064446439559396440e+00 -4.148635266874893257e-01 2.371518645647982815e-01 -6.560623075369841350e-01 -7.682308703925859739e-01 -1.496556431562076628e-01 -4.383188120821256417e-01 7.999404176192205229e-01 7.305348958715442986e-01 4.872787700682568723e-01 -6.876243606718602797e-01 2.968519778429020220e-02 4.000264467622181019e-01 8.079566722800338718e-01 -8.877761111287479912e-02 5.808874118101520212e-01 -4.227361975329483879e-01 -5.368282962927459767e-01 -1.290242607956608167e-01 4.697638777244146913e-01 4.987229947626365401e-01 1.722703867599496286e-01 -4.592373579927662708e-01 5.537501666368380704e-01 -1.063552669001606388e+00 -4.656467113143911152e-01 2.047287891822916761e-01 -6.678873787715753352e-01 -5.732002706293757299e-01 1.460039318462000579e-01 8.038555997417119459e-01 -9.676507232214563992e-01 -8.066240044056876002e-01 5.289568541015331471e-01 -1.065680348783180520e+00 1.713573864310071193e-01 -3.492981494140059429e-01 -3.760666768966545170e-01 4.735569541619107370e-01 4.967096299581634233e-01 -5.270680936797864785e-02 8.993910754358149795e-01 -6.522552322972237082e-01 7.102675081750055019e-01 -6.871557452540262290e-01 -6.047448526715997197e-01 -4.881735141403484302e-01 4.059380568887497875e-01 -4.832760713556075172e-01 -4.781960466090269257e-01 -1.845903896362289798e-01 -8.132708767379083215e-01 -1.828063152765889154e-01 -7.933311742431682356e-01 -9.695182130883497340e-01 -8.437346482198500308e-02 -3.711840779089116693e-01 1.326721122304608258e-01 -2.858336367107988107e-01 -7.706811546924222656e-01 -3.401320515081096008e-01 3.062532769875452865e-01 -1.731057651093355076e-01 6.951976926232295018e-01 -4.168204019094139956e-01 1.240277885649795492e-01 9.087073394352326167e-03 8.959679874869250771e-01 -8.934459378705056354e-01 -1.059543914607923742e+00 -8.106116493931250222e-01 6.033177191025663744e-01 -1.009955752720281819e+00 -9.660764440235394268e-01 -8.408762846656170353e-01 1.052954988271076336e-01 2.155194731382169271e-01 4.375987966190230116e-01 2.065046289134871704e-01 -8.993302970360210757e-01 3.076020341791219082e-01 7.501539261644390999e-01 1.561012048318254943e-02 -1.478422839624606855e-01 5.974787093110621727e-01 -4.313897495846745755e-01 1.494835308407065078e-01 6.193981144752509493e-01 -6.397195079108551896e-01 7.140590640879435069e-01 9.695415208942102792e-02 -9.478103187680979591e-01 -1.006080927491529886e+00 4.004493462744710408e-01 -7.140053249686546984e-03 1.471436925236072057e-01 6.068087887083049026e-01 -9.685076249816532146e-01 -2.880303960606983016e-01 -1.070927977347849946e+00 7.326518741569512105e-01 2.761685023712158737e-01 1.870463947063385479e-01 4.493165704146275807e-01 -5.464103417591257283e-01 -3.332903843971825597e-01 -3.855287759344050436e-01 6.558790089654799038e-01 -9.616662959192237015e-01 7.797521524279457106e-01 3.650668561100167773e-03 -7.966711382797432295e-01 3.141612474304872893e-01 -6.980797750598832785e-01 5.167555005470104712e-01 6.535525386571214845e-01 3.845254650175332634e-01 -7.112513021766447840e-01 4.175283495166832171e-01 -6.043045850908499439e-01 -6.839098473230531550e-01 8.567646381505138187e-02 -2.946942515108142216e-02 -3.529234186969489873e-01 -1.204625253872004115e-01 7.217882847996477391e-01 7.675636764882789453e-01 -4.840850153312395987e-01 6.522445907186164016e-01 -2.681619542710150794e-01 7.866857326460010569e-01 -1.105141240462571839e-01 -7.526496529017458192e-02 -8.524297598395966583e-04 3.778898511470035193e-01 1.831688524984947386e-01 -6.518802046979202958e-01 -4.402764068824200905e-01 4.435896965430766170e-01 -4.615976474594293832e-01 2.034125082286207531e-01 2.866484050132199757e-01 -2.165755414322727626e-02 -2.795513248136147766e-01 -8.983823434017997878e-01 -5.340360317640623355e-01 7.977372699730991279e-01 -6.889853888889825306e-01 -9.359694660422205326e-01 6.326410947391598594e-01 -6.917260371885795012e-01 1.343749959066131983e-01 -3.359186067483451166e-01 2.978477764596020316e-01 6.699617244429645346e-01 7.275222615765459810e-01 -4.800671579431784602e-02 -6.516867891347557507e-01 -3.834271559665725637e-01 9.532941201050039171e-01 -1.148517601617847356e-01 4.895407005927077670e-01 -8.912774317214956499e-01 -3.857799696623415708e-01 -9.016853236356008328e-01 6.720356023022043823e-01 -4.499293669775030202e-01 9.145360064540966061e-01 -4.358071366212481479e-01 -5.007925115013598383e-01 2.587998684581546693e-01 7.714277099798350079e-01 -1.054305520388596484e+00 -1.069892882146832536e+00 -8.668404412746045784e-01 6.833477742825609935e-01 -9.402085234313978246e-01 -6.595761777160754624e-01 -9.801904202688227485e-01 -4.680025241652925883e-01 -4.477272860949632061e-01 -4.434924741671512627e-01 -2.059387279546708582e-01 8.562284342555190886e-01 -5.064342795120020391e-01 4.576358550137968884e-01 -4.569704614823357214e-01 -9.883926854591176814e-02 -4.803421534492546829e-01 -1.051004679018279431e+00 5.994122775875211362e-01 2.435371266880438090e-01 2.464521021551350222e-01 4.411311643561890983e-01 -4.515357241052144754e-01 -4.065390046657118006e-01 2.445835947292741286e-01 6.377331356774438298e-01 -4.365147621382146625e-01 -5.250298460765152608e-01 -2.181557710146654061e-01 8.504088931255220363e-01 -1.833424939692551436e-01 5.680039216884612274e-02 4.525965707665623450e-01 5.743266942942208964e-01 -2.399609916118314312e-01 -3.838110271916371219e-01 -1.716770043146268743e-01 1.901756172639282039e-01 4.691254654178170225e-01 1.169012589289376569e-01 -4.472402244312439490e-01 6.645960507049416544e-01 1.861401227686137194e-01 -4.035361283482128969e-01 -9.995987010998410582e-01 2.244382611012648576e-01 -6.269072970569837533e-02 -1.887784755199213016e-01 4.276059752960503224e-01 -5.980622572805378567e-01 8.033036239322560723e-01 -9.043052105376244709e-01 2.739911254340624547e-01 -5.221040449743346024e-01 2.527066356395635260e-01 2.199277531061537005e-01 -3.585748041873682707e-02 6.092670521176303255e-01 -5.210263287953381672e-01 -5.447688041381479884e-01 1.469114911115615152e-01 -1.004181106191945005e+00 1.154258208506621503e-01 -5.601310482131130475e-02 -1.044758854931658459e-01 6.830013219704810234e-01 -9.675385287304150150e-01 -9.556894151256811742e-01 -1.006823808181061208e+00 8.985795277940976378e-02 5.360376887042562766e-01 -2.792629342645118751e-01 -1.001695011538097146e+00 8.996191611024192403e-01 -9.690630846103140961e-01 -7.102045618781001324e-02 2.300255969490438701e-01 -7.387152261653068264e-01 -1.906325998342720540e-01 -6.740735889489488097e-02 3.354713814605682631e-01 1.347850459058583528e-01 -1.035426719912415638e+00 -8.693451599245327621e-01 -2.513230611423676319e-01 4.629213503670083774e-01 7.544002224466463957e-01 4.335889372533526243e-01 -7.452840416585421179e-01 6.802038753753155698e-01 -4.912583859262364405e-01 -6.990641295559241186e-01 9.806277721974363537e-01 -6.650763786986133574e-01 3.197212809564060065e-01 8.028679275021721740e-01 8.920859480287783860e-01 6.210797454914731563e-01 6.267767764133508335e-01 -9.626239888373459841e-02
-1.153101145320908127e+00 -2.932445117504901555e-01 2.420268646747187335e-01 -9.283661134560045047e-01 -6.232247371768113720e-01 -8.233224417356310720e-01 -2.501152899390530759e-01 6.748233438753313551e-02 -7.972674140565505496e-01 1.437136252545530568e-01 -7.634947063019970059e-01 5.910894719327020042e-01 -1.437898338526569564e+00 -6.524841024613803331e-01 -9.259708748995965077e-02 5.020910572171374264e-01 3.478073708896340932e-01 8.755476706841600620e-01 -1.017197348343306940e-01 -4.278065703203217107e-01 -4.657058659296759995e-01 5.097336161307672864e-01 -1.804501435949004973e-01 7.307245045941737072e-01 9.881058785394884747e-02 2.154925953143425332e-01 9.227334194104671802e-03 -8.153035292189407812e-01 -4.557276934871477003e-01 -6.894077766707735755e-01 -6.836452063175019189e-01 3.614744807956826733e-02 -1.108887781462905009e-01 -6.690581989228377990e-01 5.990168070800232503e-01 5.471967125881534999e-01 5.693826166118524101e-01 -6.932044062071609503e-01 5.198583915055166038e-01 2.973156107895960631e-01 -9.061619677319497634e-02 -2.372837947727864660e-01 8.016838246975768190e-01 6.543001353119284880e-02 7.957922397026470085e-01 -2.017394470574201681e-01 7.235011873939434235e-01 7.741060943199865596e-01 6.067935420890224751e-01 6.558925938637730768e-01 5.297497854549655383e-01 -1.499003215401741029e-01 -5.267639067308281797e-01 4.423082024752744701e-01 -7.260770636763493879e-01 -1.449437484006288746e-01 -4.406350221384486843e-01 5.977239386302993923e-02 4.251456064438294269e-01 -1.462669154245533343e-01 3.800648445196139757e-01 5.709686087556473666e-01 1.175284852875630587e-01 -8.936452575059931069e-01 4.773752369657690009e-01 -3.267318845233322944e-01 7.436473250286408376e-01 -2.816219099881827614e-01 7.980399611203111698e-01 -1.360538734909457620e-02 -8.188819607006257995e-01 -6.648136022203497975e-01 8.177533827608896022e-01 -3.351516497511921044e-01 -1.386716035197328167e-01 -1.005975251992848651e+00 -1.510055834281237019e-01 7.070581136221101293e-01 3.852976004131486443e-01 -1.197559660505104207e+00 4.279729134590761763e-01 -7.959362435678611902e-01 -5.428072581859458984e-03 2.142340012113616576e-01 -3.060304507515555494e-01 1.733262309082101923e-02 -9.169756599467043801e-02 4.494805918344457057e-02 8.454075122270429121e-01 -7.727015510422365896e-01 -4.916144537013547033e-01 3.469379547600993652e-01 -4.854102054622935758e-01 4.000787458495574378e-01 9.052454915650632872e-01 -8.884643406200861682e-01 5.514201138897933951e-01 -6.912958798789602399e-01 1.101530542765666032e-01 -2.095532185657910940e-01 2.217437556604943127e-01 4.693391561647005106e-01 -9.660268952061678016e-01 -9.462937920526780511e-01 2.295690612413346932e-01 4.471272064660430923e-01 -1.087100355807154139e+00 9.941797742061220244e-02 -9.628074053771318308e-01 -1.387669554152184681e-01 8.107706872199863524e-01 7.025038337686043688e-01 -3.690162067220203318e-02 -2.783421121860645830e-01 8.672539077868054447e-01 1.517528426232711558e-01 -5.951760699756063477e-01 7.930904016005063673e-02 1.928320741505963609e-01 -1.877659200945040741e-01 -3.926139161487445239e-01 -5.727284950530361352e-01 -4.371558389653542598e-01 3.870435279088951241e-01 2.866321847308400117e-01 -5.846273915833389845e-01 2.848880337051834521e-01 4.265198571315229614e-01 4.447333214664837553e-01 -2.199204521291331926e-01 -4.843334008914046973e-01 -5.896894153905094527e-01 6.418455554874521463e-01 9.536084302023734027e-01 2.150808249116704096e-01 -3.762507656642901654e-01 -8.561201864348387813e-01 -5.646986739336454786e-01 -7.407920501676870106e-01 -1.893368341934317245e-01 -5.346959739595734673e-01 -8.426125008288793961e-01 -6.415301753915747529e-01 -4.001869534670491890e-01 2.285504501293942337e-01 -3.667050683226688035e-01 8.231269887533937402e-02 -1.634326883480927139e-01 -1.037832314890817065e+00 -7.258279009344921207e-01 -4.071248839847576573e-01 -5.338538486543480399e-01 -5.516055859930193428e-01 4.163350903057441155e-01 7.711077447920999806e-02 -4.698485022681452850e-01 8.388982195377151507e-01 -3.313080492359350426e-01 -4.495744945010013427e-01 1.669147842807629512e-01 3.822549639861136939e-01 -5.577823773184589218e-01 -1.781063957682186283e-01 7.381549600423046309e-01 -3.045936211257926907e-01 2.512256873289333003e-01 2.288774327285731658e-01 -7.968095503517128586e-01 7.128423895733501658e-02 -1.016981438469512611e+00 1.017304406104380998e+00 9.496885408394140082e-01 4.592634115315968879e-01 -4.541657464179041370e-01 6.593300300450444240e-01 -1.090176850323912205e+00 1.152239562153352243e-01 1.211583235295804473e+00 -4.784656606607374241e-01 4.461787937629737022e-01 1.023033623696656624e+00 2.315961500606635581e-01 -2.897387325116642098e-01 1.034041096864414921e+00 -4.462764194688700337e-01 6.596540342972986304e-01 -4.894330273286314759e-01 7.766821405003054846e-01 3.289278229899335049e-01 -1.223534737617150592e+00 1.612327308990164909e-01 -4.650993535502723208e-01 -3.266944600363504980e-01 -3.263083141861186642e-01 -7.286993700241358729e-01 5.602423878257809520e-01 6.703954548397590418e-01 -8.651511285957252939e-02 -4.309764642785336441e-01 7.341068001965257439e-01 -4.973452179023199471e-01 1.422191437490710926e-02 -2.453944230873386298e-02 -4.807225377085391216e-01 5.205756584150253996e-01 -4.370428620185254909e-01 -8.835221813687622605e-01 -5.999393257174828742e-01 -7.823552335908166844e-02 -4.538250107805191780e-01 2.475102723261112247e-01 -1.032231124586246995e+00 -1.003460672661952824e+00 -6.731403516937699560e-01 5.542042645643117105e-01 -2.475311206334168401e-01 6.300217346338564672e-01 7.701001655134755985e-01 -1.011393069844183978e+00 -7.256060884210865057e-03 -3.419998764195821828e-01 -2.905316879246980233e-01 -5.517618774285800720e-01 -5.780822778201069045e-01 -9.170188974187458708e-01 6.977909585227448641e-01 4.424762410664016543e-01 -8.552917386599011573e-01 -5.053829684457832316e-01 -2.860901888147041050e-01 7.669040660469234050e-01 -9.304310055402585655e-02 6.818633495690490376e-02 -6.155974688047326504e-01 4.674360855692612920e-02 8.934377965303853530e-01 1.123304351929209188e+00 -1.062455013962480654e+00 2.270597816179040773e-01 -6.823162390235582020e-01 7.689338673849245298e-01 5.025312531563853359e-03 -6.730421051755175466e-01 -2.189609028735054475e-01 -8.749413574922252357e-01 9.044689601749098529e-01 5.146052739059665537e-01 6.999994509897310424e-01 7.635098977321687075e-01 -9.162558264039942779e-01 9.092701844013517665e-01 -1.353599342382994397e+00 7.902899886453905731e-01 4.427201156825489869e-01 8.401987587766551746e-01 8.328955157502149209e-01 8.890616404039787257e-01 1.577960016584203651e-01 6.599690780855249628e-01 -7.079920458231897529e-01 -1.309638530788124200e-01 4.425694983567686758e-01 5.769201525677205566e-01 -9.601096318699577914e-01 -2.530817999755369252e-01 4.018295498036364433e-01 -6.453214237065499903e-01 -2.154531973882767848e-01 1.005530799928485708e+00 5.540193793912691067e-01 2.234217660082283008e-01 5.373384056560362998e-01 -8.051225411032861823e-01 -1.389807715760862927e-01 -9.393176819234797525e-01 -6.471773763772620258e-01 1.818599253481328198e-02 2.120137829571206722e-01 -3.974556241706410642e-01 3.692752414318409282e-01 7.404057471184245509e-01 1.396265352890625477e-01 -1.129718108593290998e-01 3.126512838278030504e-01 1.647661535255862120e-01 2.296028797070647220e-01 2.457277921377800656e-01 -7.576398796336583086e-01 -7.658724885846673880e-01 -3.384967279387140482e-01 8.870821146530462054e-01 1.037150183861585166e-03 8.033850731355511865e-01 -5.998926375076077955e-01 -4.950203816807152157e-01 5.465290817898338371e-01 -1.144885779871252368e-01 6.614943428497641054e-02 6.890969509166520179e-01 -2.802816332095566798e-01 -7.043290042111579607e-01
1.351817766582551261e+00 4.742824863928661316e-01 -3.381358783612899432e-01 -7.615005103897395378e-01 -5.947982932478117490e-01 5.576101071360073380e-01 -3.196701878854568135e-01 -1.001296135088056927e+00 -5.762206741204197735e-01 5.405261977764422854e-01 1.015280313470469098e+00 6.469220641900265134e-01 1.269071034752359939e+00 9.854589506635584584e-02 4.196453686342556111e-01 -6.710074902822891867e-03 6.153718959563708735e-01 4.250142874791563163e-01 -5.984886716771915527e-01 -3.604926513690945300e-01 2.111604097322850315e-01 -8.411522856528000913e-01 -6.201598702558243081e-01 -3.091933803515108381e-01 -1.134445391883603660e-01 -5.908200457837522457e-01 5.684021917872994489e-01 -1.415176973054586229e+00 7.932089523730790903e-01 -9.861219860331836840e-01 7.376875121250417999e-01 -7.706782054109430069e-01 -7.537993637467170771e-01 5.827820119212536593e-03 9.962322135849743798e-01 -1.858163586382285959e-01 1.800831143906034548e-01 5.299076939700072542e-01 -3.581831394232174448e-01 -4.103576416113611236e-01 6.941233445803804969e-01 -1.677349411480504870e-01 7.400391471136502641e-01 -6.450809361246385709e-01 -2.843756044906488589e-01 1.018956834288182733e+00 6.888401358320170864e-01 -7.579943153275339185e-01 1.407298592410433979e+00 -3.240435799539041484e-01 -3.401712661229946422e-01 -4.030514188027014555e-01 8.185072812086395810e-01 1.453056463399111931e-01 9.814892431878617651e-02 -2.233616085934600759e-01 1.500883778263781387e+00 3.744520350149315169e-01 1.079944598928010757e+00 -7.456362647715393255e-01 -9.855055990322217352e-02 1.927232361746635328e-02 -1.945782728423370300e-01 2.777244959995532336e-01 6.807056389857474299e-01 1.139309621789432736e-01 -3.704043918817175873e-01 -4.195106512965670054e-01 -6.567752746709440981e-01 -1.979880940618903518e+00 1.313671334707460447e+00 2.095382411766503861e+00 8.142498109511286941e-01 -3.897288097912974258e-01 3.639884766546257894e-02 4.810772362842293259e-01 1.872896187150460690e-01 5.396041968642446562e-01 -1.693690219022130794e+00 -1.292533387254922450e-01 -7.698662854110343012e-01 1.119622452572227866e-01 1.078627732336149059e+00 4.540468009134910887e-01 1.504964837701881386e+00 7.427023389816668208e-01 1.039498538937048799e+00 -8.344950543937966481e-02 -2.068348443122159930e-01 7.056684693028808519e-01 -2.235818917173583165e-01 -5.543572580341155076e-01 4.257697035075976300e-01 1.027482580694042635e+00 -8.279655218036069408e-02 1.003711737517939406e+00 5.575177292187127875e-01 -3.676489435718732768e-01 1.111553979601731745e+00 5.662546925018653310e-01 -2.426438636664511039e-01 -1.153624711522375779e-01 6.762358183980294868e-01 6.595441740250962415e-01 -1.625723318599032297e+00 2.102584031623289801e-02 8.537337479804369966e-01 -3.300152151261770417e-01 1.299052420736367397e+00 -7.573251404386487362e-01 9.401944008254450313e-01 -3.374753539765983773e-02 -6.305740176147416054e-02 -5.700988512481730552e-01 -5.331580375515881931e-01 -3.823953998125597664e-01 -1.562002288549051154e-01 -1.961965952699359639e-01 -4.099495651187604062e-01 -8.098937184077532880e-02 -3.827926082359144888e-01 6.109333283583889829e-01 -1.340255421295148686e-01 2.957096956372649021e-01 6.845625627015043957e-01 4.841321788564948991e-01 7.648369811437405463e-01 -1.222651479426879018e+00 2.096750098243954363e-01 -3.734966829808968741e-02 3.790139276040469518e-01 -1.451921740916714831e-01 2.393134093832110787e-01 5.218392546761303485e-01 2.665238397235312195e-01 1.525045274106145987e-01 -6.822530130973318840e-01 -8.710556850001065499e-01 1.336871277814924777e-02 9.940381879086672423e-02 5.486470054039642719e-01 1.976651454776386097e-01 8.262081252206461279e-01 1.298288890007917917e+00 5.002117618087833506e-01 5.652986976976777100e-01 3.618934703487409754e-01 2.818782623084372871e-02 -1.874581022464989477e+00 3.427483918787094241e-01 1.878704516686393600e-01 -4.086401249412480174e-01 -7.454124472310151850e-01 6.507275990384725484e-01 -2.617116583265623464e-01 8.152076172508271323e-01 -7.116168301401236684e-01 4.569608849257590921e-01 7.016762997403305224e-01 3.122280475095461361e-01 2.008919393554960686e-01 2.921391788590128533e-02 -2.915052761138340887e-01 -9.887214511296868458e-02 -2.143779412165936815e+00 1.324550278974782280e+00 -4.865226813521567606e-01 2.792314737587388573e-01 -2.188285852431585687e-01 2.087355007369114113e-01 4.092247525965914678e-01 3.064395325708723639e-01 6.537859711044854416e-01 -1.299426638619802787e-01 9.590474766652368199e-01 -2.418936606836009640e-01 -8.180804065918703127e-01 1.146196963110764910e+00 7.752937238495213323e-01 2.245660840525753321e-01 1.158814529406237970e+00 4.237720192443149569e-01 4.663259962670031344e-02 -3.481719320226028258e-01 8.592500544228844905e-01 1.111302562868433874e+00 -3.027081356966077053e-01 2.367308639771998902e-01 -1.273380097900283781e-01 1.456469629552165745e+00 -7.150875905589543224e-01 -6.372598347629246929e-01 -2.037525375367079672e+00 -4.315084280217723056e-01 1.101693153257414348e+00 -3.741091311111531814e-01 -5.750989463433685972e-02 8.103197343552567267e-01 -6.708719950443210733e-02 2.243971913291191278e+00 7.201013249594434562e-01 2.360950340707866080e-01 5.951511926459339685e-01 1.411666132951415520e+00 1.041090068290922321e+00 5.175092419577385083e-01 3.635541039817160591e-01 2.724936912590900651e-01 -7.670164817696708548e-01 1.264009251714275583e+00 1.682423569771001326e-01 8.904166692565632646e-01 7.228295572862902807e-02 -5.740597187118591238e-01 -2.735302815486411188e-01 5.309831061133386820e-02 -2.715819827916631790e-01 9.641258035467407117e-01 7.277632652158482207e-01 4.161117438442570315e-01 -2.602504720300579666e-01 8.319014875217243254e-01 9.497949748454740382e-01 8.695204742202586878e-01 2.314242001748640920e-01 1.705391980581748568e+00 -8.711298751232648963e-01 -1.303782503024162806e-02 -1.266895828167315941e-01 3.851524619326668897e-01 1.017436886179914790e+00 5.756123239784312062e-01 2.535728156754242790e-01 -1.708921145619667625e-01 7.566984900299783545e-01 -8.116222529281156284e-01 4.989053403391616182e-01 2.592161665474242427e-01 1.293211361782033331e+00 -8.424288897634536755e-02 -3.549872596418811588e-01 -6.261761646779447910e-01 4.187798303640014597e-01 4.826430130353071002e-01 1.489008374374535038e+00 4.352184837087721969e-01 6.963517644100965243e-02 -1.206196205877422822e-01 6.644906449868287490e-01 5.453546356536470574e-01 1.693316209312255571e-01 1.051697273798786469e-01 5.026698217141656322e-01 2.845358018402069367e-01 -6.694577923828435306e-01 -3.800714741901570770e-01 4.312073914794924967e-01 1.495844230575192890e-01 -6.003737494221480508e-01 1.267617174835506122e-01 7.390913624734390952e-02 -6.383900244804605606e-01 1.177957458658795087e+00 4.174175804255070288e-01 3.149684220279616587e-01 9.335013351999974507e-01 5.997632236301803088e-01 -2.054295307057704134e-01 -1.301666146658408407e-01 6.055291343760540457e-01 5.460072833448956775e-01 -1.025954896277918804e+00 2.656070065292687743e-01 3.626989922257140009e-01 -3.809873181794172226e-01 2.844377835707778135e-01 -4.434440401211868776e-01 -8.773929871680549719e-02 -4.844931680467597923e-01 5.471539609752076316e-01 -7.098170674954479287e-01 5.521378708270106017e-01 1.221460370271215679e-01 -1.959380839926804507e-01 -1.455667033942073807e-01 1.407282059101419236e+00 -1.298786855533870799e-01 5.139287413529428639e-01 3.153245076405956915e-03 -2.443729510366545454e-01 1.071347867217182337e+00 5.039184925113515678e-01 -4.347730074308265857e-01 -8.454115620865949587e-01 1.060636416070009913e+00 4.077642421604372736e-01 4.585069257370283369e-01 8.208222448907758206e-01 8.281224581440260746e-01 -6.374469593123745226e-02 -2.437838138722338566e-01
