6.424378170660914877e-01 -3.904920358887687543e-02 1.513600869955259720e-01 -4.935635016223172133e-01 5.559563894982326726e-01 2.253938724647985281e-01 1.847400362360036852e-01 3.275555567310418914e-02 -1.203286392734816745e+00 -1.416735049499111776e+00 5.165218661460897476e-01 -8.246593276260054395e-02 1.183201250927917947e+00 1.102435470583458699e+00 7.258191626093452031e-01 -2.164922430971033540e-01 -9.969214990307713187e-01 -1.764657333001321993e+00 -3.466973131583388490e-01 -3.095996091568501196e+00 8.089871290346972721e-01 -6.530456680332770159e-01 3.679008764909836859e-01 1.091699456686069380e+00 4.066455705899442719e-01
-8.302933790969849737e-01 -5.156089919199431382e-01 -7.941766578057227743e-01 9.626840337821278570e-01 -1.778194957893469361e-02 3.272636229001692487e-01 1.409673521387927009e+00 -2.550408989073669197e+00 7.621446588924116750e-01 -1.556340400618619668e+00 -9.996753366681641051e-01 -2.748450182106187620e-02 1.407287036266529956e+00 1.797455581588383922e+00 -1.397675939925351329e+00 -1.603578723400391759e-01 -5.677024682014143453e-01 1.166587779171713857e+00 4.338834757110914264e-01 -7.434819433346565587e-01 -3.275220953959377401e-01 -4.208394814334331935e-01 4.899609461228240925e-01 -3.507463235322426376e-02 2.019323901663665044e+00
-7.299799828134384549e-01 4.647694360654052170e-01 -8.167772610891816942e-01 7.469891374952873919e-01 4.529135278465332148e-01 -1.159629920121209995e-01 -4.668280291486372469e-01 -1.064051564542777550e-01 -1.210831885297679378e+00 5.116396141249104357e-01 -2.647139156181948394e+00 1.377279255134048197e-01 3.435538582656727513e-01 1.597704503821787192e+00 7.499564787371415520e-01 5.849026824913520217e-01 -1.796573659114441890e+00 2.734658073792423094e-01 -3.821628305155183036e-01 -5.029863502334948333e-02 -1.484025847746510696e+00 3.086733790663351296e-01 2.290540090645023785e-01 -9.444953607925840045e-01 6.733581640857945472e-02
-1.639818455523261775e+00 -2.369976305857372789e-01 2.657421402571728819e-02 6.511727618200841006e-01 -3.247251576187028532e-01 -2.399612053059584915e-01 -6.258836487868217890e-01 -2.867898473826349659e-01 -3.598133720499837596e-01 -8.742532328984192747e-01 -3.695129776854877424e-01 -6.459659185249712054e-01 -6.175839755477520177e-01 -1.047884624837097656e+00 -7.033856508601183943e-01 -1.970137911491705252e+00 -8.931427942993787061e-01 2.795921672215886389e-01 9.698637416070435835e-01 2.487357832380477252e+00 5.985254242060937535e-02 6.436932917362772066e-01 8.608083016619006989e-01 1.070099393590245862e+00 5.718190143211631105e-01
-1.654469976161613509e+00 5.354149440849753638e-01 -3.406254301848090638e-01 -3.364494420983749623e-01 -9.750311194078050692e-01 1.013501163232965352e+00 -1.039751422886501242e+00 3.384087951187397109e-02 1.268291950857000305e+00 6.543452451087364841e-01 1.547149155510376684e-01 5.637378337462107813e-01 1.385776242319519236e+00 1.313751226909977587e+00 -2.026224422053098106e-01 -4.603262478894985521e-01 -2.651697633318630842e+00 -7.061654382110578165e-01 4.782208135760589868e-02 -7.051672723687815170e-01 1.173775926720717067e-01 7.988522792570126319e-01 -5.014272419796169666e-01 -8.703518152783140671e-02 -1.214299527144229590e-02
2.459416091675961369e-01 -2.596446664238808988e-01 1.105502670747425809e-01 8.107004607325402068e-01 -1.986772704901525188e-01 -1.030880649745820277e+00 -4.988439769751124020e-01 3.640349412319784372e-01 -3.493155098556317117e+00 2.435404971937221441e-01 -1.288270750398549103e-01 2.605850070386263262e+00 -3.411970968563216466e+00 -7.911217114317613264e-02 1.482217511740871463e-01 2.511335097108106318e+00 4.003869414585046749e-01 3.300943627110376477e-01 5.896924938489672696e-01 -4.140008078254132640e-01 5.704648323292642320e-02 -4.343752760953241143e-01 3.226523719183985173e-01 3.273510176484969447e-01 1.645195309469697775e-01
-4.270806718412823444e-01 -9.495734070967711826e-01 -5.052790984857341572e-01 5.000513767704491963e-01 -1.469223948019850567e+00 -1.347453587580182965e+00 7.668627586616220126e-01 -5.532495909786695476e-01 9.935069935552082176e-01 -7.362311535680884367e-01 -1.212386629212107048e+00 1.471232302680344439e+00 -5.732751007237287810e-01 -7.533535453082383926e-01 6.087937435337220649e-01 1.000792981679812010e+00 -1.922325626883703287e-01 -6.517938043599850184e-01 8.560344649900086811e-02 9.997837313685774274e-02 -1.625108507639356700e-02 -5.512649405557208393e-01 -3.752709608610703129e-01 8.242771744917819499e-01 -2.332008940354160231e-01
-1.878094695778521173e+00 -2.601402301136865672e-02 2.566250763954698866e-01 -3.399395074301008735e-01 -7.635136069151544636e-01 2.533189638953536882e-01 5.788778848288554935e-01 -4.403759133618032617e-01 1.919817706963985182e-01 -1.285969741291527857e+00 -3.996572051686146931e-01 2.763738534338681663e-01 1.480849289327190212e-02 1.460373210314191095e+00 -7.411069632035144350e-01 -4.590981262823188858e-01 4.707125544584050414e-01 9.366971814753747294e-01 2.827828804542049101e-01 -7.875957933648342069e-01 1.967500464190191867e+00 -3.475921712233434491e+00 -7.672107807069339369e-01 1.034403316606932466e-01 2.174538840417288288e+00
3.284096921951634718e-01 1.320167876141071561e+00 -9.525862000357875337e-01 2.420186082499890118e-02 1.946939685975977163e-01 -1.512051535866051122e+00 -5.008093298570381879e-01 2.482992642538581485e-01 -2.725712915296203409e-01 -1.396548729712651093e+00 6.722324071806864421e-01 4.614495160031367726e-01 -9.359735086863439912e-01 -1.047406206952333635e-01 -4.888756107910555704e-01 1.666599957570443491e-01 -1.084599534027980816e+00 7.290221860152288347e-01 -2.230901040743353270e-01 -1.240297916929515187e+00 4.244863812787671442e-01 2.557682931968967011e-01 -1.011017080484404723e-01 3.384372924671253391e-01 -2.666024938726332394e-01
1.015892142628629813e+00 -5.815464552296435441e-01 -3.838776848384929663e-02 5.734952111144577813e-01 2.380334805165923717e-01 -2.273243772377523120e-01 -2.138707332493870461e-01 3.865551064335971398e-01 -1.676651080006502925e-01 -2.275115493721785176e-01 3.444282598755527558e-01 4.534893120444926512e-02 -7.058789751587557504e-01 -3.840904069400027931e-01 -2.228032223456281324e-01 -1.000346034428291064e-01 2.055268407408028963e+00 2.610540550470191734e-01 5.379817880677017355e-02 -2.083298463950017609e+00 -9.418710152758080767e-01 2.965561090383667664e-01 -4.459532645807522400e-01 -2.561488359006459881e+00 -2.449542727911073192e-01
-1.202395857942163415e+00 -1.027394106115711692e+00 -4.506512470234391721e-02 3.138109675212852889e-01 1.355012383244541541e+00 -4.389107844034249584e-01 1.376173235432184727e+00 -1.935384266888718674e+00 1.138240340657368899e+00 1.351054323047505834e-01 9.833527348600427098e-01 -3.775043839658756006e-01 -2.240400927040183121e-01 -4.768372147706471664e-01 -1.022875451572670263e-01 1.691174137505850217e+00 1.648326518205378566e-01 -5.743850453027962155e-01 -1.105695261293185627e+00 -1.286144378394643795e+00 -1.367547754697721940e+00 7.785402464506270548e-02 1.402306744422272988e+00 3.046483515401063880e-01 -4.130608934576595614e-01
9.299088501199077872e-02 -8.300401801472745422e-01 1.107614912496024673e-01 -1.261505905823872842e-01 7.440609558526992684e-01 3.127250328056236373e-01 -9.081202030081145793e-01 1.352307728422474931e+00 -9.086791182510215448e-01 -1.185085260583643718e+00 -1.195484897947134861e+00 7.773649727953271249e-01 1.418284047875724152e+00 -9.268784001608917356e-01 -7.414048132190188545e-01 -9.993808558969676792e-01 -3.339989913179181036e-01 1.473906245557089933e+00 -3.105174536198350710e-01 1.301776523937167411e-02 -3.101685823755575000e-01 2.588555201363688663e-01 9.547698253625648279e-01 1.821035125300393409e-01 1.643854744802099972e-04
7.520220373711937745e-01 9.042326956282226158e-01 1.777662755830790586e-01 -6.647599941751755059e-01 1.802445346516574065e-01 -5.871100529958998004e-01 -5.888851132213274858e-02 -1.554114937593688905e+00 1.484517085632174993e+00 -3.426937127012069650e-01 4.649359842759383243e-02 2.712746138260065942e-01 -6.157010630418954245e-01 -5.877121220541888791e-01 1.481122431587282018e-01 -7.112087302632004171e-01 1.135751874524359106e+00 -5.637518013164527497e-01 -6.472248383913489223e-01 6.024349571539212578e-01 -1.113552004955882690e+00 -3.669726653262492810e-01 -8.978537576559394995e-02 1.048126277433005099e-01 2.300780450837211152e-02
1.496411751353178055e+00 4.291800670999900702e-01 1.566725606988237651e-01 -1.421078382221315328e+00 2.065349643538325619e-01 -5.984768750435507378e-01 1.838705226566160977e+00 1.477136001308385405e+00 -6.212843927953258794e-01 -2.404287533145763600e-01 -1.680341120717086412e+00 -4.304679034840902530e-02 -6.877191765421989400e-01 -4.052656226340077272e-01 -1.590836676094780910e-01 -7.886195084894460638e-01 -7.560048302074060533e-01 -1.227413800062298055e+00 1.514443430278551717e-01 -6.870945736133098336e-01 -1.407129526309854217e+00 1.878127807973092311e-01 -1.567543658458484257e-01 4.637608198731055231e-02 4.114057840741028316e-01
-2.764446224621656678e-01 -4.127039294876390096e-01 7.100534665162875347e-01 6.201516524818816434e-01 6.653427375629616947e-01 -3.113496555223437268e-01 -8.260218836390502695e-01 -2.516009660504010537e-01 9.707864193837387745e-01 -1.906833224733749388e+00 -1.538468716234422606e+00 5.689757149863198249e-01 -1.717823944038488149e+00 2.557515245860063846e+00 -5.880146198611241326e-01 -1.194580408731796162e+00 1.473322649449874344e+00 1.518436935022632994e+00 8.098927928568531165e-01 -1.159101297391130103e+00 6.739313561959626997e-02 -5.416519348350720131e-01 9.811296341827264733e-01 1.300755602535370037e-01 3.416441015433211992e-01
-2.617814830059656650e+00 -2.273109298159880776e-01 1.272675966761815380e-01 -3.372129912250429462e-01 -6.012297746125851994e-01 3.188039322672601983e-02 -1.363728902927092979e-01 -5.313000000295980269e-02 -8.808551916999083353e-01 -2.403008940313947073e-01 9.928457177487585994e-02 2.397219644941929809e-02 -1.157246036814167711e+00 -1.517781972111950761e+00 4.692666008011956991e-01 -1.275734578213894022e+00 -2.538777527482676710e+00 3.048564548974147526e-01 4.652637899448465730e-01 1.593708252111714296e+00 1.801039577507820955e+00 -7.192104080581054881e-02 3.687464961858460399e-01 1.956496637317027165e+00 -2.776336652471833033e-01
-2.194583091056792057e-01 -7.383340547558521483e-02 5.689230645247275175e-01 -3.516210047025456475e-01 -8.101747627638510030e-02 -9.254432830949235189e-01 -5.818230507226583859e-01 -8.883007089414828028e-02 -5.207668566259047171e-01 1.018905444557814732e+00 -2.478802988879056091e-01 1.089429422916583956e+00 1.512564410405994098e+00 -1.030864883146008104e+00 2.131957029406566506e-01 2.009647921989022201e+00 -2.086383914048416666e-01 -4.188068479009632861e-01 5.599055388169171810e-01 5.704222446074206504e-02 -7.907518282333910742e-01 1.079431157550973630e+00 2.063788660659759532e-03 -1.359962949224890805e+00 -3.835876414094692710e-01
1.820017623955732633e+00 -4.988829866623451514e-01 1.206402228451949193e-01 -3.746178126872897751e-01 -1.859934860466940509e-01 -6.974660992833736639e-01 -2.398611282360218200e-01 -1.782609634154301223e-02 -2.343300050562320269e+00 2.517290938636356223e-01 7.630006288475610354e-02 1.264491054607124410e+00 -1.568285404023454177e+00 -1.143877524231674964e-01 -1.950406519443757536e-01 -1.829718465472785160e+00 -8.783455418702622586e-01 -2.690154974209952310e-01 -4.880382861008290551e-01 -4.343538100597146845e-01 1.324719958496748617e+00 4.718299664811091976e-01 -9.968781232625292255e-01 3.563682840568569987e-01 -1.054290235705458156e-01
-6.708499602699318221e-01 -4.086521271207386174e-01 -1.085673108653578911e+00 4.561164615934748534e-02 6.088707243220754517e-01 -1.342579439353934978e+00 -8.341536767023028931e-01 -1.304382346274398918e-01 3.930572866260664822e-02 -2.681034207557625670e+00 1.796795057035182941e+00 -1.520636661967239567e-01 1.092494290978232252e+00 9.054416130977199773e-01 1.116400493035679897e+00 -3.035879455360669943e-01 8.808742367104294146e-01 -1.102110733007842347e+00 7.555749781493095174e-01 -9.001646073173045215e-01 3.929145875904470064e-01 -1.202862160013157822e-01 1.869491727897437672e-01 -1.657243667947157495e-01 -1.455384479131874853e-01
-1.494498949085758976e+00 -3.496296149727564639e-01 -7.678927970105126066e-01 -6.320763696403745857e-02 1.503707983678544524e+00 -4.760993639421538526e-01 -7.069279079396972865e-01 -3.372080088397008124e-01 3.751620449933494861e+00 -9.876533755482046484e-01 -1.870124548432351430e-01 -2.070218280582162951e+00 3.689052948439988988e+00 -1.307007227291280493e+00 -3.253636876705426340e-02 -2.053971103631239803e+00 1.292055174615902580e+00 3.060534576327850198e-01 6.350378240694766196e-01 -9.526235741674217161e-01 -4.230393489119101402e-01 -3.104563672500576521e-01 -1.217990291813215303e-01 8.651523759865085150e-01 4.973509513110305202e-02
-1.998035830412650649e+00 -1.049963183028187030e+00 2.957631463849151876e-01 2.066182904647339835e-01 3.456395083655853795e-01 -3.768942684792904452e-02 6.564939381193681811e-01 2.553773119396551272e-01 -6.915914300502249423e-01 8.375671051238370302e-01 2.262499626394337549e-01 -1.029546914536156210e+00 9.256573200542096425e-01 1.555777912682752284e-01 4.495745630822365890e-01 -2.865585927354755702e-01 7.502443425909344210e-01 1.231672653037129361e+00 -4.771587424444678205e-01 -1.402343251651245293e+00 -1.150446463599138075e-01 -2.130729336362502391e-01 1.441219940292263156e-02 -6.955940525822541520e-01 -2.556300276178842257e-01
-2.013475980797754250e+00 -1.213108408689919315e+00 -3.361490209466759249e-01 -1.257134617127973475e-01 -1.693015047180264077e+00 -2.723522669803040142e+00 -8.405762078876249932e-01 -1.141829692729076362e-01 -9.966875535214455573e-01 -6.099524691091633422e-01 -2.635957079982023110e-01 1.601266782971478841e+00 1.784871233479846664e+00 2.934852819976456195e-01 4.130505971883353666e-01 1.337548757814488454e+00 4.068712984098931118e-01 6.585478989311667822e-03 1.108710354530144104e-01 -2.630178568350366453e-01 2.211957155860890534e-01 -1.149069421114344292e-01 -9.552233265813195318e-02 -1.921537918822972812e-01 3.445685209127631321e-01
-6.212509772652567014e-02 -9.764988572849393478e-01 -3.365217459932735578e-01 -1.197550517626326388e-01 2.016952408015223241e+00 5.081720936907473396e-01 2.622270823942143836e-01 -4.882562933124103277e-01 -5.452773108083965869e-01 1.071198723745862669e+00 -1.279419603800224126e+00 -5.981535263912398648e-01 -6.730318501919875240e-01 9.323731933959410467e-01 1.658863837266115193e-01 4.943943006018488573e-01 -1.050222812549138185e+00 -4.837811742156775119e-01 -1.198542558021559401e+00 2.141057169127694726e-01 1.171413019575578751e+00 -5.205443750860769825e-01 -3.790473064098915518e-02 2.957102948804578024e-01 -7.897916643102089740e-01
3.588236402336900110e-01 -4.133501743532500550e-01 4.573207481051028145e-01 1.742711543713121314e-01 6.868833688426786988e-02 -1.519206805490274370e-01 1.351042727834845802e-01 -8.519213832829142241e-02 -2.693305636220149069e-01 8.323669986346949115e-03 -1.932699088219478126e-02 2.497645223197963449e-01 -3.490616510707971604e-02 -1.033815389763990567e+00 -7.701848245344730115e-01 -6.333958550436034063e-01 -1.008434813528166218e+00 6.960888764281556451e-01 -6.043873088523711301e-01 2.379924546677862976e-02 2.045625720744357889e-01 -7.403509024127706839e-01 -6.767075714091365102e-01 -6.754415636729216299e-01 -6.339100882853748731e-01
-1.189211940584622429e+00 -7.128796357262476291e-02 -4.672246822978144420e-01 1.680282706781157209e+00 -5.425308033488739357e-01 -1.242807250250837180e-02 1.348129218484053871e+00 -3.012845049686116550e+00 -7.236332611314681695e-02 -2.971470980225223157e-01 9.982751144018491285e-01 -4.870532350620380702e-01 -7.392907444406322803e-02 -1.056376819431878167e-01 -4.144105973285135414e-01 3.871131622640571757e-01 4.800679895877916770e-01 -9.429700172463110208e-01 2.663194307210552392e-01 4.717240456457393316e-01 9.229949787665869820e-01 -5.476552575738671269e-01 2.432746429589539294e-01 -8.910880636443123670e-01 -8.375611974472990662e-01
1.486559738605480963e+00 3.848481372615411011e-01 -1.245772621660046382e-03 5.590630232083060314e-01 -1.276598085793589077e-01 -6.102484003557465675e-01 -3.078097969201878392e-01 2.227659872554940690e-01 5.764581741976298329e-02 -7.950102944508301295e-02 -6.123459461993048247e-01 -1.474727787456128203e+00 1.963127998561954746e+00 -2.318297830526821812e+00 -4.453099022534581231e-01 6.916480472642264621e-01 -2.762935617791433263e-01 -1.424189936138837487e+00 -9.791128101331916245e-01 -2.745189635841764342e-01 -2.052617773944273249e+00 1.329691707273624734e+00 8.194138314350921659e-01 1.454584280467823065e+00 1.335262287806071368e+00
-3.751210716956016045e-01 -4.877114835866240838e-01 -1.433835927477709604e-01 3.975560815860040148e-02 -6.241427077242371890e-01 4.439440872334864396e-01 -5.569896008750733207e-01 5.852451808520103826e-02 -9.538475931731224544e-02 5.058655019616651316e-01 -1.083784650694642027e+00 -5.597071976221734690e-01 5.923993229713078179e-01 -5.788396533126783927e-01 -1.029379004607673398e+00 -1.367846604609858074e+00 2.067113528257330246e-01 -7.946477033456482708e-01 2.123077042234477185e-01 -1.471333627363161645e+00 1.370868693322349896e-01 3.152755047083700690e-01 -4.618735104609922315e-01 3.287754630063076666e-01 -2.246304073003860813e-01
-1.254080128666787308e+00 5.417113845659123905e-01 -3.797849113237930507e-01 1.787749367456816119e+00 8.176599257458039283e-01 -2.161694020612318745e+00 -1.913113669191909949e+00 1.383823093857563968e+00 8.970490805795925393e-01 -6.709603109975534885e-01 -1.474962138305910608e+00 8.957623535146349569e-01 -4.001711267536284256e-01 1.004007480273993336e+00 -3.545917944369579855e-01 -1.051223614014195507e+00 5.604667222816457350e-01 9.361360408936814093e-01 -3.408389694774366374e-01 -2.114290458910778308e-03 1.642248423316000350e-01 -5.827303098600491449e-01 -2.425579331668745453e-01 -1.384717315781525404e-01 8.166574495441041304e-01
-8.869353159646599094e-01 -1.784985401174187525e-01 9.996139969414298276e-01 -6.904262538402242688e-01 -5.439110634542937417e-01 -1.021501844114271584e+00 1.057757021127969432e+00 6.772190015069528002e-01 -4.501017428752704941e-01 4.970196611704801870e-01 -1.550693767254134103e+00 -1.620449088893494982e-01 -4.602219519258612390e-01 -5.745038899864390869e-01 -4.563415063182517661e-01 1.876123130730374955e+00 4.718730211895231230e-01 6.176608989837754082e-01 1.581136324399470272e+00 -7.231760858617104493e-01 2.114070579958799712e-01 -2.656587394605426367e-01 -1.532533853576466099e+00 1.930392054285633152e-01 -8.488229201552434100e-01
-1.150656130542516142e-01 -2.353373702907058940e-01 1.798886696582222000e-02 -1.191123536658892146e+00 -1.981615658219048337e-01 6.621511250440424989e-01 -5.831257945784598107e-01 -1.285747952156977680e+00 -2.178348529116581334e-01 8.053867912081235092e-01 2.658360569325205272e-02 -3.218512900983609981e-01 4.982490812821327442e-01 -3.738598749626245166e-01 1.785283332583917637e-01 4.079758441801115687e-01 9.300442577182893578e-01 -9.334066369273165131e-01 1.202321480720150576e-01 1.348064958987851503e+00 -1.113600999451779261e+00 1.185031377630793914e+00 1.221851332256725792e-02 -1.396129269174992249e+00 6.612319575081287981e-01
-2.268794696724345528e+00 -6.470572986354922174e-01 -2.581422448073329989e-01 6.450876471968596260e-01 1.707835032111724993e-01 -5.729001227559649828e-02 3.005085147323127703e-01 -1.212335039122037772e+00 -5.751169029144989064e-01 -1.878129270536172679e-01 -4.743676619651755744e-02 1.535479627466113106e-02 3.927031846428127304e-01 -7.206212589820979453e-01 -4.573653390221905646e-01 7.723294769500382850e-01 6.326502524501995683e-01 -9.338842153483554176e-01 1.054421147050130125e+00 -3.516804802854460732e+00 7.806938312565353533e-01 1.131735912013563938e+00 3.722094238036057767e-01 8.966451345959435271e-01 7.288286003649918632e-01
1.312114816043464804e+00 -4.197201611491740980e-01 -2.344517697755235108e-01 -1.377422732162992380e+00 2.122941396926228130e-01 -6.470041236372133797e-01 -6.345536508571605339e-01 4.879834279414765191e-03 -1.227964618762019677e+00 -6.722427533312565207e-02 1.009476608403494513e+00 -2.638424860578356679e-01 -9.192836594940922978e-01 5.503210127900828308e-01 -1.517617572287243699e-01 -9.872654202292465708e-01 -3.417494360179376689e-01 -1.317158085507048160e+00 4.483407597505216224e-01 -2.883954715312652128e-01 -8.364268587004900501e-01 -4.795269032035871792e-02 5.345996469433468290e-01 1.232203580936649667e-01 2.393413143331899473e-01
2.771964504104437732e-01 4.609589574249761679e-02 4.670690078413985979e-01 2.524732307538342102e-01 3.191985652646778249e-01 -6.991577890313369625e-01 1.623104402178340011e-01 3.980479308520695203e-01 -3.695187682406858021e-01 2.227995822746970389e-01 -3.320594083302595756e+00 -6.865554646083167623e-02 -1.448291441991810702e+00 1.246104797871334213e+00 3.377976513180818152e-01 -1.222604957352847049e-01 -2.000072772556360234e-01 -1.364087339678457189e+00 -1.199163339040767995e-01 -5.738248012854473279e-01 8.435020167254330126e-01 -1.076845518222617759e+00 -1.240862843644089802e-01 5.070706074098377814e-01 -7.106780626622878350e-01
1.049816599298183828e+00 9.254897486234320292e-01 -6.225299668199173464e-01 2.578344974945915441e-02 -9.389856894797699027e-01 -7.039597343864510970e-01 1.196019035399355834e+00 3.115630330000639381e-01 1.367823641875908214e-01 2.178968297944766430e+00 3.963983589720336820e-01 -1.147131596427546363e-01 1.998991614656526472e-01 -1.578697423858645310e+00 -7.114463305456643072e-01 7.639328878040182458e-01 -1.377324478977359545e+00 -3.015327248211421840e-01 -7.575245044420688689e-01 -3.027316864000152652e+00 3.387809638563655801e-01 3.061084189244431264e-01 5.054267767067682771e-01 1.258639558773090750e+00 -7.808001056751572300e-01
-7.894133330387662628e-01 3.805745478015057914e-01 1.983179288386892614e-01 1.662569540749931074e-01 3.979286120953282602e-01 1.185247907164721781e-01 -2.361549041496440737e-01 1.885307243116138010e-01 4.223843759825263167e-01 -2.182006433049056837e-01 -7.788015524680096113e-02 -3.673203215581333919e-02 -6.341932134317042058e-01 -1.101841396704190817e-01 5.141166010562122635e-01 -2.727008887237705390e-02 3.240882216654244807e+00 1.058644271185579973e-02 -2.986977695851595893e-01 -3.132634277908500575e+00 2.500896106824928466e+00 -8.016089316579769197e-02 8.983498690064976866e-02 2.227916042011316211e+00 1.633304543556188260e-01
-5.733892076139228688e-01 -5.745156590676955277e-01 -1.153909641809685444e-01 5.610494679261258666e-01 -4.104528176398231643e-01 3.793846048595029274e-01 1.664867001776473010e-01 1.394977523776525508e-01 -7.988262551373700449e-01 -5.091006706132865378e-02 -4.491424086492002421e-01 7.115553390174716997e-01 -1.212130622948136116e+00 -2.561428502397936846e+00 1.632941724830221597e+00 9.093776840137398620e-01 -9.216686013330371852e-01 5.891054834421738384e-01 4.845431626072251863e-01 3.264863068705864402e-01 -4.968121334268393863e-01 -4.373490025504402912e-01 -4.748923195481202231e-01 -9.945093768221165142e-02 -3.804351560651392794e-01
-2.858833253808431785e+00 1.913690719538204021e+00 1.262238851649629234e+00 -3.734436044309559777e-01 -2.752536600351267460e+00 2.466353718010942053e+00 1.011907260351895710e+00 7.592558541037307263e-02 1.044555223704182190e+00 -1.632537259934293994e+00 -2.042436096235480947e-01 1.279683233230961836e-01 -8.243339077525095870e-01 -6.312392701727356226e-01 -4.491149985025674751e-01 -7.310153111255059954e-01 -2.545591612915526492e-01 -4.707265407750126363e-01 -1.369215153496124437e-01 -2.414302808185784799e-01 -8.248876425123509160e-01 -2.977978505499648959e-02 -1.864225637474492270e-01 4.351688141615743799e-01 7.600242289845809962e-02
3.559334188458366799e-01 4.115916463249687518e-01 6.890242437171056888e-01 9.036559598878210475e-03 -6.752638576986303987e-01 -1.021567291461279225e+00 -6.199076015365464487e-01 -4.479973683133731677e-01 -2.296009212446811776e-01 -2.443485310090376950e-01 7.106954921552394167e-01 -1.201401840995570819e-01 7.199215889626763287e-01 -1.411425347729033275e+00 -8.739604256917273828e-01 -7.056851484381482242e-01 -1.025841433493194677e+00 -2.993113311593645909e-01 -2.809029522599589268e-01 6.574492470464374794e-01 7.013346824290842552e-01 -4.886897432199486802e-01 -5.990660598975261486e-01 -2.614405586970231510e-01 -3.099014649949262123e-01
-1.034616840163209650e+00 1.213222208019766601e-01 5.134214817849978019e-01 -1.788339762210515715e+00 -5.424483444733144699e-01 -1.016544803286094423e+00 1.032753731941753905e+00 9.157805452411763580e-01 5.526890549592826662e-01 -5.770462896766634930e-01 3.357278281836603151e-01 -1.898737343681856371e-01 -1.696140716409001020e-02 -3.222199237658095183e-02 -4.230836902697049928e-01 -1.199326293003319721e+00 1.304498377433956025e+00 -3.482027756842813182e-01 -5.406197855700846724e-03 4.890028065758880160e-01 -2.026016818515333995e+00 -2.516086709292456036e-01 3.462943961216479183e-01 1.261315371366072080e+00 -9.355779224694669161e-01
1.143675326690345162e-01 2.220829173249766753e-01 -2.001117012071093604e-02 1.052121608466948244e+00 1.272723800890891988e-01 6.103829006612333519e-01 5.331466851676459617e-01 -3.858449822290541120e-01 4.705885934030740875e-02 -2.266729736964933073e-01 8.817884972173244407e-01 7.518475239776748476e-01 -7.111762166839852295e-01 5.169305291837529293e-01 4.154150308549700021e-01 -9.035465133006378435e-01 -5.576007315353630478e-01 3.749039564573425354e-01 -1.208966774036213998e+00 -9.763006528220640190e-01 9.114304283602160791e-04 -8.030418424542614675e-01 2.430919365672170596e+00 1.433972636002340262e-01 -1.460088001137221037e+00
-1.229425736389499757e-01 -1.523315710710077653e+00 -1.358398376607297342e+00 3.312260858653036655e-01 -1.195109916094607261e+00 -2.269101436142131778e+00 -1.261537967320394804e+00 1.312976602885713495e+00 6.748541680722799363e-01 -1.373804085980205425e+00 1.449964717095602929e+00 6.410170005939840321e-01 1.389255139924457372e-01 3.237749403477300780e-01 -4.375528834633477526e-01 -4.897122087511631694e-01 6.679021623016541120e-01 -2.615632204905267710e-01 -1.156003648860238903e-01 6.871772185314763970e-01 -6.800746968716525620e-02 -3.663537600222284141e-01 -1.982654502063125115e-02 -6.316124039805240953e-01 -2.095498678989862404e-02
-1.316027859936037769e+00 -6.226713881017227337e-01 4.376086783962011839e-02 -1.094057543198761362e+00 -1.091650214941276342e+00 -1.615612149978930656e+00 -4.268659680949408175e-01 -1.046948566996475760e+00 -1.099824820066481523e+00 2.971271161748184619e-02 -7.367630188539682490e-02 4.542835627643068142e-01 9.599139791817178080e-02 -1.237691208711193314e+00 1.095590824169739852e+00 -4.952544265040995652e-01 1.083932831863260171e+00 1.273780588397597224e+00 5.442617230858187022e-02 5.272808209283028624e-01 1.033303167750855955e+00 4.360781524271293286e-01 7.827194035264832817e-01 -2.592805573088578092e-02 5.102792914559255433e-01
-3.642806746978583532e-01 -4.785008337317773752e-01 8.644500774793536513e-01 7.280014404693252450e-01 1.100999889582881114e-01 2.065692337850773885e+00 -6.196479917309272167e-01 -1.570009303111013610e+00 1.092210963184858885e+00 -1.549311738204723898e+00 4.846566886077772751e-01 3.173690425560987682e-01 -1.475620652137199063e+00 -2.303452911220129490e-02 -2.983073803398380575e-01 -1.443222582645852792e-01 7.070948627637336781e-01 -5.286704310090805103e-01 -1.518314307029866805e+00 7.471003126725765942e-01 -1.399949536608489531e+00 -5.447069628839704691e-01 5.167166681729579158e-01 3.765025444721806780e-01 -5.891460652558694333e-01
-1.119897260850613696e+00 -5.780552635221556379e-01 -2.633793198783106471e-01 -2.651429454869834168e-01 -6.402076540502109614e-01 -4.899319867681839469e-01 -2.262304707229845224e-02 -7.184637535998256164e-02 -5.055777100503274779e-01 1.686748277645410687e-01 7.463815938338524969e-01 1.572809776076254662e-01 -5.320025188304258745e-02 -1.142858848864164445e+00 -1.212060743543771774e-01 4.347701761654395036e-01 8.613329000923005685e-01 1.113662465826366743e+00 -1.999779337883755281e-01 -2.838632194286188515e+00 1.208458150976793988e+00 -9.047754932675072803e-02 1.744374687190714535e-01 1.576729320264934842e+00 -1.278041333260325318e+00
-7.734171968499835570e-01 -3.686155794946147646e-01 3.543457977542063819e+00 -1.169798138085635930e-01 -1.850686487979182407e-02 -2.734716870408134604e+00 -2.266420184276654926e+00 1.212132350491941651e-01 -4.460954410428933370e-01 3.492192881813538818e+00 -6.290278417597233718e-01 -4.753573222746673155e-01 8.729643654793120544e-02 3.038967182217800489e-01 -5.412074246694988933e-01 3.499128784128147651e-01 -1.812072710146751309e+00 5.944747779089357698e-01 -2.369653114664174720e-01 3.488777291177190820e-01 1.640425932386991026e-01 5.571985526176294334e-02 -2.629361974159838411e-01 6.986708721499453045e-02 2.059961394983781668e-01
-3.071816454827784426e+00 -4.147541371760761209e-01 -4.023527534276697404e-01 1.573734771917251418e+00 2.799843252848802644e-01 -2.348666088672159424e-01 1.838855512787338720e+00 -1.543855399222898050e+00 -9.445751141258039441e-02 1.597857573009245247e+00 9.635006262287620915e-01 3.772967389231710045e-01 1.121439729097968963e+00 -3.172086491257218310e-01 7.779956631699332936e-01 -1.976060083274817858e+00 -2.028102440933231332e+00 -1.214628234472484136e+00 1.125174880011583500e-01 7.624704185384801880e-01 -4.676716922374594132e-01 2.934434259875166040e-01 5.273263680018049765e-02 2.633837111344888848e-01 4.075193769007167122e-01
-2.272154444946843821e+00 -2.847359240606043840e-01 -6.656135998110654928e-01 -5.093905309641739709e-01 -2.194564915514916614e-01 -7.877661739176009537e-01 -7.002204227696130490e-01 -4.857844346168071481e-01 -3.960273277937215175e-01 1.598325253965444392e-01 1.838903393339550441e+00 -4.285228444897435929e-01 -7.043320614256819157e-02 2.581258036865133665e+00 -3.485509039180707536e+00 2.703606544298553516e-01 9.108170083025893815e-01 1.476856309195274886e+00 -2.068220353437783265e-01 -6.917155126718514957e-01 -6.398754335581330333e-01 5.505324182027140356e-01 -1.710316441188639014e-01 7.390452137301928293e-02 -4.697184995359753312e-01
-3.544580541630193982e-01 5.496240708326619595e-01 -3.182629386910072466e-01 9.008645732986091392e-01 -4.548690427427392047e-01 1.124810755545252450e-01 -6.169796398596676390e-01 1.354166508679562619e-01 -2.629381736696538852e-01 4.217853305202952097e-01 1.747978112032192888e+00 -8.012713882130997334e-01 -7.829059501621753181e-02 3.288497110906407617e-01 -1.126255983156921214e+00 -4.471365264673280437e-01 -9.711891832735257690e-01 4.167901058404406278e-01 -9.736527733725192091e-01 -1.604982210774552387e+00 -3.949740289622082901e-01 1.709226772055375820e-01 1.165106400770375084e+00 -4.764332485452468791e-01 4.181991353646111742e-01
-1.163658136699012857e+00 2.380031150649811467e-01 -4.911721380932312919e-01 4.124037357679792293e-01 3.312307820640875144e-01 3.268745046130774323e-01 1.106174235931914440e+00 -1.344085080878593574e+00 -2.569702126778979911e-01 -5.979470834159794634e-02 1.912042463404167947e+00 -1.262002313394692710e+00 -1.291329014536608311e+00 1.612022904151283909e+00 -3.340226272834391774e-01 -1.141763697212718975e+00 9.353540135226853236e-01 -4.703915514163407585e-01 -5.055999145798468764e-01 -5.951173234592022077e-01 -5.024160536365047669e-01 -6.410563576368308314e-02 -1.614549148099899134e-01 -5.005598345315389608e-01 -6.681509222422413741e-01
-1.610075904893966958e-01 1.841562754186630568e-01 1.044317789048260892e+00 2.685867517018529216e-01 -4.160521439024745805e-01 1.752090240501015694e+00 -1.484368016699721071e+00 -1.101207528978113970e-01 4.697285518357695311e-02 -3.965068301570215059e+00 -3.446812783490852405e-01 -6.684172503799074017e-02 2.247795232185585412e+00 -2.550126004206183072e+00 3.182377298713177233e-02 2.022503871552309151e-01 2.544095354809667420e+00 -4.142295162567390943e-01 -1.008775700032283673e+00 -2.914646727100332901e-01 5.007781534342596874e-01 -8.581518613742201984e-02 -1.763612510710789172e-01 2.010623343677943042e-01 6.121263298836755462e-01
-3.577298483484361857e-01 -1.679246125326284422e-01 -4.391019270056164103e+00 -2.822621552093982911e-01 2.081729817472989241e-01 5.447401394856951740e+00 1.773451547104779591e+00 -2.328002861359473596e-01 3.569388218693230197e-01 -4.265833987739129363e+00 2.968100471626001352e-02 -1.129599757318373449e-01 -5.311250291824946151e-02 6.828747765608687015e-01 -2.003251451800703298e-01 -2.311837614002946462e-01 -1.400275405500217840e-01 3.600480217096979629e-02 8.962237338596623637e-02 4.934055680548475875e-01 1.214278009041649120e-01 -8.711464970807700214e-02 -3.483449642897160636e-01 9.005337654641031031e-02 3.382202284982682716e-01
-6.891857733996747948e-01 -1.105495539895636620e-01 -1.272854044484136748e+00 7.255561967237157406e-01 6.685247129903808538e-01 -1.079565244426849313e+00 -1.666064528586558735e+00 1.442219951027454927e+00 6.165936516979949600e-01 -9.465481195130728276e-01 1.148394030660041754e+00 8.590687631817649494e-01 -3.942774125253435957e-01 -1.485105406725632848e+00 1.006325481808357125e+00 4.423815960315486961e-01 -1.102983568290921701e+00 -9.133973260621973747e-03 -1.591697550434055808e-01 -1.383146401979818974e-01 -3.008969275458190928e-01 -2.395150582011731644e-01 -5.565219535565786753e-03 -7.114635424442538048e-01 8.961006806436960792e-02
9.325491924117335074e-01 -3.690142208611460473e-01 -1.681714855483656401e-01 -4.421214442551141266e-02 1.618654345258378202e-01 -1.793446038848042490e-01 -3.401796760338650083e-01 7.034866381188265017e-02 -2.236209227536657684e-01 5.567224600996092398e-01 -3.151343937322996225e-01 1.427630894794695016e-01 -8.107216243283763557e-01 -4.245494751597442273e-01 8.623585479126213982e-02 5.998306809511085858e-01 3.154654406205223971e-01 -2.937086762670186868e+00 -2.136916817188566908e-01 -7.696726535314640794e-01 -3.048626639260914040e+00 2.748938938243731922e+00 1.095662249345022848e-01 -1.835962824238323299e-01 1.967413302462035718e+00
-1.848549070271294559e+00 -4.152829856624624949e-02 -5.192251618097253330e-01 -1.520499410292346809e+00 -2.405272783545615023e-01 -3.044055428824904430e-01 1.129591804414291190e+00 1.170361281017184174e+00 -2.459879864901032831e-01 3.212291929642296928e-01 3.100129935999040853e-01 2.678702879673133808e-01 -1.159117414634981857e+00 5.298675316255734291e-01 1.151985464446973612e-01 7.075403990744486560e-01 -5.541266612591725510e-02 -1.545250603125961852e+00 4.499070943572328618e-01 -1.021030651904501596e+00 4.935018600673302114e-01 -6.891322916409773347e-01 1.336112781807904826e+00 -5.837589023835786373e-01 3.829478272032764141e-01
-1.690294280486400069e+00 -8.831443443904724022e-01 -3.939764659772840294e-01 5.994676050504541553e-01 -4.947940380840624708e-01 -4.143727979628627489e-01 -1.042974204458880338e+00 4.103509256384368920e-01 1.836909600220578254e+00 -2.697794096386406659e-01 3.497927608207726524e-01 -2.962194175222300441e+00 2.314340814392687184e-01 2.412716873169504506e-01 -3.823611759990213077e-01 9.788165836222357807e-01 6.169436702734902578e-02 2.682238604516770097e-01 -7.973000277881860942e-01 5.811998530112216788e-01 9.944252959753862031e-01 1.785974324220867271e-01 5.336996560180171656e-01 -7.038928510556060614e-01 1.146321083544349223e-01
8.623858641541285452e-01 -8.933341541225652271e-01 1.851073661259002578e-01 -5.048977043155555844e-01 6.025440820174788881e-01 -5.522339995799838697e-01 -9.335778289877396663e-01 5.245826176765698567e-02 -5.113904929164697633e-01 2.095289378566128277e-02 -6.482738633243469994e-01 -4.558116935461318242e-01 -7.007660459012622356e-01 -6.190484731934503548e-01 -8.312063936300401190e-01 -9.615867555618627938e-01 -1.020002499153876752e+00 5.375079109285944012e-01 -3.734502354328608220e-01 -5.954193879005732493e-01 8.123740760582414122e-01 -2.984842220430158552e-02 -5.029349160511685790e-01 8.920734191054845441e-01 -3.974972509042341007e-01
-2.743174851915751097e-02 -9.067941924897975348e-01 8.511071788132580362e-01 1.095945852849169011e+00 1.067307079367305622e+00 -4.263741601230762179e-01 9.802848477140282402e-01 -1.432612158756290555e+00 -4.959850087912938688e-01 2.067401632179676485e-01 2.038807961931731957e-02 -4.222438929025423282e-01 9.707275871658734012e-02 5.379057957381567778e-01 -1.218034374106512718e+00 -1.053903373755678274e-01 -1.707979749758310684e+00 1.208548665961258900e-01 -2.111665498621792536e-01 5.548547098345176787e-01 -8.689343980077399721e-01 -1.477824820923882669e-02 -8.776210289377769369e-01 1.301364073491691364e+00 -2.675957731613783919e-01
-2.203221891919635578e+00 -9.259087870856233526e-02 -2.541357334854148498e-01 1.089253772147151356e+00 8.667638642444151775e-02 -3.291768693334198304e-01 -9.910079797021358328e-01 1.129786353213389605e+00 -1.393845971703830733e+00 3.370687662395736583e-01 1.139912110749879082e+00 4.158076138168018687e-01 1.418610680418487258e+00 1.742144560087477201e+00 -2.332448221133609945e+00 6.706277377237367110e-02 -7.320906032663406782e-01 8.749174963819347228e-01 -1.779166793815502648e-02 -1.179988090370488685e+00 -6.055471152569432691e-01 5.049108965448576569e-01 -7.366596663160066005e-02 -1.656659172214692000e-01 -5.438084437419364869e-01
7.859596069412992658e-02 -2.678397017904737276e-01 -4.638695732724032461e-01 9.783833597969034124e-02 5.748187399160792355e-01 2.834259916698870230e-01 -6.560027603037185129e-01 -3.249299551859052837e-01 -7.448448007279745431e-01 -6.170968287452973655e-01 5.202618427963023873e-01 3.520531694703653014e-01 -2.050093164808425295e-01 -1.008925027630104498e+00 3.595037731387095564e-02 1.344803348696933520e+00 -2.149079851971350263e-01 -5.772969322066691111e-01 1.159045118090432203e+00 -7.267041583902759116e-01 3.168699089480999653e-01 2.458187925123475337e-01 -2.274268340353055695e+00 -6.711655482656162519e-01 -3.150215820919798348e-01
3.192827183567595317e-01 -2.834217906946171484e-01 2.583718955789311988e-01 -7.428700947358308770e-01 2.338229586631684898e-01 1.056505758957052010e-01 1.747954504401651454e-01 7.866031431499564963e-01 -5.478408991707869324e-01 -1.867079823118800830e+00 -5.949043464754595334e-01 6.140576649725337788e-02 -8.088846048891434881e-02 -2.312307054665103223e+00 -7.313995755994259218e-01 -7.555904811301193957e-01 1.655905121440695460e+00 7.656824455434710908e-01 -6.070649184015044497e-01 -2.418932280241785082e-01 1.050859252061337790e+00 -4.706535504873209097e-02 1.178515543904741641e-01 -1.768355363164191008e-02 5.660250001961599636e-02
-1.913765301937116803e+00 1.250177289301655836e+00 -7.958349774925825848e-01 -2.548078939534249576e-01 -1.360095644010049565e+00 -2.686266575152771452e-01 4.300904028252400257e-02 1.379063219200910906e+00 8.718791650272819105e-01 2.494281028669877998e-01 1.373998119189539624e+00 -8.693310513228191816e-02 4.909735515488643509e-01 -1.508898461120495194e+00 -1.779370017552612149e+00 -8.400393078993129148e-01 -6.816893636669467404e-02 2.062680009681209015e+00 -1.877278420807171611e-01 2.467662089054088737e-01 -9.676913914484990276e-01 4.195813230378120928e-01 9.940861382063032048e-02 -3.030342803730732421e-02 4.445414322586165867e-01
-1.268961173510300133e+00 -3.538821753578257123e+00 2.719245773482741879e-01 9.253537608449878202e-03 3.112446358372978228e+00 7.235359017768679957e-01 -6.096943258972000734e-01 -1.684775367722836717e-02 5.099589418936729679e-01 -2.560226671169335000e-01 3.089685262473918503e-01 3.737587585600345430e-01 -3.137127673776540226e-01 3.831652876123723545e-02 -9.371925611594502659e-01 -1.053341891203007030e+00 -2.270438443471244072e-01 -7.195383036525501708e-02 -3.341219597163976734e-02 -2.538514355637134234e-01 4.947260278203591821e-01 -8.447474994760125755e-01 -1.235219450913492382e-02 -7.089086769703957236e-01 -1.522070784412002942e-01
9.191108483923514649e-01 -3.983183689611528577e-01 8.400063256270520196e-01 5.479389212825575006e-02 -5.802217319486902003e-01 1.334853337726035760e-01 8.683483576821396932e-01 3.573798870118834459e-01 -8.054855974983237132e-01 -6.912838241080578872e-01 2.155601154652636575e-01 -3.394500797058620095e-02 2.420367163312297717e-02 3.250353350415985387e-01 -7.441887358083326687e-01 -1.624410736310737846e+00 5.677781796466241371e-01 -6.133485803754264165e-02 -1.039014266908315776e+00 -7.589664813981612523e-01 2.037049650286520686e-01 -1.000992663670774163e-01 -4.261132011188505930e-01 6.043941589705277284e-01 8.246966261615464866e-01
1.518009253129930070e+00 2.185680022206205608e-01 -7.050206044100130187e-01 -1.515556298972703941e-01 2.994915560029510759e-01 -7.283231720208211968e-01 2.495814379758893031e-01 -3.653295988366175862e-01 -7.262399041160172430e-01 -1.153224532375280928e-02 -1.296749874995039908e+00 -5.949471288845413763e-01 -1.560627985359879233e+00 -4.074100525652334381e-01 -4.453077351590798982e-01 -1.307152253524112906e+00 -8.426265042747747014e-01 8.928019793489807565e-01 5.039093696724106231e-01 3.025450289605665678e-03 -6.702484563649181437e-01 -3.241164145945789610e-01 3.981091681734320598e-01 1.547595121699387732e-01 -1.212415380469940990e-01
1.759284410484253935e-01 -5.635958478239031511e-01 -2.591546553102866968e-01 8.323060836236866322e-01 2.796033501265382179e-02 -1.953355015950587747e-01 -1.314663724477093121e+00 -9.515395655733696056e-01 -7.336707353582817559e-01 -1.171494457057145278e+00 -1.206345162471981647e+00 -6.256360643756488926e-01 1.315724733897601695e+00 1.076780920421239740e-01 4.634594350337395974e-01 1.299229404114210285e+00 -5.280293717169992629e-01 1.295251585948220097e+00 1.685701052839431724e-01 -2.705229000196016642e-01 5.994128527520865557e-01 -1.935594233978018414e-02 9.985960715621087225e-01 -5.551637409389714728e-01 -8.019841510793093153e-01
-1.654916500904428212e+00 -1.999655125064006278e-01 8.452198401124844107e-01 -2.588614689024574256e-01 -9.678108418353208175e-02 -3.237373106035357218e-01 -8.112415352260680945e-02 -5.436429038122428947e-01 1.831597170787193085e-01 1.133874830261313305e+00 -9.996323192205663899e-01 -3.602040301818479340e-01 6.277878720978112836e-01 1.485978739295652218e-01 2.458468222086950261e-01 -3.340811501650599036e-01 1.770701722322846339e-01 2.732809636583236612e-01 -6.966078157402809667e-01 -3.023252110443472862e+00 5.415252734608476670e-01 -8.250342620180234343e-01 1.005032384145479130e+00 1.448845776970089316e+00 -5.668997876830179639e-01
-4.427041997273935547e-01 -5.118968718312016941e-01 -2.961787436045198452e-01 2.311269483534224845e-01 7.037170323350413481e-01 -3.025700985254853315e-01 -8.695375738706342394e-01 -5.476622666172817899e-01 -1.069721650313762096e+00 -7.981517630455280399e-01 -6.527398825428933904e-01 -1.455513764678367239e-01 8.682667282023324162e-01 -1.353593402669082124e+00 -8.884046841899252700e-02 -4.591461564794763750e-01 4.820027731602929445e-03 5.653892198347740816e-01 1.215090014146987141e+00 -5.965821685952460429e-01 8.953209146319220102e-02 -8.092982858238498833e-01 -6.916271395853059722e-01 6.395803781497866325e-01 1.328824393916688829e-01
7.784551082193078564e-01 1.065983369903856642e-01 5.840150799652399360e-01 -7.510052917734386657e-01 -4.541364877968497304e-01 8.034137679184720771e-01 -1.646077378670095515e-01 4.705445313171235933e-01 1.935731721477129907e+00 3.494960298510664254e-01 6.542229415353706390e-01 -4.722883451499505503e-01 -8.743501880028472506e-01 3.444521885717228282e-01 2.114311772366648801e-01 9.841318096755307110e-01 -1.443455584464840680e+00 5.037850778141108460e-02 2.333846745251445753e+00 -2.828314921027403006e+00 -3.247674694935478446e-01 1.396377124319303498e-01 -2.664908295920404235e+00 -1.469310132571635674e-01 8.206914979905828300e-01
1.645601811098449163e+00 -3.623622024484179360e-01 4.635239451622178430e-01 -4.750419330943394525e-01 -1.044706863030163912e+00 -3.763458227037187465e-01 6.086937976841913511e-02 -2.113490847905371561e-01 -1.786934759227076341e+00 -5.364006651535840886e-01 -7.637302608308184082e-01 -6.993206159573163161e-01 -5.840617811881634314e-01 6.242993906770732959e-01 -3.417308563028970680e-01 -8.746149072925822887e-01 8.081291912547897485e-03 -2.793601538264417483e-01 3.457900100791880815e-01 8.552120187838840870e-01 6.198232039795502357e-02 -1.955543319249606338e-01 3.431256534376840306e-01 1.722359423634814146e-01 1.704608229276251441e+00
-1.919577894705419840e-01 8.743028569341024792e-01 -5.829435510389983088e-01 -5.546564853707622866e-01 -1.251822519363330555e+00 -3.831937478498005367e-01 -7.420167533031637452e-01 2.092739831586846733e-01 1.397086807658389773e-01 -3.647931945019076694e-01 -2.090350794377309640e+00 -4.325848942455401969e-01 -6.119336189388201452e-01 7.298206267736132569e-01 6.515650463867576070e-01 -2.731929082721090696e-01 -3.151177930604745492e-01 1.121441887408757943e+00 7.477566111203759469e-02 -3.499067686014585288e-01 8.355592738716901557e-01 9.889573852413374722e-01 5.756685496450358180e-02 -1.091669121851094881e-01 -2.222221674036740868e+00
-8.379832753471901929e-01 -1.579802268458566916e-01 -1.112634099931076176e-01 2.661556596016896314e-01 8.287930474178907547e-02 -5.059091498260367414e-01 -1.120532777012902825e-01 -4.838218076408053459e-01 -4.470238272808342850e-01 1.778648460189538316e-01 -2.387941598540625598e+00 -1.116705833624068278e+00 -1.198166643392795550e+00 4.614622481325755810e-01 1.983360066932315258e+00 -3.594664065919748741e-01 -3.061935690411557442e-01 1.914143838533771458e+00 2.115396901632093651e-01 -1.297999873505147617e-01 3.998991057790308168e-01 -5.672799499390928091e-01 2.211128702316860623e-02 -9.671386506126364302e-02 7.223549354476953566e-01
-1.554891879639132446e+00 -5.801594386157861161e-01 3.230886221424903448e-01 4.236510630400027178e-01 4.171503950974012609e-01 1.366677468255051153e-01 -1.083202260015561302e+00 1.633139158529114954e-02 3.190877635422593173e+00 1.191351080566239728e+00 2.599137687296349530e-01 -1.863633244683650769e+00 2.681190804467572963e+00 -7.445921961642767428e-01 -2.531912090963909234e-01 -2.059083236935294270e+00 -1.464473081492262407e+00 -1.951012744867970106e-01 4.174938584018835774e-01 -1.087009365743939693e+00 6.683695361540950008e-01 5.652263601535443271e-01 -2.704484094746190670e-01 1.061256092914753119e-01 -4.974024549229985048e-01
1.409557935400286510e+00 -9.727144593763014102e-01 -5.247037787811742460e-01 3.599672716378106707e-01 -4.205757066032272951e-01 5.373491429539145603e-01 -8.096163489036088956e-01 -2.633846148701942114e-01 5.518062029202820407e-01 3.531492111180009053e-01 -9.996430544361573078e-02 -6.725537449554829239e-01 -6.761598207215258061e-01 -1.315626601998106660e+00 2.942265789934244702e-01 -1.561045899369419176e+00 4.828130397279832564e-02 -7.307328669637638274e-01 -4.455444200022913304e-01 -1.067299903756717017e+00 -3.304879483616572911e-01 2.390900692325719223e-01 3.864883311231664953e-01 -3.015836128732393151e-01 -1.308025143048917871e-01
-2.255436727647759376e+00 -1.409381259049274360e-01 -2.611518406810238446e-02 1.060517691878694671e-02 7.733296193227598425e-02 -3.977587162395048170e-01 -4.749202269736128579e-01 -2.332921919081919759e-01 -4.825363374323797250e-01 -3.341491549261783878e-02 -1.453946939928352888e+00 -1.195754124037989863e-01 -8.478399180195840545e-02 -1.351836023773055118e+00 -9.710237164814542465e-01 2.474038068808034341e-01 -1.610608553989992253e-01 -6.701327390454268063e-01 1.749184002113755299e-01 -1.010584167166555636e+00 8.665270883183051609e-01 2.877747577053819228e+00 -3.631236947782806590e-01 -5.519137114782277642e-01 2.402903274264740041e+00
-3.683090434421302239e-01 -1.486190804904180818e-01 8.909550925318305836e-01 2.524091893119804197e-01 7.129157044823312972e-02 7.913529781437995958e-02 -1.472948040356288901e-01 -3.220682545639170780e-01 -5.440177544024689116e-01 -1.041135069827018977e+00 5.347714352630351942e-03 -2.841838690397579525e-01 -1.352855602982069971e+00 -1.297457731455233576e+00 1.085209146189993978e+00 -1.060645513855816180e+00 -1.018844934035101124e+00 1.594165781357704592e+00 5.318271143389025069e-01 -1.179802450349348719e-01 3.351896414710808236e-01 -1.006872441921412342e+00 3.778910378932913705e-01 -7.316613799226441284e-01 8.917559383698531184e-01
-1.227203623091234652e+00 -9.079392042334646570e-03 1.033794822455179840e+00 3.678476857881798900e-01 -1.521480835360000672e-01 -2.479720304046332036e+00 1.581512112783772572e+00 -1.129073056857092583e+00 -7.002551896621432848e-01 1.832091192940119795e+00 1.009767308345215664e+00 -4.998277763818366748e-01 -4.970786744557785242e-01 -1.359613045323714742e+00 -5.277906736370240326e-01 -2.668905718624033363e-01 2.709929665889393990e-01 -2.653201195784703897e-02 -1.686846970711547988e-01 -2.894645794620505641e-01 -6.143130002771033382e-01 -2.879778256233347378e-01 -1.030801539574379838e-01 -1.098590410827941233e-01 1.523824948025165049e-01
1.659044431189057034e-01 8.589134546165683171e-01 4.234287771251221688e-01 1.452187041707193038e-01 -9.910297619679629966e-01 -4.564940109075417418e-02 -9.332319470621742719e-01 6.946376361171711089e-01 -5.993252515438354244e-01 1.472311267612436136e+00 -1.209061677852757200e+00 2.286901587453362694e+00 1.913383907547826057e+00 -7.126400004240792674e-01 -4.678350699832284909e-01 -1.785400757408615702e+00 -1.782749711264843162e+00 5.112279403046718351e-02 -1.341867766621002711e-01 -3.390249209052846324e-01 -1.588246096168235144e-01 -6.657460475392933397e-01 -7.619238910855560820e-02 -1.852793766087758587e-01 4.930299517285176292e-02
-4.190381033774506214e-01 -3.249855591878980099e-01 4.726867935987264513e-01 4.241809508061148981e-01 -9.961506914136569746e-02 -7.581434127317121519e-01 4.596796747456575183e-01 -2.036255511462681245e+00 -4.758509069137569214e-01 -1.059655683754798350e+00 5.308338578912091821e-01 -6.540969499935550546e-01 5.776400640615587667e-01 1.478664851701700922e+00 -3.235552686150172663e-01 1.673307751867741111e-01 -8.985419346041296773e-01 -7.819011711090859684e-01 -1.603067501817851737e+00 3.994569358050043539e-01 6.652384396188751325e-02 8.959921702395277077e-01 7.844546397657663483e-01 6.092690536680298585e-01 -3.323072548584329877e-01
-8.073060438880793610e-01 -1.041677666140326253e-01 -3.155375145953220883e-01 -1.629781082166063266e-01 -5.434939611806191007e-01 3.877015279098999789e-01 1.214391693169091478e-02 2.282864100223292170e-01 7.649642176898006907e-02 2.117797312721255709e-01 5.434191154287700831e-01 -2.019027179124825988e-01 4.327574500172816641e-01 8.854803784367610842e-01 -1.075838607009461878e+00 -9.418604989456677012e-01 -9.962586621454934122e-01 7.635754232035962819e-02 5.004175897060856304e-01 4.995044828472320342e-01 2.485756151242366041e+00 2.592470947399864833e+00 1.240644568942728537e-01 2.882795380695337695e-01 -3.983050064069531437e+00
-6.387207118390240135e-01 -6.561757711992796116e-01 1.062900136144289132e-01 1.084466779515603108e+00 -6.074021372234665872e-01 -3.548835644950091295e-01 3.511897326692511867e-01 -6.801453891033047705e-02 -6.782270453878546101e-01 -7.821077626290962037e-01 1.799230807995367609e+00 -7.584665352249240211e-01 -4.034265459198835835e-01 4.670596798316616893e-01 -1.994717117357964531e+00 1.654012410847527648e-01 -2.783768675644728297e-01 4.209763019557702379e-01 -2.287731122181563548e-01 -1.086938751189742813e+00 -1.388234838526379022e-01 1.634699674601503561e-01 7.322884326293174206e-01 -6.424605587295099118e-01 -4.898650471278047647e-01
-9.163988916202874258e-01 7.527447495565282587e-01 4.307590804726154632e-01 1.128941418325538182e+00 6.067015734406761007e-01 -3.022990083165673081e-01 -1.379493724409399436e+00 -1.937770689948530856e-01 1.756288568380921233e-01 -5.474269932381925496e-01 -2.312978593804537464e-01 -5.779309376030630219e-01 -4.117735863422062881e-01 -8.843153951184558048e-01 -1.184090386713133158e+00 -1.458240363550074303e-01 -6.534948802722153616e-01 -1.544525946005677497e+00 4.119104781236040402e-01 5.230549009124797477e-01 1.727059528659835586e+00 9.685445128537801818e-01 1.596141253592402165e-01 3.157549048920328394e-01 1.849326056619255754e+00
-4.219147425122433126e-01 1.702659558914948246e+00 -7.415970646651320886e-02 1.763918746234104662e-01 -1.022907486442260483e+00 7.955188889186048939e-01 -4.031941037512257742e-01 -6.070031832807490924e-01 -3.631816112628458854e-02 9.758600207748399091e-01 6.737162068718933750e-01 1.070296761210351111e+00 7.670748900972900186e-01 9.799358141653950749e-02 -4.473970311700234403e-01 -1.065854545736565795e+00 -1.008337208069159108e-01 -2.373078384376603456e-01 -1.239853057247377821e+00 -2.092658106065447832e-01 -8.337267134322965401e-01 -3.457778886675657581e-01 1.223298133488200046e+00 -1.645198780250344051e+00 -8.434355056021881625e-01
8.082042014838497490e-01 2.035977622236283313e+00 9.226743385583241475e-02 3.251942099239490958e-02 -1.923547978341268339e+00 -1.908571984519282339e+00 -7.894862550577734783e-01 2.144546300226860547e-01 1.606238635851060970e+00 5.964848211134771150e-01 7.274924089680080697e-02 6.143469950522058992e-02 -5.804237547263970676e-01 -9.008448679542482296e-01 1.715065979067889046e-01 2.804734704759408448e-01 6.546570075757704998e-01 -6.112741259857402687e-01 1.512652294573087586e+00 -1.105861593926218855e+00 5.055971976374945553e-01 -1.007663885163808448e+00 -6.142230561335570993e-01 -5.655607536897550025e-01 7.578116025572810832e-01
7.929968475755453383e-01 -5.663387277994565150e-02 2.077812045869717739e-01 -6.477201093981368452e-01 -9.623106366822166136e-01 -6.357326070505745497e-01 8.351138783242862962e-01 -1.150772937905059773e-01 -1.567236286404212642e+00 1.120860414408536343e+00 1.112147626851110217e-02 -4.516223728673016136e-01 -8.298284917851199427e-02 -8.577759957853317019e-01 -4.673117440253879429e-01 -1.006991234043629779e+00 3.588178854919896743e-01 4.314244034938656269e-01 -8.474387968444735408e-02 -8.333177378994920392e-01 -7.259530326534322509e-01 -9.929907799310834504e-03 -7.402766655548204122e-02 -1.063581843322349840e+00 -4.431769688289468601e-01
-4.005463140123795007e-01 -7.062164618644846126e-01 -2.767638028309890030e-01 1.578111483888242628e-01 -2.858490786366576497e-01 -9.420349715236955301e-01 6.471390720565087240e-02 2.400511766320577722e-01 -1.570452882387579630e-01 7.988187313524777733e-02 -1.170759723371397332e+00 -5.062272867821347722e-02 -1.045029433382371975e+00 2.960479568757795055e-01 -8.056145120912755475e-01 1.137803089894323438e+00 2.168143467163639870e-01 -6.660613988156122156e-01 -2.190407347030713492e+00 7.631748317484753352e-01 -2.416791682069447389e-01 -6.581852732851453114e-01 7.385273735631598946e-01 -3.307620987846290328e-01 -8.593269599661862435e-02
7.512470017283814361e-01 -7.377483116252758766e-01 3.609697326042173859e-01 9.762140190102336357e-01 2.284977831442469021e-01 -1.988915198579964683e-01 -5.352239041948781556e-02 3.139032187413634545e-01 3.961011903211991703e-01 2.375999602014279510e+00 -1.005401826575503366e+00 4.942436252774786917e-03 -2.732451914283968719e+00 -1.466873364621537723e+00 9.530230897018100722e-02 7.968993445636324280e-01 -1.122432918584667982e+00 -6.859531465586796717e-01 -3.454328044179540980e-01 -5.765743366270932313e-01 -3.302092340017224181e-01 -4.746909394765310569e-02 -2.983556372836024262e-01 1.330778560675760502e-01 3.272880923450407348e-02
-2.122376896544232228e+00 1.972231255552102658e+00 -3.774918799351622001e-01 -4.139085764178292992e-01 1.117456168513419668e+00 1.179245927685624640e+00 5.187260928159914686e-01 -3.558879121400939649e-01 -2.278848585358405732e+00 1.326443036368009532e+00 -1.226020715891681157e+00 -7.625225257999231898e-01 -1.531894509108913782e+00 1.214948587674408831e+00 3.280483675212340633e-01 -4.248292933229312895e-01 5.374295000591899907e-01 -3.024880611975833133e-01 -1.643966455018834039e-01 -2.554205596393473859e-02 -7.509869010785694687e-01 -1.331075279890753804e-01 -4.022644210329933134e-01 5.792022406845105664e-02 -3.199356059956125486e-01
4.859300268212492502e-01 -5.462125969731446151e-01 2.830004221963950961e-01 -9.599973872329542468e-01 -6.668984439143226250e-01 2.411588265202210812e-01 -2.434418470014260150e-01 8.283342631747073886e-03 5.176265285124856952e-01 1.761030293264314872e-01 -1.302274584088391141e+00 1.424011928481368205e-01 -6.496399309897922525e-02 -1.070963774346069375e+00 -1.037625832174704499e+00 9.050544178776611659e-01 4.833700035640265402e-01 -1.893146565930454717e+00 8.714857864007151678e-01 2.506115021135026377e-01 -4.975360893645467408e-01 2.069428607094199457e-01 9.236720480426836577e-01 2.686161669085155301e-01 1.877628276385988892e-01
2.491287086768330661e-01 -1.151718841693078338e-01 -2.236260185230812825e-01 -6.394777017937598729e-02 -1.674653104615499988e-01 -3.058733505289117360e-01 4.813632429958535353e-01 5.693474287637002584e-01 -1.374332351108339845e+00 1.697328564032074993e+00 -4.627593431545644620e-01 1.322165998108942864e+00 -5.061290501866628766e-01 -1.605191822474448804e+00 -2.459475009926360700e-01 -1.089376790426573427e+00 6.360996791905819403e-02 8.830369605248991061e-01 -5.716510786822206480e-01 2.049651524510329725e+00 6.024952957181790858e-02 -1.302847659513360234e+00 3.093209816272715074e-01 -2.473798731913611770e-01 3.330454356291489004e-01
9.852314467110548923e-01 -9.599691351378752957e-01 3.366531322662439374e-01 -8.372093810466452179e-01 -3.307761371782561577e-01 1.136793440046430098e-01 -3.435412094958514850e-01 5.063385121464973881e-01 3.346260561781597836e-02 3.704489590679892475e-01 3.930130390628065462e-01 8.127689221751009940e-01 -2.329663645134391614e-01 3.234039021249504042e-01 -5.566992585635952562e-01 -1.015971043674754215e+00 -1.538161078630325918e+00 4.886983445210972277e-01 -7.596897578354830927e-01 -1.133982664005644958e+00 -2.697620890613730005e-01 5.781342218437834912e-01 -7.076691555085189433e-01 -2.526338318347866596e-01 6.548077443062032266e-02
-1.554749347852494523e+00 1.181080420760862726e+00 6.441177136130150915e-02 -3.052824604194400715e-01 -5.924797756464201814e-01 -1.148277745753310208e+00 6.502659552452608738e-01 -1.766525259011963167e-01 1.628014979219966518e+00 -6.191325113870557173e-01 -2.263012688061801225e-01 -1.528388439574081881e+00 -8.846107362616218994e-01 -5.337352172012496121e-01 6.411696315620710740e-01 4.927993716583213279e-01 -9.187682497567944973e-01 1.711570185249810638e+00 -2.264308176481726331e-01 -1.556324375766799384e-01 1.330444568012082218e+00 -1.857166003940793786e+00 4.334061450791365511e-01 8.810168640130208728e-02 3.192135677335387056e-01
-1.182669458077709290e+00 -8.715200660244386555e-01 -7.859480016273417968e-01 -3.702507093177205832e-01 -9.333854141267984295e-01 -9.353524423475704230e-01 6.022235355421688974e-01 2.766391665561788726e-01 7.942388206608554935e-01 -6.859139532950974116e-01 -2.532236079662866235e-01 5.807258094099950613e-02 -2.047173505490804679e+00 3.604895311801679658e-01 8.094179861241354579e-02 7.290086112309450694e-01 3.582179759096262850e-01 -3.068539950157512242e-01 -5.645839732608014527e-01 7.490789284253974722e-01 -3.616510179535747382e-01 -3.404157443855750365e-01 6.817430828727375491e-01 -3.429800790058798454e-01 -2.309313624837704693e-01
-2.188217957867456764e+00 -7.464810585726404657e-01 3.497584337728082415e-02 -6.757996879916585709e-01 1.681991527326004709e-01 6.655883277280786325e-01 3.487747138679304915e-02 -4.044161531886859007e-01 1.269275193028177151e+00 1.087759631647336578e+00 8.485123710713867728e-01 -2.862648813767063594e+00 6.805304803998977192e-01 4.820167829603209681e-04 -1.070410862220873977e-01 2.335552455039723974e+00 -1.686232422405242959e+00 -8.737877660030571869e-01 1.983987377936753116e-01 1.646760625250567600e-01 -4.096806041205843796e-01 1.968199569987844899e-01 1.536959621840681134e-01 -1.847168585899234272e-01 1.207730150459098845e-01
1.032004853799336486e+00 -2.175860222105646946e-01 1.114512606673089046e+00 -1.328297138865827953e-01 -9.316867741802077330e-01 2.368158037448776232e-01 -6.184412612165419709e-01 -1.322283007884759720e-01 -5.125377426232655687e-01 -7.017133492479684653e-01 -1.553882265027447085e+00 -2.750022042800065458e-01 9.625598303597074912e-01 -1.394615003536184838e-01 -2.125606834275574342e-03 2.972528313999587835e-01 -2.088615271982023625e-01 -1.744083491811317055e+00 -1.715922456512763983e-01 2.862493661088004182e-01 -1.733900957587192648e+00 -3.136286624218015406e-02 4.654772770497271894e-01 -8.740808615102597934e-02 6.328025569194899169e-02
-4.245467494678206499e+00 -7.202278770192975799e-01 -3.740868140434202016e-01 -5.663572318970991892e-01 6.126351298657141051e-03 2.445645087696742270e-01 -1.752932077083802775e-01 -9.525671246475129680e-03 1.607308590298490714e+00 -1.195658812762654712e-02 -1.300656709997682348e-01 2.434493632995968326e+00 -3.765238492789286351e+00 -3.839194241339193708e-02 -1.990397183584257934e-01 2.697699216071518968e+00 -4.012979221180865141e-01 3.567380145889914589e-02 1.680087066626909653e-01 -1.972245461513152665e-01 -1.126430508150559617e-01 -8.770928821209357518e-02 -1.570317053969760013e-01 -4.608963224828316885e-01 5.160175099058866149e-02
1.579837719667253504e+00 4.002787021281804414e+00 9.883297209276831197e-02 -3.358697161120771657e-01 -3.888790334122661285e+00 -3.636584641741493762e+00 -7.534137442004522622e-01 2.021850100577451612e-02 2.085937155577530788e+00 -3.614648051461282208e-01 1.497958480073945942e-01 -1.261743404709008420e-01 7.491499365070897198e-01 2.353734544661106876e-02 -2.689510377462871471e-01 1.053992401861256339e-01 -7.699252976206076848e-01 2.849266182215980936e-01 -2.616940485587480048e-01 -2.805898572325319501e-02 -9.528534583294575588e-01 4.001383988500619160e-01 -5.155956557726138617e-02 3.115547877429172829e-01 -5.690205964210826028e-01
-8.951635601880457704e-01 2.425868964598659749e-01 -2.931889211323192579e-01 -3.220662708968145549e-01 -6.486420374021425461e-01 -6.558741218821066699e-02 8.872875356857531925e-02 2.286066389877832242e-02 -3.759787554271746823e-01 9.852377861419588934e-01 1.369869192053655427e-01 8.742350240532753558e-02 7.129326602238775790e-01 1.944550388250280148e-01 -1.604566490754230912e-01 1.209181421808112195e-01 5.260950197683273988e-01 -2.672334283901557583e+00 -2.679946134824364168e-01 -1.393481830633833685e-01 -2.036920490096551628e+00 1.325603638753563018e+00 -3.295508533588495381e-01 -2.632541284451287988e-01 1.408646254588650226e+00
2.238708179343854354e+00 -2.514671803644266679e-01 -4.949907694992916607e-02 4.981579749524047140e-01 4.615711882266989030e-01 1.020976503492766474e+00 -2.515783870579496595e-01 -3.531023446524179654e-01 4.584988100210843909e-01 -1.127892144691652332e-01 4.487943128085620237e-01 6.005116644725069230e-01 -1.966738271354466772e+00 8.299376377195890608e-01 4.536050616958280379e-01 -1.915329606230495418e+00 -1.698532670011043688e+00 8.791758408081293830e-01 2.924890866306723569e-01 1.463870911073338998e+00 -1.527390079958951929e+00 6.236435062406961993e-01 -1.820026126863342419e+00 -7.500707583926624622e-01 5.217899066432792055e-02
9.036708134216785426e-01 -5.387567662028215354e-01 8.768704847697681437e-01 -4.344090970133547280e-01 1.554297473562830101e-01 -3.343189172753376903e-01 -4.398579132273544579e-02 2.214196608037333203e-01 -4.047620535475335291e-01 -1.651834687446367855e+00 4.756825793461691432e-01 -1.417982396920466348e-01 -1.283274577805050720e+00 -6.039251344874259075e-01 -5.837166440078624119e-02 -3.489091064720651891e-01 -2.667928531460954100e-01 -1.299597975180796006e+00 1.008265322326637570e+00 9.548437449716633621e-03 1.002835085943618365e+00 1.135080756896155174e-01 1.897821725448964880e-01 5.432752093784493086e-01 -1.180326487062020036e+00
4.631407956096530998e-02 -9.448769360045276844e-02 -1.833494207723176117e-01 -9.914341821370600272e-01 9.770177847559922135e-01 -8.947609153168016860e-01 -9.208013704192555826e-01 4.567267475119439202e-01 1.282405897793488903e+00 -3.750904355130480483e-01 5.690853947016798475e-01 -7.151713794282328340e-01 -1.443628099662860320e+00 -2.730020255916614305e-02 -8.166302481981876360e-01 1.863900061424078158e+00 8.459853014661663506e-01 -3.192233596917462002e-01 -1.329768748694710956e+00 -2.077536553305024403e-01 1.239111355723742092e+00 -2.397127085556011727e-01 1.028466053547732795e+00 -1.657805457630624479e+00 -5.945555464446772298e-01
-9.745519215002949043e-01 8.249655686104550023e-01 -5.745028051194216445e-01 9.788129524734843212e-01 2.721915651147830406e-01 -1.414686473031981473e+00 -5.689702480516206640e-01 3.833222532368217861e-01 5.269170477604310232e-01 -1.564266964110437197e+00 7.692831999251771302e-01 7.776345051999493385e-02 -1.549941512801495502e+00 -8.404090467548251953e-01 5.190568884797698290e-01 -1.757518994229466669e-01 2.648560913071580369e-01 -9.939886297816004079e-01 8.188170678258380490e-04 -1.672213885274676237e-01 -1.678651675477291771e-01 -1.182695386214933919e-01 -1.722778792914001766e-01 2.638763678745104091e-01 -5.411644427286712578e-01
-1.727237400082136443e+00 -1.986030112051010710e-01 -2.671300779816323523e-01 6.920840578615332639e-01 -6.750879031815043563e-01 -4.822653957900702726e-01 -2.056025830895231304e-02 4.919145407573370932e-01 1.185972170797369163e+00 -2.850683182261593562e-01 -5.709191707232372792e-01 1.350137128467216341e+00 1.310110797667161098e+00 -3.313675791045597174e-01 -4.088387263354633649e-01 -3.241779762786207275e+00 6.179420195488635192e-01 -1.038142438668772760e+00 4.276874897146777377e-01 2.909825265683576578e-01 -1.507218125742744441e-01 1.244145806447672781e-01 6.993101661693734705e-01 -6.069910873768027404e-01 6.562862714669431830e-02
-1.448107223707076896e+00 -2.852636285653466497e-01 -5.739365214176151975e-01 -4.305092524983215596e-01 -1.443789043202792222e-01 -3.967949620778044584e-01 -4.032427186392164437e-02 1.626606616365999514e-01 -3.524571543207065116e-01 -5.779286939334297157e-01 -7.861437646072216845e-01 -1.039952785959714077e-01 -3.527142307697914148e-01 6.852552393244388806e-01 -4.552196489047752315e-01 -7.187176307803347375e-02 1.092422599508748204e+00 -1.153472719672373747e+00 -6.926272227305908524e-01 -2.265542005115618984e+00 1.802248994022635609e+00 4.032799176050946843e-01 -4.253892147840529492e-01 1.479384795337515213e+00 1.378227314738288634e+00
8.434377745057977105e-01 7.012749332650487499e-01 -6.152707587444707915e-01 2.495547221134729876e-01 -9.779920861114850261e-01 -1.214201917287330623e+00 -5.159567144632122293e-01 3.329905809911212072e-02 1.486364831757764238e+00 -3.986555927154826762e-01 -2.250908354712157222e-01 -1.898246396428452387e-01 -4.839598247318424029e-01 9.475704335403823952e-01 -9.455468712072896409e-01 2.433024317615777310e+00 -1.685047068545951487e-01 8.062854339994649511e-01 2.714129335081628458e+00 -2.680308207406776777e+00 2.852220480252286583e-01 -6.005575304035953854e-01 -1.932154326402286681e+00 -9.539530796199459720e-03 -6.998041432705329745e-01
7.341333727045502577e-01 -7.839421890350064537e-01 -4.750923108764807390e-01 7.586401968174828481e-01 2.847749327815243467e-02 1.225942386380079185e-01 2.611799830368912168e-01 -2.584371040659836916e-01 -2.837666301462515306e-01 1.178902952199748277e+00 7.426814792928905229e-01 -9.766451592712915852e-01 -1.911146462545936453e+00 1.645280232255967201e+00 -2.256338633076662992e-01 1.299152343793811726e+00 -2.874588447902165722e+00 -1.386490627695226574e-01 -2.132054656130792925e-01 4.383400280307601093e-01 1.013299203181719843e+00 -5.586900061123205308e-02 -1.714779593255860990e-01 -1.542982505802383608e+00 -6.225246777847127239e-02
-2.656932007728092238e+00 1.807966648298766354e-01 -6.698830613930429889e-01 8.146469413363532919e-01 -7.723531450385060504e-01 8.819442521958230641e-01 1.009991108249241210e+00 -1.245654773796425863e+00 5.406948963782025608e-01 1.139960206015512512e+00 8.921804065073494217e-01 1.585467528037200591e+00 9.900260122431968624e-01 7.006566424519058423e-01 -9.573008097606100497e-01 -1.626513917000850018e+00 -1.771918457896693999e+00 8.201598911925536139e-01 -1.581567927365225001e-01 -8.573102720543562816e-01 -2.850488475671463795e-01 -2.284006071765036228e-01 -1.996257443824779043e-01 -4.263078443301249743e-01 -2.017443512079053758e-01
-4.074865271174711090e+00 -5.510778074936255599e-01 5.085146135127904810e-01 1.645915338497271410e-02 2.881140931555014606e-01 5.618412982451671533e-01 4.765565517558622566e-01 1.891544220114984853e-01 2.334712693937614159e+00 -1.512450263674566919e+00 -3.540125500170932527e-01 2.370045366039710277e+00 -3.048284111483322345e+00 -5.349350871444318312e-01 -4.319957230955343008e-01 2.278791518075078848e+00 -9.637365644485869076e-01 -3.061156047253191237e-01 3.322575448426665079e-02 -2.541817202986403346e-01 -3.944056988996980651e-01 8.445828211716879808e-02 -1.636565859830417247e-01 -3.423617436318012741e-01 7.763131587973363945e-02
1.609949963481922763e+00 3.045801367930877079e-01 -1.092528407878517599e-01 -9.218077605548609388e-02 -2.349938109292506183e-01 -3.031289203509178187e-01 1.392257076210845768e-01 2.696224620607377553e-01 1.222711440783310205e-01 2.090014078637417727e-01 -7.796615175133138065e-01 -1.211324874977022237e+00 -1.172484870711128391e+00 -3.267791278211225614e-01 1.640417880249996629e-01 1.364552658594523127e+00 2.960770294980048956e+00 -1.193901533956056443e-01 -3.517173446709718765e-01 2.137515598610882694e+00 -2.836735954477253685e+00 6.273360049660399174e-01 -4.537464428419833995e-01 -2.676032131652405166e+00 -1.086958368887079862e+00
-8.621787482163321137e-01 -4.421375018215455976e-01 -9.246769320664120773e-02 -8.969845205327059423e-01 1.077328868555585406e-01 4.030388643482751276e-01 9.353787716301010802e-01 4.131407445392987210e-02 -1.861848613362008520e-01 -2.499181638509201386e-01 6.552478661351338607e-01 3.396618777022312741e-01 -1.606808841581039982e-01 -1.172530002687873774e+00 -8.975773917701467264e-01 -6.360070088702174385e-01 1.091402734785135858e-01 3.275501766842514151e+00 -4.893608374982518772e-01 -4.393303475535536573e-01 1.871159726246915067e+00 -1.673188346130160653e+00 -5.187324912083629558e-02 3.623312171220748751e-02 -2.348897712778363456e+00
-1.478924250889564140e+00 -1.820488184712376334e-01 -4.580960415306684630e-01 -8.318258703770354812e-01 -5.663078148005892265e-01 -5.083263791930709569e-02 -6.581438672506077781e-02 3.820760840385851731e-01 2.958666910448606302e-01 -2.053189536864244991e-01 2.566344994840464300e-01 -3.845726637230338252e+00 2.351526436267621090e-01 -1.030324717554113312e-01 2.882531496711926988e-01 3.219495526419007714e+00 -5.718034668828531064e-01 -3.763801174415638134e-02 3.183415182688522638e-01 -1.136721978737129102e-01 8.961943750730903824e-02 5.811274482206537501e-02 -3.154663968919405037e-01 -3.694061921110775581e-01 1.612493352100238808e-01
1.229299124766357165e+00 -9.908534943030589126e-01 -5.540661877852171013e-01 -1.037066011861302872e+00 -5.168422583572348517e-01 9.221085657790283052e-02 5.787380225064409078e-01 -1.987471237955907577e-01 1.823241947914716887e-01 -8.546503547978215876e-01 -8.976257165199941213e-02 -7.262097415243280452e-01 -5.997019361846879226e-01 -4.978950583739621960e-01 -4.790304547570068405e-01 1.631647220526296627e-01 -2.479667742371756134e-01 1.397868511818027570e-01 -3.100602723466664989e-01 1.134485263918521003e+00 -3.520459870728677720e-01 1.089122073092708254e+00 -4.738105824067791461e-01 6.184557847964446964e-01 -5.284851334217965935e-01
-1.151974121973498466e+00 -1.822043748155196097e+00 1.283623745385642279e+00 1.082582771209989136e+00 -1.669958634294099298e+00 -3.088223897087531422e-01 1.161488390167063178e+00 -1.934500093007451627e+00 -4.925907093547403082e-01 -1.459327469704394531e+00 9.516684716955255974e-01 4.509940065037639223e-01 1.922702020947485713e-01 -6.500313341831595766e-03 -2.226134285487677555e-01 -1.284231345476715205e-02 1.380099486008263820e-01 2.351089027270022308e-02 1.187745561249304721e-01 1.724688461601176781e-01 -3.852410415009294847e-02 -7.314690099284909541e-01 -6.261102578315188572e-01 -2.198712907485974311e-01 5.887967458217174821e-01
-2.918677769961556256e-01 -2.217538879809250185e-01 -9.260910530151186260e-01 -8.399146417590744665e-03 -4.381793295145290923e-01 -2.274362688977356675e-02 -8.219098677048396195e-02 -2.409954590661274876e-01 -2.764946679729432533e-01 -1.371299206338680188e+00 -1.118704323601627415e+00 -4.097827765042332815e-01 1.042473766223271259e+00 -1.009715534561234307e+00 1.242324737184040823e-01 -4.857134925387858737e-01 1.504689827902792182e-02 -1.176096635147948932e+00 1.575452214239218274e-01 -7.072808751723938525e-02 1.206949085480613526e+00 8.526714286758914074e-01 3.208976041789785016e-01 7.556399162050332352e-01 -2.899824553967237373e-01
-3.405591590849049943e+00 3.760233698548624305e-03 5.906693389526435078e-01 -5.001826889334489046e+00 -1.943918712223953738e-01 -5.121468905277570122e-02 1.531249817498612664e+00 3.067945199333850237e+00 2.637126506982374052e-01 -1.023486070525447600e+00 2.144652417152168145e+00 1.049327646876991454e-01 3.444194138632881985e-02 -2.163226489823321941e-01 -3.234823018211271939e-01 -3.357322319036157854e-01 -2.345775292659329214e-01 4.527860700202125388e-01 -5.356912405185800807e-01 5.174214618252468215e-03 1.055199992207501852e-01 1.802053905167644854e-01 1.215886619934383323e-01 -4.372479599357730340e-01 -7.447462635332352532e-02
8.940002756173599796e-02 6.200404587509964482e-01 1.362741456255376349e-01 -4.680868651219652343e-01 5.343406038427238602e-01 2.302833867301234683e-01 1.541958140054038306e-01 -7.990480060695905051e-02 1.192081512366787388e+00 -1.144370625020446619e+00 3.904711971420408156e-01 6.662892787337431066e-01 8.189652830785797422e-01 -1.458743269124432196e+00 -1.008042480074797576e+00 8.875953510568043714e-02 -1.335981220453703600e+00 -9.574892596472888151e-01 4.695533192849374315e-01 -4.354935781277425311e-01 -2.893813965628313500e-01 -7.095232510331659359e-01 -4.848760823574294054e-01 -3.218412178846095650e-01 -2.807783165926010516e-01
1.281274859170307812e+00 -1.047579840789308880e+00 1.009182582687292579e-01 4.939663550980870621e-01 1.673021893721208242e+00 -1.231649681570521349e+00 -1.746454113469753100e-01 3.694890604448019533e-01 -5.747051530354371218e-01 -1.114547566752915664e+00 -1.268966060528449846e+00 -4.634892152582937852e-01 6.373643610710353347e-01 -5.475836682282969603e-01 3.651314495402562255e-01 -2.611005209444984196e-02 4.535540530807129489e-01 -1.552134942295935627e+00 -4.271923063029584022e-01 -1.840802011659595783e-01 2.642080342074097365e-01 -3.330702782737495760e-01 3.038286334608740202e-01 -6.533274277152203435e-01 4.851247372890725718e-01
5.984655318816849839e-02 -3.178208980774032133e-01 1.205998723261227923e+00 -7.758096322202545636e-01 7.150785145980769197e-01 -3.897138664961526111e-02 -1.456535111035706098e+00 -5.717693730410745578e-01 -2.606070495692929256e-01 -1.663277197995138623e+00 -1.048313594839253682e+00 -1.213018384448091569e-01 1.572139198878696575e+00 -1.574536629640696170e-02 -3.927153644668534005e-01 -6.151838695156736092e-01 4.722406515028869656e-01 4.717584791455402965e-02 3.200151711909369756e-01 1.862054608171637149e+00 8.341236117381508608e-01 6.699134736577374571e-01 -3.899771808068097090e-01 -7.114716948507763261e-01 -5.795659193421780486e-01
-7.715903823262582062e-01 -5.480213162648996800e-02 1.588515545988896105e-01 1.938308161027363918e-01 -1.926679208579269720e-02 -3.792052126108858001e-02 2.743546786276067351e-02 1.137354993615744686e-01 2.256757711053512527e-01 3.062464874982807062e-01 1.153534696310304641e-01 3.487219361397801420e-01 2.896211656480158700e-02 6.942996250751722054e-02 -4.054505808554063895e-03 9.086360029609315270e-02 4.137334246604598142e+00 4.707827151744894967e-01 -5.598929735763429338e-01 -2.728392016031980560e+00 -4.983598144625321247e+00 -5.783725600610631901e-01 4.116553063372137000e-01 4.521905228970834578e+00 9.458581454588628479e-02
-1.744594849757928889e+00 6.274988534645398186e-01 2.007247601123895164e-01 2.726226370810173605e-01 3.957860879640138219e-01 1.387080454349222669e-01 -4.328937059629242023e-01 8.393801970404346502e-02 -3.208037453714793319e+00 5.185578158509326907e-03 -3.803625269086839955e-01 1.210274576379703593e+00 7.740463878828249822e-01 -6.802412036085950797e-01 -2.760307233866192145e-01 6.014365173132160125e-01 4.021521731365683139e-01 5.590247539372034113e-01 -9.106945727728964490e-01 -1.744884678488660967e-01 8.546532875984680366e-01 -1.427400463339218772e+00 7.467622553988578771e-01 -8.557299832996305700e-01 7.103181263701965342e-01
2.088363137124966129e-01 -4.770093563474394061e-01 -2.276809264231441365e-01 -1.849804060101837844e-01 -4.783500459139833905e-01 3.641869865980015275e-01 -3.505098265895963405e-01 4.898759986349086187e-02 -1.636003899973285658e-01 -6.659170878765642287e-01 -7.399791002906686010e-01 -8.165252623185218495e-01 1.428002345111923921e-01 5.769922235183871234e-02 3.153647415107180829e-01 4.262533489062066971e-01 -8.477688287872567896e-01 -8.526891493736667993e-01 6.285276141303672848e-01 -1.894614128600115022e+00 6.112613872811579752e-01 8.638824943610168283e-01 1.715360853776226380e+00 -4.294678152347499722e-01 -1.016515589431733702e+00
-5.852195093835411699e-01 -1.785574306424348334e+00 1.219390612230391913e+00 -1.063204910196163366e+00 -2.120708083240974984e-01 7.655390348361138519e-01 -9.022091239075911151e-01 -8.235876263541631603e-01 6.703533147984910290e-01 1.438545017334251552e+00 -9.032772162829205698e-01 -1.911952675853779982e-01 -1.049075907680902864e+00 -6.324140959402096973e-02 2.989437700498763228e-01 -6.730689420731993389e-01 6.472364056814473576e-01 -6.029347532571043278e-01 1.373712610698539505e-02 -3.646197371223942607e-01 -5.178328792007715897e-01 3.373366213224240906e-01 -8.030478604221065464e-02 -2.936576951032069949e-01 -1.442169548397174428e-01
-2.056514291816943008e+00 4.896169707755944067e-01 -1.337065163924527678e+00 2.179929619455889811e-01 -3.138181298438288969e-01 -1.091849087305555299e+00 9.735286852687332626e-01 -1.116276676888213304e+00 -1.424338643074197108e+00 6.993776485388715214e-01 -5.707875070792767236e-01 -9.545570528674926503e-02 -9.131676192616018373e-01 2.635336190180978533e-01 6.673364866976009280e-01 9.618490610493261039e-01 1.652530945074560220e+00 5.031200654375734826e-01 6.641368216646348355e-01 1.737105543254575668e+00 -1.421124157950176825e-01 -2.103636859669486825e-01 -1.842401153179362927e+00 2.027079989048688191e-01 -3.478824426874370102e-01
-3.553110160628938807e+00 -1.245843206056087143e-01 -1.312789910870212733e-02 1.087292013905901134e-01 -1.335288130973242560e-01 2.368584296210563545e-01 -2.789014293852599691e-01 -3.015191267274791032e-01 -9.030674946417103222e-01 3.461545550748305611e-01 -2.370843377656659090e+00 -2.134407616124507356e-01 8.019152287933952739e-01 3.408839866682460418e+00 1.560514527543256369e+00 4.142665374351366947e-01 -1.750485433162755733e+00 2.038207564215844592e+00 4.816082700774886732e-02 7.772846153539608727e-02 -6.743166062977420383e-01 -7.810814416243704317e-01 -4.234037947664148760e-01 -1.929444594160010518e-01 1.092777473427489765e+00
-8.340414872971100291e-01 -1.250580337922667928e-01 -3.033346753860297063e-01 1.381196563734129745e-01 -7.860871711159685138e-02 -8.029226042413603048e-01 1.425635652618060245e+00 -6.442871650556083463e-01 -8.110350100230837578e-01 1.468405511215528092e+00 -4.983344646431534519e-01 -2.424808583694939845e-01 7.973012357522387683e-01 -2.898801918269187983e+00 -5.630521984269331037e-01 -3.527846234449159013e-01 1.280926020208214444e+00 -3.696053989015194996e-01 2.118040892432917210e-01 1.703044530178915994e-01 -8.043453170407885988e-01 3.278608068191619929e-02 1.015239933312186010e-01 3.164396527974772111e-01 -5.711357178453092542e-01
-6.085581426129502702e-01 8.968993618409987212e-01 5.148712354749537257e-01 5.552696631971353325e-01 -1.414481161645761986e+00 8.787678894277008990e-01 -1.078991726082871638e+00 2.428659244061851519e-01 1.339005228347076804e+00 -9.912419156308274748e-02 -2.790351537910172319e-01 -2.568236147193059704e+00 7.150936963391303358e-01 3.637941341577449750e-01 -6.032279047090973595e-02 6.852584312213504392e-01 -3.119243041965620855e-01 -3.041291203703707091e-01 1.109045683665278004e+00 -2.030645567434018889e-02 -1.101309028346799224e+00 -7.758697986318537909e-01 -1.482507208402414234e+00 -2.018907836103377706e-01 5.756142471391954146e-02
1.937828511584084756e+00 -1.154077322686009044e-01 -4.487569549543509728e-01 2.367715748163526923e-01 2.993700523946447589e-01 -1.516065425821557788e-01 1.136034724436204429e-01 -5.511323114579164129e-01 -9.473862775532611302e-02 3.195535358414906213e+00 -5.700544997243180978e-01 2.090891086816182021e-01 -4.491326641229109740e+00 -4.328434149466822589e+00 -8.333240981041031836e-02 2.090639090489048238e-02 1.985196007204518276e+00 -2.191416183537186341e-02 1.241388795077143087e-01 -1.019671792423899361e-02 1.814712653863359004e-01 -2.643702252458744462e-01 -2.160097118968400953e-01 4.109319270586749839e-01 4.333456875693938309e-02
3.485802925268879360e+00 -8.703387667691743212e-01 -3.224652353357490564e-01 1.684217985479987134e-01 -1.888853578560529267e-01 -2.303253395045705698e+00 1.144259629525305799e+00 -4.029682145956677841e-01 -3.081507737226898413e-01 -3.296623270060806909e+00 -2.673762459800740898e-01 -1.847770323239240897e-01 1.996878977300627467e+00 -6.262123655563152091e-01 7.141457990593488292e-01 4.110266954432526543e-01 -5.633067683485958044e-02 3.521761268520451904e-01 3.010410750703849253e-02 -4.572351292625760899e-01 6.586093693427199636e-01 -5.711099710053844924e-02 1.133863269473124602e-02 -9.610108440303347099e-02 -2.813580248392140160e-01
-2.597504528483827624e+00 -2.545918335649432485e-01 2.957582033326037196e-01 2.783501296243707235e-01 -6.798398203451714306e-01 -4.101975766484487473e-01 -5.265353083481160157e-01 2.193676355124240251e-01 -3.647796430658698397e-03 -1.758243920987170583e-01 1.590467550913936323e+00 -3.762365323768870895e-02 -3.900573278034312752e-01 1.762306454440460968e+00 -3.193224128554080998e+00 -1.254549690086029790e+00 -5.329951938365782294e-01 1.892739693060228934e+00 8.107967509888888147e-01 1.243390123305700423e-01 4.947557421279725753e-01 4.909082283982851846e-01 -1.387505612258785499e-02 9.043242854080953130e-02 -7.192519694330991031e-01
6.424567887873544603e-01 3.370567810170194134e-01 -1.237407010382121225e-01 3.023766196271258089e+00 -1.657484356913192791e-01 2.732665020832142910e-01 -1.775936415737772611e+00 2.920091338034728423e+00 -3.114850273038992715e-02 -1.591925719074110956e-01 -4.286701185964266969e+00 -1.041017988170216124e-01 2.134450108143747527e-01 -2.113992676224050182e-01 -3.500351085598288892e-01 1.432569547247264374e-01 2.876028916513425626e-01 -7.581500932977518481e-01 -9.686186697797398437e-02 9.167541361903371044e-02 -3.581743980242236836e-01 1.510287718357881670e-01 1.981050679186187879e-01 -2.367228898778899471e-01 4.880689669408855291e-03
1.562920462608562433e+00 1.944670361135636127e-01 -2.117415305948704141e-02 2.606723560879509183e-01 -3.991908263289520309e-02 -3.808922969319486485e-01 -5.161862023698743362e-01 1.441492318528634076e-01 -1.733267542302556974e+00 9.760206969846548786e-01 4.677567736706251811e-01 -1.627509257068223247e+00 -1.265021549114009103e+00 3.821679861292518465e-01 7.901114806970210847e-01 -6.374179136493781650e-01 -7.732842306723637371e-01 -1.684778240137355887e+00 1.596283519913390681e-01 -1.972298068754999578e-01 3.143888458668024910e-01 1.105852373558193769e-01 6.882707059561843366e-01 -4.932588561752542788e-01 -1.495437122557569387e-01
-1.898194761235377781e+00 1.930790393850870812e-01 -3.122478962568881466e-01 1.699019056804239036e-01 7.266929653615116225e-01 -1.091774830328940071e+00 -2.299005960501136758e-01 3.262752294857625412e-01 6.636210516982152252e-02 -3.218617991046849869e-01 -1.287257512674709892e+00 -1.285538315482290528e-01 -1.803129392415707064e-02 -4.538275456973037136e-01 -4.785144477347783032e-01 -1.422302449151709169e-01 -2.472991088431678808e+00 -5.992144584703205101e-01 6.451462652841323253e-01 1.145339562665127264e+00 9.332393297035227464e-01 2.474289969351182450e-01 -8.518035192076637285e-01 1.195419721671845847e+00 5.927791652759584196e-01
-2.785264482813819775e+00 -5.781074147605621549e-01 3.692222035109641309e-01 5.852979398191042737e-01 1.790069478830043914e-01 -3.317865734192816940e-01 -1.331658098667284795e+00 3.214862348235032474e-01 -1.195237825852834668e+00 -6.176415977708781674e-02 -2.786228655823493050e-02 1.036244684557402485e-02 1.309186377462734086e-01 -1.953149890250203413e-01 -9.306001271577822587e-02 1.276571826651679231e+00 3.180609866776544226e-01 8.061777033321182451e-02 1.348384562716673729e+00 1.622051752571034511e+00 6.905605675235152452e-01 -8.397571438779978248e-01 -2.627393312781522106e+00 -4.916467151762864973e-01 6.479395790794455490e-01
-1.385247942060577664e+00 -1.774663683120698832e-01 7.519518963089401320e-02 -3.994852408717155523e-01 1.277619225850921414e-01 -1.338460628612767156e+00 -2.858815922887794070e-01 6.982552462997190235e-01 7.968843771832449796e-02 -1.416864912001842280e-01 1.411021963115438593e+00 7.229638246262128087e-02 -2.964052658030848608e+00 1.004473790387489851e+00 -8.497770406014133471e-01 -5.277167065413864572e-02 1.627023183155715591e+00 -1.230840884623623649e-01 1.080392711378486831e-01 -6.789439279512261560e-01 3.890207920116970364e-01 3.064441956442781057e-01 -6.324255565575498395e-02 -1.727965337410680147e-01 7.377059891041963524e-02
-8.208018109460530898e-01 -6.978606314229693353e-02 -7.801008836115794209e-02 -4.917038471747035011e-01 -6.306957848173543046e-02 1.676332492893972681e-01 7.647822288587839690e-02 -4.566523973620561505e-01 -5.605400195465381347e-02 -3.778123958863905396e-01 -3.516464936531065621e+00 -1.331023069412851090e-01 -8.593822765825220866e-02 3.357028675575271848e+00 -4.370998306374485942e+00 -1.270934232855209199e-02 1.921404443953647623e-01 4.870561842309300893e+00 -9.657021693959096098e-02 2.608351801920315016e-01 -1.077135544437077375e+00 -2.599705177533837008e-01 -7.161847258460569965e-02 1.449404564277704810e-01 8.357521839758933480e-01
1.629383615055776335e+00 -4.875156119640262076e-01 -1.697479154238448640e+00 -1.411028137369784996e-01 -1.473704281501856617e+00 2.402623899638907989e+00 -1.670399730432937213e+00 1.505792294936026399e-01 -1.257003000286591454e-01 -1.362292587157013291e+00 -2.925827238844131983e-01 -2.793571959004662042e-01 -8.951189430111508027e-01 1.574310134652290083e+00 1.828295452674805477e-01 -9.937066769680420741e-02 2.319484554170872792e-01 6.515933703035257096e-01 -1.451785326932756581e-01 -4.330545748916663773e-01 -2.473739566158417724e-01 -5.640994671037198316e-01 8.839380454629744976e-01 4.999185076625439761e-01 8.613515093021840985e-02
1.444914204257374823e+00 1.057325824316479368e+00 -5.139901938039895812e-01 5.145468886523388297e-02 -5.550367630941828168e-01 -1.960749901060266920e+00 -6.251959773495531225e-01 -3.741035307896958262e-01 -3.927544040095110219e-03 -9.171916561858067807e-01 -1.160071413986994981e-01 4.225224766489809602e-01 2.608714988938713730e-02 -4.312109500246351090e-01 -3.535871093124244302e-01 -4.134054583223238932e-01 8.184587402687874824e-02 4.205150720223318483e-01 1.623802642089084980e-01 4.213262501495944612e-01 -9.764803823568792840e-01 1.131242388451700220e+00 5.006626860567213733e-01 -1.060350850180006743e+00 -7.748573944728146534e-01
5.642863218175691031e-01 -2.217020475127499946e-01 -4.937718364119110803e-01 1.727653595496126127e-01 -2.546408904403215656e-01 3.678059925809968322e-01 -7.014933881324745268e-01 -2.125371146307536985e-01 2.940177903820937466e+00 -6.768404766525342175e-01 1.461511821126967314e-01 2.614223869294576286e+00 -2.185679151653483476e+00 -1.507742979656264248e+00 2.434275614340578389e-02 2.687360457439151418e+00 -1.349333356603420242e+00 -9.192682856332190511e-02 -4.233184934557236989e-01 -8.238087091186259425e-02 -2.816733431126300924e-01 -2.805829322087035060e-01 8.255930962353737190e-02 -6.156859150031170069e-02 8.455764943051266580e-02
2.697775444382290999e+00 -1.812104496919958729e-01 7.744150094611625124e-02 -5.795622598260671277e-01 6.688861631378069106e-01 -4.504115505197727742e-01 -1.961691932642498359e-01 -9.877540585308131060e-02 5.966323835255825658e-01 4.249860321323118417e-01 3.859334979993281900e-01 8.945417913616613426e-01 -7.292552325607424592e-03 3.778205944980075337e-01 -1.744841485813445822e-02 -1.359678432347393162e+00 -1.954612907580615400e-01 -8.206435968111745749e-02 -2.088030359836256178e+00 -1.344795755730144871e+00 2.766388717443120371e-02 -4.402090273259340880e-01 -1.782483108155817675e+00 6.019839934345004862e-01 -2.319910928139110595e-01
-1.945635671527882415e+00 5.898015252434924971e-01 -1.700752753135128525e-01 -7.555213987004033571e-01 -1.343071014637032580e-02 -7.675871150758091233e-01 2.294983121136271176e-01 3.007766884043914721e-03 6.355765983873189473e-01 -6.703491655069718780e-01 -6.362989315413645208e-01 5.071544688986890925e-01 -9.540034994680839375e-01 -1.185023581534128789e+00 -4.515392928936334122e-02 1.618609014680280511e+00 -1.192546179909657500e+00 -2.526805745409361759e-01 -1.402308541754424320e+00 8.020841037899726356e-01 7.964836836844917112e-02 3.965524675652520314e-01 1.536650782537303250e+00 -1.220976756695593579e+00 1.623831187758951466e-01
-1.754809674597855307e-01 1.535663691291635269e+00 -7.554141300034898920e-01 -6.929202334349410242e-01 -1.345486253822572698e+00 -2.780521911104159027e-01 -1.425516707362226854e-01 -2.139162346694242489e-01 6.571532351392437299e-01 8.256296876669413365e-01 -1.263837272026711922e+00 -1.543890566686998145e-01 -1.452911216924636095e+00 1.265468723709968213e+00 -6.030622446359332756e-01 4.766163743195276359e-01 3.767919225950982912e-05 6.849601735205510522e-01 -4.901688128143124046e-01 -7.922812934539545937e-01 -3.577218196109364645e-01 -2.156822502794149277e-01 1.747367053835186812e-01 -4.099423023100508268e-02 6.834390366574375486e-01
-2.278549690519003690e+00 -7.023209734051413244e-01 3.214814319683483856e-01 6.934692637629108480e-01 2.532603451980628972e-01 3.168772481342141956e-01 -5.376924859847883598e-01 1.511335904790394036e-01 -1.038073429773587186e+00 5.015579717008058491e-01 1.061821800826739520e-01 5.517578267616914944e-01 1.404284639994661577e+00 -2.720052576013543000e+00 -2.457840196197765836e-01 -4.865100438724938130e-03 1.535880234736423766e+00 7.041307152471940056e-02 8.142017188442025599e-01 1.148397680502396767e+00 -1.270211711531243681e+00 -1.565862669639700167e-01 -1.398212426775929051e+00 3.186282402356571120e-01 -6.264124850938995737e-02
-2.195192722877317010e-02 -4.956994197582496597e-01 -1.572345694873532373e+00 2.041478738607611365e-01 -4.704340695613062340e-01 -6.815292580049896465e-01 1.347928363107462335e+00 6.267783708549948263e-02 1.365943664820249870e+00 1.691589291309156362e+00 -1.052367965113473858e+00 6.492210285914137291e-01 -2.034345122791343830e+00 -1.285020668049907666e-01 3.791284926722084392e-01 -1.301446142993145427e+00 -6.468358980646137235e-01 -6.379446680158755711e-01 1.522937832866647079e-02 -1.222552506573330033e-01 -1.005658726018826998e+00 1.096853810225503212e+00 4.192903693176462387e-01 1.017922790208110939e+00 1.054326208272419602e-01
-2.334685791029309510e+00 -4.735932692514314146e-01 1.480253679626435670e-01 -2.360682672265148607e+00 -2.851851720245385802e-01 -7.319562077412735020e-03 1.459967031743884647e+00 1.287013102391722619e+00 2.766482081813781968e-01 1.924969957389863762e-01 2.221094658144002310e+00 -5.177454569327435419e-01 -4.899444512732079593e-01 1.858647563376237266e-01 9.466322437091102548e-01 -4.294143497358612893e-01 -8.047227810606460974e-01 -2.495479455699144200e+00 -2.997493824785769090e-01 4.109414899232482488e-01 -7.417725664580030465e-01 -1.757739251968815641e-01 2.593091904752125032e-01 -3.943897071732130888e-01 -9.830761485655589715e-02
-1.106675500165975601e+00 -5.120569966397250233e-02 -9.818757104358855070e-01 2.840093948069828400e-01 -1.818984798813181591e-01 -7.453299710532873025e-03 3.037041493194658770e-01 1.564117567247913232e-01 -5.435718987349036357e-01 1.981884947146864140e-01 -1.216405940177600176e+00 -1.551289963925230331e-01 -1.681577573888244082e-01 6.072078639250848564e-01 2.866838109250245958e-01 -9.195780719487974819e-01 -5.039127891019509198e-01 6.714286102536404233e-01 -1.031884607705730733e-01 -1.379608420725049189e+00 1.684751623922652541e+00 1.791809973108407616e+00 -3.234355621893512112e-01 8.509060859225604512e-01 -1.601854277965090612e+00
-2.241204380986809408e+00 -2.635756256637771661e-02 1.142009772981992244e+00 -7.538721519063944498e-01 4.876776935236958876e-01 4.001038066078402289e-01 -5.285403355784317192e-01 -1.372576461315505814e+00 -6.495649507318802529e-01 7.021019575301299387e-01 -1.121275694994419148e+00 -7.768648072434558571e-01 3.264876983510994202e-01 1.723687979158764483e-01 -9.185235987336193286e-01 -6.595803994955411476e-01 -3.218314345573507484e-01 3.255786178744592974e-01 -7.853139778814776095e-01 -8.373761152052332513e-01 1.265893153862982734e+00 -6.013707757233480722e-01 3.751936248056055301e-01 -8.017706650476699726e-02 1.283176397678591707e+00
1.082283377166533445e+00 -1.782380014870597537e-02 5.340215355686956933e-01 5.709502243047336334e-01 -1.532735234579513994e+00 -6.330846920831612046e-01 1.163958507764385752e-01 3.798388595677252844e-01 3.368636695708177031e-01 -6.193815856167467215e-01 -5.583317373089048408e-01 1.257476902114416928e-01 -9.764563122924121985e-02 -8.293757813718971583e-02 1.344324489211540685e+00 -6.340167624109159794e-01 -3.461308423333071121e-02 -4.562631702497734754e-01 -1.877253866276246352e+00 -7.609139256639529947e-01 3.460989842996541332e-01 1.092789087201945675e+00 -6.614822639312744057e-01 -2.492176256186906524e-01 -1.419387001019313810e-01
1.130752169957979225e+00 -1.010826431057832292e-01 -1.231194666669908511e+00 -5.762693029321359628e-01 -2.507385328859710327e-01 -1.023168293656462557e+00 -1.898419692982738161e+00 -7.371422993943760327e-01 -3.265003510022693178e-01 2.459255461102641815e-01 -4.305452168451007894e-02 5.826250919798603434e-01 1.896667655198178482e+00 8.986194059170550252e-01 -3.219765981582715653e-01 -3.540523168625204220e-01 7.701023438290020839e-02 -4.621861125500547479e-02 -3.819705151023756184e-01 -1.780299455232502506e-02 -5.925159678257455598e-01 -7.951443051606188472e-01 -6.637235093125478658e-01 -2.453353546286916598e-01 -4.704305002933119040e-01
-1.611137218034934371e+00 4.221134305635184103e-01 -1.589229167797428399e+00 -3.435878099586221479e-01 -4.762239800687647628e-01 1.798541266128296789e-01 6.513486779592448928e-01 -3.096871865226941134e-01 -1.908841837681777065e+00 4.355979783522872517e-01 2.970206819095723150e-01 2.405691729536825751e-01 -1.088546625037776439e+00 -3.694500683178995604e-01 -5.947586707162959563e-01 6.807854879686633942e-02 1.556710596774818933e+00 6.120893214912980218e-01 4.034817515273442234e-02 9.587005217151636227e-01 1.093693221010003658e+00 -8.321118777691789425e-01 2.466706446041142531e-01 -8.862164589916872171e-01 5.530203998976847279e-02
1.966196869895771915e+00 4.743427730668752784e-01 3.445633771301792603e-01 -1.032072811999311002e+00 4.620669867185637769e-01 2.610933823701135359e-01 -1.502199585134807447e-01 -8.824837121182307342e-01 -8.064613085691657579e-01 -1.210038633057616275e-01 -4.519139232910924786e-01 2.598058739341807880e-02 -5.782639034218329810e-01 4.581354914777779896e-02 -2.792471431686234795e-01 1.473891883167808281e-01 -2.430659318560336457e-01 -5.807388578530410517e-02 -1.388401667510017257e+00 -4.410837250526827846e-01 -1.764746078255531758e+00 2.932457176438494351e-01 -3.192043401704073302e-01 1.000330013996105771e-01 -1.993694699927578973e-01
-2.721247567112366372e+00 9.237217100985292695e-02 1.930558850101313340e+00 5.538205232375484899e-01 1.943358284626498789e-01 1.602235983377641393e+00 1.505731296108486106e+00 -3.105888276473301457e-01 1.132351835054521833e-01 -2.433366430383356427e+00 -2.829231835626073166e-01 -5.664968909699568123e-01 -2.468320211133797348e-01 -4.433600839738151000e-01 -2.353023846943523012e-01 3.502579877427206695e-02 -1.101931935792298534e+00 1.551419044619868348e-01 -5.620191745571804232e-01 -6.035033799969574675e-01 -7.068985778797007846e-01 -2.517064227890228878e-01 -2.025363759717563675e-02 -4.850426601416321648e-01 2.727345331259328765e-01
-1.360981838104829311e+00 5.644055751103084217e-01 3.311024488162125218e-02 4.725063501794629084e-01 -5.965481055196011351e-01 1.407353676892751704e+00 1.810850540692121591e+00 -8.286268605752959981e-01 2.762429867118389448e-01 -5.476456730803369588e-01 1.421630667740038323e+00 7.716108352129215087e-01 -8.089094641768994343e-02 8.053609873984977074e-01 -1.933312723422523915e-01 -1.689519390944256738e+00 2.110417963977487543e-01 -5.932617573198328831e-01 3.338845663780268813e-01 -1.396635327695075368e+00 -1.418168525095693466e+00 -2.530858961819977271e-01 1.059434927035580731e+00 -3.185887637335003131e-01 -1.272388525242234225e+00
9.859053529629541179e-01 -2.262533613259124637e-02 -1.131620755348036744e-01 7.674289861748911923e-01 1.317355235016518245e-01 1.896997446392323650e-01 -5.635890356304865678e-01 4.158226970126820965e-01 -3.635036922415621485e-02 -3.283619050406003104e-01 -2.316546777487275666e+00 -1.625245707646702231e-01 7.887100699151240457e-01 1.661485569419856700e+00 1.403975686250575894e+00 -2.845571510441535223e-01 -2.104026295317637241e-01 -3.803045961831681865e+00 4.060852092961892423e-01 1.391233817966160968e-01 1.944877063361283742e+00 1.502763636738652098e+00 -1.986815109723194181e-02 7.385923325348403568e-01 -2.611368894897740933e+00
1.212768304761903393e-01 -4.516143160971762271e-01 -1.154307482540502194e+00 -6.961569828269964511e-01 -1.338902482122734938e-01 -2.599345304046415950e-01 -3.232055934139185793e-01 -5.084956193238447941e-01 -9.779604664147354409e-01 7.109061746529028447e-01 1.297403778610819458e-01 5.086401185392499524e-01 4.590595274349718036e-01 4.570437742164997208e-01 1.919434659298349666e-01 4.957620501923701295e-01 -1.719875164704066428e+00 -9.281717186856376367e-01 -1.795939218331795706e+00 3.143707313068698217e-01 1.907666576255184987e+00 -2.198488897757333582e-01 3.061549242854375574e-01 -1.051400535191074868e-02 6.007331051579455350e-01
-1.172219611749948376e+00 9.576271713975026412e-01 -4.072252064517001280e-01 -7.009648910148863488e-01 8.932770574199589975e-01 4.707139839351885957e-01 7.639938299121427079e-01 -3.518381723983990406e-01 -5.198327964499376286e-01 -3.536652257288349088e-01 -8.727007982534354946e-01 -3.973281248437816049e-01 -3.649015291564501329e-01 6.646559577338043701e-01 -5.020040454012113518e-01 -8.132670151136639491e-01 -9.867830613235329951e-01 -9.163689123672122405e-02 -3.154891498037057929e-01 1.196199403437415043e+00 -6.414981064474583050e-01 -3.958691745051138855e-01 -5.601965394491156269e-01 -7.780655101729712086e-01 -1.905707815357989554e-01
-2.848091075813647954e+00 -1.856767736445488204e+00 8.116226694549881771e-01 -1.240988144688608408e-01 9.849831707444601792e-01 1.941653905716586914e+00 -1.719173986264092902e+00 -8.949042981971926103e-02 9.184007272441029324e-01 1.949450568412782081e+00 5.188344882474111436e-02 -9.703175727357274960e-01 2.375115734948769070e-02 4.282501756957501349e-01 -5.677678638944839706e-01 9.938198844028859336e-01 -1.896761356131990484e+00 7.117755951409685533e-01 1.098755521048347394e-02 -6.785920657132247236e-01 -3.284773354858735311e-02 3.405240040674059609e-01 -3.529072906355862349e-01 -1.882054755196889695e-01 -1.057296451548280558e+00
-2.257828921726795279e+00 3.471274181929465685e-01 7.349947907014192650e-02 -4.831069859084267115e-01 2.507757727419153704e-01 -1.447312917178609007e-02 -2.171961171533282331e-01 -2.920772225696527391e-01 -3.013864303362673969e+00 -5.454835270181639384e-01 -2.589175895520895443e-02 3.322047405146892896e+00 -2.229307321381395202e+00 2.916612124484685431e-01 -1.154660014244050653e-01 5.039966789584901186e+00 -1.396622110453740045e-02 -2.335853381664552697e-01 1.950845502905835804e+00 -1.253785183717137430e+00 1.293056532886463841e-02 1.158967661247849168e-01 -9.951029916932918606e-01 -1.307409920305857565e-01 -1.281711371342480199e-01
