1.580400229855149011e-02 4.354549314460467446e-01 2.077419062381941905e-01 9.484256469500167153e-02 -1.493244949276300026e-01 2.922417850813088802e-01 -1.205124462148945558e-01 7.839175202374977225e-01 9.281505986233934413e-01 -2.326872681146806843e-01 5.865345658204061952e-01 6.335881895593031832e-02 1.395329178874143983e-01
-1.326874696420292932e-01 4.401458177742281763e-01 -9.999446258187113523e-01 -3.958380238464084822e-01 -7.068702698557528530e-01 -8.153320362919309616e-01 -6.278791871570599259e-01 -3.089532663198024665e-01 -2.065489977740846972e-01 7.758808844010108008e-02 -1.620086913008123852e-01 3.698673957144666957e-01 -5.912707657953660823e-01
-7.762508661102893170e-02 -9.466033928599809633e-01 9.994465577039496340e-02 -1.278110712792097925e-01 -1.583916634448042926e-01 -3.392040948372603837e-01 -5.895190144680944044e-01 2.387655515772129089e-01 -4.003407706200768357e-01 -4.662010620692580987e-01 2.432236501220564617e-01 6.006464413937735725e-02 -7.299926764244022426e-01
2.768246550251057259e-01 4.143862306740262458e-01 -4.193101014287571870e-01 1.974579583314270068e-02 7.842106428262489715e-01 7.922575827498989920e-01 -7.506841462679664234e-01 -5.856488026274618841e-01 -8.975287474191527837e-01 -1.185843714352203260e-01 -9.416954210722304763e-01 -8.824891299225876007e-02 2.967615916086011052e-01
7.958047997875123958e-01 9.424275612949506442e-02 9.453062926710350533e-01 4.294102451267797771e-01 3.952944432414237652e-01 -5.678313815499964612e-01 9.523474046832881568e-01 -9.875779780848692457e-01 -4.940841364379103262e-01 -1.304478205903849830e-01 5.586489396755018877e-01 -6.051417502754996569e-01 7.258394429825185679e-01
-5.290360814662969924e-01 7.437440117838128861e-01 -5.849962868515419245e-01 8.395012153049031811e-01 -2.133088705866758791e-02 2.238599400209502766e-01 5.338671609577049226e-01 3.747954972957428382e-02 -4.053832086482094810e-01 -6.241133900099221643e-01 -8.366510333409860056e-01 4.795138584362286238e-01 -1.156311328706791236e-01
6.350686437510802973e-01 -3.410629977798306234e-01 6.392519809220675864e-01 -9.216293569316850176e-01 -7.885248280788582642e-01 1.891935494265737094e-01 5.509935073031707597e-02 -1.634156812596249397e-01 -3.311254188121819375e-01 2.440139098831579090e-01 -1.275415656466779291e-01 4.666746642112845622e-01 3.215560301404143256e-02
-1.075891181904649052e+00 5.664424400459115994e-01 -1.197333130636913934e-01 4.535352112275647940e-01 9.604763025368675544e-01 7.809477701686887152e-02 7.920133098590673160e-03 -8.545219977529012745e-01 -4.606432680726805229e-01 9.496331545968847388e-04 3.627181622208194844e-01 6.147531536729671231e-01 -2.332484738486253206e-01
8.255309277239420984e-01 9.402146122065377920e-01 7.397893107799975443e-01 6.484466967587206032e-02 -5.323483135807838273e-01 -9.765778296289923111e-01 -1.363851686144497144e-01 -1.948716914109629994e-01 4.639949303559451343e-02 -4.267914629043599584e-02 1.127690008915603753e-01 9.043066445917898044e-02 5.238125231116853575e-01
-1.030560094350505995e+00 2.969747976335976054e-03 -8.636577503306968467e-03 -7.331203784025883685e-01 -7.160839487091303912e-01 -5.629015722469825622e-01 -1.635347158888433017e-01 -5.038509069486253322e-01 -8.319528649441824131e-01 -3.090250725250035524e-01 -6.666964944981221830e-01 7.560798866828192244e-01 9.014430101348506197e-01
5.183710725557605370e-01 -9.630491811751200615e-01 2.648900551185460195e-01 4.930546851833004784e-01 -6.226778546672652112e-03 -5.508272791203429053e-01 -6.078132780318832307e-01 5.201495567131916298e-01 -6.631107647416931705e-01 -8.238592565342395257e-01 3.675619139255517087e-01 9.021150835817275393e-01 -9.952911668192643280e-01
-6.644877671840407896e-01 -9.599822611118825622e-01 -7.261964504642381968e-02 4.509351142971640414e-01 -1.586264370527063761e-01 -2.894989254546411622e-02 -9.734277822778555356e-01 -2.475092399661679363e-02 8.843150771693432111e-01 7.019692051343244810e-01 4.609110810931133506e-01 -7.814303070335869572e-01 7.887800904165003235e-01
-7.505820354042562759e-01 4.825573202767756698e-01 -4.723734258496629090e-01 6.993671400656172044e-02 -9.692228082257332566e-01 8.376463124736376331e-01 8.034269896437877811e-01 -9.327655452620878807e-01 9.144425683093242441e-01 -7.252770165689584880e-01 -4.307976322655270862e-01 2.147189144964727625e-01 8.898984354773340488e-01
7.159616026272574985e-01 -5.260473390784539127e-01 6.481040431607366648e-01 9.303686169377209936e-01 9.445116438727173547e-01 -9.321125407381244954e-02 2.172091948165980613e-01 5.508946587156955399e-01 2.829585701157036892e-01 4.439318601681210286e-01 -9.306404470133121665e-01 -4.047043660853931746e-01 -8.835902738876217910e-01
2.616158499541025306e-01 5.453903244888007595e-01 7.401019227173425419e-01 -9.848458826101569308e-01 -3.813828049677868148e-01 9.149991272974510315e-01 2.530961623842362465e-02 -3.636184932630663336e-01 7.800418040970180655e-02 -5.576574381277801251e-01 6.121512231372645552e-01 -3.162628841448870687e-01 7.691193381593131040e-02
6.164926071311889189e-01 -6.460753412402551188e-01 -8.929980699993158577e-01 -2.807902989058063126e-01 -4.516562879826469534e-01 5.958940763520093747e-02 -3.914587365078651127e-01 -3.913985645518175960e-01 -7.772757726645640464e-01 -5.005018976661622654e-01 8.327750049074943428e-01 -4.758670861340513758e-01 4.330110991208668825e-01
-6.761535117098587122e-01 4.727300361338092338e-02 1.019273263033629029e-01 -9.078497789223587411e-01 -2.778777446831983133e-01 -5.537414962282740660e-01 3.783205252086609960e-01 -6.724201918209893325e-01 -8.591366878226387449e-01 8.821559702020967952e-01 1.280043801405577886e-01 -8.428704372205594320e-01 4.460320172857212273e-01
-5.975585058459956800e-01 6.214885225577628652e-02 -6.162287914474156025e-01 -8.632239425722293413e-01 5.750002955273678662e-01 3.129057118804746129e-01 2.760562188579679388e-01 1.513409599578421361e-01 -9.215003268417292226e-01 -2.842025361946266537e-01 8.922574354700393284e-01 -8.788664765974705251e-01 7.289372066874886258e-01
1.654401179359180629e-01 9.069101509973970590e-03 7.566790006952800463e-01 -6.381571952166430473e-01 7.035813337071383788e-01 5.000669784280086239e-01 3.308430504236566372e-01 9.756143174547706742e-01 -4.864453276735061782e-01 -9.436624128592215888e-01 2.704802462525486839e-01 6.926326797043098615e-01 4.714230092066637456e-01
-9.713975676279374971e-01 5.184273548924364095e-01 -5.085067443706139390e-01 -7.278087035046371112e-01 -3.401530428337186107e-01 -8.344943011328704863e-01 3.403011753360556946e-01 6.118976096831812983e-01 9.637004113016379714e-01 2.704223038517972189e-01 -5.710277964592814781e-01 9.350404311866260254e-02 8.795854664394874012e-02
3.063656667069480921e-01 7.988895904577616447e-01 7.849904461044132642e-01 6.351370892542936852e-01 -9.254655817384302985e-01 3.839230662618333678e-01 -2.394380969450015106e-01 3.777899560579955213e-02 3.170679385713298659e-01 -6.115761679029596554e-01 -4.526963067185679757e-01 4.412252897023620224e-01 5.684653359689363361e-01
-8.148339009159021318e-01 -4.226084637225362428e-01 4.417085146843727772e-01 -9.575952834702703420e-01 -5.885038902917976156e-01 -8.984807750611477628e-01 -3.959743786560945833e-01 3.277289295298878025e-01 -3.838901616976558295e-01 1.671196940923584118e-01 -8.612092693946796773e-01 7.337988559811936540e-01 -7.339101284400390002e-01
-5.412009092459723059e-01 -4.116621251572046697e-02 -1.614250556018764771e-01 7.138356610002362101e-01 -6.609384865201619608e-01 -3.228330093929700495e-01 -4.629150363855275008e-01 3.811477494204861260e-01 -5.606868488036256259e-01 6.230286679488908907e-01 -9.819290639759752359e-01 1.176961238856287922e-01 6.239533582267695611e-01
1.463749157272426493e-01 8.923636507626658831e-01 5.299641741565797037e-01 -4.367698689327367823e-01 -5.590507476268793408e-01 3.721492705816320523e-01 -6.671086628608600133e-01 -2.154355924499109509e-01 2.354892692323444503e-01 -1.764093712511258516e-01 -9.962135939403656826e-01 7.664483081689326127e-01 7.686960193968784827e-01
8.233577070100792650e-01 3.945990278031744625e-01 9.975284827550381372e-01 -5.642904725302738678e-01 -2.809578370015233251e-01 4.791330746703877930e-01 9.892580846459685384e-01 -3.684245084784397717e-01 -7.285782101610935868e-01 -2.328986807469609066e-01 -3.620112754245951581e-01 -2.720194780895118236e-01 4.164934997062904043e-01
7.635984639116777384e-01 1.622358814229603041e-01 -4.437249686965066275e-01 -6.304955117418008514e-01 -1.796132223025567742e-01 -7.654832755878921979e-01 3.678556270217826496e-01 -1.253019001041057456e-01 1.117002610632105708e-01 -2.661520523395439763e-01 -1.970636762213708315e-01 -7.762913871977300539e-01 -1.076278854403769636e-01
-4.396973391329945247e-01 4.226798938410208928e-02 5.385781953201711492e-01 5.819265031152200951e-01 7.437709454833422162e-01 -6.234383033558854592e-01 -4.578461533025920960e-01 -7.013548049082848554e-03 4.795645776025929119e-01 -6.095117148979418698e-01 -6.381135798677748383e-01 8.129583736032919283e-02 -4.317384897506504338e-01
-1.764253254041671659e-01 6.296736857573537183e-01 4.709555357263968678e-01 7.365126045277199385e-01 -2.329569042215905994e-01 9.589239887446406874e-01 7.867325928636910159e-01 -5.804957164861698216e-01 4.837399632861603127e-01 3.263217649563455169e-01 7.738494376490745452e-01 7.169183160285854672e-01 4.987827675822954498e-01
5.122372036307853982e-01 1.180521464571097912e-01 -7.527784556884486999e-01 -2.092423207979381694e-01 5.591004197725139013e-01 2.114394595540980415e-02 -6.386991471346282756e-01 7.063323095311787592e-01 9.092083269522752698e-01 9.678701617195663021e-01 -6.180604472801777272e-01 9.369989155651535784e-01 -5.337193995354088116e-01
7.253138868723353339e-01 -4.367912833300519049e-01 -8.579403454902346793e-01 5.198711948752643419e-01 -1.000416670547659981e-01 8.332484725296344930e-02 4.471322205284068985e-01 6.962769699016507774e-01 5.335978095253854914e-01 4.650284567308498040e-01 -5.212383295934868155e-01 4.335668134785762295e-01 -8.886266761596151031e-01
