-4.851586035592994062e-01 1.253273640089031249e-01 -6.244661948743231855e-02 -1.837790330702544495e-01 -4.590330374106831868e-01 -1.262408245529817452e-01 -3.366207586235415161e-01 3.824270038764657209e-01 7.532431118249957036e-01 -6.279819804136228534e-01 4.239948621705892928e-01 -3.112820312629861474e-01 -6.552547540906419887e-02 6.571550195322861665e-01 -1.227905722630026730e+00 -1.120825747432455000e+00 -1.349779445887917761e+00 4.518220885159296984e-01 3.235019808747216508e-01 4.056621812892730050e-01 7.768498768892578843e-01 2.821657270733498035e-01 -2.456632779279334933e-01 3.521047264364054463e-01 -1.059459153492342320e+00 -1.367734525900567433e-01 -1.108714113901312359e+00 6.533334582269666457e-01 -2.249882230921416704e-01 -5.276208573004949054e-01 -8.640519455177927410e-01
-2.965253084516332183e-01 3.717805070888872687e-01 -1.059205716626545390e+00 -4.559316927099189565e-01 -7.748634941405091459e-01 -9.093637392003002251e-01 -6.754178898519997976e-01 -3.981971426956705251e-01 -2.462119757138892528e-01 -1.121422566085534915e-02 -1.970908591693777967e-01 2.881783137980210574e-01 -6.360150878925807660e-01 7.123294238183220939e-01 -1.028271135561638294e+00 2.747081600075727548e-01 -2.519270947745248512e-01 7.004448378832899003e-02 -7.711335847942166755e-01 -6.792447338319228534e-01 5.612127615916503443e-01 8.650888213361750401e-01 -4.104825305065101237e-01 3.380030083490759840e-01 6.861908775981991893e-01 6.957238869007056348e-01 -9.177598521016051558e-01 -9.748846787918887813e-01 -7.214798452799159323e-01 6.762707653474068215e-01 -8.912524902529919135e-01
-1.462902780769770039e-01 -9.577561949972891453e-01 9.097142413180346610e-02 -1.378724704716448313e-01 -1.689050067942425848e-01 -3.524310733284869435e-01 -5.974272728242723263e-01 2.260867325108208981e-01 -4.061838854313871150e-01 -4.788183003834189932e-01 2.373118985710731266e-01 4.675672438011732601e-02 -7.371186040065196288e-01 2.104620772958588557e-02 -6.427953078219473815e-01 5.612993045737958431e-01 6.958397394963005134e-01 -1.812040502229683714e-02 6.859141419699797959e-01 -8.512024537925043655e-01 4.920541362717352311e-03 -8.794831122737585272e-01 -1.490214041541714773e-01 -8.134802332180753881e-01 -7.550529966790758829e-01 1.804480583046871034e-01 -5.603060165568009010e-01 -7.935016528775223899e-01 -5.679237922586831688e-01 -3.115641628938289331e-01 -7.673962917602882017e-02
1.826626186621304326e-01 4.578799929917857225e-01 -3.803001689206375047e-01 6.063067389302358168e-02 8.297314922982248486e-01 8.495676992659462190e-01 -7.198915329910358096e-01 -5.301956331875737893e-01 -8.749754867413528370e-01 -6.317627692681254681e-02 -9.182821860663399338e-01 -3.502143365891501048e-02 3.266423015682336506e-01 -4.168407363451052672e-01 4.049497653498765892e-01 2.246375245050776515e-01 -8.974458046526189170e-01 1.471328950239659261e-01 -4.500296187151388017e-01 -1.247891050373143434e-01 -4.087688217392508316e-01 4.307781148928401804e-01 -9.479598611170868272e-02 -6.568805260717366368e-01 1.311804702447150750e-01 6.178922808067277561e-01 -3.313726985073472409e-01 -5.238109418067876666e-01 -1.878210242514199158e-01 9.226125825057306384e-01 1.006646709385408789e+00
1.138616057539950654e+00 2.020148872482844249e-01 1.038745311543192829e+00 5.249423884149536645e-01 5.030035203049153525e-01 -4.209330721260480246e-01 1.027465480718050994e+00 -8.477329016582081378e-01 -4.324961542222964805e-01 8.866625051601469132e-03 6.143142895955330252e-01 -4.756246671234561907e-01 7.964182999655936568e-01 1.035188740284539888e+00 -5.418948570500790041e-01 2.990251222404919362e-01 -8.463044412713525144e-01 -1.527821616621362344e-01 -8.306637459596563078e-01 1.030997394304467463e+00 -6.492565238341294065e-02 1.010009232029195347e+00 6.314440695146735782e-01 8.057628653370920713e-01 -5.491467301236897525e-01 -7.038957611803919878e-01 3.394393704983516002e-01 -5.812011614385313996e-01 5.621319612897494045e-01 -5.771613854301552160e-02 1.935690087154780803e-01
-6.215647927465781653e-01 7.083654395441206786e-01 -6.182198139434972317e-01 8.048686959171504895e-01 -5.790165017438934913e-02 1.769764018534687455e-01 5.092027674041116336e-01 -1.028043310806239785e-02 -4.247527469019991564e-01 -6.675897474966228096e-01 -8.573703000170829203e-01 4.342904858550226677e-01 -1.407384692719348962e-01 -7.045949817523899927e-01 7.192978100183473611e-01 -4.836870695358032046e-01 -2.180250045612857623e-01 -4.335022933043816140e-01 2.301382363432461775e-01 1.229865312582847647e-01 1.786302398014647796e-01 -5.017766654308168928e-01 -4.504827097511786560e-01 -5.167873308976969060e-01 -3.770467674971168526e-01 -7.585304411803580615e-01 -7.150932342836230360e-01 9.014989155048709346e-01 8.925758144857228737e-01 -6.630922784128515657e-01 -9.960993382871784485e-01
9.482493663132068873e-01 -2.510680447040246066e-01 7.172592097776835374e-01 -8.402032993464927380e-01 -6.991289085263250325e-01 3.065724825294767197e-01 1.186289966281460773e-01 -5.053335880681895931e-02 -2.808512563419389707e-01 3.551672954192256482e-01 -7.925385495878467523e-02 5.747143301158716966e-01 9.233057446198821017e-02 2.117415531381209581e-01 3.939630568230176877e-01 1.062921849211197811e+00 7.486183965371924209e-01 -1.140726168761581200e-01 8.174145236451360041e-01 7.406226924099253983e-01 -8.408334863753536004e-01 5.254608397082892735e-01 6.514605968031804695e-01 5.311067172148676852e-01 5.008634386222454715e-01 1.980092040015896393e-01 -6.399583240357102909e-01 9.810644937151721257e-01 -1.187062095204694662e-01 -4.665740866489171412e-01 5.441679081014503261e-01
-5.212668137961824488e-01 7.317897817215035516e-01 2.541834632693572640e-02 5.984377056786188698e-01 1.126429710012950780e+00 3.120153985548235198e-01 1.216998586081839279e-01 -6.322550702631465347e-01 -3.637400270498799548e-01 2.213221901154724947e-01 4.472795011109478303e-01 8.132124169891516985e-01 -1.258110128869892319e-01 -7.585573347215587292e-01 -2.166648390571076499e-01 9.839457404421365627e-01 -3.566616248597651584e-01 2.283955492450957109e-02 9.924562932229751278e-01 -7.615875755799463853e-01 3.021339049621382666e-01 1.078084367451945136e+00 -4.461133146845474018e-01 2.134691248060482383e-01 9.841180820626034276e-01 -5.000196590840783051e-01 2.663696914610825806e-01 6.332515301071725000e-01 4.904910720047808148e-01 1.353008003758605360e-01 -3.705341771897729952e-01
9.160431017422390187e-01 1.028251508933852199e+00 8.132729438777752673e-01 1.375890799952105004e-01 -4.474656761597690657e-01 -8.533234772007718405e-01 -7.505433357137611394e-02 -8.075219906262513792e-02 1.004928009197855188e-01 7.279973659471457303e-02 1.562426535922217530e-01 1.922918771832980156e-01 5.789027628201490749e-01 4.834348673938895224e-01 3.466424973443336666e-01 -6.312877490705749717e-02 -3.124348594604765550e-01 1.007870245372913587e+00 -2.652574960183706199e-01 -4.620452825668825980e-01 -8.159061099373374759e-01 1.059590646853378670e+00 -6.978282400778591521e-01 -2.958687450441931377e-01 -7.716637528727193773e-01 -4.282976776215143833e-01 -1.016439180059909575e-01 8.616931065760726760e-01 -2.263139413632337671e-01 1.072951706223663093e+00 -8.290332670746453081e-01
-9.495053205120937978e-01 1.645480146272857921e-02 8.422582764751902068e-03 -7.144090479004063798e-01 -6.991452809571276905e-01 -5.434036452762520675e-01 -1.555786263962419258e-01 -4.796687479267363607e-01 -8.273147758265260165e-01 -2.913999956727698071e-01 -6.568786823035744904e-01 7.781615440757255753e-01 9.140620758706864413e-01 -9.150154392829284999e-01 4.160025224094454632e-01 1.595121380670382061e-01 8.213039587045189993e-01 3.478643484441985012e-01 1.095204120680072640e-01 4.191859320642840059e-01 -2.165493019747340153e-01 4.009851123485890234e-01 6.607967229814877275e-01 -5.718971702556584907e-02 8.942138593791625345e-01 6.282087959514280895e-01 9.912145776086721538e-01 -6.492804928862837555e-01 5.016463736244424626e-02 9.088857597930870558e-01 3.198543006203497518e-01
5.087463005924691695e-01 -9.819228560893298319e-01 2.573102871308239337e-01 4.888832607285066856e-01 -1.613286759887554503e-02 -5.800845600609718655e-01 -6.212064119672144891e-01 5.008075343946353231e-01 -6.819658866441438150e-01 -8.487093394328444340e-01 3.627386784223977645e-01 8.880474816639926106e-01 -1.001042768862433041e+00 8.266473113358987004e-03 6.047257918006342381e-01 2.111937597676551426e-01 4.282768919797007023e-01 -4.254378397557204705e-01 8.222682691754559237e-01 4.025828390219934327e-01 7.355606910529031983e-02 -7.376193531559102068e-01 -2.579586229843719436e-01 3.377637511529246184e-01 -1.340639273721475622e-01 -1.587490393635356267e-01 2.201758006311914095e-01 1.039042833158930479e-02 2.754238473714529234e-01 1.814995366439726143e-01 5.885147670514739859e-01
-7.246219731834527833e-01 -1.005277776511999566e+00 -1.130536586898310547e-01 4.095000789515849671e-01 -2.046848790158165010e-01 -8.991068459452992989e-02 -1.005201616748747417e+00 -8.397640301927934703e-02 8.587243113311210374e-01 6.439802974610306929e-01 4.365455234941841289e-01 -8.366553985461372411e-01 7.582615020129434003e-01 6.862383778417101565e-01 -7.239629938454451574e-01 2.213431875083211042e-01 -1.016449332478471801e+00 -7.978521196488003175e-01 -4.012660697352816164e-01 -7.326131601998022713e-01 4.917052889463861542e-01 5.904966634578259210e-01 -3.356839245372167935e-01 -3.930580983676252860e-01 -8.199343644631831296e-01 -8.928079103140809103e-01 3.672328623820442228e-01 1.647111135276640714e-01 -9.274061751756415006e-01 -9.255453760482003356e-02 -2.541454929059194789e-01
-9.095128965618813899e-01 3.658148865924974458e-01 -5.731924076808879720e-01 -3.440998776697708900e-02 -1.085380776057107255e+00 6.811815484254460928e-01 7.219661431178325817e-01 -1.082569917029376549e+00 8.486347314157289823e-01 -8.735581618713484930e-01 -4.917217784362148958e-01 7.452309635571320590e-02 8.132439387977042911e-01 6.327708235215682153e-01 -1.134067714909045899e+00 -6.831715331484571052e-02 -4.114586574426400134e-02 -1.085903370844144150e-01 4.496228224602292212e-01 -8.036791051463618718e-01 4.620030030501864893e-01 -1.077166736905645461e+00 -7.924299491045704302e-01 -8.454813885391545547e-01 -4.912253523678097866e-01 1.872013695536091926e-01 -2.049307194041418145e-01 5.441323108946820586e-01 -5.217937401502699135e-01 3.327846604771162453e-01 2.584262458731342305e-01
7.747646923498315852e-01 -4.126526297940404930e-01 7.522204013837227032e-01 1.037498209459981169e+00 1.062656943213968308e+00 6.187507275105830901e-02 2.961704535948330719e-01 7.034149085247847211e-01 3.446084127024459653e-01 5.916132442865615904e-01 -8.690839843113831176e-01 -2.627269162506253308e-01 -8.061582108424221182e-01 7.853360378066495118e-01 -1.148506710678986742e-01 4.716196374517833134e-01 -3.373166228615759876e-01 -2.232038069567634786e-01 -8.936108086106655524e-01 -1.606535184282846529e-01 9.658773723679527912e-01 -4.466986122468130094e-01 -2.955206955867626384e-01 9.153220972825577562e-01 -8.248988106720991365e-01 -7.142131508353291025e-01 4.117891580472088364e-01 8.356148677996702023e-01 -8.854361586838424003e-01 6.277862401478208065e-01 7.744388997280128306e-01
-1.422925158813129198e-01 4.561314351574471959e-01 6.639113913840566372e-01 -1.062157737315850836e+00 -4.699081497863083490e-01 7.927970340468918353e-01 -3.721049333425813926e-02 -4.784910752402665168e-01 2.623634752673122475e-02 -6.742478539222070966e-01 5.671204075933055089e-01 -4.223075766900282746e-01 1.982197043656573621e-02 -1.045683855487605118e+00 2.372837755803022530e-01 -6.672729681814297820e-01 7.539151371021927117e-01 -3.119445675495047809e-01 4.384157936617438800e-01 4.277480075290612249e-01 6.892441606176364921e-01 -8.744270969204213095e-01 -4.482923322412031286e-01 -1.109846782159174261e-01 2.580816118888525357e-01 -6.063307593129938500e-01 2.887806097683170425e-01 2.449473779593620837e-01 -7.170270857913862983e-01 -4.606309676560747524e-01 6.604707487820435929e-01
9.802976570505151921e-01 -4.967250760238965390e-01 -7.590060710966505253e-01 -1.412321047817032549e-01 -2.978426959649491113e-01 2.598746242416338226e-01 -2.872364596549267235e-01 -1.964285172421587067e-01 -6.971530087853112789e-01 -3.089122865228128290e-01 9.126294422677991847e-01 -2.919960060501402555e-01 5.344397877161395360e-01 8.232113886775308531e-01 7.950375715459818693e-01 -4.327117210960075289e-01 -4.737811850794037549e-01 -8.024211569178689718e-01 -8.091056780724797948e-01 -4.411935049327028735e-01 1.083098344538166335e+00 -1.013551853950645509e-01 6.051190350941384466e-01 4.908043415760700301e-02 1.636995688701383955e-01 1.090510183173163172e+00 -5.860106248131073947e-01 4.343397911886943963e-02 -5.905617041556104896e-01 2.500959230210687001e-01 -2.110458541450707937e-01
-6.077296962430192018e-01 1.819660200246375759e-02 7.607616857897858686e-02 -9.347217513015243506e-01 -3.070348111128196611e-01 -5.927688432685465081e-01 3.581503860500756531e-01 -7.105882627715157662e-01 -8.753170207242279011e-01 8.456828949411399066e-01 1.122503882084909255e-01 -8.787288199125300459e-01 4.262654717593361564e-01 -7.010019729500616137e-01 -5.335440639723886269e-01 -4.400536165946543066e-01 3.560571154210067646e-01 -9.192644452690017232e-02 -5.920863436300918270e-01 -1.373627869238341070e-01 -7.753910351078886487e-01 8.066502081280150227e-01 1.169858139930648744e-01 -7.548070037269202781e-02 -3.979966646339941905e-01 -9.524924737697821886e-01 4.675329547308976763e-01 6.455265200781050428e-02 5.100267701482856797e-01 5.478102903845587512e-01 -8.922561922192884243e-01
-3.992794405959156356e-01 6.574466873873720252e-02 -6.100979908537000895e-01 -8.568866853526185823e-01 5.806267889215835920e-01 3.196509528619938534e-01 2.777021596564639427e-01 1.603698809421429117e-01 -9.207357251154771882e-01 -2.776083139310471237e-01 8.949786720345034308e-01 -8.714804173971310020e-01 7.327811298801548689e-01 7.568888696688879092e-01 -8.905600125298290815e-01 3.105511655122231707e-01 1.134623506589691466e-01 2.004028252038322633e-01 -2.783048187584250682e-02 -4.290387580404606549e-01 -4.007441592988804646e-01 1.276454099847711687e-01 -2.033113434793022423e-01 5.818457408033025358e-01 -1.579698327831112470e-01 -7.046218687721274021e-01 -6.884077727342922115e-01 -8.852005435808465439e-01 4.386804707332937481e-01 -4.083944310369898023e-01 -5.943882608269959178e-01
2.455113575034402196e-01 -2.226121346484589980e-02 7.359104221290742043e-01 -6.570369884854420084e-01 6.796972775417372548e-01 4.559643040674035142e-01 3.088953460866014633e-01 9.388832242944555873e-01 -5.108013660855053040e-01 -9.817668693212793229e-01 2.568982059820192898e-01 6.613010249865760581e-01 4.550304365651769989e-01 -9.803686147793515548e-01 -8.101174521686398400e-01 -4.283153645761107464e-01 3.414101701752625395e-01 7.042937950438398209e-01 -6.260717839823026765e-01 2.767939137454729637e-01 3.804316451383197295e-01 -3.263195850282392674e-01 5.680477744651706296e-01 6.097091529314162539e-01 -6.323449392939846092e-01 8.569879075836458471e-01 -7.899549778195195937e-02 3.089356133845262420e-01 -6.095748425269496007e-01 5.818076625970106663e-01 -3.972473717426004969e-01
-6.644028216861853631e-01 5.961683790258549553e-01 -4.414378115961478111e-01 -6.577109342215495813e-01 -2.642827501593891237e-01 -7.323968283238966315e-01 3.945466702629277789e-01 7.113793384182188761e-01 1.008436919380009567e+00 3.655463606292025380e-01 -5.291376509927875338e-01 1.875891359790413659e-01 1.399338473850702813e-01 -4.848882389832541717e-01 -6.845588812389513667e-01 6.831234415775372382e-02 -6.006723574609786898e-01 1.179084463677773503e-01 -1.683935562891322457e-01 4.582131008613151146e-01 -2.093216873677489487e-01 9.668986473393088588e-01 5.951337457344532123e-01 2.663019079760050034e-01 3.005437320533398959e-01 3.870935346389614007e-01 -3.675534517410775637e-01 5.576536371923265234e-01 -3.618795141261209047e-01 5.044853518478973342e-01 -7.754831681475899963e-01
