-9.376925493316835558e-01 -3.442033479653133776e-01 1.287710989595694799e-01 6.387005100420672932e-02 -6.713667336029995880e-01 -2.870595222882806885e-01 -2.391027953706988396e-01 -1.749601000675296836e-01 5.720000670675599030e-01 -6.479711026911330052e-01 -1.576989794535326728e-01 -7.611368091084903531e-01 9.621707342491206405e-02 6.599122762886480142e-01 -1.517074944933561431e+00 -1.480426036663610612e+00 -1.033408813874836740e+00 6.052450479534302596e-01 5.046602862176002846e-01 -1.552950658426483777e-01 7.788138624289786538e-01
-3.823803025723635507e-01 2.828346739928641052e-01 -1.015562822191476311e+00 -4.007766701330163217e-01 -8.157137468521592494e-01 -9.380629725330471569e-01 -6.507201887665513551e-01 -5.095605120420774181e-01 -2.839207312770887781e-01 -1.113815836234979470e-02 -3.181474850372109642e-01 1.986361809779012000e-01 -5.993400684649080601e-01 7.173444937244558561e-01 -1.084722683287729250e+00 2.060694640449030612e-01 -1.833124942433803084e-01 1.049648246430007065e-01 -7.300499455580233832e-01 -7.913398692829681780e-01 5.633338092499430294e-01
-4.089774987650288685e-01 -1.087665164903612869e+00 8.305769776476054633e-02 -1.359047511294964594e-01 -3.174423937296979026e-01 -5.291596058580667616e-01 -6.165046213349670845e-01 -2.705409692912538050e-02 -5.528114188181640909e-01 -6.136130895229510163e-01 3.316938704383251557e-02 -1.553368575246253935e-01 -7.397690804385506080e-01 -9.488742316785458639e-03 -8.379442728046753164e-01 4.288572500719164404e-01 6.486235383094923757e-01 -2.607643167215478036e-02 6.781553469439294268e-01 -1.069730018907662839e+00 -6.621475353519004625e-02
-7.567590100768911698e-01 -2.282206080239094215e-01 -4.819609426350489056e-01 1.712143032717212846e-04 3.565486703085835596e-01 3.137200038594662455e-01 -8.436814994325274597e-01 -1.380004920884412734e+00 -1.189811012243208621e+00 -4.611780022375420174e-01 -1.554690171815970023e+00 -7.660228183347230768e-01 2.651753431076183110e-01 -6.020624405274533908e-01 -1.931476618798690648e-01 -3.621876555894973926e-01 -1.012026906034946272e+00 6.792665076236342747e-02 -5.242056702038636606e-01 -9.129567948745915817e-01 -5.799902988876328713e-01
-5.050834635074158419e-01 -9.856241167247945523e-01 8.384566306262184465e-01 3.936267776160675691e-01 -3.244912916042884121e-01 -1.371013362017149184e+00 7.935511874382741304e-01 -2.319651082563748634e+00 -9.852804862680720754e-01 -7.053920187215834137e-01 -4.712550820823881437e-01 -1.743930963558911529e+00 6.704857221810491819e-01 7.002461826555748114e-01 -1.587378101623740934e+00 -7.169199289321934732e-01 -1.082936861227714598e+00 -3.103199028996123099e-01 -9.833576804280083072e-01 -3.324012101691399268e-01 -3.745988681153922806e-01
-1.661706110028353223e+00 -8.846590759307594587e-02 -6.687069589691670979e-01 8.095558372630983213e-01 -5.762904060042236543e-01 -3.935457584619711513e-01 4.096503685834907427e-01 -9.866159249054023972e-01 -7.837372445760983908e-01 -1.066249457048127347e+00 -1.629896655123924010e+00 -3.984734384739884172e-01 -1.600262013655669724e-01 -8.881973051681452125e-01 5.688118510968415836e-02 -1.152266389769391441e+00 -2.490020770441565279e-01 -4.719631898740885290e-01 2.025062076750455686e-01 -7.974268932875464566e-01 1.024446258392077043e-02
-3.102206053313920076e-01 -1.158152660547996815e+00 5.611114358409785563e-01 -9.440313239039331838e-01 -1.332933643358299003e+00 -4.217028334065877626e-01 -6.139856744793002058e-02 -1.176848516356229668e+00 -7.036024816732187048e-01 -1.929608273675116337e-01 -9.082532315795424083e-01 -3.960623968937373451e-01 -6.176149725808161538e-03 -4.516274889175077994e-02 -4.063592185813590940e-01 2.863806757750603782e-01 5.627272324022110084e-01 -2.371402921994557877e-01 6.979874304329816148e-01 -3.013010196894343462e-01 -1.079040694616288931e+00
-1.490672637820465329e+00 7.695860976762675110e-02 -1.709594685388626245e-01 4.308250172300455150e-01 6.341983242488354877e-01 -2.819725950579212714e-01 -6.874360875308402341e-02 -1.451330396436514070e+00 -6.826027696834340297e-01 -2.571903912044650187e-01 -1.021743707617163016e-01 9.792514325076853710e-02 -2.629319189619251929e-01 -9.872832847976233950e-01 -8.328422312528834803e-01 4.115738042089435167e-01 -6.183137184057166946e-01 -1.330566374580788025e-01 8.303912863782209053e-01 -1.507298099712339967e+00 9.102267366108499069e-02
-6.014139152499703433e-01 -7.481659021733348680e-02 6.382287743255339318e-01 2.797934008091831556e-02 -1.209027216765788948e+00 -1.729674307546291256e+00 -2.880204141806566587e-01 -1.443295826594463760e+00 -4.148709300996470950e-01 -5.818803505305942814e-01 -8.542728419800280637e-01 -9.805986653696656674e-01 4.697947361078580464e-01 1.750242146378714059e-01 -6.179167741222848509e-01 -1.001851799661046316e+00 -5.163787906100963943e-01 8.695177864474498142e-01 -3.996025251601126871e-01 -1.729458842662220164e+00 -1.099678793503170660e+00
-1.174817919330145788e+00 -1.189749492584397522e-01 -2.140694715359948291e-02 -7.370787187052966205e-01 -8.198841449307043838e-01 -6.831862912940181998e-01 -1.828426381957166946e-01 -6.866791341612096256e-01 -9.174973433606923301e-01 -3.985306759636931262e-01 -8.090505801892825533e-01 6.040706742089066994e-01 8.950356580913878535e-01 -9.535083066948497610e-01 2.641991245765020202e-01 3.400222791745103473e-02 7.678761476397590879e-01 3.230362658962530054e-01 8.560821528141197845e-02 2.391142706286740471e-01 -2.693731046810296514e-01
8.357882688961838502e-01 -7.022928964361428994e-01 2.887163710356310253e-01 5.064105966024240457e-01 1.280699558799060778e-01 -4.077101437474751067e-01 -5.749472710465806102e-01 7.891869104314034322e-01 -5.918003977454953102e-01 -7.266182401462887297e-01 5.942910980598214987e-01 1.168226084257703468e+00 -9.797179713660733036e-01 8.437110257297128491e-02 8.039470872503627907e-01 4.368972171229754675e-01 4.375671252138745859e-01 -3.996152199558231088e-01 8.474756408480144110e-01 7.134183441695979289e-01 9.958369580111064989e-02
-1.054543744508484204e+00 -1.055105430729611493e+00 -9.010452067923727104e-02 4.408420375895355514e-01 -4.136254497268160302e-01 -3.603364945618796611e-01 -1.002793472945823439e+00 -4.262756255797000571e-01 5.692320772193455447e-01 4.222151686045652053e-01 1.337904648972724486e-01 -1.068712990758857506e+00 7.775031959983565999e-01 6.843435803741449996e-01 -1.018227791855709885e+00 1.075513762199807738e-01 -1.088022965067425796e+00 -7.849003269749420530e-01 -3.903156262459851478e-01 -9.839056888455887107e-01 3.491769611083984093e-01
